float fc_weight_1[256] = {
	-0.5741341710090637, 	-0.5631547570228577, 	0.2500579953193665, 	0.9613770246505737, 	0.5840610265731812, 	-0.3234771490097046, 	0.3835618197917938, 	-0.0139738842844963, 	1.0607776641845703, 	0.9261147975921631, 	-0.3739227354526520, 	0.7084923982620239, 	-0.2134326100349426, 	-0.6416594386100769, 	-0.6530871391296387, 	0.6747436523437500, 	0.4341017603874207, 	0.2685105502605438, 	-0.2218376547098160, 	0.0587147735059261, 	-0.7599347829818726, 	-0.4984622895717621, 	0.0853767618536949, 	-0.4221294522285461, 	-0.6121932864189148, 	-0.6113857626914978, 	-0.8267809748649597, 	0.1899227499961853, 	0.5905173420906067, 	-0.6636253595352173, 	0.1418956965208054, 	-0.1209036409854889, 
	0.0006451750523411, 	0.3746871352195740, 	-0.0263521391898394, 	-0.6645242571830750, 	0.4789538085460663, 	-0.0513045787811279, 	-0.1888801902532578, 	-0.0049744783900678, 	-0.3289437592029572, 	0.2103977948427200, 	0.0597843118011951, 	-1.1452018022537231, 	-0.0407150089740753, 	0.4154920876026154, 	-0.2811640202999115, 	-0.4663540422916412, 	-0.0903023481369019, 	-0.1007901504635811, 	0.0305624157190323, 	-0.1428832858800888, 	-0.1937313526868820, 	-0.2291502654552460, 	-0.2210155278444290, 	0.2181909084320068, 	0.5823905467987061, 	0.7914361357688904, 	0.3483888804912567, 	-0.0488850995898247, 	0.2786009311676025, 	-0.2992253899574280, 	0.7884951233863831, 	0.3947506546974182, 
	0.0914983898401260, 	0.1145088896155357, 	0.2959408760070801, 	-0.5037015676498413, 	0.4716346859931946, 	0.2706663012504578, 	-0.1392727494239807, 	-0.1068504750728607, 	-0.1323158293962479, 	0.4578905403614044, 	0.6833364963531494, 	-0.7233717441558838, 	0.3304406106472015, 	-0.3423776328563690, 	0.5928931832313538, 	-0.5825376510620117, 	-0.3939547836780548, 	0.3439069986343384, 	0.3045954108238220, 	-0.4982760548591614, 	-0.2611262500286102, 	-0.0931185558438301, 	0.1064976230263710, 	0.5177734494209290, 	-0.4730978310108185, 	-0.5657457709312439, 	0.9077527523040771, 	0.0494144819676876, 	0.2522210776805878, 	-0.1723321229219437, 	0.7696371674537659, 	0.1955796331167221, 
	0.3141275644302368, 	0.0012661948567256, 	0.6482481360435486, 	-0.5887735486030579, 	0.1966527402400970, 	-0.2452857643365860, 	0.5474495887756348, 	0.0611084997653961, 	0.7079555392265320, 	-0.3907379209995270, 	-0.1966829746961594, 	-0.2674676179885864, 	0.2199312746524811, 	-0.3673005700111389, 	0.3267287313938141, 	0.6021485924720764, 	-0.1029357537627220, 	0.4639571309089661, 	0.3112093210220337, 	-0.0190348811447620, 	-0.3293013572692871, 	0.7834814190864563, 	0.1247879117727280, 	0.7472443580627441, 	-0.3387666344642639, 	-0.1505993604660034, 	0.6298543810844421, 	-0.0450760014355183, 	-0.4563157856464386, 	0.0974167808890343, 	0.6762456297874451, 	0.5170710086822510, 
	0.5632522702217102, 	0.0238637607544661, 	0.6099336743354797, 	0.1806250959634781, 	0.1282014846801758, 	0.0919446796178818, 	-0.3216366767883301, 	0.3608421385288239, 	0.1471998542547226, 	0.1858686804771423, 	-0.1997794061899185, 	0.9499374032020569, 	0.0339285992085934, 	0.2554628551006317, 	-0.2091882526874542, 	-0.0733255967497826, 	0.8903425931930542, 	0.9256536960601807, 	-0.4236258268356323, 	0.0037087234668434, 	0.0439400486648083, 	-0.5987678766250610, 	0.5346999168395996, 	-0.2713194787502289, 	0.1577257364988327, 	0.5128201246261597, 	-0.3246976137161255, 	-0.0769413337111473, 	0.4243264794349670, 	0.2572333514690399, 	-0.2057300955057144, 	0.1795938611030579, 
	0.8679422736167908, 	-0.8404498100280762, 	0.1378024965524673, 	-0.9124734401702881, 	0.2300330698490143, 	0.1076415777206421, 	0.1176459789276123, 	0.3785766363143921, 	-1.2926021814346313, 	0.3441131711006165, 	0.5999598503112793, 	0.4805657863616943, 	0.7388463616371155, 	0.8391906619071960, 	-0.5225755572319031, 	-0.5711319446563721, 	0.6301437616348267, 	0.0382403731346130, 	0.4673968553543091, 	0.5800771117210388, 	-1.0470005273818970, 	-1.2635285854339600, 	0.4011687934398651, 	-0.4729540050029755, 	-0.3908866643905640, 	0.7343284487724304, 	0.1987067013978958, 	0.3975093960762024, 	-0.8059557080268860, 	-0.3238451182842255, 	-0.1241432502865791, 	-0.1023341342806816, 
	0.0182077866047621, 	0.2343204617500305, 	-0.2316235601902008, 	0.4969688355922699, 	-0.3034085035324097, 	-0.0785174295306206, 	0.1095161586999893, 	0.4634003639221191, 	-0.7628114223480225, 	-0.9030103683471680, 	-0.2008786350488663, 	0.1289764046669006, 	0.4353001713752747, 	-0.3518259227275848, 	0.2333792299032211, 	0.3685216605663300, 	0.1064600348472595, 	-0.1227643117308617, 	-0.1905639916658401, 	-0.0086684105917811, 	0.5052128434181213, 	-0.8118118643760681, 	0.7139466404914856, 	0.6293736100196838, 	0.3435119986534119, 	0.3499886393547058, 	-0.6807479262351990, 	0.4238203167915344, 	0.7399866580963135, 	-0.0652783587574959, 	-0.8142520189285278, 	-0.2519854009151459, 
	0.9555096030235291, 	-0.5487421154975891, 	-0.1213287785649300, 	0.4695304334163666, 	0.6726089119911194, 	0.2031310349702835, 	-0.1410442888736725, 	0.5580242872238159, 	-0.2998454868793488, 	-0.1930213123559952, 	0.2590794861316681, 	-0.2669977247714996, 	0.6496613621711731, 	-0.0358231663703918, 	-0.5124199986457825, 	0.6452968716621399, 	0.0106468889862299, 	0.1048597991466522, 	0.4607624113559723, 	0.9174250960350037, 	-1.2276257276535034, 	0.3273887038230896, 	0.6356458663940430, 	-0.3500381410121918, 	-0.2557125389575958, 	0.2296092957258224, 	-0.4488569498062134, 	-0.0423150435090065, 	-0.1008454263210297, 	-0.8585724830627441, 	-0.0284609962254763, 	-0.3435388803482056, 
};
float fc_weight_2[256] = {
	-0.1482256948947906, 	-0.0562271252274513, 	-0.4362849891185760, 	0.2612624764442444, 	-0.6363873481750488, 	-0.1107123941183090, 	-0.4832530915737152, 	-0.0357665047049522, 
	-0.3315714001655579, 	0.0645589604973793, 	-0.1246136054396629, 	0.1979804188013077, 	-0.9511988759040833, 	-0.1479702591896057, 	0.5088487863540649, 	-0.0416464135050774, 
	0.0706598386168480, 	-0.2751005589962006, 	0.0535518564283848, 	-0.8742396831512451, 	-0.1373091340065002, 	-0.3873524069786072, 	0.0995393916964531, 	-0.3345274627208710, 
	-0.3348992168903351, 	-0.4023915231227875, 	-0.6991493701934814, 	0.0037341688293964, 	-0.1340412348508835, 	-0.1388941109180450, 	-0.5966370701789856, 	-0.3884887099266052, 
	0.2617796361446381, 	-0.8707042932510376, 	0.0880967602133751, 	0.1120528504252434, 	-0.2269836962223053, 	-0.4470876157283783, 	0.3485847413539886, 	-0.1750557273626328, 
	0.2625225484371185, 	-0.2004291117191315, 	-0.0264600068330765, 	-0.0096862856298685, 	-0.4703672230243683, 	-0.7766827940940857, 	0.5808688998222351, 	-0.3410909175872803, 
	-0.0410345494747162, 	0.1319291889667511, 	0.3636358082294464, 	-0.9137564897537231, 	-0.5963916778564453, 	0.0555695779621601, 	-0.3455157876014709, 	-0.1178108379244804, 
	-0.5525134205818176, 	0.1984595805406570, 	0.5880278348922729, 	0.7905685305595398, 	-0.6387059092521667, 	0.2687521278858185, 	-0.2523431777954102, 	-0.5606051683425903, 
	-0.0050761941820383, 	0.2138415277004242, 	-0.7329744100570679, 	-1.1493382453918457, 	-0.3641361594200134, 	0.3185400068759918, 	-0.8301812410354614, 	-0.0650268048048019, 
	-0.6112253665924072, 	0.1329711824655533, 	0.6734169721603394, 	0.1181326508522034, 	0.2773094475269318, 	-0.8166512250900269, 	-0.0725004225969315, 	-0.3260289132595062, 
	-1.0485361814498901, 	0.1043857410550117, 	-0.7693465352058411, 	0.5118075609207153, 	0.1039080396294594, 	0.1110413670539856, 	0.1058177351951599, 	-0.1012575253844261, 
	-0.9008420705795288, 	0.0503160282969475, 	-0.0038188777398318, 	-0.0906347483396530, 	-0.7022573947906494, 	-0.2000794559717178, 	0.0536840669810772, 	-1.7673552036285400, 
	-0.1110465452075005, 	0.1907292753458023, 	-1.0422022342681885, 	-0.0855917707085609, 	0.2292896360158920, 	-0.5800872445106506, 	-0.5845776200294495, 	-0.4244779050350189, 
	-0.2569033205509186, 	-0.3812691867351532, 	0.3017593026161194, 	-0.0183395836502314, 	-0.5884851813316345, 	-0.2927432656288147, 	-0.1784418225288391, 	-0.6115666031837463, 
	-1.0177370309829712, 	0.0094849932938814, 	0.4468409717082977, 	0.0848036408424377, 	-0.5964624881744385, 	-0.2472347915172577, 	0.1740015000104904, 	-0.3131689429283142, 
	-0.9075282812118530, 	0.0365781486034393, 	-0.5301422476768494, 	-0.0412866771221161, 	-0.6020909547805786, 	-0.3571419417858124, 	-1.7038136720657349, 	-0.6055218577384949, 
	-0.7108576297760010, 	0.2514098882675171, 	0.1426894366741180, 	0.7155385613441467, 	-0.3384657502174377, 	0.0002794023894239, 	0.1230073049664497, 	-0.4269700050354004, 
	-0.2852099239826202, 	0.2437874972820282, 	0.1161436960101128, 	0.0333445817232132, 	-0.5466187596321106, 	-0.8673306107521057, 	-0.2699991166591644, 	-0.2388071864843369, 
	0.2486798465251923, 	0.2754128873348236, 	-0.0916500836610794, 	-0.3956613540649414, 	-0.3036282360553741, 	-0.4954478144645691, 	-0.2790983319282532, 	-0.3337709903717041, 
	-1.3819241523742676, 	-0.1509647518396378, 	-0.5893973112106323, 	0.1767071038484573, 	-0.0438013449311256, 	-0.6760603785514832, 	-0.6828010678291321, 	-0.3229236900806427, 
	-0.8338302969932556, 	0.0730980411171913, 	-1.0607188940048218, 	-0.4891339242458344, 	-0.0469340756535530, 	-0.4852319359779358, 	-0.0217442214488983, 	-1.0022443532943726, 
	-0.2737271487712860, 	-0.4435914456844330, 	0.2207709848880768, 	0.3976996243000031, 	-0.4569597840309143, 	-0.3717420995235443, 	0.2549971640110016, 	0.5012221932411194, 
	-0.4439165294170380, 	-0.7875596880912781, 	-0.0548340901732445, 	0.6242849826812744, 	0.2681489288806915, 	0.1532937735319138, 	-0.7066751718521118, 	-0.1830254793167114, 
	-0.7184343338012695, 	-0.1440722793340683, 	-0.8109831213951111, 	-0.4878090322017670, 	-0.1356684565544128, 	0.1065227165818214, 	0.3052716255187988, 	-0.6101520657539368, 
	0.8090275526046753, 	-0.7900658845901489, 	-0.3753723204135895, 	0.1593494713306427, 	-0.1615898609161377, 	-0.4411959052085876, 	0.0433223061263561, 	-0.2098117917776108, 
	-0.1521435528993607, 	0.1868051588535309, 	0.2060690373182297, 	0.0462952479720116, 	-0.4876566827297211, 	0.4786638915538788, 	-0.3757424354553223, 	0.4301072657108307, 
	0.1517413854598999, 	-1.2257515192031860, 	-0.7331679463386536, 	-0.0895492732524872, 	0.0029179218690842, 	-0.7353918552398682, 	0.2941253185272217, 	-0.1008795946836472, 
	-0.5442082881927490, 	-0.3182610273361206, 	0.2079483419656754, 	0.1674013137817383, 	-0.9090295433998108, 	-1.0931856632232666, 	-0.6696227788925171, 	-0.5489627718925476, 
	-0.3310686349868774, 	-0.1227857172489166, 	-0.5482257008552551, 	-0.0385654605925083, 	-0.4719828367233276, 	-0.0772458836436272, 	-0.2550315260887146, 	-0.2984927594661713, 
	0.7196621298789978, 	-0.6387612223625183, 	0.6770110130310059, 	0.4269319176673889, 	-0.0350154899060726, 	-0.1997770071029663, 	-0.1273904442787170, 	0.2092136740684509, 
	-0.2414073199033737, 	0.3946707248687744, 	0.5535147190093994, 	-0.0461831875145435, 	0.2995121479034424, 	-0.8532584905624390, 	0.6720523238182068, 	0.0641057267785072, 
	0.3527201116085052, 	-0.2243557721376419, 	0.1521662026643753, 	0.7561776638031006, 	-0.8008338809013367, 	-0.7177441120147705, 	0.0675812959671021, 	-0.4060546457767487, 
};
