float conv_weights_1[216] = {
	0.7135361433029175, 	0.4616265892982483, 	0.1894903331995010, 
	-0.0146825807169080, 	0.4660433828830719, 	0.0536589808762074, 
	0.0367027930915356, 	0.4013688564300537, 	0.3374391496181488, 

	0.1434580981731415, 	-0.0863036960363388, 	-0.2504252791404724, 
	-0.1637258827686310, 	0.2338637262582779, 	-0.1277908235788345, 
	-0.1770092397928238, 	-0.3581993579864502, 	-0.2436545044183731, 

	0.2453939616680145, 	-0.2981363236904144, 	0.2026631385087967, 
	0.0025152817834169, 	0.2294671982526779, 	0.3334527313709259, 
	-0.0320988930761814, 	0.2921835482120514, 	-0.0184851381927729, 


	0.7663883566856384, 	0.2885385751724243, 	-0.4374098181724548, 
	0.2210459858179092, 	-0.0995332077145576, 	-0.5521109104156494, 
	0.1366345435380936, 	-0.1930663287639618, 	-0.3474248349666595, 

	-0.3159946501255035, 	0.2078763693571091, 	0.3151276707649231, 
	-0.1899938285350800, 	0.2714591026306152, 	0.4892605543136597, 
	-0.4516728222370148, 	0.0388412028551102, 	0.1789619922637939, 

	-0.4832812547683716, 	-0.5133960843086243, 	0.0742732062935829, 
	0.0020145645830780, 	-0.1032563969492912, 	-0.0119995018467307, 
	0.4121095240116119, 	0.0576471984386444, 	0.2168218344449997, 


	0.1080482080578804, 	-0.2016879320144653, 	-0.2844600379467010, 
	0.0820704475045204, 	0.5993869900703430, 	0.5669354200363159, 
	-0.3319118320941925, 	-0.4126737415790558, 	-0.1987405717372894, 

	0.0256571751087904, 	-0.0215339418500662, 	-0.1501613557338715, 
	-0.1350750923156738, 	0.5969014167785645, 	0.4382342696189880, 
	0.0469305738806725, 	-0.4509421586990356, 	-0.4445480406284332, 

	0.0275222714990377, 	-0.3135671913623810, 	0.0035437985789031, 
	0.1757199466228485, 	0.3683443069458008, 	0.2005814909934998, 
	0.0433755256235600, 	-0.2969585657119751, 	-0.1309024244546890, 


	-1.0245910882949829, 	-0.2411630302667618, 	-0.3609464764595032, 
	-0.2238779515028000, 	0.2167093306779861, 	-0.0768449231982231, 
	0.5589860081672668, 	0.7005245685577393, 	0.4095472991466522, 

	0.1042856797575951, 	0.3251161277294159, 	0.2172410637140274, 
	-0.1151982396841049, 	0.1127806305885315, 	-0.0300735644996166, 
	-0.3334062397480011, 	-0.0165410935878754, 	-0.2889993488788605, 

	0.0462289303541183, 	0.0045890207402408, 	-0.2555356919765472, 
	-0.1110401749610901, 	0.1868853121995926, 	0.0415084399282932, 
	-0.0705900490283966, 	0.2129577547311783, 	-0.0515415035188198, 


	0.0088302213698626, 	0.2107545286417007, 	-0.4449552595615387, 
	-0.1426562219858170, 	-0.4251784682273865, 	-0.1319935023784637, 
	0.8446826934814453, 	0.4536368250846863, 	-0.1707311123609543, 

	-0.2142252922058105, 	-0.2126738280057907, 	0.2870693504810333, 
	-0.6036714315414429, 	-0.3237692713737488, 	0.1399082541465759, 
	-0.2932943105697632, 	0.1691080927848816, 	0.4147559404373169, 

	0.3824639618396759, 	0.0659257993102074, 	-0.0888723880052567, 
	-0.2236814200878143, 	0.0936521515250206, 	-0.0599622055888176, 
	0.3536043763160706, 	0.3205381333827972, 	0.2008716613054276, 


	-0.1788714528083801, 	-0.5241864323616028, 	-0.6679840683937073, 
	0.3528896868228912, 	0.1690893322229385, 	-0.3858627974987030, 
	0.2334601432085037, 	0.6427986621856689, 	0.2632554173469543, 

	0.2664766311645508, 	-0.0135517027229071, 	0.0418004468083382, 
	0.1382885873317719, 	0.0361369661986828, 	-0.3272684514522552, 
	0.1147430613636971, 	0.1309731453657150, 	-0.2186779528856277, 

	0.1713312715291977, 	-0.0563076920807362, 	-0.2328256815671921, 
	0.2339383959770203, 	-0.0528708510100842, 	-0.4314183890819550, 
	0.2110051512718201, 	0.2774970531463623, 	-0.1092347502708435, 


	0.3055138885974884, 	-0.7705916762351990, 	0.1445537805557251, 
	0.2907710373401642, 	-0.3759045004844666, 	0.1715690046548843, 
	0.1325449347496033, 	0.0135586634278297, 	0.2507128715515137, 

	0.2518084049224854, 	-0.3056962490081787, 	0.5839833021163940, 
	0.0304151475429535, 	-0.0476900711655617, 	-0.0933626592159271, 
	-0.2737283408641815, 	-0.5169742107391357, 	-0.3719868063926697, 

	0.1530778557062149, 	-0.2912763357162476, 	0.2442733943462372, 
	-0.0545207038521767, 	-0.1789946109056473, 	0.4215887486934662, 
	-0.0435321442782879, 	0.1033656671643257, 	-0.0828713029623032, 


	-0.2872749567031860, 	-0.5418118238449097, 	-0.2708910405635834, 
	-0.2580329179763794, 	-0.2582260072231293, 	-0.3364831507205963, 
	0.1375814676284790, 	-0.3026340305805206, 	0.0642256587743759, 

	0.2720862329006195, 	0.2249993830919266, 	0.4562130272388458, 
	0.1449118554592133, 	0.3374732434749603, 	0.6159874200820923, 
	0.0979678109288216, 	0.1567485928535461, 	0.2856279909610748, 

	0.0749570876359940, 	0.2908345758914948, 	-0.1908301264047623, 
	0.0341413579881191, 	0.0915321558713913, 	-0.2960169613361359, 
	-0.2818964123725891, 	0.0930657684803009, 	-0.2326139658689499, 


};
float conv_weights_2[72] = {
	0.2062873542308807, 	0.4892571270465851, 	0.2270826697349548, 
	-0.0410100258886814, 	0.1033474430441856, 	-0.0150914564728737, 
	-0.1802263855934143, 	-0.4166051149368286, 	-0.3649402558803558, 


	0.0904831215739250, 	0.1064851358532906, 	0.2192776799201965, 
	0.2854540050029755, 	0.2643320858478546, 	0.5016506314277649, 
	0.0937636941671371, 	0.4289406836032867, 	0.3470743596553802, 


	0.0706135705113411, 	0.0055785928852856, 	0.0479828566312790, 
	0.2074765264987946, 	0.3680696785449982, 	0.2976611256599426, 
	0.1586937755346298, 	0.4330505728721619, 	0.3028562664985657, 


	0.5466743111610413, 	0.4026955068111420, 	0.4202040135860443, 
	0.0606360286474228, 	0.1417252570390701, 	0.1215098202228546, 
	-0.2490134090185165, 	-0.3492881357669830, 	-0.1905126869678497, 


	-0.2985627651214600, 	0.0548905432224274, 	0.0684546232223511, 
	-0.5410689711570740, 	0.1664807796478271, 	0.4646792709827423, 
	-0.3840872943401337, 	0.1488708257675171, 	0.3440926373004913, 


	0.0758181437849998, 	0.1343355774879456, 	-0.6309484839439392, 
	-0.2502133250236511, 	0.0503528490662575, 	-0.1324053704738617, 
	-0.3904954791069031, 	0.1943717449903488, 	0.2365217208862305, 


	-0.4906225800514221, 	-0.4807540476322174, 	-0.4940967261791229, 
	-0.0805907398462296, 	0.0105580873787403, 	-0.0783186852931976, 
	-0.2683258652687073, 	-0.0552114732563496, 	-0.2020268887281418, 


	0.1891484111547470, 	-0.0518285669386387, 	-0.3784566521644592, 
	-0.1145506873726845, 	-0.3454597592353821, 	-0.1916733980178833, 
	0.3857467174530029, 	-0.3932896554470062, 	-0.1585860103368759, 


};
float conv_weights_3[128] = {
	0.3015322089195251, 

	1.1354354619979858, 

	0.2471288889646530, 

	-0.4092943370342255, 

	-0.0684010013937950, 

	0.0436618365347385, 

	-0.5419022440910339, 

	-0.8262232542037964, 


	-0.0528042055666447, 

	0.0750130042433739, 

	-0.2165313959121704, 

	0.5289483666419983, 

	-1.1199876070022583, 

	0.4634435176849365, 

	-0.0054660988971591, 

	-0.2409362494945526, 


	0.0458560138940811, 

	0.5617058277130127, 

	-0.8873484730720520, 

	0.1961580663919449, 

	-0.1756788045167923, 

	0.3361869752407074, 

	0.1129693463444710, 

	1.1972641944885254, 


	-0.3577257394790649, 

	0.5014344453811646, 

	0.1138692945241928, 

	-0.1500307619571686, 

	-0.1340969800949097, 

	0.3229040801525116, 

	-0.7498620748519897, 

	-0.1471667885780334, 


	-0.2367629706859589, 

	-0.7935860157012939, 

	0.4093721807003021, 

	0.1777829974889755, 

	0.0562342926859856, 

	-0.1145475432276726, 

	-0.5126185417175293, 

	1.1869015693664551, 


	-0.4092169106006622, 

	0.1015655323863029, 

	-0.1754060387611389, 

	-0.5254317522048950, 

	-0.2344284355640411, 

	0.8923035860061646, 

	-0.5531899333000183, 

	-0.2627804875373840, 


	0.8896452784538269, 

	-0.0684550330042839, 

	-0.2808066904544830, 

	-0.0476941131055355, 

	0.0063326484523714, 

	-0.1921116858720779, 

	-0.2250629961490631, 

	-0.0709097236394882, 


	-0.6143055558204651, 

	-0.5315002202987671, 

	0.4407529532909393, 

	0.4670826792716980, 

	0.0214571543037891, 

	0.2498993426561356, 

	-0.1836572736501694, 

	0.5371958613395691, 


	0.0755104795098305, 

	0.3787159323692322, 

	-0.4249262213706970, 

	0.8277955651283264, 

	-0.3921989202499390, 

	-0.2154201716184616, 

	0.3426959812641144, 

	-0.1186632439494133, 


	0.0645274743437767, 

	-0.2269549220800400, 

	-1.3151891231536865, 

	0.1443118900060654, 

	0.1110055744647980, 

	-0.1401031315326691, 

	-0.0505370646715164, 

	0.0392804928123951, 


	-0.1273333281278610, 

	0.1146272346377373, 

	0.0178350396454334, 

	0.2954889833927155, 

	1.2841867208480835, 

	0.1389867067337036, 

	-0.0246999561786652, 

	-0.0755335241556168, 


	-0.9331061840057373, 

	0.5658642649650574, 

	-0.1186271011829376, 

	0.0252166278660297, 

	0.4072276949882507, 

	-0.1004893705248833, 

	0.2094385176897049, 

	-0.3138123154640198, 


	-0.4915040731430054, 

	0.2979585826396942, 

	-0.4090187847614288, 

	-0.6541686654090881, 

	0.4412904977798462, 

	-0.3110537230968475, 

	-0.5860537886619568, 

	0.1003076210618019, 


	0.2371892184019089, 

	-0.1339413076639175, 

	0.7030499577522278, 

	-0.4178769588470459, 

	-0.2500288188457489, 

	0.1208706796169281, 

	0.7542241215705872, 

	-0.5521807074546814, 


	0.6492173671722412, 

	0.1362086981534958, 

	0.1409674882888794, 

	-1.0782837867736816, 

	0.8418420553207397, 

	-0.2144236415624619, 

	-0.1670277863740921, 

	0.0536646842956543, 


	-0.0420595034956932, 

	-0.0147963277995586, 

	0.4633000493049622, 

	0.8050683140754700, 

	-0.5879964828491211, 

	0.3567849695682526, 

	-0.0242270529270172, 

	0.3476534485816956, 


};
float conv_weights_4[144] = {
	-0.4936905503273010, 	0.1481364816427231, 	0.1267784386873245, 
	-0.4909535348415375, 	-0.0124310292303562, 	-0.2753143310546875, 
	-0.3144602477550507, 	0.0742844343185425, 	0.5349150896072388, 


	-0.3842788040637970, 	-0.2935127615928650, 	-0.0561854019761086, 
	-0.1441193968057632, 	-0.0041394475847483, 	0.2861876189708710, 
	-0.4563637673854828, 	0.0226880162954330, 	0.1975589245557785, 


	-0.0543842203915119, 	-0.3854655921459198, 	-0.8746873140335083, 
	0.1735877841711044, 	0.0065010436810553, 	0.0778214633464813, 
	-0.0571496263146400, 	-0.1306307464838028, 	0.0401484258472919, 


	0.1250225305557251, 	0.3304498493671417, 	0.1916918754577637, 
	0.0995461493730545, 	0.2799112498760223, 	0.3683756589889526, 
	0.2301625758409500, 	0.4290179312229156, 	0.3747494816780090, 


	-0.0079950019717216, 	-0.0448167733848095, 	-0.3031963706016541, 
	-0.0728227868676186, 	0.3001273870468140, 	-0.1045593395829201, 
	0.4435101151466370, 	0.8362007141113281, 	-0.3078576028347015, 


	0.3741187453269958, 	0.5680795907974243, 	0.1397026628255844, 
	0.0987488403916359, 	0.1605086177587509, 	-0.1385474950075150, 
	0.3173080086708069, 	0.6093957424163818, 	0.2572630047798157, 


	0.4008062481880188, 	0.2472332268953323, 	0.3949619531631470, 
	0.4224160313606262, 	0.1310082823038101, 	0.3451666831970215, 
	0.2353447824716568, 	0.0516126379370689, 	-0.0950138270854950, 


	-0.3092788755893707, 	-0.4021247029304504, 	-0.1097060516476631, 
	0.0184316989034414, 	-0.2438023984432220, 	-0.0857826769351959, 
	0.2760031223297119, 	-0.6392877101898193, 	0.2574814558029175, 


	-0.2515160739421844, 	-0.1885713785886765, 	-0.5430464744567871, 
	-0.1970971822738647, 	-0.2166028916835785, 	-0.2992642223834991, 
	-0.1326133012771606, 	0.1072228178381920, 	-0.0834072753787041, 


	-0.4864500761032104, 	-0.4931643009185791, 	-0.3163238763809204, 
	-0.4227260351181030, 	-0.0468182228505611, 	-0.1415879130363464, 
	-0.8489626049995422, 	-0.2328648865222931, 	-0.7685934901237488, 


	0.0894639641046524, 	0.3634675145149231, 	0.2585677802562714, 
	0.0594072341918945, 	-0.0655900016427040, 	-0.0403541922569275, 
	-0.4022221863269806, 	-0.4880940914154053, 	-0.3843996226787567, 


	-0.1987932324409485, 	0.1862595230340958, 	-0.2517434358596802, 
	-0.4342961907386780, 	0.3253836333751678, 	-0.1648654639720917, 
	0.1667429953813553, 	0.4520681500434875, 	0.7015606164932251, 


	0.3857510089874268, 	0.4775176942348480, 	-0.1013057231903076, 
	0.1476534157991409, 	0.2371402382850647, 	-0.1659554690122604, 
	0.5023307800292969, 	0.3745887875556946, 	0.1523419469594955, 


	0.4124633967876434, 	-0.2771975100040436, 	0.2913052737712860, 
	0.1736252009868622, 	-0.3380053639411926, 	0.2885163128376007, 
	0.4035672843456268, 	-0.1136604547500610, 	0.3386617004871368, 


	-0.3582416772842407, 	-0.1225405931472778, 	-0.4141189157962799, 
	0.1839699596166611, 	0.3302097320556641, 	0.6072565317153931, 
	-0.0116429058834910, 	-0.0489925518631935, 	0.2358006536960602, 


	0.1456857323646545, 	-0.2667753100395203, 	-0.7552038431167603, 
	0.2072841823101044, 	0.1767111122608185, 	0.1304939240217209, 
	-0.2292956709861755, 	-0.0231341719627380, 	-0.1993456482887268, 


};
float conv_weights_5[512] = {
	-0.2358608394861221, 

	-0.0571525618433952, 

	-0.4410657882690430, 

	-0.2794976234436035, 

	-0.6669545769691467, 

	-0.0604222267866135, 

	-0.0361692160367966, 

	-0.5988133549690247, 

	-0.0845926553010941, 

	-0.3701285719871521, 

	0.4624574482440948, 

	0.7736524939537048, 

	-0.2522051930427551, 

	0.5010896921157837, 

	-0.6576116681098938, 

	-0.1530240923166275, 


	-0.2743418812751770, 

	0.2301074713468552, 

	-0.3518411517143250, 

	0.3383755385875702, 

	-0.7392238378524780, 

	0.4868738949298859, 

	-0.0831226333975792, 

	0.7871140837669373, 

	0.2835671007633209, 

	0.1134306937456131, 

	0.0747682452201843, 

	-0.1052434071898460, 

	-0.3745661973953247, 

	0.3641810119152069, 

	-0.0488854646682739, 

	-0.4511278569698334, 


	0.0969508588314056, 

	0.5858936309814453, 

	0.0519564524292946, 

	0.1163345724344254, 

	-0.2111833393573761, 

	-0.0704752206802368, 

	-0.4768303334712982, 

	-0.0947055593132973, 

	-0.6720758676528931, 

	0.1493529230356216, 

	-0.1099436879158020, 

	-0.1390220671892166, 

	-0.1960562020540237, 

	0.1140194162726402, 

	0.7589490413665771, 

	0.0964856743812561, 


	1.0352983474731445, 

	0.0532303452491760, 

	0.2565966844558716, 

	0.0930827409029007, 

	-0.5725987553596497, 

	0.0735209360718727, 

	-0.0326509997248650, 

	-0.2018118947744370, 

	0.0646038278937340, 

	-0.0428197905421257, 

	-0.2014469951391220, 

	0.2324212342500687, 

	0.0956760123372078, 

	0.3097915053367615, 

	0.1569090187549591, 

	0.2212309986352921, 


	0.3511034846305847, 

	0.0195832047611475, 

	0.6137028932571411, 

	0.0225440002977848, 

	0.7253527641296387, 

	-0.3062861561775208, 

	-0.1729908585548401, 

	-0.0177822560071945, 

	-0.3844015598297119, 

	0.4056143462657928, 

	-0.0536836907267570, 

	-0.0593890175223351, 

	-0.1625938564538956, 

	-0.6584578752517700, 

	0.2054804116487503, 

	0.0060528875328600, 


	0.1963655054569244, 

	-0.1274888068437576, 

	0.7418912053108215, 

	-0.1101829484105110, 

	0.4042837321758270, 

	-0.2667085230350494, 

	-0.4503535330295563, 

	0.0335259661078453, 

	-0.6831089854240417, 

	0.0994579270482063, 

	-0.3034799098968506, 

	-0.2179747223854065, 

	-0.1235606223344803, 

	-0.3290676474571228, 

	-0.2694759666919708, 

	0.3722289204597473, 


	-0.0845447033643723, 

	-0.1425493359565735, 

	-0.4886443912982941, 

	0.4094022810459137, 

	0.0224455185234547, 

	0.1258411705493927, 

	-0.0131755480542779, 

	-0.1585185378789902, 

	0.3432700634002686, 

	-0.3805005550384521, 

	-0.2203824520111084, 

	0.3172762691974640, 

	0.0152029246091843, 

	0.3196208477020264, 

	0.1495883166790009, 

	0.3918200433254242, 


	0.1033193171024323, 

	-0.1264806091785431, 

	0.0253358054906130, 

	0.4927226603031158, 

	-0.4045830667018890, 

	0.2727462351322174, 

	0.0893872454762459, 

	0.4160936474800110, 

	0.1518305838108063, 

	-0.2735707163810730, 

	0.3346039354801178, 

	-0.5667494535446167, 

	0.2562146782875061, 

	0.0863839164376259, 

	0.2230371534824371, 

	-0.2358065992593765, 


	0.1468991041183472, 

	-0.0530018247663975, 

	0.0602642297744751, 

	-0.1777235418558121, 

	0.1557309776544571, 

	0.1700636744499207, 

	0.0407915040850639, 

	0.5750540494918823, 

	0.1830921769142151, 

	0.1302674114704132, 

	0.2344267368316650, 

	0.6435182690620422, 

	-0.8628264665603638, 

	-0.2168322801589966, 

	-0.3727582693099976, 

	-0.1093439757823944, 


	-0.0651899352669716, 

	-0.0617996454238892, 

	-0.5685176253318787, 

	-0.0361404567956924, 

	0.2687807977199554, 

	0.0508017502725124, 

	0.7294900417327881, 

	0.2782235443592072, 

	0.4707777202129364, 

	-0.6737712621688843, 

	0.4094374775886536, 

	-0.1565016359090805, 

	-0.0955678075551987, 

	0.3817524015903473, 

	0.6799457669258118, 

	0.6337330937385559, 


	-0.3149136602878571, 

	0.0361253246665001, 

	-0.1569433659315109, 

	-0.3230389356613159, 

	-0.5766970515251160, 

	0.0819381549954414, 

	-0.0370242558419704, 

	-0.2413172870874405, 

	0.3595728874206543, 

	-0.4301400184631348, 

	-0.1213062256574631, 

	0.3629529476165771, 

	-0.0746204331517220, 

	-0.5097122192382812, 

	-0.1248966827988625, 

	0.1715939193964005, 


	-0.5912705063819885, 

	0.2212060838937759, 

	-0.0951684415340424, 

	-0.4281749427318573, 

	0.3962224423885345, 

	0.2067475914955139, 

	0.4653540253639221, 

	-0.3380946815013885, 

	0.1131830289959908, 

	0.2092483192682266, 

	0.2346133589744568, 

	0.6208159923553467, 

	0.1884133964776993, 

	-0.0352888666093349, 

	0.3922870755195618, 

	-0.1674730628728867, 


	0.2305589169263840, 

	-0.0693149343132973, 

	0.1775477975606918, 

	0.2177823781967163, 

	0.2276090830564499, 

	0.4123413562774658, 

	0.1754993349313736, 

	-0.3708049356937408, 

	-0.1736215502023697, 

	-0.1144668459892273, 

	0.5685313344001770, 

	0.3025307953357697, 

	0.1353438347578049, 

	0.2903425693511963, 

	-0.2724857628345490, 

	-0.2422454059123993, 


	-0.4609077572822571, 

	-0.7247766852378845, 

	-0.4478852450847626, 

	0.5887286663055420, 

	-0.2817638516426086, 

	0.2136190980672836, 

	0.1687033176422119, 

	0.2419032901525497, 

	0.1034639105200768, 

	0.1276089847087860, 

	0.2100335657596588, 

	-0.1348773986101151, 

	0.0862728580832481, 

	0.2939954102039337, 

	0.2407369613647461, 

	0.1962534040212631, 


	-0.1977288722991943, 

	-0.1461846083402634, 

	0.2511876821517944, 

	0.1434352397918701, 

	-0.6383462548255920, 

	0.7006918191909790, 

	0.2765945792198181, 

	0.5930059552192688, 

	0.2122739106416702, 

	0.0208089128136635, 

	-0.0200029537081718, 

	-0.2064634561538696, 

	-0.2127630561590195, 

	0.3094945847988129, 

	-0.1128651127219200, 

	-0.4641584753990173, 


	0.9826155900955200, 

	0.1986239403486252, 

	-0.5972608923912048, 

	0.0027804328128695, 

	-0.5468317270278931, 

	0.0780398026108742, 

	0.4373071193695068, 

	-0.4572728574275970, 

	0.4367534220218658, 

	0.2171862274408340, 

	0.3571055829524994, 

	-0.0807737633585930, 

	0.4163452684879303, 

	-0.1078276112675667, 

	-0.2423937022686005, 

	-0.1067698523402214, 


	0.3565791249275208, 

	-0.0024390539620072, 

	0.2051322907209396, 

	0.2030833959579468, 

	-0.1623464673757553, 

	0.2022025883197784, 

	0.3356653153896332, 

	0.1655303537845612, 

	-0.1411542594432831, 

	0.3767504096031189, 

	0.4897838830947876, 

	-0.0129047287628055, 

	0.4300963878631592, 

	0.2727791368961334, 

	0.1699683666229248, 

	0.2321840524673462, 


	0.5711948275566101, 

	-0.0624816976487637, 

	0.8267747759819031, 

	-0.1242071017622948, 

	0.2392298430204391, 

	-0.4017430245876312, 

	-0.6198502182960510, 

	0.3280839622020721, 

	-0.3467427194118500, 

	0.2462893873453140, 

	-0.5323328375816345, 

	0.0573596730828285, 

	-0.2038039863109589, 

	-0.5910413861274719, 

	-0.6876426339149475, 

	0.9595232009887695, 


	-0.1241396591067314, 

	-0.6053692102432251, 

	0.6989640593528748, 

	-0.3861823976039886, 

	0.4927995800971985, 

	-0.1174699366092682, 

	-0.1332732290029526, 

	-0.1004726663231850, 

	-0.4900218546390533, 

	-0.1718733459711075, 

	0.1687316447496414, 

	-0.5402770638465881, 

	0.0852044820785522, 

	-0.1588908582925797, 

	0.0149282570928335, 

	0.1625874638557434, 


	0.2852417826652527, 

	-0.2981529533863068, 

	-0.3935427665710449, 

	0.2478761374950409, 

	-0.4739917516708374, 

	0.3375284969806671, 

	0.0674956515431404, 

	-0.3004153370857239, 

	-0.3258039057254791, 

	0.0574706830084324, 

	-0.0329440608620644, 

	0.2525164484977722, 

	0.1750894933938980, 

	0.4643226861953735, 

	-0.4226715862751007, 

	-0.7554442882537842, 


	-0.3150319159030914, 

	0.3254699409008026, 

	-0.5282881259918213, 

	-0.1586491763591766, 

	-0.1965217292308807, 

	-0.0798845365643501, 

	-0.6019516587257385, 

	0.0151476301252842, 

	-0.5847851037979126, 

	-0.0200748164206743, 

	-0.1439765393733978, 

	-0.3250151872634888, 

	-0.2519279420375824, 

	0.1386089622974396, 

	0.0342676490545273, 

	0.6035373806953430, 


	0.2479921132326126, 

	-0.0503448545932770, 

	-0.1729990094900131, 

	-0.3339437842369080, 

	-0.1930625289678574, 

	0.2943168580532074, 

	0.1553012132644653, 

	-0.0031885618809611, 

	-0.1962817609310150, 

	-0.7856554985046387, 

	0.3479519188404083, 

	-0.1827166527509689, 

	-0.4711585640907288, 

	0.7855709195137024, 

	-0.2996585369110107, 

	-0.3135986328125000, 


	-0.0554386116564274, 

	-0.3337248861789703, 

	-0.2260019928216934, 

	-0.0524370558559895, 

	-1.1345885992050171, 

	0.1439066827297211, 

	0.2129832357168198, 

	-0.3104239702224731, 

	0.1219865679740906, 

	0.1818988025188446, 

	0.9541296958923340, 

	-0.1816417872905731, 

	-0.0280887391418219, 

	-0.1866111010313034, 

	-0.2602975666522980, 

	-0.3196039795875549, 


	-0.4323812425136566, 

	-0.2506562769412994, 

	0.0285456012934446, 

	-0.4150137007236481, 

	0.2676335573196411, 

	0.0077953645959496, 

	-0.4697648286819458, 

	-0.3209785223007202, 

	-0.0462672151625156, 

	0.2339998036623001, 

	-0.1706046909093857, 

	-0.4618605971336365, 

	0.4139855206012726, 

	-0.0086686806753278, 

	-0.1624910980463028, 

	-0.1494923382997513, 


	-0.5833022594451904, 

	-0.4449455142021179, 

	-0.4130666553974152, 

	0.0463965982198715, 

	-0.1833944171667099, 

	0.2136026471853256, 

	0.0891719684004784, 

	-0.6263040304183960, 

	-0.0811664760112762, 

	-0.5240282416343689, 

	0.2779917418956757, 

	0.2080770581960678, 

	0.2213966697454453, 

	1.0700513124465942, 

	-0.2171632647514343, 

	-0.0120526002719998, 


	-0.4990181624889374, 

	-0.1168622374534607, 

	-0.3138813674449921, 

	0.4717410802841187, 

	-0.6822544336318970, 

	0.0754424408078194, 

	0.1675688177347183, 

	0.2511388361454010, 

	-0.0337040424346924, 

	-0.9060985445976257, 

	0.0665490403771400, 

	0.1716626584529877, 

	0.4359661340713501, 

	0.7600576281547546, 

	-0.0805871412158012, 

	-0.1216237992048264, 


	-0.0834380611777306, 

	0.0828566476702690, 

	0.1677583307027817, 

	0.0265694968402386, 

	-0.1678271591663361, 

	0.3187985718250275, 

	-0.2672001421451569, 

	0.1738882809877396, 

	0.3142081797122955, 

	-0.2564029097557068, 

	0.0559947192668915, 

	-0.7372523546218872, 

	0.2015780657529831, 

	-0.5900368094444275, 

	-0.2091363966464996, 

	-0.4953508675098419, 


	-0.7112647891044617, 

	-0.0655840858817101, 

	-0.5327435731887817, 

	0.0466725267469883, 

	-0.5954079627990723, 

	0.0462450236082077, 

	1.1026660203933716, 

	-1.0948252677917480, 

	0.2376376241445541, 

	-0.5710505247116089, 

	0.3098634779453278, 

	-0.4875794351100922, 

	0.1514415442943573, 

	0.5190524458885193, 

	0.6530250906944275, 

	-0.9840387701988220, 


	0.6300596594810486, 

	0.3914473950862885, 

	0.0999188721179962, 

	0.4863153100013733, 

	-0.2951894998550415, 

	-0.0690390914678574, 

	-0.1720903217792511, 

	0.2776761651039124, 

	0.0576544813811779, 

	-0.2301748245954514, 

	0.0263139642775059, 

	0.2651266157627106, 

	-0.4848698675632477, 

	-0.1403985321521759, 

	0.2642250955104828, 

	0.2274614274501801, 


	-0.5105124115943909, 

	-0.3414286673069000, 

	0.1992363482713699, 

	0.3545560538768768, 

	-0.2200279086828232, 

	0.4681849181652069, 

	-0.1020495370030403, 

	0.0627536252140999, 

	0.0242987889796495, 

	-0.3463828563690186, 

	0.0283126141875982, 

	-0.3503728210926056, 

	-0.1066779568791389, 

	0.2635012269020081, 

	-0.0190353821963072, 

	0.0100510707125068, 


	0.2347918599843979, 

	-0.3767382502555847, 

	-0.1811427474021912, 

	-0.2615025639533997, 

	0.2821649312973022, 

	0.4279915988445282, 

	0.3726086020469666, 

	0.6072538495063782, 

	-0.2137501090764999, 

	-0.2999761104583740, 

	0.3866546750068665, 

	-0.2735026180744171, 

	0.4484341442584991, 

	-0.0092042172327638, 

	0.5391029715538025, 

	0.3180663883686066, 


	-0.2817022800445557, 

	-0.5154810547828674, 

	-0.8738181591033936, 

	-0.2597088515758514, 

	0.0900638252496719, 

	-0.1979700177907944, 

	0.0294413045048714, 

	0.5482832193374634, 

	0.2362429052591324, 

	-0.1821011751890182, 

	0.1206197738647461, 

	-0.9365667104721069, 

	0.0771240517497063, 

	0.4436699748039246, 

	0.5919578671455383, 

	0.3403885662555695, 


};
float conv_weights_6[64] = {
	1.7861162424087524, 

	1.8407393693923950, 

	-2.5966374874114990, 

	-1.6245757341384888, 

	-2.8644578456878662, 

	-3.2880036830902100, 

	1.4300848245620728, 

	1.3164174556732178, 

	-1.6661955118179321, 

	1.6769324541091919, 

	1.4040783643722534, 

	-0.9624054431915283, 

	1.6207634210586548, 

	0.9570517539978027, 

	2.5577814579010010, 

	1.9611442089080811, 

	0.8295463919639587, 

	-2.6983604431152344, 

	-2.3917312622070312, 

	2.0794723033905029, 

	-0.8740356564521790, 

	1.7508736848831177, 

	1.4891018867492676, 

	-1.3785775899887085, 

	1.4609098434448242, 

	1.3175450563430786, 

	1.0514419078826904, 

	3.4364659786224365, 

	-1.8561052083969116, 

	1.2604812383651733, 

	1.6238044500350952, 

	3.0745532512664795, 


	-2.2909367084503174, 

	-2.1093583106994629, 

	2.7278716564178467, 

	1.5508497953414917, 

	3.4314610958099365, 

	3.0706262588500977, 

	-1.4280971288681030, 

	-1.2876001596450806, 

	0.9968670010566711, 

	-1.4644234180450439, 

	-0.7170096635818481, 

	0.7993643879890442, 

	-1.2742441892623901, 

	-1.0721086263656616, 

	-2.9177968502044678, 

	-2.3594565391540527, 

	-1.1248730421066284, 

	3.0184266567230225, 

	2.3337807655334473, 

	-1.8241378068923950, 

	1.4100557565689087, 

	-1.9634890556335449, 

	-1.3028947114944458, 

	1.2726294994354248, 

	-1.8707512617111206, 

	-1.2984210252761841, 

	-1.2475565671920776, 

	-3.6496984958648682, 

	1.9117823839187622, 

	-1.1958842277526855, 

	-2.1048443317413330, 

	-2.5332367420196533, 


};
float conv_weights_7[128] = {
	0.0566880181431770, 

	0.0270344186574221, 

	-0.0028427161742002, 

	0.0534505061805248, 

	0.0114393150433898, 

	-0.0371065139770508, 

	0.0218480695039034, 

	0.0001646445452934, 

	-0.0027021286077797, 

	-0.0044048624113202, 

	-0.0506171099841595, 

	0.0220910254865885, 

	-0.0441672541201115, 

	0.0307755861431360, 

	-0.0718467980623245, 

	0.0295672491192818, 

	0.0149369910359383, 

	0.0144008118659258, 

	0.0170602779835463, 

	0.0099957967177033, 

	-0.0105376364663243, 

	0.0005103896837682, 

	-0.0073612881824374, 

	-0.0055847172625363, 

	0.0071180472150445, 

	0.0032502366229892, 

	-0.0141080012544990, 

	-0.0028783341404051, 

	0.0334137082099915, 

	-0.0292966533452272, 

	0.0136937648057938, 

	-0.0140460096299648, 


	0.0180227383971214, 

	-0.0655421838164330, 

	0.0013146058190614, 

	-0.0407492294907570, 

	-0.0095319719985127, 

	0.0300332624465227, 

	-0.0064549078233540, 

	-0.0159113779664040, 

	-0.0119426865130663, 

	-0.0226421318948269, 

	-0.0013697553658858, 

	-0.0049194577150047, 

	-0.0115666911005974, 

	-0.0036872832570225, 

	0.0573936291038990, 

	0.0515647754073143, 

	-0.0115065695717931, 

	-0.0273924842476845, 

	0.0161145385354757, 

	-0.0766129121184349, 

	-0.0222364701330662, 

	0.0342990346252918, 

	-0.0467141978442669, 

	-0.0078308051452041, 

	-0.0118444506078959, 

	-0.0043533523567021, 

	-0.1288270205259323, 

	-0.0274794604629278, 

	-0.0086061870679259, 

	0.0063373022712767, 

	0.0173446796834469, 

	-0.0053084990940988, 


	-0.0553103871643543, 

	-0.0395153649151325, 

	0.0096676293760538, 

	-0.0145258093252778, 

	-0.0057458211667836, 

	0.0020123771391809, 

	0.0165346171706915, 

	0.0064422371797264, 

	-0.0038201923016459, 

	0.0026397751644254, 

	-0.0219580959528685, 

	0.0408836267888546, 

	0.0008197829010896, 

	0.0190543979406357, 

	-0.0138076553121209, 

	-0.0313118547201157, 

	-0.0115714753046632, 

	-0.0225103814154863, 

	-0.0114419320598245, 

	-0.0091639850288630, 

	-0.0096168294548988, 

	0.0568630993366241, 

	-0.0015024306485429, 

	-0.0162496250122786, 

	0.0024927079211920, 

	0.0013284512097016, 

	-0.0426228195428848, 

	-0.0421384051442146, 

	0.0734449103474617, 

	0.0086966920644045, 

	0.0024704211391509, 

	0.0208854041993618, 


	0.0180541034787893, 

	0.0908553749322891, 

	0.0214072335511446, 

	-0.0464160628616810, 

	0.0170875731855631, 

	-0.0475282445549965, 

	-0.0170740839093924, 

	0.0176882371306419, 

	-0.0319501198828220, 

	0.0416913107037544, 

	-0.0107603352516890, 

	-0.0469415634870529, 

	0.0451323315501213, 

	0.0575829558074474, 

	-0.0743483006954193, 

	-0.0340851694345474, 

	-0.0415548942983150, 

	0.0163294821977615, 

	-0.0238736756145954, 

	0.0341337323188782, 

	-0.0121012488380075, 

	-0.0338177345693111, 

	0.0075654494576156, 

	0.0130389314144850, 

	0.0366503708064556, 

	0.0063727851957083, 

	0.0253131724894047, 

	0.0148681132122874, 

	0.0197269059717655, 

	-0.0066694007255137, 

	0.0171643216162920, 

	0.0189545750617981, 


};
