float prelu_weight_1[16] = {
	-0.0000000000051188,
	0.0471509806811810,
	0.1169394254684448,
	0.1146274283528328,
	0.0644801557064056,
	0.0337078608572483,
	0.0829589441418648,
	-0.0609166063368320,
	0.0013369552325457,
	0.3105346858501434,
	0.0013009239919484,
	0.0192850884050131,
	0.0596161074936390,
	0.0041456576436758,
	-0.0468410663306713,
	0.2431806772947311,

};
float prelu_weight_2[32] = {
	0.0069254268892109,
	0.0007531334413216,
	-0.0000000000000000,
	0.0000000903637911,
	0.0000000000000000,
	0.0130282016471028,
	0.1775671094655991,
	-0.0000000000000000,
	0.0000000000000000,
	-0.0000000002594830,
	0.0000000000000000,
	0.2708441615104675,
	0.0954454988241196,
	0.0142850195989013,
	0.0000091031306511,
	0.0000000000000000,
	0.0000264725331363,
	0.0000000000000000,
	-0.0000000000000000,
	-0.0004049750859849,
	0.0000000000000000,
	0.0000000000000000,
	-0.0000000000000000,
	0.0000000000000000,
	-0.0601700134575367,
	0.0000000000000000,
	0.0028025752399117,
	0.0001999308587983,
	0.0000000000000040,
	0.0030945418402553,
	0.3264814019203186,
	-0.0005805091932416,

};
float prelu_weight_3[48] = {
	-0.0000000000000000,
	0.0000000000000000,
	0.0000000007496198,
	-0.0000000000000000,
	-0.0002207776415162,
	0.0000000000000000,
	0.0203823037445545,
	0.0165482796728611,
	0.0000000000000000,
	0.0735541433095932,
	-0.0468046553432941,
	0.0000000000000000,
	0.0582941025495529,
	0.0000000000000000,
	0.0000000000000000,
	0.0000000000000000,
	-0.1428059637546539,
	0.0000000000000000,
	0.0000000000000000,
	0.0000000000000000,
	0.1190067231655121,
	0.0000000000000000,
	-0.0025675941724330,
	0.0002735093003139,
	0.0003490992239676,
	0.0044990060850978,
	-0.0000000000000000,
	0.0050065014511347,
	0.0001413299323758,
	0.0000000000000000,
	0.0000000053189213,
	0.0049635837785900,
	-0.0000000000000000,
	0.0295802690088749,
	0.0413554832339287,
	0.0000000000000000,
	-0.0000000000000000,
	0.1031398028135300,
	0.0260273944586515,
	0.0000000000000000,
	0.3730580508708954,
	-0.0000000000000000,
	0.0000000000000000,
	-0.0718880444765091,
	0.0044372966513038,
	0.0064673852175474,
	0.0000000000131675,
	0.4694194197654724,

};
float prelu_weight_4[64] = {
	-0.0431761890649796,
	0.0035652043297887,
	-0.0231330972164869,
	0.0000000000000181,
	0.0000000000001003,
	-0.1154167130589485,
	0.0612481757998466,
	0.0322346501052380,
	-0.0993882790207863,
	0.0010941531509161,
	0.0212952550500631,
	-0.0058750915341079,
	0.0715978369116783,
	-0.0709323659539223,
	0.0000000000000000,
	0.0000000000000010,
	0.0000000000000000,
	0.1499832123517990,
	-0.0079578729346395,
	-0.0689499676227570,
	-0.0027098909486085,
	-0.0122636696323752,
	0.0000490460697620,
	-0.0410327166318893,
	0.0002080737758661,
	-0.0728256404399872,
	0.2686566710472107,
	-0.0250584352761507,
	-0.0000000000000000,
	0.0000000000000333,
	-0.0241242684423923,
	0.0063203545287251,
	0.0017018099315464,
	0.0000000000000000,
	0.0767441317439079,
	-0.0982294231653214,
	-0.0964080840349197,
	0.0114950435236096,
	0.0013760246802121,
	-0.0775562971830368,
	-0.0448362529277802,
	0.0000000033937624,
	-0.0201463121920824,
	-0.0910939723253250,
	-0.0108124967664480,
	-0.0000000000000000,
	-0.1048526093363762,
	0.0405361391603947,
	-0.0733483210206032,
	-0.0996797829866409,
	-0.0460491701960564,
	-0.0073018623515964,
	0.0000000000000003,
	-0.0432022139430046,
	-0.0796816647052765,
	0.0429502390325069,
	-0.0283075273036957,
	0.0000000000000000,
	0.0542374029755592,
	0.0000023170327950,
	-0.0018517692806199,
	-0.0005903010023758,
	0.0000038025905269,
	-0.0107977334409952,

};
float prelu_weight_5[256] = {
	0.0071843587793410,
	0.0083418833091855,
	0.0000237580807152,
	-0.0251871142536402,
	-0.0157787557691336,
	0.0000000088382794,
	0.0000077353752204,
	-0.0043079773895442,
	0.0039418647065759,
	-0.1236755475401878,
	-0.0128335990011692,
	-0.0543476529419422,
	-0.0416221022605896,
	-0.0060423929244280,
	0.0022686091251671,
	-0.1476290822029114,
	0.0000000000000000,
	-0.0026081779506058,
	0.0018582615302876,
	-0.0257661528885365,
	-0.0003620015631896,
	-0.1380831003189087,
	-0.1661044955253601,
	-0.0784395709633827,
	-0.1138117536902428,
	-0.0298226699233055,
	0.0007981878006831,
	0.0002297277533216,
	-0.0102861458435655,
	-0.0732708498835564,
	0.0017770529957488,
	-0.0094848396256566,
	-0.0083571653813124,
	0.0024107578210533,
	-0.0266880001872778,
	-0.0366126485168934,
	-0.0004335366247687,
	-0.0110207153484225,
	-0.0091414405032992,
	0.0000000000000000,
	0.0023586144670844,
	-0.1322715878486633,
	0.0010387168731540,
	0.0000597670587013,
	0.0016250084154308,
	-0.0103737134486437,
	-0.1763190627098083,
	-0.0005845690611750,
	0.0014744076179340,
	-0.0650022998452187,
	-0.0185644887387753,
	-0.1230283901095390,
	-0.0008037475636229,
	-0.0022443062625825,
	-0.1715409606695175,
	-0.0116676157340407,
	-0.0018186629749835,
	0.0002199229493272,
	-0.0114981168881059,
	0.0000000000000000,
	-0.0004502960364334,
	0.0000000000000000,
	-0.0715662613511086,
	-0.0493790172040462,
	-0.0283088330179453,
	-0.0023287723306566,
	-0.0083429887890816,
	0.0022169519215822,
	-0.0105522256344557,
	0.0007943377131596,
	0.0000000000000000,
	-0.0652642026543617,
	-0.0002810177102219,
	-0.0000000020346889,
	-0.0349897332489491,
	-0.1087224557995796,
	0.0000000000000000,
	-0.0040971972048283,
	-0.1333244591951370,
	-0.0713583007454872,
	0.0000000000000000,
	-0.0115409391000867,
	0.0000000000000000,
	-0.0079189557582140,
	-0.0054296338930726,
	0.0033877319656312,
	-0.0028257141821086,
	-0.0022244625724852,
	-0.0861800983548164,
	-0.0140540776774287,
	-0.1592711955308914,
	-0.0027667360845953,
	-0.0083322115242481,
	0.0004895121674053,
	0.0025061347987503,
	0.0015425601741299,
	0.0000000000000000,
	0.0000000000000000,
	0.0033916335087270,
	-0.1106768250465393,
	-0.0012715595075861,
	-0.1009318679571152,
	0.0003093662671745,
	-0.0189390592277050,
	-0.0342382416129112,
	-0.0226440727710724,
	-0.0158127434551716,
	-0.0088810892775655,
	0.0031998704653233,
	-0.0062023745849729,
	0.0000000000000000,
	-0.0005862526595592,
	-0.0080882450565696,
	0.0034784544259310,
	0.0000000000000000,
	-0.0004228137258906,
	-0.0212799571454525,
	-0.0201733410358429,
	0.0001085586918634,
	-0.0117417881265283,
	0.0029849491547793,
	-0.0197015348821878,
	-0.0210937168449163,
	-0.0179963186383247,
	0.0001458871702198,
	0.0000000000000000,
	0.0010089065181091,
	-0.0549955293536186,
	-0.0287123266607523,
	-0.0005839920486324,
	-0.0116564156487584,
	-0.0997202321887016,
	0.0000560972257517,
	0.0000000000000000,
	-0.0671862736344337,
	-0.0034048699308187,
	-0.0091886995360255,
	-0.0326648429036140,
	-0.0356381498277187,
	0.0000000000000000,
	-0.0007627577288076,
	-0.0081431660801172,
	0.0025625578127801,
	0.0009674208122306,
	-0.0991093814373016,
	0.0005150161450729,
	-0.0213568452745676,
	-0.0028924646321684,
	-0.0307663269340992,
	0.0000139634721563,
	-0.0034507941454649,
	-0.0099047049880028,
	0.0051512415520847,
	-0.0125129418447614,
	-0.0006891669472679,
	-0.0266512800008059,
	-0.0002930212649517,
	0.0039891940541565,
	-0.0140705117955804,
	-0.0000698756484780,
	-0.0070443172007799,
	0.0004190638719592,
	-0.0363775417208672,
	-0.1570173203945160,
	-0.0116452630609274,
	-0.0163225568830967,
	-0.0052460595034063,
	-0.0536005869507790,
	-0.0001129586162278,
	-0.0001703469606582,
	-0.0984650254249573,
	-0.0057611553929746,
	0.0010318649001420,
	-0.1111974045634270,
	0.0018403746653348,
	-0.0520432479679585,
	-0.0153005011379719,
	-0.0265039522200823,
	-0.1660515367984772,
	-0.0816745012998581,
	-0.0129604823887348,
	-0.0097981225699186,
	-0.0015714821638539,
	-0.0000127108496599,
	-0.0065812724642456,
	-0.0053898687474430,
	-0.0001629613834666,
	-0.0732230693101883,
	-0.0470493696630001,
	0.0008259112946689,
	-0.1191519051790237,
	-0.0008913443307392,
	-0.0184605512768030,
	-0.1481792479753494,
	0.0001160581159638,
	-0.0624209456145763,
	-0.0115864109247923,
	-0.0007805198547430,
	-0.0121174650266767,
	-0.0140495141968131,
	-0.0178820826113224,
	0.0000000000000000,
	-0.0000000861346479,
	-0.0661206096410751,
	0.0026269941590726,
	-0.0966381579637527,
	-0.0086841322481632,
	-0.0015669789863750,
	-0.0107000777497888,
	-0.0093702077865601,
	-0.0562932454049587,
	-0.0277358200401068,
	-0.0053414348512888,
	-0.0001991445460590,
	-0.0070058405399323,
	-0.0085275638848543,
	0.0000000000000000,
	0.0000000000000000,
	-0.0130127044394612,
	0.0009752922342159,
	-0.0043740877881646,
	0.0001590537722223,
	-0.0607170835137367,
	-0.0244818963110447,
	-0.0236338581889868,
	0.0008433696930297,
	-0.1227544695138931,
	-0.0095056518912315,
	-0.0114527642726898,
	-0.0151361599564552,
	-0.0000000533626761,
	-0.1209890693426132,
	-0.0070125279016793,
	-0.0640526562929153,
	-0.0111629031598568,
	-0.0105320755392313,
	-0.0228889137506485,
	-0.0171894002705812,
	-0.0734853446483612,
	-0.0712857395410538,
	-0.0005004122504033,
	-0.0713922753930092,
	-0.0188910327851772,
	-0.0905631706118584,
	-0.1464159637689590,
	-0.1037026569247246,
	-0.0249282419681549,
	-0.0878979191184044,
	0.0033348554279655,
	0.0036496540997177,
	0.0042741890065372,
	-0.0061876359395683,
	0.0018420541891828,
	-0.0241264551877975,
	-0.0164560694247484,
	-0.0191430393606424,

};
