float conv_weights_1[432] = {
	-0.0000000000740019, 	0.0000000003781659, 	0.0000000013593412, 
	-0.0000000000958440, 	-0.0000000004457209, 	-0.0000000016961788, 
	0.0000000000862651, 	0.0000000003910128, 	0.0000000009513085, 

	-0.0000000000072231, 	0.0000000000032915, 	0.0000000000086989, 
	-0.0000000000885792, 	-0.0000000003753170, 	-0.0000000003417965, 
	-0.0000000000869897, 	0.0000000000955827, 	0.0000000000277973, 

	0.0000000000871197, 	0.0000000000332211, 	0.0000000000324358, 
	0.0000000000777636, 	-0.0000000005502758, 	-0.0000000001165628, 
	0.0000000002613150, 	0.0000000008201922, 	0.0000000001644209, 


	-0.1786732673645020, 	-0.0669666007161140, 	0.0237676929682493, 
	-0.1275032460689545, 	-0.0747363343834877, 	0.0077802147716284, 
	-0.0043367417529225, 	-0.1278800815343857, 	0.0033017406240106, 

	-0.1064886599779129, 	-0.0571869611740112, 	-0.0448591373860836, 
	-0.0908963233232498, 	-0.1308777630329132, 	-0.0617788434028625, 
	-0.0532368831336498, 	-0.1318888515233994, 	0.0064408946782351, 

	-0.1517815589904785, 	-0.0374935418367386, 	-0.0302892550826073, 
	-0.2065652906894684, 	-0.0605277866125107, 	-0.0965574607253075, 
	-0.1289471387863159, 	-0.1532542109489441, 	-0.1123562976717949, 


	-0.0959164798259735, 	0.0471000894904137, 	-0.0114724570885301, 
	-0.1399093419313431, 	-0.2622247338294983, 	-0.2241332530975342, 
	0.1169180050492287, 	0.2346607595682144, 	0.2647443115711212, 

	0.0105693703517318, 	0.0446815751492977, 	0.0284975003451109, 
	-0.2156495600938797, 	-0.3057447969913483, 	-0.2103957384824753, 
	0.1697532832622528, 	0.1953822523355484, 	0.1124329566955566, 

	-0.0125398263335228, 	-0.0025108885020018, 	-0.1960633993148804, 
	-0.1552910953760147, 	-0.0925543904304504, 	-0.1979747712612152, 
	0.1747957020998001, 	0.2554790973663330, 	0.2916359901428223, 


	-0.1494353264570236, 	-0.1291148364543915, 	-0.1398105919361115, 
	-0.2275533676147461, 	-0.1958421766757965, 	-0.1336434483528137, 
	-0.1616737693548203, 	-0.2234333157539368, 	-0.1326121687889099, 

	-0.0859830230474472, 	-0.0757886916399002, 	-0.0135996174067259, 
	-0.0720228105783463, 	-0.0834860578179359, 	-0.0215955339372158, 
	-0.0252328030765057, 	-0.0228495784103870, 	0.0528429411351681, 

	0.0245542936027050, 	-0.0020757226739079, 	-0.0443549230694771, 
	-0.0104853734374046, 	-0.0265924651175737, 	0.0506233833730221, 
	0.0285462904721498, 	-0.0433561019599438, 	0.0731980204582214, 


	0.0230161696672440, 	0.1192940846085548, 	-0.0072916601784527, 
	0.0663230717182159, 	0.0525174736976624, 	0.1276291757822037, 
	0.0797611251473427, 	0.0559233799576759, 	0.1910712718963623, 

	0.0144086405634880, 	0.1536161750555038, 	-0.0714873597025871, 
	0.1413704603910446, 	0.1703056246042252, 	0.1768822371959686, 
	0.1181890144944191, 	0.1082109510898590, 	0.1658580601215363, 

	-0.0094366911798716, 	0.0456445999443531, 	-0.1382069736719131, 
	0.0706206560134888, 	0.1224264353513718, 	0.1335237622261047, 
	0.0263408590108156, 	0.0606042630970478, 	0.1021611392498016, 


	-0.0869053527712822, 	0.0045372559688985, 	-0.0392629727721214, 
	-0.0700474530458450, 	-0.0178051777184010, 	0.0522727034986019, 
	-0.0718483850359917, 	-0.0200572796165943, 	0.0527496822178364, 

	0.0533904470503330, 	0.0682903304696083, 	0.1029697954654694, 
	0.0196859594434500, 	0.1162758767604828, 	0.1215551272034645, 
	0.0284652970731258, 	0.1198915615677834, 	0.1269159615039825, 

	0.0024477771949023, 	0.0228706505149603, 	0.0465533472597599, 
	-0.0267318710684776, 	0.0713270008563995, 	0.0981109738349915, 
	-0.0268055461347103, 	0.0747846364974976, 	0.0956268906593323, 


	-0.2043426334857941, 	-0.2246580123901367, 	-0.1449691951274872, 
	0.0046304357238114, 	0.0906586870551109, 	0.0999325886368752, 
	0.0004206802404951, 	0.0769101232290268, 	0.0884373709559441, 

	-0.2163776308298111, 	-0.2005480974912643, 	-0.2210574895143509, 
	0.0687566176056862, 	0.0571786388754845, 	0.0643824413418770, 
	0.0227881092578173, 	0.0409172922372818, 	0.0987547039985657, 

	-0.1833563297986984, 	-0.2435826659202576, 	-0.1467949002981186, 
	0.0870475322008133, 	0.0801517143845558, 	0.0245480164885521, 
	0.0808593854308128, 	0.0726547688245773, 	0.1225616410374641, 


	-0.0096129644662142, 	0.1034057214856148, 	0.0145259154960513, 
	0.0764212235808372, 	0.0618201531469822, 	-0.0005725019145757, 
	0.1310835629701614, 	0.1001048237085342, 	0.0199964903295040, 

	0.0744386315345764, 	0.0957220047712326, 	-0.0877193361520767, 
	0.0236418824642897, 	0.1466903537511826, 	-0.1634288728237152, 
	0.0903453677892685, 	0.0806996524333954, 	-0.1160686761140823, 

	-0.0111378626897931, 	-0.0034966154489666, 	-0.1453327089548111, 
	-0.0488057434558868, 	0.0448571816086769, 	-0.1518153250217438, 
	-0.0070605077780783, 	-0.0152856782078743, 	-0.1702042520046234, 


	0.1534722596406937, 	-0.0465604402124882, 	0.0259179919958115, 
	-0.1058841943740845, 	0.1962725371122360, 	-0.1051480025053024, 
	0.0113469185307622, 	0.1129911988973618, 	0.1305921226739883, 

	0.0541140362620354, 	0.0669425204396248, 	-0.1121172010898590, 
	0.0629922971129417, 	0.1359232962131500, 	0.0123096155002713, 
	0.0151056405156851, 	0.1124656796455383, 	0.0747554972767830, 

	0.0786929056048393, 	0.0038730395026505, 	-0.1425466984510422, 
	-0.1694444715976715, 	-0.0601886697113514, 	-0.1102594882249832, 
	-0.1613061279058456, 	-0.0108113279566169, 	-0.0888288915157318, 


	-0.3285913169384003, 	-0.0564897917211056, 	-0.1797233223915100, 
	-0.2736769616603851, 	-0.1878017783164978, 	-0.1999834179878235, 
	-0.2593549489974976, 	-0.1620938032865524, 	-0.1303692460060120, 

	-0.0145453987643123, 	0.2104429155588150, 	-0.0035162360873073, 
	0.0336259342730045, 	0.1126807630062103, 	0.0355591960251331, 
	-0.0341724045574665, 	0.1102914810180664, 	0.0470207408070564, 

	-0.0178322419524193, 	0.1830771118402481, 	0.0149169843643904, 
	-0.0892307162284851, 	-0.0516897886991501, 	-0.0373513214290142, 
	-0.0304904747754335, 	-0.0656697303056717, 	0.0019517764449120, 


	-0.0615299157798290, 	0.0371287576854229, 	0.0049638100899756, 
	-0.0897067710757256, 	0.0083714555948973, 	0.0431205816566944, 
	-0.0524174235761166, 	-0.0088712703436613, 	0.0386477038264275, 

	-0.0507693327963352, 	0.0464629717171192, 	0.0349688269197941, 
	-0.0507382825016975, 	0.0175703559070826, 	0.0277838185429573, 
	-0.0330202393233776, 	0.0028915526345372, 	0.0326293259859085, 

	-0.0835892781615257, 	0.0090426439419389, 	0.0008098881226033, 
	-0.0834961757063866, 	-0.0120762670412660, 	-0.0140038114041090, 
	-0.0661342665553093, 	-0.0465182177722454, 	-0.0001445286179660, 


	-0.2947272062301636, 	-0.1494580805301666, 	0.0973952412605286, 
	-0.2910481095314026, 	-0.1894035190343857, 	0.0875081866979599, 
	-0.1572787165641785, 	0.0498975068330765, 	-0.0174854919314384, 

	-0.0116175897419453, 	0.0949135050177574, 	0.2240484952926636, 
	-0.0744715332984924, 	0.0556500554084778, 	0.2317800521850586, 
	-0.1276843100786209, 	0.1950542777776718, 	0.0933568701148033, 

	-0.0894851088523865, 	-0.0393533483147621, 	0.2361609786748886, 
	-0.1451452672481537, 	0.0245857667177916, 	0.2103306502103806, 
	-0.1008059009909630, 	-0.0208538174629211, 	-0.0226240046322346, 


	0.2240295410156250, 	0.1123359575867653, 	0.2425598651170731, 
	0.0512589141726494, 	-0.0456858538091183, 	0.1919734030961990, 
	-0.1196310371160507, 	-0.1882498562335968, 	-0.2771322727203369, 

	0.1661594212055206, 	0.0740449428558350, 	0.2385894060134888, 
	0.0291725862771273, 	0.1349685639142990, 	-0.0318583361804485, 
	-0.2531586289405823, 	-0.2303977608680725, 	-0.3198786973953247, 

	0.0425778478384018, 	0.0172966122627258, 	0.1025438383221626, 
	0.1286976337432861, 	-0.0339040532708168, 	0.0077966600656509, 
	-0.2608357965946198, 	-0.0016451805131510, 	-0.1959909051656723, 


	-0.0624555125832558, 	-0.0223468262702227, 	0.0295672677457333, 
	0.0723581537604332, 	0.0629050135612488, 	0.1006085872650146, 
	0.0018070009537041, 	-0.0667243972420692, 	0.0181711353361607, 

	-0.0623618140816689, 	-0.0282822623848915, 	0.0272438060492277, 
	0.0430607497692108, 	0.0211433041840792, 	0.0493934117257595, 
	-0.0416755303740501, 	-0.0968123525381088, 	-0.0455101802945137, 

	-0.0795891731977463, 	-0.0715984106063843, 	0.0055266842246056, 
	-0.0065316855907440, 	0.0089279841631651, 	0.0278995707631111, 
	-0.0710739642381668, 	-0.0941106826066971, 	-0.0475860834121704, 


	0.0554690659046173, 	0.1932744234800339, 	-0.0396049581468105, 
	0.1494287103414536, 	0.0032998286187649, 	0.2363740354776382, 
	0.0832374468445778, 	0.0343790724873543, 	0.2234780341386795, 

	-0.0736258029937744, 	0.1663965731859207, 	0.1050951555371284, 
	-0.1743632704019547, 	-0.0596888773143291, 	0.1367767900228500, 
	-0.0256124231964350, 	0.1199299469590187, 	0.1408430188894272, 

	-0.1567891836166382, 	-0.0873895958065987, 	-0.0195523090660572, 
	-0.2196697592735291, 	-0.0262343864887953, 	-0.0301027297973633, 
	-0.1703001856803894, 	-0.1716863512992859, 	-0.0960723981261253, 


	-0.3282727897167206, 	-0.0060522858984768, 	0.0290476568043232, 
	-0.1146394684910774, 	-0.3164491355419159, 	-0.0669820755720139, 
	-0.0293837506324053, 	-0.2554262876510620, 	-0.1217811331152916, 

	-0.1485750675201416, 	0.0661812201142311, 	0.0462663620710373, 
	-0.0950477123260498, 	-0.0943963825702667, 	0.1348061859607697, 
	0.1423953473567963, 	-0.1065883710980415, 	-0.0296494495123625, 

	0.0292950831353664, 	0.0027139829471707, 	0.0647604390978813, 
	0.0743536204099655, 	-0.1462447941303253, 	0.0866495668888092, 
	0.2845497727394104, 	-0.1232822537422180, 	0.0383620448410511, 


};
float conv_weights_2[144] = {
	-0.0000669612199999, 	0.0000074237182162, 	0.0000040917652768, 
	0.0000080954459918, 	0.0000086101890702, 	0.0000025547628866, 
	-0.0000564762267459, 	-0.0000633334711893, 	-0.0000867016642587, 


	-0.2882805466651917, 	-0.2896842658519745, 	-0.2846696674823761, 
	-0.0704997554421425, 	-0.0091328909620643, 	-0.1820213943719864, 
	-0.0312055163085461, 	-0.0302941184490919, 	-0.0418641567230225, 


	0.2081571221351624, 	0.3101738393306732, 	0.1540433764457703, 
	0.4460874795913696, 	0.3415544927120209, 	0.2842416763305664, 
	0.4228427410125732, 	0.2231781780719757, 	0.3477120995521545, 


	0.2890788912773132, 	0.2070727199316025, 	-0.0738495588302612, 
	0.1937091350555420, 	0.1764626204967499, 	-0.0662890672683716, 
	0.1312784254550934, 	0.1382960081100464, 	0.0248140413314104, 


	0.0254568848758936, 	0.2449136376380920, 	0.0363708138465881, 
	-0.0458464473485947, 	0.0922404229640961, 	0.0918582603335381, 
	0.0801066905260086, 	0.2987866103649139, 	0.2975112199783325, 


	0.0803311467170715, 	0.0989447310566902, 	0.0957494303584099, 
	0.1217126771807671, 	0.1372504830360413, 	0.0689229965209961, 
	0.1831339448690414, 	0.1256388425827026, 	0.0788983479142189, 


	0.2159480154514313, 	0.0731398016214371, 	0.1180260479450226, 
	0.2274057716131210, 	0.1893467456102371, 	0.2279871404170990, 
	0.2874369621276855, 	0.2986883819103241, 	0.2817751765251160, 


	0.1449614018201828, 	0.0374124422669411, 	0.1316023319959641, 
	0.2224632501602173, 	0.1846651732921600, 	0.0547183156013489, 
	0.0942929536104202, 	0.2287285476922989, 	0.1691616177558899, 


	0.1188708543777466, 	0.1894842535257339, 	0.1424573212862015, 
	0.1521451920270920, 	-0.0313573442399502, 	0.1688257753849030, 
	-0.0243526641279459, 	0.1421177536249161, 	0.2515094876289368, 


	0.3878863751888275, 	0.0974497273564339, 	0.2034123390913010, 
	0.0864790380001068, 	0.2329186946153641, 	0.2573386430740356, 
	0.2424980998039246, 	0.2096420824527740, 	0.0589094124734402, 


	-0.1590754240751266, 	-0.0804129168391228, 	-0.0288970731198788, 
	-0.1028600484132767, 	-0.0332585722208023, 	-0.0683429315686226, 
	-0.0264658536761999, 	-0.0622851327061653, 	0.0165607705712318, 


	0.5052883028984070, 	0.3657768666744232, 	0.2803652286529541, 
	0.4029649794101715, 	0.2662086486816406, 	0.2356402277946472, 
	0.2450699210166931, 	0.2675650715827942, 	0.1716989129781723, 


	-0.3135303854942322, 	-0.2127666920423508, 	-0.2834971249103546, 
	-0.2708145678043365, 	-0.3140872716903687, 	-0.2641220390796661, 
	-0.0493143461644650, 	-0.1133320704102516, 	0.0726688429713249, 


	-0.1714650988578796, 	-0.0941281467676163, 	-0.0176058132201433, 
	-0.0730498656630516, 	-0.0981711596250534, 	-0.0027844125870615, 
	-0.1033863201737404, 	-0.0190401263535023, 	-0.0944395214319229, 


	0.1321467459201813, 	0.2379818558692932, 	0.2369686663150787, 
	0.1558352559804916, 	0.1732448637485504, 	0.1509934663772583, 
	0.1110979840159416, 	0.2861600220203400, 	0.0720350593328476, 


	-0.3725913763046265, 	-0.2502515316009521, 	-0.1422600895166397, 
	-0.2950212359428406, 	-0.3152240812778473, 	-0.2332818955183029, 
	-0.2039235830307007, 	-0.1972750574350357, 	-0.1871271133422852, 


};
float conv_weights_3[512] = {
	0.0000029001364510, 

	0.1529610008001328, 

	0.6300488114356995, 

	0.1464073210954666, 

	0.1842396706342697, 

	-0.0441303290426731, 

	0.3356676399707794, 

	-0.2545988559722900, 

	0.2021838873624802, 

	0.1487610340118408, 

	0.0334101989865303, 

	-0.0835290625691414, 

	-0.3950662612915039, 

	-0.0783121064305305, 

	-0.0865543782711029, 

	-0.2387699484825134, 


	-0.0000000281027788, 

	-0.0800024420022964, 

	0.0607157349586487, 

	-0.0807723328471184, 

	0.2985158264636993, 

	0.0696193277835846, 

	-0.0077146012336016, 

	0.1822591722011566, 

	0.3405621349811554, 

	-0.1745554655790329, 

	-0.0813230499625206, 

	0.1656282842159271, 

	0.1586418151855469, 

	-0.0236483700573444, 

	0.3590052723884583, 

	-0.0063308286480606, 


	0.0000000000000000, 

	0.0000000000000000, 

	-0.0000000000000000, 

	-0.0000000000000000, 

	-0.0000000000000000, 

	-0.0000000000000000, 

	-0.0000000000000000, 

	0.0000000000000000, 

	-0.0000000000000000, 

	-0.0000000000000000, 

	0.0000000000000000, 

	-0.0000000000000000, 

	0.0000000000000000, 

	-0.0000000000000000, 

	-0.0000000000000000, 

	0.0000000000000000, 


	0.0000000000000000, 

	0.0000000000000000, 

	-0.0000000000000000, 

	-0.0000000000000000, 

	0.0000000000000000, 

	-0.0000000000000000, 

	-0.0000000000000000, 

	-0.0000000000000000, 

	-0.0000000000001522, 

	-0.0000000000000001, 

	0.0000000000000000, 

	0.0000000000000000, 

	0.0000000000000000, 

	0.0000000000000000, 

	-0.0000000000000174, 

	0.0000000000002596, 


	-0.0000000000000000, 

	-0.0000000000000000, 

	-0.0000000000000000, 

	0.0000000000000000, 

	-0.0000000000000000, 

	-0.0000000000000000, 

	-0.0000000000000000, 

	0.0000000000000000, 

	-0.0000000000000000, 

	0.0000000000000000, 

	-0.0000000000000000, 

	-0.0000000000000000, 

	-0.0000000000000000, 

	-0.0000000000000000, 

	0.0000000000000000, 

	-0.0000000000000000, 


	-0.0000000000000000, 

	-0.2193523645401001, 

	0.1369669437408447, 

	0.0890370309352875, 

	-0.0694187730550766, 

	0.0024150218814611, 

	0.0916179865598679, 

	0.0594377070665359, 

	0.0233899820595980, 

	0.1902350783348083, 

	-0.0341978780925274, 

	0.2624554336071014, 

	-0.0354651436209679, 

	-0.0259937439113855, 

	0.0195912178605795, 

	-0.3374041914939880, 


	0.0000002204272960, 

	-0.3561869859695435, 

	0.1563542187213898, 

	0.2887854278087616, 

	0.1272702515125275, 

	0.1820648163557053, 

	0.0749735459685326, 

	0.0488920733332634, 

	0.1455095410346985, 

	0.4123586118221283, 

	-0.1453988999128342, 

	0.5221248865127563, 

	0.0103999506682158, 

	-0.0849645733833313, 

	-0.1502820700407028, 

	-0.5535600781440735, 


	-0.0000000000000000, 

	0.0000000000000000, 

	-0.0000000000000155, 

	0.0000000000000230, 

	0.0000000000000000, 

	0.0000000000000000, 

	-0.0000000000000000, 

	-0.0000000000000000, 

	-0.0000000000000000, 

	0.0000000000017123, 

	-0.0000000000000000, 

	-0.0000000000000000, 

	-0.0000000000019707, 

	-0.0000000000000000, 

	-0.0000000000000002, 

	0.0000000044802486, 


	-0.0000000000000000, 

	0.0000000000000000, 

	0.0000000000000000, 

	0.0000000000000000, 

	0.0000000000000000, 

	0.0000000000000000, 

	0.0000000000000000, 

	0.0000000000000000, 

	0.0000000000000000, 

	-0.0000000000000000, 

	-0.0000000000000000, 

	0.0000000000000000, 

	-0.0000000000000000, 

	0.0000000000000000, 

	0.0000000000000000, 

	-0.0000000000000000, 


	-0.0000000000000000, 

	-0.0001517733471701, 

	0.0046113166026771, 

	0.0001278575655306, 

	0.0000341890809068, 

	-0.0000358376964869, 

	0.0003957376757171, 

	0.0000490557576995, 

	0.0000177461643034, 

	-0.0000448845239589, 

	-0.0000136052913149, 

	-0.0000295924710372, 

	-0.0001091480880859, 

	-0.0000432598171756, 

	0.0001234980300069, 

	0.0004844072682317, 


	-0.0000000000000000, 

	-0.0000000000000000, 

	0.0000000000000000, 

	0.0000000000000000, 

	0.0000000000000000, 

	0.0000000000000000, 

	-0.0000000000000000, 

	0.0000000000000000, 

	-0.0000000000000000, 

	0.0000000000000000, 

	0.0000000000000000, 

	0.0000000000000000, 

	0.0000000000000000, 

	0.0000000000000000, 

	-0.0000000000000000, 

	0.0000000000000000, 


	0.0000000000000000, 

	0.1975360512733459, 

	-0.1452893465757370, 

	-0.1666900515556335, 

	0.1264259219169617, 

	0.0322888381779194, 

	-0.1961135268211365, 

	0.1310601532459259, 

	0.0117636620998383, 

	-0.2691294252872467, 

	0.0312840268015862, 

	-0.0966727584600449, 

	0.0394697599112988, 

	-0.0069034560583532, 

	0.3122939169406891, 

	0.1803432703018188, 


	-0.0007168393349275, 

	0.2339527308940887, 

	0.3831351697444916, 

	0.0485104508697987, 

	-0.0800407528877258, 

	-0.1512798368930817, 

	0.1899402737617493, 

	-0.0632590353488922, 

	-0.0141815263777971, 

	-0.1508647054433823, 

	-0.0075363325886428, 

	-0.1927911043167114, 

	-0.3535621464252472, 

	-0.1080055609345436, 

	-0.0847297161817551, 

	0.0221675820648670, 


	-0.0000024365606350, 

	-0.1014421209692955, 

	-0.0607226677238941, 

	-0.1355563402175903, 

	0.1294409036636353, 

	0.0867066681385040, 

	-0.1729421913623810, 

	0.1136674880981445, 

	0.2110505998134613, 

	-0.2011840343475342, 

	-0.1221285462379456, 

	0.3490265011787415, 

	-0.1676357835531235, 

	-0.1803334355354309, 

	0.3635626435279846, 

	-0.0188772920519114, 


	-0.0000000000000000, 

	0.0069928253069520, 

	0.0589248053729534, 

	0.0053227287717164, 

	0.0184725150465965, 

	0.0048945844173431, 

	0.0238146185874939, 

	-0.0023085160646588, 

	-0.0030130618251860, 

	0.0010674302466214, 

	0.0004139984375797, 

	-0.0334741622209549, 

	0.0179270207881927, 

	0.0007272797520272, 

	-0.0137568032369018, 

	0.0220159217715263, 


	0.0000000000000000, 

	0.0000000000000000, 

	-0.0000000000000000, 

	-0.0000000000000000, 

	-0.0000000000000000, 

	-0.0000000000000000, 

	-0.0000000000000000, 

	-0.0000000000000000, 

	-0.0000000000000000, 

	-0.0000000000000000, 

	0.0000000000000000, 

	-0.0000000000000000, 

	0.0000000000000000, 

	0.0000000000000000, 

	-0.0000000000000000, 

	0.0000000000000000, 


	-0.0000000000000000, 

	-0.1149032562971115, 

	0.2599726021289825, 

	0.0608304738998413, 

	0.0836111903190613, 

	0.0414133183658123, 

	0.1264894902706146, 

	0.0316000878810883, 

	-0.0022283482830971, 

	0.1464249491691589, 

	-0.0045238472521305, 

	-0.0537900477647781, 

	-0.1547730714082718, 

	-0.0055994004942477, 

	-0.0269523225724697, 

	-0.0915595665574074, 


	-0.0000000000000000, 

	0.0000000000000000, 

	0.0000000000000000, 

	-0.0000000000000000, 

	0.0000000000000000, 

	-0.0000000000000000, 

	0.0000000000000000, 

	0.0000000000000000, 

	0.0000000000000000, 

	-0.0000000000000000, 

	0.0000000000000000, 

	0.0000000000000000, 

	0.0000000000000000, 

	-0.0000000000000000, 

	-0.0000000000000000, 

	-0.0000000000000000, 


	-0.0000000000000000, 

	0.0000000000000000, 

	-0.0000000000000000, 

	-0.0000000000000000, 

	-0.0000000000000000, 

	0.0000000000000000, 

	-0.0000000000000000, 

	-0.0000000000000000, 

	0.0000000000000000, 

	-0.0000000000000000, 

	0.0000000000000000, 

	-0.0000000000000000, 

	0.0000000000000000, 

	0.0000000000000000, 

	0.0000000000000000, 

	0.0000000000000000, 


	0.0000000000000000, 

	0.0222423337399960, 

	-0.0305638555437326, 

	-0.0060086627490819, 

	0.0443597845733166, 

	0.0151562895625830, 

	-0.0095055811107159, 

	0.0077895829454064, 

	0.0128672420978546, 

	-0.0195223521441221, 

	0.0013978721108288, 

	0.0099216941744089, 

	0.0056891608983278, 

	0.0016861296026036, 

	0.0333051756024361, 

	0.0170543789863586, 


	0.0000000000000002, 

	0.0332334712147713, 

	0.1490998864173889, 

	0.0260641705244780, 

	0.1847170889377594, 

	0.0760216861963272, 

	0.0537006892263889, 

	0.0721266046166420, 

	-0.0154566140845418, 

	0.1967666894197464, 

	0.0020778304897249, 

	0.1353631168603897, 

	-0.2731425166130066, 

	-0.0088058393448591, 

	0.0867811515927315, 

	-0.0492345243692398, 


	-0.0000000000000000, 

	-0.0000000000000000, 

	0.0000000000000000, 

	-0.0000000000000000, 

	0.0000000000000000, 

	0.0000000000000000, 

	0.0000000000000000, 

	-0.0000000000000000, 

	-0.0000000000000000, 

	0.0000000000000000, 

	-0.0000000000000000, 

	0.0000000000000000, 

	-0.0000000000000000, 

	0.0000000000000000, 

	-0.0000000000000000, 

	0.0000000000000000, 


	-0.0000000000000000, 

	-0.0000000000000000, 

	-0.0000000000000000, 

	0.0000000000000000, 

	-0.0000000000000000, 

	-0.0000000000000000, 

	-0.0000000000000000, 

	0.0000000000000000, 

	-0.0000000000000000, 

	0.0000000000000000, 

	-0.0000000000000000, 

	-0.0000000000000000, 

	-0.0000000000000000, 

	-0.0000000000000000, 

	-0.0000000000000000, 

	0.0000000000000000, 


	-0.0000000000000000, 

	-0.0000000000000000, 

	-0.0000000000000000, 

	-0.0000000000000000, 

	0.0000000000000000, 

	-0.0000000000000000, 

	-0.0000000000000000, 

	0.0000000000000000, 

	0.0000000000000000, 

	-0.0000000000000000, 

	0.0000000000000000, 

	0.0000000000000000, 

	0.0000000000000000, 

	0.0000000000000000, 

	-0.0000000000000000, 

	-0.0000000000000000, 


	-0.0000000000003366, 

	-0.0737303644418716, 

	0.0213447120040655, 

	0.0546954534947872, 

	0.0591043196618557, 

	0.1043438389897346, 

	0.0232351291924715, 

	-0.0103959692642093, 

	-0.0390305779874325, 

	0.0760755687952042, 

	0.0152723388746381, 

	0.1492254734039307, 

	0.1109794825315475, 

	0.0201438609510660, 

	-0.0614744387567043, 

	-0.2564364969730377, 


	-0.0000000000000000, 

	0.0000000000000000, 

	0.0000000000000000, 

	0.0000000000000000, 

	-0.0000000000000000, 

	-0.0000000000000000, 

	-0.0000000000000000, 

	-0.0000000000000000, 

	0.0000000000000000, 

	0.0000000000000000, 

	-0.0000000000000000, 

	0.0000000000000000, 

	-0.0000000000000000, 

	-0.0000000000000000, 

	-0.0000000000000000, 

	0.0000000000000000, 


	0.0000000413841761, 

	0.1982792466878891, 

	0.4097507596015930, 

	0.0400784052908421, 

	0.2759362757205963, 

	0.0056048305705190, 

	0.3518000245094299, 

	-0.0087334597483277, 

	-0.1061480566859245, 

	-0.0606612004339695, 

	-0.0119744045659900, 

	-0.1829678118228912, 

	-0.3306697905063629, 

	0.0501343719661236, 

	-0.1225205138325691, 

	-0.1546353697776794, 


	0.0000000000000000, 

	-0.0636393502354622, 

	0.2748546600341797, 

	0.2392685264348984, 

	0.0277159139513969, 

	0.0286788530647755, 

	0.1919835209846497, 

	-0.0146399810910225, 

	0.0487468130886555, 

	0.1465885490179062, 

	-0.0632720068097115, 

	0.2985649704933167, 

	-0.0601952634751797, 

	-0.0319420546293259, 

	0.0644457787275314, 

	-0.2620125114917755, 


	0.0000000000000000, 

	0.0000000000000000, 

	-0.0000000000000000, 

	-0.0000000000000000, 

	-0.0000000000000000, 

	-0.0000000000000000, 

	-0.0000000000000000, 

	-0.0000000000000000, 

	-0.0000000000000000, 

	-0.0000000000000000, 

	0.0000000000000000, 

	0.0000000000000000, 

	0.0000000000000000, 

	0.0000000000000000, 

	-0.0000000000000000, 

	0.0000000000000000, 


	0.0000000000000000, 

	0.0657177120447159, 

	-0.0541218593716621, 

	-0.0147691667079926, 

	0.1031092405319214, 

	0.0459814928472042, 

	-0.0383675172924995, 

	0.0307837575674057, 

	0.0508387945592403, 

	-0.0444091372191906, 

	0.0080059934407473, 

	-0.0083608869463205, 

	0.0291797630488873, 

	0.0058412668295205, 

	0.0901678353548050, 

	0.0207149814814329, 


	-0.0000020507111458, 

	-0.0759436562657356, 

	-0.1174756437540054, 

	-0.1967883259057999, 

	0.0519794784486294, 

	-0.0570813976228237, 

	-0.1695555895566940, 

	0.2625669836997986, 

	0.2926236987113953, 

	-0.2191164493560791, 

	-0.0832176581025124, 

	0.0471482127904892, 

	-0.0148862451314926, 

	-0.1464166194200516, 

	0.3632870316505432, 

	0.0950455740094185, 


	-0.0000000000000000, 

	-0.0373697578907013, 

	-0.0019503453513607, 

	0.0154507448896766, 

	0.0295023303478956, 

	0.0186553746461868, 

	0.0072463536635041, 

	0.0065665938891470, 

	-0.0065506552346051, 

	0.0378494597971439, 

	0.0041023762896657, 

	0.0504643060266972, 

	0.0370447747409344, 

	0.0043367994949222, 

	-0.0377756543457508, 

	-0.0650330707430840, 


};
float conv_weights_4[288] = {
	0.2067746073007584, 	0.0185818634927273, 	0.1049827188253403, 
	0.2667254507541656, 	0.1957565695047379, 	0.2488872706890106, 
	0.0612188056111336, 	0.2718357741832733, 	0.3000435233116150, 


	-0.0035618538968265, 	0.0159740522503853, 	0.0124999238178134, 
	-0.0639336556196213, 	-0.1915118396282196, 	-0.1802190095186234, 
	-0.2209220677614212, 	-0.2391528636217117, 	-0.1731788516044617, 


	-0.0000000000000000, 	-0.0000000000000000, 	-0.0000000000000000, 
	-0.0000000000000000, 	0.0000000000000000, 	0.0000000000000000, 
	0.0000000000000000, 	-0.0000000000000000, 	0.0000000000000000, 


	0.0000000000072564, 	0.0000000000357728, 	-0.0000000000042960, 
	0.0000000000194859, 	0.0000000000146215, 	0.0000000000173499, 
	0.0000000000048576, 	0.0000000000259912, 	-0.0000000000097163, 


	0.0000000000000004, 	-0.0000000000000001, 	-0.0000000000000002, 
	-0.0000000000000002, 	-0.0000000000000002, 	0.0000000000000000, 
	-0.0000000000000001, 	-0.0000000000000001, 	0.0000000000000000, 


	-0.1927282512187958, 	-0.1336465030908585, 	-0.0681145042181015, 
	0.0032098540104926, 	0.1269802153110504, 	0.1320991069078445, 
	0.1196741536259651, 	0.0517835207283497, 	0.2660730779170990, 


	0.3883160054683685, 	0.3487505912780762, 	0.2997717857360840, 
	0.3134727776050568, 	0.0395642258226871, 	0.1612835228443146, 
	-0.0577159188687801, 	-0.1538311839103699, 	-0.1389255672693253, 


	-0.0000000070107520, 	0.0000000406160900, 	-0.0000000307243226, 
	0.0000000158253783, 	0.0000000245403182, 	-0.0000000091385255, 
	-0.0000000021325528, 	0.0000000263446100, 	-0.0000000014207435, 


	0.0000000000000000, 	0.0000000000000000, 	-0.0000000000000000, 
	0.0000000000000000, 	-0.0000000000000000, 	0.0000000000000000, 
	0.0000000000000000, 	-0.0000000000000000, 	-0.0000000000000000, 


	0.0014644500333816, 	0.0028223043773323, 	0.0046042120084167, 
	-0.0029239857103676, 	-0.0021890294738114, 	0.0020245215855539, 
	-0.0021200350020081, 	-0.0011122277937829, 	-0.0003845968167298, 


	0.0000000000000000, 	-0.0000000000000000, 	0.0000000000000000, 
	-0.0000000000000000, 	0.0000000000000000, 	0.0000000000000000, 
	0.0000000000000000, 	0.0000000000000000, 	0.0000000000000000, 


	0.4076446592807770, 	0.3613675236701965, 	0.2964297831058502, 
	0.2018088400363922, 	0.1607409864664078, 	0.0737133249640465, 
	0.0592090077698231, 	0.0573711544275284, 	0.0414556153118610, 


	0.3308672010898590, 	0.3644557595252991, 	0.3029772639274597, 
	0.3228899538516998, 	0.2953469753265381, 	0.1662464290857315, 
	0.2370669543743134, 	0.3419113159179688, 	0.3363998532295227, 


	-0.1540736705064774, 	-0.0439253002405167, 	-0.1574368178844452, 
	-0.1974845528602600, 	-0.1715866923332214, 	-0.2150389552116394, 
	-0.1931476294994354, 	-0.2267022728919983, 	-0.1377464532852173, 


	-0.0262696649879217, 	-0.0176602918654680, 	-0.0425348542630672, 
	-0.0177800729870796, 	-0.0035165462177247, 	-0.0141027849167585, 
	0.0089178159832954, 	0.0109751923009753, 	-0.0189260561019182, 


	0.0000000000000006, 	0.0000000000000013, 	-0.0000000000000032, 
	-0.0000000000000064, 	0.0000000000000044, 	-0.0000000000000018, 
	-0.0000000000000031, 	-0.0000000000000057, 	0.0000000000000004, 


	-0.0160016585141420, 	0.0467968396842480, 	-0.2811777889728546, 
	-0.0324560068547726, 	0.0714742317795753, 	-0.1899459213018417, 
	0.0395852550864220, 	0.0969249904155731, 	-0.1133272796869278, 


	0.0000000000000000, 	-0.0000000000000000, 	-0.0000000000000000, 
	0.0000000000000000, 	0.0000000000000000, 	0.0000000000000000, 
	0.0000000000000000, 	0.0000000000000000, 	0.0000000000000000, 


	-0.0000000000214311, 	0.0000000000061291, 	-0.0000000000020091, 
	-0.0000000000140076, 	-0.0000000000170917, 	0.0000000000076270, 
	0.0000000000000037, 	0.0000000000000076, 	-0.0000000000000461, 


	-0.0393437072634697, 	-0.0373634248971939, 	-0.0500250160694122, 
	-0.0199315808713436, 	-0.0033654603175819, 	-0.0228225998580456, 
	0.0233380421996117, 	0.0120855113491416, 	-0.0096556749194860, 


	0.0654861330986023, 	-0.0660558938980103, 	0.0039634797722101, 
	0.2179580032825470, 	0.0526171959936619, 	0.1791952103376389, 
	0.0993066802620888, 	0.0657825842499733, 	0.0123561620712280, 


	0.0000000000000000, 	-0.0000000000000000, 	-0.0000000000000000, 
	0.0000000000000000, 	0.0000000000000000, 	-0.0000000000000000, 
	0.0000000000000000, 	-0.0000000000000000, 	-0.0000000000000000, 


	0.0000000000000000, 	-0.0000000000000000, 	-0.0000000000000000, 
	0.0000000000000000, 	0.0000000000000000, 	0.0000000000000000, 
	0.0000000000000000, 	-0.0000000000000000, 	-0.0000000000000000, 


	-0.0000000000000000, 	0.0000000000000000, 	0.0000000000000000, 
	-0.0000000000000000, 	-0.0000000000000000, 	0.0000000000000000, 
	-0.0000000000000000, 	-0.0000000000000000, 	-0.0000000000000000, 


	0.0324197374284267, 	0.0746969208121300, 	0.0642974749207497, 
	0.0630820468068123, 	0.1317816972732544, 	0.1022970229387283, 
	0.1301400959491730, 	0.1927122473716736, 	0.1731393039226532, 


	-0.0000000000000000, 	0.0000000000000000, 	0.0000000000000000, 
	0.0000000000000000, 	0.0000000000000000, 	0.0000000000000000, 
	0.0000000000000000, 	-0.0000000000000000, 	-0.0000000000000000, 


	-0.2463004738092422, 	-0.2295593172311783, 	-0.3060522377490997, 
	-0.1989492326974869, 	0.0405010730028152, 	-0.2243964970111847, 
	-0.1718129813671112, 	-0.0356380566954613, 	-0.2523020505905151, 


	-0.2416316270828247, 	-0.0045436285436153, 	-0.0757181197404861, 
	-0.2135955840349197, 	0.1667562872171402, 	-0.0353811681270599, 
	-0.0231665838509798, 	0.2586530745029449, 	0.0672709420323372, 


	0.0000000000000015, 	0.0000000000000002, 	0.0000000000000012, 
	-0.0000000000000007, 	0.0000000000000018, 	-0.0000000000000008, 
	-0.0000000000000001, 	0.0000000000000002, 	0.0000000000000001, 


	-0.0967468097805977, 	-0.0951275750994682, 	-0.1114750429987907, 
	-0.0255183912813663, 	-0.0439887642860413, 	-0.0498273447155952, 
	0.0131419980898499, 	-0.0045346007682383, 	-0.0259826667606831, 


	-0.1893896907567978, 	-0.1469208151102066, 	-0.2041911929845810, 
	-0.1647484153509140, 	-0.1655839383602142, 	-0.2289146035909653, 
	-0.2693849503993988, 	-0.3368160128593445, 	-0.2588215172290802, 


	-0.0267755128443241, 	-0.0211694072932005, 	-0.0534013584256172, 
	-0.0191255677491426, 	-0.0186407938599586, 	-0.0427671894431114, 
	-0.0165427662432194, 	-0.0207183230668306, 	-0.0424834638834000, 


};
float conv_weights_5[1536] = {
	0.0000000000000001, 

	-0.0000000000000000, 

	-0.0000000000000000, 

	0.0000000000000000, 

	0.0000000000000000, 

	0.0000000000000000, 

	-0.0000000000000000, 

	0.0000000000000000, 

	0.0000000000000000, 

	0.0000000000000000, 

	0.0000000000000000, 

	0.0000000000000000, 

	-0.0000000000000000, 

	0.0000000000000598, 

	-0.0000000000000000, 

	0.0000000000000000, 

	0.0000000000000000, 

	-0.0000000000000000, 

	-0.0000000000000000, 

	-0.0000000000000000, 

	-0.0000000000000000, 

	-0.0000000000000000, 

	0.0000000000000000, 

	0.0000000000000000, 

	-0.0000000000000000, 

	-0.0000000000000000, 

	-0.0000000000000000, 

	-0.0000000000000000, 

	0.0000000000000000, 

	-0.0000000000000000, 

	-0.0000000000000000, 

	0.0000000000000000, 


	0.0000000000000000, 

	0.0000000000000000, 

	-0.0000000000000000, 

	-0.0000000000000000, 

	-0.0000000000000000, 

	-0.0000000000000000, 

	0.0000000000000000, 

	0.0000000000000000, 

	-0.0000000000000000, 

	0.0000000000000000, 

	0.0000000000000000, 

	0.0000000000000000, 

	0.0000000000000000, 

	0.0000000000000000, 

	-0.0000000000000000, 

	-0.0000000000000000, 

	-0.0000000000000000, 

	0.0000000000000000, 

	0.0000000000000000, 

	0.0000000000000000, 

	-0.0000000000000000, 

	-0.0000000000000000, 

	0.0000000000000000, 

	-0.0000000000000000, 

	0.0000000000000000, 

	0.0000000000000000, 

	-0.0000000000000000, 

	-0.0000000000000000, 

	-0.0000000000000000, 

	-0.0000000000000000, 

	0.0000000000000000, 

	-0.0000000000000000, 


	-0.0000000000000000, 

	-0.0000000000000000, 

	-0.0000000000000000, 

	0.0000000000000000, 

	0.0000000000000000, 

	0.0000000000000000, 

	-0.0000000000000000, 

	-0.0000000000000000, 

	-0.0000000000000000, 

	-0.0000000000000000, 

	-0.0000000000000000, 

	0.0000000000000000, 

	-0.0000000000000000, 

	0.0000000000000000, 

	0.0000000000000000, 

	-0.0000000000000000, 

	-0.0000000000000000, 

	-0.0000000000000000, 

	-0.0000000000000000, 

	0.0000000000000000, 

	0.0000000000000000, 

	0.0000000000000000, 

	-0.0000000000000000, 

	-0.0000000000000000, 

	0.0000000000000000, 

	0.0000000000000000, 

	-0.0000000000000000, 

	-0.0000000000000000, 

	0.0000000000000000, 

	0.0000000000000000, 

	0.0000000000000000, 

	0.0000000000000000, 


	-0.0000000000000000, 

	-0.0000000000000000, 

	0.0000000000000000, 

	-0.0000000000000000, 

	0.0000000000000000, 

	0.0000000000000000, 

	0.0000000000000000, 

	0.0000000000000000, 

	-0.0000000000000000, 

	0.0000000000000000, 

	-0.0000000000000000, 

	-0.0000000000000000, 

	0.0000000000000000, 

	-0.0000000000000000, 

	0.0000000000000000, 

	-0.0000000000000000, 

	0.0000000000000000, 

	-0.0000000000000000, 

	0.0000000000000000, 

	0.0000000000000000, 

	-0.0000000000000000, 

	0.0000000000000000, 

	-0.0000000000000000, 

	0.0000000000000000, 

	0.0000000000000000, 

	-0.0000000000000000, 

	-0.0000000000000000, 

	-0.0000000000000000, 

	0.0000000000000000, 

	-0.0000000000000000, 

	-0.0000000000000000, 

	0.0000000000000000, 


	0.0438821166753769, 

	0.0530282519757748, 

	-0.0000000000000000, 

	-0.0000000000000000, 

	0.0000000000000000, 

	-0.0000490372694912, 

	0.1730718016624451, 

	-0.0000000000000000, 

	-0.0000000000000000, 

	-0.0000028299334645, 

	-0.0000000000000000, 

	-0.0074474322609603, 

	0.0120975347235799, 

	-0.0674960762262344, 

	0.0023367549292743, 

	-0.0000000000000000, 

	0.0038827960379422, 

	0.0000000000000000, 

	0.0000000000000000, 

	0.0019500819034874, 

	0.0391815900802612, 

	0.0000000000000000, 

	-0.0000000000000000, 

	-0.0000000000000000, 

	0.0179011300206184, 

	-0.0000000000000000, 

	-0.0090540610253811, 

	-0.1024274602532387, 

	-0.0000000000000000, 

	0.0057830563746393, 

	0.0173252839595079, 

	-0.0026403474621475, 


	0.0000000000000000, 

	0.0000000000000000, 

	0.0000000000000000, 

	-0.0000000000000000, 

	-0.0000000000000000, 

	-0.0000000000000000, 

	0.0000000000000000, 

	-0.0000000000000000, 

	-0.0000000000000000, 

	-0.0000000000000000, 

	0.0000000000000000, 

	0.0000000000000000, 

	0.0000000000000000, 

	-0.0000000000000000, 

	-0.0000000000000000, 

	-0.0000000000000000, 

	0.0000000000000000, 

	0.0000000000000000, 

	-0.0000000000000000, 

	-0.0000000000000000, 

	-0.0000000000000000, 

	0.0000000000000000, 

	0.0000000000000000, 

	-0.0000000000000000, 

	-0.0000000000000000, 

	-0.0000000000000000, 

	0.0000000000000000, 

	0.0000000000000000, 

	0.0000000000000000, 

	0.0000000000000000, 

	-0.0000000000000000, 

	-0.0000000000000000, 


	0.1061112582683563, 

	-0.1100659891963005, 

	0.0000000000000000, 

	-0.0000000000000039, 

	0.0000000000000000, 

	-0.0677094757556915, 

	-0.1078634262084961, 

	-0.0000000000000000, 

	0.0000000000000000, 

	-0.0000218745553866, 

	-0.0000000000000000, 

	0.0546079091727734, 

	0.1101406812667847, 

	-0.2426566183567047, 

	-0.0007377506117336, 

	-0.0000000000000000, 

	0.0996163636445999, 

	-0.0000000000000000, 

	-0.0000000000000000, 

	-0.0066959853284061, 

	0.1116809397935867, 

	0.0000000000000000, 

	-0.0000000000000000, 

	0.0000000000000000, 

	-0.0289682261645794, 

	0.0000000000000000, 

	0.0307774245738983, 

	-0.0274494159966707, 

	0.0000000000000000, 

	-0.0427351258695126, 

	-0.1372651308774948, 

	0.0052117868326604, 


	0.4103942513465881, 

	0.0143092339858413, 

	0.0000000000000000, 

	-0.0000000000000000, 

	-0.0000000000000000, 

	0.1361034810543060, 

	0.2862311303615570, 

	0.0000000000000001, 

	-0.0000000000000000, 

	0.0000237527965510, 

	0.0000000000000000, 

	-0.1783476173877716, 

	0.2253216058015823, 

	-0.0722851753234863, 

	-0.0028071701526642, 

	-0.0000000000000000, 

	-0.1222344487905502, 

	-0.0000000000000000, 

	-0.0000000000000000, 

	0.0061902087181807, 

	0.1644228398799896, 

	-0.0000000000000000, 

	-0.0000000000000000, 

	0.0000000000000000, 

	0.1443968415260315, 

	-0.0000000000000000, 

	-0.3416358828544617, 

	-0.0595893487334251, 

	0.0000000000000000, 

	0.0343583188951015, 

	0.1385116577148438, 

	-0.0231414791196585, 


	0.0000000000000000, 

	0.0000000000000000, 

	0.0000000000000000, 

	0.0000000000000000, 

	0.0000000000000000, 

	0.0000000000000000, 

	-0.0000000000000000, 

	-0.0000000000000000, 

	-0.0000000000000000, 

	0.0000000000000000, 

	0.0000000000000000, 

	-0.0000000000000000, 

	-0.0000000000000000, 

	0.0000000000000000, 

	-0.0000000000000000, 

	-0.0000000000000000, 

	0.0000000000000000, 

	0.0000000000000000, 

	-0.0000000000000000, 

	0.0000000000000000, 

	-0.0000000000000000, 

	0.0000000000000000, 

	-0.0000000000000000, 

	0.0000000000000000, 

	0.0000000000000000, 

	-0.0000000000000000, 

	-0.0000000000000000, 

	0.0000000000000000, 

	-0.0000000000000000, 

	0.0000000000000000, 

	0.0000000000000000, 

	-0.0000000000000000, 


	0.1880679726600647, 

	0.0294453147798777, 

	-0.0000000000000000, 

	-0.0000000000000000, 

	-0.0000000000000000, 

	0.0814467892050743, 

	-0.1638431698083878, 

	0.0000000000000001, 

	-0.0000000000000000, 

	-0.0000439958712377, 

	-0.0000000000000000, 

	0.2047065049409866, 

	0.1988855898380280, 

	-0.1099539175629616, 

	0.0113290734589100, 

	0.0000000000000000, 

	-0.0506808608770370, 

	0.0000000000000000, 

	-0.0000000000000000, 

	-0.0193298887461424, 

	0.1509280353784561, 

	-0.0000000000000000, 

	-0.0000000000000000, 

	0.0000000000000000, 

	-0.0340452902019024, 

	0.0000000000000000, 

	-0.0104131726548076, 

	0.0369592942297459, 

	-0.0000000000000000, 

	-0.0360958501696587, 

	-0.0789893791079521, 

	0.0103508606553078, 


	-0.1711388975381851, 

	-0.0826536789536476, 

	-0.0000000000000000, 

	-0.0000000000000000, 

	0.0000000000000000, 

	0.0641038119792938, 

	0.1352245956659317, 

	-0.0000000000000001, 

	0.0000000000000000, 

	-0.0003359075344633, 

	0.0000000000000000, 

	0.0265484154224396, 

	-0.3352189064025879, 

	-0.2119216918945312, 

	0.0020352189894766, 

	0.0000000000000000, 

	0.0431565456092358, 

	0.0000000000000000, 

	0.0000000000000000, 

	-0.0062103439122438, 

	0.0774388313293457, 

	-0.0000000000000000, 

	-0.0000000000000000, 

	-0.0000000000000000, 

	0.0689539164304733, 

	-0.0000000000000000, 

	0.1393032371997833, 

	-0.1564325541257858, 

	-0.0000000000000000, 

	-0.0267926491796970, 

	-0.0571312159299850, 

	-0.0107384342700243, 


	0.0000000000000000, 

	-0.0000000000000000, 

	-0.0000000000000000, 

	-0.0000000000000000, 

	0.0000000000000000, 

	-0.0000000000000000, 

	-0.0000000000000000, 

	0.0000000000000000, 

	0.0000000000000000, 

	0.0000000000000000, 

	-0.0000000000000000, 

	0.0000000000000000, 

	0.0000000000000000, 

	0.0000000000000000, 

	-0.0000000000000000, 

	0.0000000000000000, 

	-0.0000000000000000, 

	0.0000000000000000, 

	-0.0000000000000000, 

	0.0000000000000000, 

	-0.0000000000000000, 

	0.0000000000000000, 

	-0.0000000000000000, 

	0.0000000000000000, 

	-0.0000000000000000, 

	-0.0000000000000000, 

	0.0000000000000000, 

	-0.0000000000000000, 

	0.0000000000000000, 

	0.0000000000000000, 

	0.0000000000000000, 

	-0.0000000000000000, 


	0.4263037145137787, 

	0.0004793504776899, 

	-0.0000000000000000, 

	-0.0000000000013506, 

	-0.0000000000000000, 

	-0.1246983408927917, 

	0.4270591735839844, 

	-0.0000000000136480, 

	0.0000000000000000, 

	0.0007040843483992, 

	-0.0000000000000000, 

	-0.1781951189041138, 

	0.1661115735769272, 

	0.1898301690816879, 

	-0.0164828598499298, 

	-0.0000000000000000, 

	-0.2451490908861160, 

	-0.0000000000000000, 

	0.0000000000000000, 

	0.0136135555803776, 

	0.2060770839452744, 

	0.0000000000000000, 

	-0.0000000000000000, 

	-0.0000000000000000, 

	-0.1211580112576485, 

	0.0000000000000000, 

	-0.5213655233383179, 

	-0.4131005704402924, 

	0.0000000000000000, 

	0.0248094443231821, 

	-0.0225470922887325, 

	0.0046997643075883, 


	-0.0000000000000000, 

	0.0000000000000000, 

	-0.0000000000000000, 

	0.0000000000000000, 

	0.0000000000000000, 

	0.0000000000000000, 

	0.0000000000000000, 

	0.0000000000000000, 

	-0.0000000000000000, 

	0.0000000000000000, 

	0.0000000000000000, 

	0.0000000000000000, 

	0.0000000000000000, 

	0.0000000000000000, 

	0.0000000000000000, 

	0.0000000000000000, 

	-0.0000000000000000, 

	-0.0000000000000000, 

	0.0000000000000000, 

	0.0000000000000000, 

	0.0000000000000000, 

	-0.0000000000000000, 

	-0.0000000000000000, 

	-0.0000000000000000, 

	-0.0000000000000000, 

	-0.0000000000000000, 

	0.0000000000000000, 

	-0.0000000000000000, 

	-0.0000000000000000, 

	-0.0000000000000000, 

	-0.0000000000000000, 

	-0.0000000000000000, 


	-0.0000000000000000, 

	-0.0000000000000000, 

	0.0000000000000000, 

	0.0000000000000000, 

	0.0000000000000000, 

	-0.0000000000000000, 

	0.0000000000000000, 

	-0.0000000000000000, 

	-0.0000000000000000, 

	0.0000000000000000, 

	0.0000000000000000, 

	-0.0000000000000000, 

	0.0000000000000000, 

	-0.0000000000000000, 

	0.0000000000000000, 

	-0.0000000000000000, 

	0.0000000000000000, 

	0.0000000000000000, 

	0.0000000000000000, 

	0.0000000000000000, 

	0.0000000000000000, 

	0.0000000000000000, 

	0.0000000000000000, 

	0.0000000000000000, 

	0.0000000000000000, 

	0.0000000000000000, 

	0.0000000000000000, 

	0.0000000000000000, 

	-0.0000000000000000, 

	-0.0000000000000000, 

	0.0000000000000000, 

	-0.0000000000000000, 


	-0.0000000000000000, 

	0.0000000000000000, 

	0.0000000000000000, 

	-0.0000000000000000, 

	-0.0000000000000000, 

	-0.0000000000000000, 

	0.0000000000000000, 

	-0.0000000000000000, 

	-0.0000000000000000, 

	0.0000000000000000, 

	-0.0000000000000000, 

	0.0000000000000000, 

	0.0000000000000000, 

	-0.0000000000000000, 

	-0.0000000000000000, 

	0.0000000000000000, 

	0.0000000000000000, 

	0.0000000000000000, 

	0.0000000000000000, 

	-0.0000000000000000, 

	0.0000000000000000, 

	-0.0000000000000000, 

	-0.0000000000000000, 

	0.0000000000000000, 

	0.0000000000000000, 

	0.0000000000000000, 

	-0.0000000000000000, 

	0.0000000000000000, 

	0.0000000000000000, 

	0.0000000000000000, 

	-0.0000000000000000, 

	-0.0000000000000000, 


	-0.3050226271152496, 

	-0.4282800555229187, 

	-0.0000000000000000, 

	0.0000000000179570, 

	0.0000000000000000, 

	-0.1431831866502762, 

	0.3921263217926025, 

	-0.0000000000008175, 

	-0.0000000000000000, 

	-0.0056912987492979, 

	0.0000000000000000, 

	0.0089730722829700, 

	-0.2698314487934113, 

	-0.2627128958702087, 

	0.0486228317022324, 

	-0.0000000000000000, 

	0.0618000812828541, 

	0.0000000000000000, 

	0.0000000000000000, 

	0.0542645007371902, 

	-0.0910601466894150, 

	-0.0000000000000000, 

	0.0000000000000000, 

	-0.0000000000000000, 

	-0.0949406698346138, 

	-0.0000000000000000, 

	0.1899546086788177, 

	-0.1199792996048927, 

	0.0000000000000000, 

	0.0542465448379517, 

	-0.3335933685302734, 

	0.0124959852546453, 


	-0.0000000000000000, 

	-0.0000000000000000, 

	0.0000000000000000, 

	-0.0000000000000000, 

	-0.0000000000000000, 

	0.0000000000000000, 

	0.0000000000000000, 

	0.0000000000000000, 

	-0.0000000000000000, 

	0.0000000000000000, 

	0.0000000000000000, 

	-0.0000000000000000, 

	0.0000000000000000, 

	0.0000000000000000, 

	-0.0000000000000000, 

	-0.0000000000000000, 

	-0.0000000000000000, 

	0.0000000000000000, 

	0.0000000000000000, 

	0.0000000000000000, 

	-0.0000000000000000, 

	0.0000000000000000, 

	-0.0000000000000000, 

	-0.0000000000000000, 

	0.0000000000000000, 

	0.0000000000000000, 

	0.0000000000000000, 

	0.0000000000000000, 

	-0.0000000000000000, 

	-0.0000000000000000, 

	-0.0000000000000000, 

	0.0000000000000000, 


	-0.0000000000000000, 

	0.0000000000000000, 

	-0.0000000000000000, 

	0.0000000000000000, 

	-0.0000000000000000, 

	0.0000000000000000, 

	-0.0000000000000000, 

	0.0000000000000000, 

	-0.0000000000000000, 

	-0.0000000000000000, 

	-0.0000000000000000, 

	-0.0000000000000000, 

	0.0000000000000000, 

	0.0000000000000000, 

	-0.0000000000000000, 

	-0.0000000000000000, 

	0.0000000000000000, 

	0.0000000000000000, 

	0.0000000000000000, 

	-0.0000000000000000, 

	-0.0000000000000000, 

	0.0000000000000000, 

	0.0000000000000000, 

	-0.0000000000000000, 

	-0.0000000000000000, 

	0.0000000000000000, 

	0.0000000000000000, 

	0.0000000000000000, 

	0.0000000000000000, 

	-0.0000000000000000, 

	0.0000000000000000, 

	0.0000000000000000, 


	-0.0000000000755545, 

	0.0000000000000000, 

	0.0000000000000000, 

	0.0000000000000000, 

	-0.0000000000000000, 

	-0.0000000000000000, 

	0.0000000034387180, 

	-0.0000000000000000, 

	-0.0000000000000000, 

	0.0000000000000000, 

	-0.0000000000000000, 

	0.0000000000000000, 

	0.0000000000000000, 

	-0.0000000000000000, 

	-0.0000000000000000, 

	-0.0000000000000000, 

	0.0000000000000000, 

	0.0000000000000000, 

	0.0000000000000000, 

	-0.0000000000000000, 

	-0.0000000000000000, 

	-0.0000000000000000, 

	-0.0000000000000000, 

	-0.0000000000000000, 

	-0.0000000000000000, 

	-0.0000000000000000, 

	-0.0000000000000000, 

	0.0000000000000000, 

	0.0000000000000000, 

	-0.0000000000000000, 

	0.0000000000000000, 

	-0.0000000000000000, 


	0.0446625426411629, 

	0.0763586685061455, 

	0.0000000000000000, 

	0.0000000000000000, 

	0.0000000000000000, 

	-0.0434696637094021, 

	0.4179633557796478, 

	-0.0000000000000001, 

	-0.0000000000000000, 

	0.0000076579208326, 

	-0.0000000000000000, 

	-0.1245632916688919, 

	-0.0575561448931694, 

	-0.0404888466000557, 

	-0.0014341231435537, 

	0.0000000000000000, 

	-0.0806150063872337, 

	-0.0000000000000000, 

	0.0000000000000000, 

	0.0021310846786946, 

	0.0855042114853859, 

	0.0000000000000000, 

	-0.0000000000000000, 

	0.0000000000000000, 

	0.0168802049010992, 

	0.0000000000000000, 

	-0.0642926394939423, 

	-0.2414014637470245, 

	0.0000000000000000, 

	0.0124021619558334, 

	0.2032783478498459, 

	-0.0050661629065871, 


	-0.0000000000000000, 

	-0.0000000000000000, 

	0.0000000000000000, 

	0.0000000000000000, 

	-0.0000000000000000, 

	-0.0000000000000000, 

	0.0000000000000000, 

	-0.0000000000000000, 

	0.0000000000000000, 

	-0.0000000000000000, 

	0.0000000000000000, 

	-0.0000000000000000, 

	-0.0000000000000000, 

	0.0000000000000000, 

	0.0000000000000000, 

	-0.0000000000000000, 

	-0.0000000000000000, 

	-0.0000000000000000, 

	-0.0000000000000000, 

	-0.0000000000000000, 

	-0.0000000000000000, 

	0.0000000000000000, 

	0.0000000000000000, 

	-0.0000000000000000, 

	-0.0000000000000000, 

	-0.0000000000000000, 

	0.0000000000000000, 

	0.0000000000000000, 

	0.0000000000000000, 

	-0.0000000000000000, 

	0.0000000000000000, 

	-0.0000000000000000, 


	-0.0802533477544785, 

	-0.1445181816816330, 

	-0.0000000000000000, 

	0.0000000000000000, 

	-0.0000000000000000, 

	0.1360002607107162, 

	0.0003074139531236, 

	-0.0000000000000000, 

	0.0000000000000000, 

	0.0001608929451322, 

	0.0000000000000000, 

	-0.0304603893309832, 

	-0.2775540053844452, 

	-0.1817554831504822, 

	-0.0099012330174446, 

	0.0000000000000000, 

	-0.0622896216809750, 

	0.0000000000000000, 

	0.0000000000000000, 

	0.0000722870026948, 

	0.0807409659028053, 

	0.0000000000000000, 

	0.0000000000000000, 

	0.0000000000000000, 

	0.1383211016654968, 

	-0.0000000000000000, 

	0.0617523007094860, 

	0.0045432462356985, 

	-0.0000000000000000, 

	-0.0199790820479393, 

	-0.0807041451334953, 

	-0.0544194057583809, 


	-0.0242444258183241, 

	-0.0007630972540937, 

	-0.0000000000000000, 

	-0.0000000000000000, 

	0.0000000000000000, 

	-0.0051772398874164, 

	0.0769643113017082, 

	-0.0000000000000000, 

	0.0000000000000000, 

	-0.0000027015612432, 

	0.0000000000000000, 

	-0.0024079771246761, 

	-0.0080944960936904, 

	0.0078474776819348, 

	0.0004269995843060, 

	-0.0000000000000000, 

	0.0046655791811645, 

	-0.0000000000000000, 

	0.0000000000000000, 

	0.0002216467401013, 

	-0.0011743427021429, 

	0.0000000000000000, 

	0.0000000000000000, 

	-0.0000000000000000, 

	0.0010302533628419, 

	0.0000000000000000, 

	0.0119638200849295, 

	-0.0068324976600707, 

	-0.0000000000000000, 

	-0.0001486493129050, 

	-0.0044003734365106, 

	0.0004712215450127, 


	0.0423342920839787, 

	-0.1087560206651688, 

	-0.0000000000000000, 

	-0.0000000000000003, 

	-0.0000000000000000, 

	-0.0620584376156330, 

	0.2480037808418274, 

	0.0000000000000000, 

	0.0000000000000000, 

	-0.0001744333130773, 

	-0.0000000000000000, 

	-0.0918238088488579, 

	-0.1862026900053024, 

	0.1184764131903648, 

	-0.0058808694593608, 

	0.0000000000000000, 

	0.1378247290849686, 

	0.0000000000000000, 

	0.0000000000000000, 

	-0.0038440965581685, 

	0.0871198102831841, 

	-0.0000000000000000, 

	-0.0000000000000000, 

	0.0000000000000000, 

	0.0564438216388226, 

	-0.0000000000000000, 

	-0.0996592864394188, 

	0.0805105268955231, 

	-0.0000000000000000, 

	-0.0149435456842184, 

	0.2572776675224304, 

	-0.0073343412950635, 


	0.0099009582772851, 

	-0.1766115576028824, 

	-0.0000000000000000, 

	-0.0000000000227828, 

	0.0000000000000000, 

	0.0882555022835732, 

	-0.0626001432538033, 

	0.0000000000060531, 

	-0.0000000000000000, 

	0.0000857936393004, 

	-0.0000000000000000, 

	-0.1182860508561134, 

	0.2780683040618896, 

	-0.0804462581872940, 

	-0.0214645452797413, 

	0.0000000000000000, 

	-0.0531637072563171, 

	0.0000000000000034, 

	0.0000000000000000, 

	0.0027740735094994, 

	0.0955177024006844, 

	-0.0000000000000000, 

	-0.0000000000000000, 

	0.0000000000000000, 

	-0.1419617682695389, 

	-0.0000000000000000, 

	-0.1911291480064392, 

	-0.0547391697764397, 

	-0.0000000000000000, 

	0.0391291119158268, 

	0.0972489565610886, 

	0.0594935379922390, 


	0.0000000000000000, 

	-0.0000000000000000, 

	0.0000000000000000, 

	-0.0000000000000000, 

	-0.0000000000000000, 

	-0.0000000000000000, 

	-0.0000000000000000, 

	0.0000000000000000, 

	-0.0000000000000000, 

	0.0000000000000000, 

	-0.0000000000000000, 

	-0.0000000000000000, 

	0.0000000000000000, 

	-0.0000000000000000, 

	-0.0000000000000000, 

	0.0000000000000000, 

	-0.0000000000000000, 

	-0.0000000000000000, 

	0.0000000000000000, 

	-0.0000000000000000, 

	0.0000000000000000, 

	0.0000000000000000, 

	0.0000000000000000, 

	-0.0000000000000000, 

	0.0000000000000000, 

	0.0000000000000000, 

	0.0000000000000000, 

	-0.0000000000000000, 

	0.0000000000000000, 

	0.0000000000000000, 

	0.0000000000000000, 

	0.0000000000000000, 


	0.0599907785654068, 

	-0.0345517508685589, 

	-0.0000000000000000, 

	-0.0000000000000000, 

	0.0000000000000000, 

	0.1516151875257492, 

	0.0998967140913010, 

	-0.0000000000000001, 

	-0.0000000000000000, 

	-0.0000064240598476, 

	-0.0000000000000000, 

	-0.0580331459641457, 

	-0.2649205327033997, 

	-0.0606975220143795, 

	0.0013218806125224, 

	-0.0000000000000000, 

	-0.0019523733062670, 

	-0.0000000000000000, 

	0.0000000000000000, 

	-0.0046786740422249, 

	0.0690440014004707, 

	-0.0000000000000000, 

	0.0000000000000000, 

	0.0000000000000000, 

	0.1319851577281952, 

	0.0000000000000000, 

	0.1302485018968582, 

	0.0361083038151264, 

	0.0000000000000000, 

	-0.0103511586785316, 

	-0.0055706077255309, 

	-0.0356665290892124, 


	-0.0204995106905699, 

	-0.0321939364075661, 

	-0.0000000000000000, 

	0.0000000000000000, 

	0.0000000000000000, 

	0.0001555847702548, 

	0.0073086977936327, 

	-0.0000000000000000, 

	-0.0000000000000000, 

	-0.0000008361798791, 

	-0.0000000000000000, 

	-0.0002976716787089, 

	-0.0416489169001579, 

	0.0131055694073439, 

	0.0000508758021169, 

	0.0000000000000000, 

	-0.0008249268867075, 

	0.0000000000000000, 

	0.0000000000000000, 

	0.0000840259308461, 

	0.0017547844909132, 

	0.0000000000000000, 

	0.0000000000000000, 

	0.0000000000000000, 

	-0.0010735871037468, 

	-0.0000000000000000, 

	0.0154299456626177, 

	-0.0034966454841197, 

	0.0000000000000000, 

	0.0003890508669429, 

	-0.0483250506222248, 

	-0.0001164782443084, 


	0.0000000000000000, 

	-0.0000000000000000, 

	0.0000000000000000, 

	-0.0000000000000000, 

	0.0000000000000000, 

	-0.0000000000000000, 

	-0.0000000000000000, 

	0.0000000000000000, 

	0.0000000000000000, 

	-0.0000000000000000, 

	-0.0000000000000000, 

	0.0000000000000000, 

	-0.0000000000000000, 

	-0.0000000000000000, 

	-0.0000000000000000, 

	-0.0000000000000000, 

	0.0000000000000000, 

	0.0000000000000000, 

	-0.0000000000000000, 

	-0.0000000000000000, 

	0.0000000000000000, 

	0.0000000000000000, 

	-0.0000000000000000, 

	-0.0000000000000000, 

	-0.0000000000000000, 

	-0.0000000000000000, 

	0.0000000000000000, 

	-0.0000000000000000, 

	-0.0000000000000000, 

	0.0000000000000000, 

	-0.0000000000000000, 

	0.0000000000000000, 


	-0.0000000000001426, 

	-0.0000000000000000, 

	0.0000000000000000, 

	0.0000000000000000, 

	-0.0000000000000000, 

	-0.0000000000000000, 

	-0.0000000000000016, 

	-0.0000000000000000, 

	0.0000000000000000, 

	-0.0000000000000000, 

	-0.0000000000000000, 

	-0.0000000000000000, 

	-0.0000000000000000, 

	0.0000000000000581, 

	0.0000000000000000, 

	0.0000000000000000, 

	0.0000000000000000, 

	0.0000000000000000, 

	0.0000000000000000, 

	-0.0000000000000000, 

	0.0000000000000000, 

	0.0000000000000000, 

	-0.0000000000000000, 

	0.0000000000000000, 

	0.0000000000000000, 

	-0.0000000000000000, 

	-0.0000000000000000, 

	-0.0000000000000000, 

	0.0000000000000000, 

	-0.0000000000000000, 

	-0.0000000000000000, 

	-0.0000000000000000, 


	0.1661379039287567, 

	0.0325634330511093, 

	-0.0000000000000000, 

	-0.0000000000000000, 

	0.0000000000000000, 

	0.0386162213981152, 

	-0.0875677615404129, 

	0.0000000000000000, 

	-0.0000000000000000, 

	-0.0000047544413064, 

	-0.0000000000000000, 

	0.0562001913785934, 

	0.0896429866552353, 

	-0.0081333220005035, 

	0.0024184503126889, 

	0.0000000000000000, 

	0.0001651432830840, 

	-0.0000000000000000, 

	-0.0000000000000000, 

	0.0008642814354971, 

	0.0336356721818447, 

	0.0000000000000000, 

	0.0000000000000000, 

	0.0000000000000000, 

	-0.0174306072294712, 

	0.0000000000000000, 

	0.0447494089603424, 

	0.0134007241576910, 

	0.0000000000000000, 

	0.0011925153667107, 

	-0.0561932697892189, 

	-0.0017372521106154, 


	0.0000000000000000, 

	-0.0000000000000000, 

	-0.0000000000000000, 

	0.0000000000000000, 

	0.0000000000000000, 

	0.0000000000000000, 

	0.0000000000000000, 

	-0.0000000000000000, 

	-0.0000000000000000, 

	0.0000000000000000, 

	-0.0000000000000000, 

	0.0000000000000000, 

	0.0000000000000000, 

	-0.0000000000000000, 

	0.0000000000000000, 

	-0.0000000000000000, 

	-0.0000000000000000, 

	-0.0000000000000000, 

	-0.0000000000000000, 

	0.0000000000000000, 

	-0.0000000000000000, 

	-0.0000000000000000, 

	0.0000000000000000, 

	0.0000000000000000, 

	-0.0000000000000000, 

	-0.0000000000000000, 

	-0.0000000000000000, 

	0.0000000000000000, 

	0.0000000000000000, 

	-0.0000000000000000, 

	0.0000000000000000, 

	-0.0000000000000000, 


	0.2590270936489105, 

	0.0692622736096382, 

	0.0000000000000000, 

	-0.0000000000000000, 

	-0.0000000000000000, 

	0.0821720659732819, 

	0.4033005833625793, 

	0.0000000000000000, 

	0.0000000000000000, 

	-0.0000231185040320, 

	0.0000000000000000, 

	-0.0764834135770798, 

	-0.0178598761558533, 

	0.0221895165741444, 

	0.0015742442337796, 

	-0.0000000000000000, 

	-0.0740911215543747, 

	-0.0000000000000000, 

	-0.0000000000000000, 

	0.0013895853189752, 

	0.1196253448724747, 

	0.0000000000000000, 

	0.0000000000000000, 

	0.0000000000000000, 

	0.1196683943271637, 

	-0.0000000000000000, 

	-0.1377750635147095, 

	-0.1174264922738075, 

	-0.0000000000000000, 

	0.0066173756495118, 

	0.1036690175533295, 

	-0.0168536156415939, 


	-0.2105089277029037, 

	-0.1053435653448105, 

	0.0000000000000000, 

	-0.0000000000000000, 

	-0.0000000000000000, 

	-0.0236638765782118, 

	-0.0181680526584387, 

	-0.0000000000000001, 

	0.0000000000000000, 

	-0.0000134041965794, 

	-0.0000000000000000, 

	0.0094596324488521, 

	-0.3062586188316345, 

	-0.2364668995141983, 

	-0.0024086635094136, 

	0.0000000000000000, 

	-0.0495823845267296, 

	0.0000000000000000, 

	0.0000000000000000, 

	0.0056691495701671, 

	0.0494360923767090, 

	-0.0000000000000000, 

	-0.0000000000000000, 

	-0.0000000000000000, 

	0.0202241931110620, 

	-0.0000000000000000, 

	0.0453927554190159, 

	-0.0256941672414541, 

	0.0000000000000000, 

	-0.0177398212254047, 

	-0.1744167059659958, 

	0.0082323253154755, 


	-0.0000000000000000, 

	0.0000000000000000, 

	-0.0000000000000000, 

	-0.0000000000000000, 

	-0.0000000000000000, 

	0.0000000000000000, 

	-0.0000000000000000, 

	-0.0000000000000000, 

	-0.0000000000000000, 

	-0.0000000000000000, 

	0.0000000000000000, 

	0.0000000000000000, 

	0.0000000000000000, 

	-0.0000000000000000, 

	0.0000000000000000, 

	0.0000000000000000, 

	-0.0000000000000000, 

	-0.0000000000000000, 

	-0.0000000000000000, 

	0.0000000000000000, 

	0.0000000000000000, 

	0.0000000000000000, 

	-0.0000000000000000, 

	0.0000000000000000, 

	0.0000000000000000, 

	-0.0000000000000000, 

	-0.0000000000000000, 

	-0.0000000000000000, 

	-0.0000000000000000, 

	-0.0000000000000000, 

	0.0000000000000000, 

	0.0000000000000000, 


	0.0000000000000000, 

	-0.0000000000000000, 

	0.0000000000000000, 

	-0.0000000000000000, 

	-0.0000000000000000, 

	0.0000000000000000, 

	0.0000000000000000, 

	0.0000000000000000, 

	-0.0000000000000000, 

	-0.0000000000000000, 

	-0.0000000000000000, 

	-0.0000000000000000, 

	-0.0000000000000000, 

	0.0000000000000000, 

	-0.0000000000000000, 

	-0.0000000000000000, 

	0.0000000000000000, 

	-0.0000000000000000, 

	0.0000000000000000, 

	-0.0000000000000000, 

	0.0000000000000000, 

	-0.0000000000000000, 

	0.0000000000000000, 

	-0.0000000000000000, 

	-0.0000000000000000, 

	0.0000000000000000, 

	-0.0000000000000000, 

	-0.0000000000000000, 

	-0.0000000000000000, 

	0.0000000000000000, 

	0.0000000000000000, 

	-0.0000000000000000, 


	0.0797339603304863, 

	0.0613130331039429, 

	-0.0000000000000000, 

	0.0000000000000000, 

	-0.0000000000000000, 

	0.0372508876025677, 

	0.2587317526340485, 

	0.0000000000000001, 

	0.0000000000000000, 

	-0.0000009713863847, 

	-0.0000000000000000, 

	-0.0323069952428341, 

	-0.1435444056987762, 

	0.1259641349315643, 

	-0.0005723295034841, 

	-0.0000000000000000, 

	-0.0779284685850143, 

	-0.0000000000000000, 

	0.0000000000000000, 

	-0.0031819427385926, 

	-0.0341504774987698, 

	0.0000000000000000, 

	-0.0000000000000000, 

	-0.0000000000000000, 

	0.0503625385463238, 

	0.0000000000000000, 

	-0.0643827468156815, 

	-0.0887759774923325, 

	-0.0000000000000000, 

	-0.0064080469310284, 

	0.1063170805573463, 

	-0.0216303635388613, 


	0.1706457138061523, 

	0.0417920053005219, 

	0.0000000000000000, 

	0.0000000000000000, 

	0.0000000000000000, 

	0.0626208707690239, 

	0.2410575300455093, 

	0.0000000000000000, 

	-0.0000000000000000, 

	-0.0000162479063874, 

	0.0000000000000000, 

	-0.0775693133473396, 

	-0.0153072597458959, 

	0.0287084318697453, 

	0.0009203399531543, 

	0.0000000000000000, 

	-0.0197242889553308, 

	0.0000000000000000, 

	-0.0000000000000000, 

	0.0019798628054559, 

	0.0601002573966980, 

	0.0000000000000000, 

	-0.0000000000000000, 

	-0.0000000000000000, 

	0.0782622247934341, 

	0.0000000000000000, 

	-0.0213333722203970, 

	-0.0724009573459625, 

	0.0000000000000000, 

	0.0095165511593223, 

	0.1128512024879456, 

	-0.0082541666924953, 


	0.0000000000000000, 

	-0.0000000000000000, 

	-0.0000000000000000, 

	-0.0000000000000000, 

	0.0000000000000000, 

	0.0000000000000000, 

	-0.0000000000000000, 

	0.0000000000000000, 

	-0.0000000000000000, 

	0.0000000000000000, 

	-0.0000000000000000, 

	-0.0000000000000000, 

	-0.0000000000000000, 

	0.0000000000000000, 

	-0.0000000000000000, 

	0.0000000000000000, 

	0.0000000000000000, 

	-0.0000000000000000, 

	0.0000000000000000, 

	0.0000000000000000, 

	-0.0000000000000000, 

	0.0000000000000000, 

	-0.0000000000000000, 

	-0.0000000000000000, 

	0.0000000000000000, 

	-0.0000000000000000, 

	-0.0000000000000000, 

	-0.0000000000000000, 

	-0.0000000000000000, 

	0.0000000000000000, 

	0.0000000000000000, 

	0.0000000000000000, 


	-0.2623584270477295, 

	-0.1052347272634506, 

	-0.0000000000000000, 

	-0.0000000000000000, 

	-0.0000000000000000, 

	0.0655404850840569, 

	-0.3350164294242859, 

	-0.0000000000000005, 

	-0.0000000000000000, 

	-0.0000534576138307, 

	0.0000000000000000, 

	0.1441757977008820, 

	-0.0242219436913729, 

	-0.1590075343847275, 

	0.0057964376173913, 

	-0.0000000000000000, 

	0.0744217112660408, 

	0.0000000000000000, 

	0.0000000000000000, 

	-0.0066465954296291, 

	-0.0509859547019005, 

	-0.0000000000000000, 

	0.0000000000000000, 

	-0.0000000000000000, 

	-0.0300971549004316, 

	-0.0000000000000000, 

	0.1925766170024872, 

	0.1359448581933975, 

	0.0000000000000000, 

	-0.0279137846082449, 

	-0.1884723305702209, 

	-0.0056614717468619, 


	0.0000000000000000, 

	0.0000000000000000, 

	0.0000000000000000, 

	0.0000000000000000, 

	-0.0000000000000000, 

	-0.0000000000000000, 

	0.0000000000000000, 

	-0.0000000000000000, 

	-0.0000000000000000, 

	-0.0000000000000000, 

	0.0000000000000000, 

	0.0000000000000000, 

	-0.0000000000000000, 

	-0.0000000000000000, 

	0.0000000000000000, 

	-0.0000000000000000, 

	-0.0000000000000000, 

	-0.0000000000000000, 

	-0.0000000000000000, 

	0.0000000000000000, 

	-0.0000000000000000, 

	-0.0000000000000000, 

	-0.0000000000000000, 

	0.0000000000000000, 

	0.0000000000000000, 

	0.0000000000000000, 

	0.0000000000000000, 

	0.0000000000000000, 

	0.0000000000000000, 

	0.0000000000000000, 

	-0.0000000000000000, 

	-0.0000000000000000, 


	0.0000000462563143, 

	0.0000000001192969, 

	-0.0000000000000000, 

	0.0000000000000000, 

	-0.0000000000000000, 

	-0.0000000000521184, 

	0.0000013324061001, 

	0.0000000000000000, 

	-0.0000000000000000, 

	0.0000000000000838, 

	0.0000000000000000, 

	0.0000000002680042, 

	-0.0000000001234992, 

	0.0000000000690002, 

	-0.0000000000053750, 

	-0.0000000000000000, 

	-0.0000000001087395, 

	0.0000000000000000, 

	0.0000000000000000, 

	-0.0000000000000682, 

	-0.0000000000874817, 

	-0.0000000000000000, 

	-0.0000000000000000, 

	-0.0000000000000000, 

	-0.0000000002081958, 

	-0.0000000000000000, 

	0.0000000000029237, 

	0.0000000002166582, 

	-0.0000000000000000, 

	-0.0000000000020889, 

	0.0000000000126342, 

	0.0000000000125526, 


	0.0549564287066460, 

	0.0043650446459651, 

	-0.0000000000000000, 

	0.0000000000000000, 

	-0.0000000000000000, 

	0.0951175466179848, 

	-0.2736254632472992, 

	0.0000000000000002, 

	0.0000000000000000, 

	-0.0000395466959162, 

	0.0000000000000000, 

	0.2317763417959213, 

	0.1836778819561005, 

	-0.0981124192476273, 

	0.0028390598017722, 

	0.0000000000000000, 

	0.0234573576599360, 

	-0.0000000000000000, 

	-0.0000000000000000, 

	-0.0294735711067915, 

	0.1881312429904938, 

	-0.0000000000000000, 

	0.0000000000000000, 

	-0.0000000000000000, 

	-0.0622755065560341, 

	0.0000000000000000, 

	-0.0780830159783363, 

	0.0665388032793999, 

	0.0000000000000000, 

	-0.0987333804368973, 

	-0.1743933409452438, 

	0.0349169708788395, 


	0.3459399640560150, 

	0.0021555111743510, 

	0.0000000000000000, 

	0.0000000000000000, 

	0.0000000000000000, 

	0.0843982547521591, 

	-0.0355588085949421, 

	-0.0000000000000000, 

	0.0000000000000000, 

	-0.0000562746354262, 

	-0.0000000000000000, 

	-0.0143054779618979, 

	0.2640835046768188, 

	0.0545034967362881, 

	0.0002665389329195, 

	0.0000000000000000, 

	-0.0609489642083645, 

	-0.0000000000000000, 

	-0.0000000000000000, 

	0.0008305130177177, 

	0.0907982885837555, 

	0.0000000000000000, 

	-0.0000000000000000, 

	-0.0000000000000000, 

	-0.0287357792258263, 

	-0.0000000000000000, 

	-0.2816938757896423, 

	0.0097934463992715, 

	-0.0000000000000000, 

	0.0000873101162142, 

	0.0479939728975296, 

	0.0074972375296056, 


	0.2719274461269379, 

	-0.2704433798789978, 

	-0.0000000000000000, 

	-0.0000000000000000, 

	0.0000000000000000, 

	0.3079767823219299, 

	-0.1810574829578400, 

	-0.0000000000000004, 

	0.0000000000000000, 

	-0.0006333671626635, 

	-0.0000000000000000, 

	0.2424573749303818, 

	-0.1890592277050018, 

	-0.3222387433052063, 

	0.0216609854251146, 

	0.0000000000000000, 

	0.0097867846488953, 

	-0.0000000000000000, 

	0.0000000000000000, 

	-0.0535007305443287, 

	0.2066157907247543, 

	0.0000000000000000, 

	-0.0000000000000000, 

	-0.0000000000000000, 

	0.1712105721235275, 

	-0.0000000000000000, 

	0.0184143688529730, 

	0.1457408964633942, 

	-0.0000000000000000, 

	-0.1369186490774155, 

	-0.0425146818161011, 

	-0.0354851186275482, 


	0.0000000000000000, 

	0.0000000000000000, 

	0.0000000000000000, 

	0.0000000000000000, 

	-0.0000000000000000, 

	-0.0000000000000000, 

	-0.0000000000000000, 

	-0.0000000000000000, 

	0.0000000000000000, 

	0.0000000000000000, 

	-0.0000000000000000, 

	0.0000000000000000, 

	-0.0000000000000000, 

	0.0000000000000000, 

	-0.0000000000000000, 

	0.0000000000000000, 

	0.0000000000000000, 

	0.0000000000000000, 

	0.0000000000000000, 

	-0.0000000000000000, 

	-0.0000000000000000, 

	0.0000000000000000, 

	-0.0000000000000000, 

	-0.0000000000000000, 

	-0.0000000000000000, 

	-0.0000000000000000, 

	0.0000000000000000, 

	-0.0000000000000000, 

	-0.0000000000000000, 

	0.0000000000000000, 

	0.0000000000000000, 

	-0.0000000000000000, 


	-0.3138037025928497, 

	-0.2317730337381363, 

	-0.0000000000000000, 

	0.0000000000000000, 

	0.0000000000000000, 

	0.1857156157493591, 

	-0.0571118704974651, 

	-0.0000000000000002, 

	-0.0000000000000000, 

	0.0003184844390489, 

	-0.0000000000000000, 

	0.0311541371047497, 

	-0.3420440554618835, 

	-0.2746214568614960, 

	-0.0089042233303189, 

	-0.0000000000000000, 

	-0.0433055572211742, 

	-0.0000000000000000, 

	0.0000000000000000, 

	-0.0044786869548261, 

	0.0260988008230925, 

	0.0000000000000000, 

	-0.0000000000000000, 

	-0.0000000000000000, 

	0.1053525358438492, 

	-0.0000000000000000, 

	0.1727370321750641, 

	0.0421417281031609, 

	0.0000000000000000, 

	0.0080413753166795, 

	-0.1899648904800415, 

	-0.0219187047332525, 


};
float conv_weights_6[192] = {
	0.0000000000000000, 	0.0000000000000000, 
	0.0000000000000000, 	0.0000000000000000, 


	-0.0000000000000000, 	-0.0000000000000000, 
	-0.0000000000000000, 	0.0000000000000000, 


	-0.0000000000342221, 	-0.0000000000089147, 
	-0.0000000000188512, 	-0.0000000000023640, 


	-0.0000000000000000, 	-0.0000000000000000, 
	0.0000000000000000, 	0.0000000000000000, 


	-0.2067868560552597, 	0.0202089156955481, 
	0.0788253843784332, 	0.0391321741044521, 


	-0.0000000000000000, 	0.0000000000000000, 
	-0.0000000000000000, 	0.0000000000000000, 


	-0.0097739147022367, 	0.1013047471642494, 
	-0.0127068841829896, 	0.1928109228610992, 


	-0.2869068086147308, 	-0.0244364980608225, 
	0.0952696204185486, 	0.1982018649578094, 


	0.0000000000000000, 	-0.0000000000000000, 
	-0.0000000000000000, 	-0.0000000000000000, 


	0.2623406946659088, 	0.2948349714279175, 
	0.0068299481645226, 	0.0602919608354568, 


	-0.1721478551626205, 	0.1136373355984688, 
	-0.4243507385253906, 	-0.1176005229353905, 


	-0.0000000000000000, 	0.0000000000000000, 
	-0.0000000000000000, 	0.0000000000000000, 


	-0.1575725972652435, 	0.3337104618549347, 
	-0.2938261628150940, 	0.1221357807517052, 


	0.0000000000000002, 	0.0000000000000000, 
	0.0000000000000001, 	-0.0000000000000002, 


	0.0000000000000000, 	0.0000000000000000, 
	0.0000000000000000, 	-0.0000000000000000, 


	0.0000000000000000, 	0.0000000000000000, 
	-0.0000000000000000, 	-0.0000000000000000, 


	-0.3099821507930756, 	-0.4370239377021790, 
	0.3304957151412964, 	0.1915079802274704, 


	-0.0000000000000000, 	0.0000000000000000, 
	-0.0000000000000000, 	0.0000000000000000, 


	-0.0000000000000002, 	-0.0000000000000000, 
	0.0000000000000001, 	0.0000000000000000, 


	0.0000000000000000, 	0.0000000000000000, 
	0.0000000000000000, 	0.0000000000000000, 


	-0.2417040020227432, 	0.0535627305507660, 
	-0.1194678321480751, 	0.2137746810913086, 


	0.0000000000000000, 	-0.0000000000000000, 
	-0.0000000000000000, 	-0.0000000000000000, 


	0.2815747261047363, 	0.2077208757400513, 
	0.2024771869182587, 	0.1519011259078979, 


	0.0624601803719997, 	0.0390444137156010, 
	-0.0282598137855530, 	-0.0607468672096729, 


	-0.2018354088068008, 	-0.0975491777062416, 
	-0.2299407422542572, 	-0.0795689821243286, 


	0.1453983634710312, 	0.1417400389909744, 
	0.1617736369371414, 	0.2390520870685577, 


	0.0000000000000000, 	0.0000000000000000, 
	-0.0000000000000000, 	0.0000000000000000, 


	0.0844335108995438, 	0.0224618576467037, 
	0.2494297027587891, 	0.2204082310199738, 


	0.0009241237421520, 	-0.0013950438005850, 
	0.0278723984956741, 	0.0256644021719694, 


	-0.0000000000000000, 	-0.0000000000000000, 
	-0.0000000000000000, 	0.0000000000000000, 


	0.0000000000017791, 	0.0000000000088534, 
	0.0000000000020660, 	0.0000000000155064, 


	0.1857165396213531, 	-0.0527541525661945, 
	0.0707818418741226, 	0.0555220134556293, 


	0.0000000000000000, 	-0.0000000000000000, 
	0.0000000000000000, 	-0.0000000000000000, 


	0.2653332650661469, 	-0.0513787753880024, 
	-0.0449999980628490, 	-0.1689268350601196, 


	-0.1281052231788635, 	0.0196164567023516, 
	-0.2948934137821198, 	-0.1961306035518646, 


	0.0000000000000000, 	0.0000000000000000, 
	0.0000000000000000, 	0.0000000000000000, 


	0.0000000000000000, 	-0.0000000000000000, 
	0.0000000000000000, 	0.0000000000000000, 


	-0.0883797258138657, 	0.2156374603509903, 
	-0.1294317096471786, 	0.1885226815938950, 


	-0.1403170675039291, 	-0.0397696904838085, 
	-0.0577069111168385, 	0.2296063452959061, 


	0.0000000000000000, 	0.0000000000000000, 
	0.0000000000000000, 	0.0000000000000000, 


	-0.2610193789005280, 	0.2720592617988586, 
	-0.0953200757503510, 	0.2944403886795044, 


	-0.0000000000000000, 	0.0000000000000000, 
	0.0000000000000000, 	-0.0000000000000000, 


	-0.0002203402400482, 	0.0000548623829673, 
	0.0001424490037607, 	-0.0000196608580154, 


	0.2411657124757767, 	0.2838692963123322, 
	0.0040492890402675, 	0.1091234907507896, 


	0.1708185076713562, 	-0.2489271461963654, 
	0.0369123741984367, 	0.0482646673917770, 


	0.3769870400428772, 	0.0420666560530663, 
	-0.1865077018737793, 	-0.3038723170757294, 


	-0.0000000001231268, 	0.0000000008769175, 
	0.0000000014708427, 	-0.0000000000109870, 


	-0.4763266444206238, 	-0.4564383924007416, 
	-0.0521134063601494, 	0.0188132207840681, 


};
float conv_weights_7[3072] = {
	-0.0000000000000000, 

	0.0000000000000000, 

	-0.0000000000000000, 

	-0.0000000000000000, 

	0.0049878628924489, 

	0.0000000000000000, 

	0.1503806859254837, 

	0.0466466732323170, 

	-0.0000000000000000, 

	0.0254098903387785, 

	-0.1415753215551376, 

	0.0000000000000000, 

	-0.1333385407924652, 

	0.0000000000000000, 

	0.0000000000000000, 

	0.0000000000000000, 

	0.4356975257396698, 

	-0.0000000000000000, 

	-0.0000000000000000, 

	-0.0000000000000000, 

	-0.0664349347352982, 

	-0.0000000000000000, 

	-0.0239412505179644, 

	-0.0016068614786491, 

	-0.0504470169544220, 

	0.1145772710442543, 

	-0.0000000000000000, 

	0.0064187967218459, 

	0.0045132320374250, 

	0.0000000000000000, 

	-0.0000000000000000, 

	-0.0677914023399353, 

	-0.0000000000000000, 

	0.0431076586246490, 

	0.0197611786425114, 

	-0.0000000000000000, 

	-0.0000000000000000, 

	-0.1507482826709747, 

	-0.0206983014941216, 

	-0.0000000000000000, 

	0.1123491898179054, 

	-0.0000000000000000, 

	-0.0000000018569174, 

	0.1160383597016335, 

	-0.0628795921802521, 

	-0.2540239691734314, 

	0.0000000000000000, 

	0.1109055280685425, 


	0.0000000000000000, 

	0.0000000000000000, 

	0.0000000000000000, 

	-0.0000000000000000, 

	-0.0010373439872637, 

	-0.0000000000000000, 

	0.0079538244754076, 

	-0.0014890449820086, 

	-0.0000000000000000, 

	-0.0299371648579836, 

	0.0138053828850389, 

	0.0000000000000000, 

	-0.1058936938643456, 

	-0.0000000000000000, 

	0.0000000000000000, 

	-0.0000000000000000, 

	0.0579793713986874, 

	0.0000000000000000, 

	0.0000000000000000, 

	0.0000000000000000, 

	0.0096557447686791, 

	0.0000000000000000, 

	0.0221504252403975, 

	0.0015515552368015, 

	0.0450273118913174, 

	-0.0674668848514557, 

	0.0000000000000000, 

	-0.0112115219235420, 

	0.0001883744407678, 

	-0.0000000000000000, 

	-0.0000000000000000, 

	0.0017722796183079, 

	0.0000000000000000, 

	0.0087491795420647, 

	-0.0092070018872619, 

	0.0000000000000000, 

	-0.0000000000000000, 

	-0.0051936288364232, 

	0.0040987026877701, 

	0.0000000000000000, 

	0.0069973678328097, 

	-0.0000000000000000, 

	-0.0000000002257160, 

	-0.0046526538208127, 

	0.0290710087865591, 

	0.0751623511314392, 

	-0.0000000000000000, 

	-0.0922438800334930, 


	0.0000000000000000, 

	-0.0000000000000000, 

	-0.0000000000000000, 

	-0.0000000000000000, 

	-0.1169426515698433, 

	-0.0000000000000000, 

	0.1710121035575867, 

	-0.0224510338157415, 

	-0.0000000000000000, 

	0.0645266473293304, 

	0.1295104473829269, 

	-0.0000000000000000, 

	0.0968202948570251, 

	0.0000000000000000, 

	0.0000000000000000, 

	0.0000000000000000, 

	-0.3291901350021362, 

	0.0000000000000000, 

	-0.0000000000000000, 

	-0.0000000000000000, 

	-0.1482519060373306, 

	0.0000000000000000, 

	-0.1069803684949875, 

	0.0332685112953186, 

	0.1802095025777817, 

	0.0215693954378366, 

	-0.0000000000000000, 

	0.0215214900672436, 

	-0.0106962444260716, 

	0.0000000000000000, 

	-0.0000000000000000, 

	0.0126020675525069, 

	0.0000000000000000, 

	0.1003856509923935, 

	0.0636218115687370, 

	-0.0000000000000000, 

	-0.0000000000000000, 

	-0.1038799881935120, 

	-0.0254620332270861, 

	-0.0000000000000000, 

	0.0634307265281677, 

	-0.0000000000000000, 

	-0.0000000339527055, 

	0.0298390462994576, 

	-0.0329250730574131, 

	0.0942068845033646, 

	-0.0000000000000000, 

	0.0781277418136597, 


	0.0000000000000000, 

	0.0000000000000000, 

	0.0000000000000000, 

	-0.0000000000000000, 

	0.0002921655832324, 

	0.0000000000000000, 

	-0.0064096515998244, 

	0.0001830436231103, 

	0.0000000000000000, 

	-0.0091829495504498, 

	0.0050201597623527, 

	-0.0000000000000000, 

	-0.0021284630056471, 

	-0.0000000000000000, 

	-0.0000000000000000, 

	0.0000000000000000, 

	0.0071859573945403, 

	0.0000000000000000, 

	-0.0000000000000000, 

	0.0000000000000000, 

	0.0010218898532912, 

	-0.0000000000000000, 

	-0.0067543750628829, 

	-0.0000000000000081, 

	0.0086811147630215, 

	-0.0089123304933310, 

	-0.0000000000000000, 

	-0.0048690489493310, 

	-0.0000000000000002, 

	0.0000000000000000, 

	-0.0000000000000000, 

	-0.0027337879873812, 

	-0.0000000000000000, 

	0.0000232281963690, 

	0.0033459523692727, 

	0.0000000000000000, 

	0.0000000000000000, 

	-0.0035536698997021, 

	0.0000027092326036, 

	-0.0000000000000000, 

	0.0003250220615882, 

	-0.0000000000000000, 

	-0.0000000000000000, 

	-0.0094135170802474, 

	0.0000004780758331, 

	0.0003562090278137, 

	-0.0000000000000000, 

	0.0031752481590956, 


	0.0000000000000000, 

	0.0000000000000000, 

	0.0000000000000000, 

	-0.0000000000000000, 

	-0.0000000000000119, 

	-0.0000000000000000, 

	-0.0000000000000416, 

	-0.0000000000000279, 

	0.0000000000000000, 

	-0.0000000000000022, 

	-0.0000000000000000, 

	0.0000000000000000, 

	-0.0000000000026514, 

	-0.0000000000000000, 

	0.0000000000000000, 

	0.0000000000000000, 

	0.0000000000000257, 

	0.0000000000000000, 

	0.0000000000000000, 

	0.0000000000000000, 

	-0.0000000000002226, 

	-0.0000000000000000, 

	-0.0000000000000001, 

	0.0000000000000000, 

	0.0000000000516008, 

	-0.0000000000253839, 

	0.0000000000000000, 

	0.0000000000000000, 

	0.0000000000000000, 

	0.0000000000000000, 

	-0.0000000000000000, 

	-0.0000000000000024, 

	0.0000000000000000, 

	0.0000000000000091, 

	0.0000000000000001, 

	0.0000000000000000, 

	-0.0000000000000000, 

	-0.0000000000000525, 

	0.0000000000000000, 

	-0.0000000000000000, 

	0.0000000000000000, 

	0.0000000000000000, 

	-0.0000000000000000, 

	-0.0000000000001544, 

	0.0000000000000000, 

	0.0000000000000044, 

	0.0000000000000000, 

	0.0000000000001018, 


	0.0000000000000000, 

	-0.0000000000000000, 

	-0.0000000000000000, 

	-0.0000000000000000, 

	-0.0289599429816008, 

	-0.0000000000000000, 

	0.0993267223238945, 

	-0.0290886014699936, 

	0.0000000000000000, 

	0.0063429903239012, 

	-0.1963416486978531, 

	0.0000000000000000, 

	-0.3312549591064453, 

	0.0000000000000000, 

	0.0000000000000000, 

	0.0000000000000000, 

	0.3562394380569458, 

	-0.0000000000000000, 

	-0.0000000000000000, 

	0.0000000000000000, 

	-0.2536336183547974, 

	0.0000000000000000, 

	0.0668770521879196, 

	-0.0096550825983286, 

	-0.1248975098133087, 

	0.2297172844409943, 

	-0.0000000000000000, 

	0.0901060402393341, 

	0.0162249468266964, 

	-0.0000000000000000, 

	-0.0000000000000000, 

	-0.0147962830960751, 

	-0.0000000000000000, 

	0.1389219611883163, 

	-0.1111784353852272, 

	-0.0000000000000000, 

	-0.0000000000000000, 

	-0.1655158251523972, 

	-0.0673730075359344, 

	-0.0000000000000000, 

	0.1566095650196075, 

	-0.0000000000000000, 

	-0.0000000272790697, 

	-0.0258041564375162, 

	-0.0305887926369905, 

	-0.2024950385093689, 

	-0.0000000000000000, 

	0.0375034585595131, 


	0.0000000000000000, 

	0.0000000000000000, 

	-0.0000000000000000, 

	0.0000000000000000, 

	-0.0007916998583823, 

	-0.0000000000000000, 

	-0.0322170369327068, 

	-0.0656876489520073, 

	-0.0000000000000000, 

	-0.0170897115021944, 

	-0.0564899146556854, 

	-0.0000000000000000, 

	0.2412081509828568, 

	0.0000000000000000, 

	0.0000000000000000, 

	-0.0000000000000000, 

	0.2284357100725174, 

	-0.0000000000000000, 

	-0.0000000000000000, 

	0.0000000000000000, 

	0.0066293631680310, 

	0.0000000000000000, 

	-0.0034354384988546, 

	0.0117105897516012, 

	0.0328361392021179, 

	0.1013324633240700, 

	0.0000000000000000, 

	0.0135494740679860, 

	0.0016955927712843, 

	0.0000000000000000, 

	-0.0000000000000000, 

	-0.0114221926778555, 

	-0.0000000000000000, 

	0.0213366989046335, 

	-0.0487921945750713, 

	-0.0000000000000000, 

	-0.0000000000000000, 

	0.0618413835763931, 

	-0.0424262620508671, 

	0.0000000000000000, 

	-0.0345420613884926, 

	-0.0000000000000000, 

	-0.0000000005429646, 

	0.1148492470383644, 

	-0.0122737949714065, 

	-0.1781277060508728, 

	-0.0000000000000000, 

	0.1129761040210724, 


	-0.0000000000000000, 

	-0.0000000000000000, 

	0.0000000000000000, 

	0.0000000000000000, 

	-0.0184608772397041, 

	-0.0000000000000000, 

	-0.0142623260617256, 

	-0.1553182452917099, 

	0.0000000000000000, 

	-0.1783876717090607, 

	-0.0081550236791372, 

	-0.0000000000000000, 

	-0.1762810200452805, 

	-0.0000000000000000, 

	-0.0000000000000000, 

	0.0000000000000000, 

	-0.0115518067032099, 

	0.0000000000000000, 

	-0.0000000000000000, 

	0.0000000000000000, 

	-0.0875883847475052, 

	0.0000000000000000, 

	0.0629008188843727, 

	0.0071872440166771, 

	-0.0438636653125286, 

	-0.1194527521729469, 

	0.0000000000000000, 

	-0.0012316303327680, 

	0.0039347065612674, 

	-0.0000000000000000, 

	-0.0000000000000000, 

	-0.0552074797451496, 

	-0.0000000000000000, 

	0.1280308812856674, 

	-0.0642756521701813, 

	-0.0000000000000000, 

	0.0000000000000000, 

	-0.0338718406856060, 

	-0.0730615407228470, 

	-0.0000000000000000, 

	0.1296340823173523, 

	-0.0000000000000000, 

	-0.0000000011841125, 

	-0.1424923390150070, 

	0.0683926194906235, 

	0.0000365651285392, 

	-0.0000000000000000, 

	-0.1405487954616547, 


	-0.0000000000000000, 

	-0.0000000000000000, 

	0.0000000000000000, 

	0.0000000000000000, 

	-0.0048828497529030, 

	-0.0000000000000000, 

	0.0728205218911171, 

	0.1756127029657364, 

	-0.0000000000000000, 

	-0.1723668277263641, 

	0.0553019978106022, 

	0.0000000000000000, 

	-0.1536518931388855, 

	-0.0000000000000000, 

	0.0000000000000000, 

	-0.0000000000000000, 

	-0.2690963149070740, 

	0.0000000000000000, 

	0.0000000000000000, 

	-0.0000000000000000, 

	0.0402558259665966, 

	-0.0000000000000000, 

	0.0669855847954750, 

	0.0092288814485073, 

	-0.1301321387290955, 

	-0.1896604299545288, 

	0.0000000000000000, 

	0.0689703151583672, 

	-0.0067487419582903, 

	-0.0000000000000000, 

	0.0000000000000000, 

	-0.0550930686295033, 

	-0.0000000000000000, 

	-0.1351478695869446, 

	0.0006456006667577, 

	-0.0000000000000000, 

	0.0000000000000000, 

	0.0852409750223160, 

	0.0730236619710922, 

	-0.0000000000000000, 

	0.0197417195886374, 

	-0.0000000000000000, 

	-0.0000000050908366, 

	-0.0125172343105078, 

	0.1088625714182854, 

	-0.0908693447709084, 

	0.0000000000000000, 

	-0.2568937242031097, 


	-0.0000000000000000, 

	-0.0000000000000000, 

	0.0000000000000000, 

	0.0000000000000000, 

	0.0025780538562685, 

	0.0000000000000000, 

	-0.0329353883862495, 

	0.0270804017782211, 

	-0.0000000000000000, 

	-0.0326039642095566, 

	0.0021980509627610, 

	0.0000000000000000, 

	0.0370244607329369, 

	-0.0000000000000000, 

	-0.0000000000000000, 

	-0.0000000000000000, 

	0.0011942449491471, 

	-0.0000000000000000, 

	0.0000000000000000, 

	-0.0000000000000000, 

	0.0375540591776371, 

	0.0000000000000000, 

	0.0051678046584129, 

	0.0000325666660501, 

	0.0156867317855358, 

	-0.0729253441095352, 

	-0.0000000000000000, 

	-0.0028073966968805, 

	0.0003395671665203, 

	0.0000000000000000, 

	0.0000000000000000, 

	-0.0102302962914109, 

	0.0000000000000000, 

	-0.0207601711153984, 

	-0.0035893528256565, 

	-0.0000000000000000, 

	0.0000000000000000, 

	0.0126867843791842, 

	0.0104224579408765, 

	0.0000000000000000, 

	0.0049076243303716, 

	-0.0000000000000000, 

	-0.0000000000049111, 

	-0.0443566292524338, 

	-0.0050775944255292, 

	0.0096586961299181, 

	-0.0000000000000000, 

	-0.0461008772253990, 


	-0.0000000000000000, 

	0.0000000000000000, 

	-0.0000000000000000, 

	-0.0000000000000000, 

	-0.0643383562564850, 

	0.0000000000000000, 

	0.1455790400505066, 

	-0.0330614522099495, 

	-0.0000000000000000, 

	0.1134247407317162, 

	0.0099809542298317, 

	0.0000000000000000, 

	-0.0371671803295612, 

	-0.0000000000000000, 

	-0.0000000000000000, 

	0.0000000000000000, 

	-0.0232062023133039, 

	-0.0000000000000000, 

	0.0000000000000000, 

	0.0000000000000000, 

	-0.0646459907293320, 

	0.0000000000000000, 

	-0.1407917290925980, 

	0.0148373721167445, 

	0.1691127866506577, 

	-0.0148219084367156, 

	-0.0000000000000000, 

	-0.0314355827867985, 

	0.0015316985081881, 

	0.0000000000000000, 

	-0.0000000000000000, 

	0.0441359020769596, 

	0.0000000000000000, 

	0.0882035866379738, 

	0.0432765334844589, 

	0.0000000000000000, 

	0.0000000000000000, 

	-0.0829230174422264, 

	-0.0530962646007538, 

	0.0000000000000000, 

	0.1039514765143394, 

	0.0000000000000000, 

	-0.0000000023454783, 

	0.1308097988367081, 

	-0.0757449865341187, 

	0.0068529183045030, 

	-0.0000000000000000, 

	0.2033302038908005, 


	-0.0000000000000000, 

	-0.0000000000000000, 

	-0.0000000000000000, 

	-0.0000000000000000, 

	0.0073341717943549, 

	-0.0000000000000000, 

	0.0533492192625999, 

	-0.0066142664290965, 

	-0.0000000000000000, 

	-0.0482481010258198, 

	0.0090911183506250, 

	-0.0000000000000000, 

	-0.0033551868982613, 

	0.0000000000000000, 

	0.0000000000000000, 

	-0.0000000000000000, 

	0.1998162269592285, 

	-0.0000000000000000, 

	-0.0000000000000000, 

	-0.0000000000000000, 

	-0.0242197122424841, 

	0.0000000000000000, 

	-0.0577232837677002, 

	-0.0035624988377094, 

	0.1104992404580116, 

	0.1251083612442017, 

	0.0000000000000000, 

	-0.0974603667855263, 

	0.0015460693975911, 

	0.0000000000000000, 

	0.0000000000000000, 

	-0.0014684313209727, 

	0.0000000000000000, 

	0.0291030015796423, 

	0.0136810978874564, 

	-0.0000000000000000, 

	0.0000000000000000, 

	0.0160444751381874, 

	-0.0095909871160984, 

	0.0000000000000000, 

	-0.0256856326013803, 

	-0.0000000000000000, 

	-0.0000000003022061, 

	-0.0923907831311226, 

	0.0568775162100792, 

	0.0285806395113468, 

	0.0000000000000000, 

	0.1758846938610077, 


	0.0000000000000000, 

	-0.0000000000000000, 

	-0.0000000000000000, 

	0.0000000000000000, 

	0.0836721584200859, 

	0.0000000000000000, 

	0.0434469617903233, 

	0.1696110218763351, 

	-0.0000000000000000, 

	-0.0876329988241196, 

	-0.1134571805596352, 

	-0.0000000000000000, 

	-0.0248210206627846, 

	-0.0000000000000000, 

	-0.0000000000000000, 

	0.0000000000000000, 

	0.0826964899897575, 

	0.0000000000000000, 

	-0.0000000000000000, 

	0.0000000000000000, 

	-0.0665169134736061, 

	-0.0000000000000000, 

	0.0680990517139435, 

	0.0096734594553709, 

	-0.0349066145718098, 

	0.1596133112907410, 

	0.0000000000000000, 

	0.0576078258454800, 

	-0.0037875559646636, 

	0.0000000000000000, 

	-0.0000000000000000, 

	-0.0427387244999409, 

	0.0000000000000000, 

	-0.1104212775826454, 

	0.0139744188636541, 

	0.0000000000000000, 

	0.0000000000000000, 

	-0.0164128299802542, 

	-0.0225943438708782, 

	0.0000000000000000, 

	-0.0251414179801941, 

	0.0000000000000000, 

	0.0000000025412543, 

	-0.0912121832370758, 

	-0.0426199622452259, 

	-0.3654473721981049, 

	0.0000000000000000, 

	0.0302927624434233, 


	-0.0000000000000000, 

	-0.0000000000000000, 

	-0.0000000000000000, 

	-0.0000000000000000, 

	-0.1159710064530373, 

	-0.0000000000000000, 

	0.1148675307631493, 

	0.0590963885188103, 

	0.0000000000000000, 

	0.0020838081836700, 

	0.0187880825251341, 

	-0.0000000000000000, 

	0.0293584335595369, 

	0.0000000000000000, 

	0.0000000000000000, 

	-0.0000000000000000, 

	-0.0443904623389244, 

	-0.0000000000000000, 

	0.0000000000000000, 

	-0.0000000000000000, 

	-0.1858551502227783, 

	0.0000000000000000, 

	-0.1054211631417274, 

	0.0358387306332588, 

	0.0133553268387914, 

	0.0732284635305405, 

	0.0000000000000000, 

	-0.0643645152449608, 

	-0.0018855275120586, 

	-0.0000000000000000, 

	0.0000000000000000, 

	-0.0033424391876906, 

	0.0000000000000000, 

	0.1135302633047104, 

	0.1375825107097626, 

	-0.0000000000000000, 

	-0.0000000000000000, 

	-0.0621937513351440, 

	-0.0530762001872063, 

	-0.0000000000000000, 

	-0.0510653629899025, 

	-0.0000000000000000, 

	-0.0000000020431266, 

	-0.0283204372972250, 

	-0.0409159734845161, 

	-0.0291293524205685, 

	-0.0000000000000000, 

	0.2515429556369781, 


	-0.0000000000000000, 

	-0.0000000000000000, 

	0.0000000000000000, 

	0.0000000000000000, 

	0.0000000000000000, 

	-0.0000000000000000, 

	-0.0000000000000000, 

	0.0000000000000000, 

	-0.0000000000000000, 

	-0.0000000000000000, 

	0.0000000000000000, 

	-0.0000000000000000, 

	0.0000000000000000, 

	-0.0000000000000000, 

	0.0000000000000000, 

	0.0000000000000000, 

	0.0000000000000000, 

	-0.0000000000000000, 

	0.0000000000000000, 

	-0.0000000000000000, 

	0.0000000000000000, 

	-0.0000000000000000, 

	-0.0000000000000000, 

	-0.0000000000000000, 

	0.0000000000000000, 

	-0.0000000000000000, 

	0.0000000000000000, 

	-0.0000000000000000, 

	-0.0000000000000000, 

	0.0000000000000000, 

	0.0000000000000000, 

	-0.0000000000000000, 

	-0.0000000000000000, 

	-0.0000000000000000, 

	0.0000000000000000, 

	0.0000000000000000, 

	-0.0000000000000000, 

	-0.0000000000000000, 

	0.0000000000000000, 

	-0.0000000000000000, 

	-0.0000000000000000, 

	0.0000000000000000, 

	0.0000000000000000, 

	-0.0000000000000000, 

	-0.0000000000000000, 

	0.0000000000000000, 

	0.0000000000000000, 

	0.0000000000000000, 


	-0.0000000000000000, 

	0.0000000000000000, 

	-0.0000000000000000, 

	-0.0000000000000000, 

	0.0000000000000000, 

	-0.0000000000000000, 

	0.0000000000000000, 

	-0.0000000000000000, 

	-0.0000000000000000, 

	0.0000000000000000, 

	0.0000000000000000, 

	0.0000000000000000, 

	-0.0000000000000000, 

	0.0000000000000000, 

	0.0000000000000000, 

	0.0000000000000000, 

	0.0000000000000000, 

	0.0000000000000000, 

	-0.0000000000000000, 

	0.0000000000000000, 

	0.0000000000000000, 

	-0.0000000000000000, 

	0.0000000000000000, 

	-0.0000000000000000, 

	0.0000000000000000, 

	-0.0000000000000000, 

	-0.0000000000000000, 

	0.0000000000000000, 

	-0.0000000000000000, 

	-0.0000000000000000, 

	0.0000000000000000, 

	0.0000000000000000, 

	-0.0000000000000000, 

	-0.0000000000000000, 

	0.0000000000000000, 

	0.0000000000000000, 

	0.0000000000000000, 

	-0.0000000000000000, 

	0.0000000000000000, 

	-0.0000000000000000, 

	0.0000000000000000, 

	0.0000000000000000, 

	0.0000000000000000, 

	-0.0000000000000000, 

	0.0000000000000000, 

	-0.0000000000000000, 

	0.0000000000000000, 

	0.0000000000000000, 


	-0.0000000000000000, 

	-0.0000000000000000, 

	0.0000000000000000, 

	0.0000000000000000, 

	0.0000000000000000, 

	-0.0000000000000000, 

	0.0000000000000000, 

	-0.0000000000000000, 

	0.0000000000000000, 

	0.0000000000000000, 

	-0.0000000000000000, 

	0.0000000000000000, 

	-0.0000000000000000, 

	-0.0000000000000000, 

	0.0000000000000000, 

	0.0000000000000000, 

	0.0000000000000000, 

	0.0000000000000000, 

	0.0000000000000000, 

	-0.0000000000000000, 

	0.0000000000000000, 

	0.0000000000000000, 

	-0.0000000000000000, 

	0.0000000000000000, 

	0.0000000000000000, 

	-0.0000000000000004, 

	-0.0000000000000000, 

	0.0000000000000000, 

	-0.0000000000000000, 

	-0.0000000000000000, 

	0.0000000000000000, 

	0.0000000000000000, 

	0.0000000000000000, 

	-0.0000000000000000, 

	-0.0000000000000000, 

	0.0000000000000000, 

	0.0000000000000000, 

	-0.0000000000000000, 

	0.0000000000000000, 

	-0.0000000000000000, 

	0.0000000000000000, 

	0.0000000000000000, 

	-0.0000000000000000, 

	-0.0000000000000000, 

	0.0000000000000000, 

	0.0000000000000000, 

	0.0000000000000000, 

	-0.0000000000000000, 


	-0.0000000000000000, 

	0.0000000000000000, 

	0.0000000000000000, 

	-0.0000000000000000, 

	-0.0119050815701485, 

	0.0000000000000000, 

	0.1617776155471802, 

	0.1234254315495491, 

	-0.0000000000000000, 

	-0.0453295409679413, 

	-0.1512220799922943, 

	-0.0000000000000000, 

	-0.0147275030612946, 

	-0.0000000000000000, 

	0.0000000000000000, 

	-0.0000000000000000, 

	0.1049646586179733, 

	-0.0000000000000000, 

	-0.0000000000000000, 

	0.0000000000000000, 

	-0.0925340428948402, 

	-0.0000000000000000, 

	0.0076200892217457, 

	0.0034948615357280, 

	-0.1203178614377975, 

	-0.0001503173552919, 

	0.0000000000000000, 

	0.0843892768025398, 

	0.0017593909287825, 

	-0.0000000000000000, 

	-0.0000000000000000, 

	-0.1006783619523048, 

	0.0000000000000000, 

	-0.0106677981093526, 

	-0.0581898204982281, 

	0.0000000000000000, 

	0.0000000000000000, 

	-0.0572641603648663, 

	-0.0345569327473640, 

	0.0000000000000000, 

	0.0394292511045933, 

	-0.0000000000000000, 

	0.0000000026691371, 

	0.0145336724817753, 

	-0.1129142343997955, 

	-0.3910298049449921, 

	-0.0000000000000000, 

	0.0733278840780258, 


	0.0000000000000000, 

	-0.0000000000000000, 

	0.0000000000000000, 

	-0.0000000000000000, 

	0.0600568354129791, 

	-0.0000000000000000, 

	-0.0105043575167656, 

	0.1292686611413956, 

	-0.0000000000000000, 

	-0.0222181640565395, 

	-0.1269477903842926, 

	0.0000000000000000, 

	0.3867322802543640, 

	0.0000000000000000, 

	-0.0000000000000000, 

	0.0000000000000000, 

	0.0158987194299698, 

	-0.0000000000000000, 

	0.0000000000000000, 

	-0.0000000000000000, 

	0.1425446271896362, 

	0.0000000000000000, 

	0.1012817099690437, 

	-0.0012978614540771, 

	0.0623288601636887, 

	0.1375129669904709, 

	-0.0000000000000000, 

	0.1415600478649139, 

	0.0004588042793330, 

	-0.0000000000000000, 

	-0.0000000000000000, 

	0.0356906950473785, 

	0.0000000000000000, 

	-0.1568032354116440, 

	-0.0233049299567938, 

	-0.0000000000000000, 

	-0.0000000000000000, 

	0.0522375553846359, 

	0.0749484598636627, 

	-0.0000000000000000, 

	-0.3064607381820679, 

	-0.0000000000000000, 

	-0.0000000011984072, 

	-0.0177310407161713, 

	-0.0532835945487022, 

	-0.0688307359814644, 

	-0.0000000000000000, 

	-0.0643139183521271, 


	-0.0000000000000000, 

	0.0000000000000000, 

	0.0000000000000000, 

	-0.0000000000000000, 
