float fc_weight_1[512] = {
	-0.0000000000000000, 	-0.0000000000000000, 	-0.0000000000000000, 	0.0000000000000000, 	0.0000000000000000, 	-0.0000000000000000, 	0.0000000000000000, 	-0.0000000000000000, 	0.0000000000000000, 	-0.0000000000000000, 	-0.0000000000000000, 	-0.0000000000000000, 	0.0000000000000000, 	-0.0000000000000000, 	0.0000000000000000, 	0.0000000000000000, 	0.0000000000000000, 	0.0000000000000000, 	-0.0000000000000000, 	0.0000000000000000, 	-0.0000000000000000, 	0.0000000000000000, 	-0.0000000000000000, 	0.0000000000000000, 	0.0000000000000000, 	-0.0000000000000000, 	-0.0000000000000000, 	-0.0000000000000000, 	-0.0000000000000000, 	-0.0000000000000000, 	-0.0000000000000000, 	-0.0000000000000000, 	0.0000000000000000, 	0.0000000000000000, 	-0.0000000000000000, 	-0.0000000000000000, 	0.0000000000000000, 	-0.0000000000000000, 	-0.0000000000000000, 	-0.0000000000000000, 	-0.0000000000000000, 	0.0000000000000000, 	0.0000000000000000, 	-0.0000000000000000, 	-0.0000000000000000, 	0.0000000000000000, 	-0.0000000000000000, 	0.0000000000000000, 	0.0000000000000000, 	-0.0000000000000000, 	0.0000000000000000, 	0.0000000000000000, 	-0.0000000000000000, 	-0.0000000000000000, 	0.0000000000000000, 	-0.0000000000000000, 	0.0000000000000000, 	0.0000000000000000, 	0.0000000000000000, 	-0.0000000000000000, 	0.0000000000000000, 	-0.0000000000000000, 	0.0000000000000000, 	-0.0000000000000000, 
	-0.0000000000000000, 	0.0000000000000000, 	-0.0000000000000000, 	0.0000000000000000, 	0.0000000000000000, 	-0.0000000000000000, 	0.0000000000000000, 	-0.0000000000000000, 	0.0000000000000000, 	-0.0000000000000000, 	-0.0000000000000000, 	0.0000000000000000, 	0.0000000000000000, 	-0.0000000000000000, 	-0.0000000000000000, 	0.0000000000000000, 	-0.0000000000000000, 	-0.0000000000000000, 	-0.0000000000000000, 	-0.0000000000000000, 	-0.0000000000000000, 	-0.0000000000000000, 	0.0000000000000000, 	-0.0000000000000000, 	-0.0000000000000000, 	-0.0000000000000000, 	0.0000000000000000, 	-0.0000000000000000, 	0.0000000000000000, 	0.0000000000000000, 	-0.0000000000000000, 	-0.0000000000000000, 	0.0000000000000000, 	0.0000000000000000, 	-0.0000000000000000, 	-0.0000000000000000, 	-0.0000000000000000, 	-0.0000000000000000, 	0.0000000000000000, 	0.0000000000000000, 	-0.0000000000000000, 	0.0000000000000000, 	-0.0000000000000000, 	-0.0000000000000000, 	0.0000000000000000, 	-0.0000000000000000, 	-0.0000000000000000, 	0.0000000000000000, 	-0.0000000000000000, 	0.0000000000000000, 	0.0000000000000000, 	-0.0000000000000000, 	0.0000000000000000, 	-0.0000000000000000, 	-0.0000000000000000, 	0.0000000000000000, 	-0.0000000000000000, 	-0.0000000000000000, 	-0.0000000000000000, 	-0.0000000000000000, 	-0.0000000000000000, 	-0.0000000000000000, 	0.0000000000000000, 	-0.0000000000000000, 
	-0.0000000000000000, 	0.0000000000000000, 	-0.0000000000000000, 	0.0000000000000000, 	0.0000000000000000, 	-0.0000000000000000, 	-0.0000000000000000, 	-0.0000000000000000, 	0.0000000000000000, 	-0.0000000000000000, 	-0.0000000000000000, 	0.0000000000000000, 	-0.0000000000000000, 	0.0000000000000000, 	-0.0000000000000000, 	0.0000000000000000, 	-0.0000000000000000, 	-0.0000000000000000, 	-0.0000000000000000, 	0.0000000000000000, 	-0.0000000000000000, 	-0.0000000000000000, 	0.0000000000000000, 	0.0000000000000000, 	0.0000000000000000, 	-0.0000000000000000, 	-0.0000000000000000, 	0.0000000000000000, 	0.0000000000000000, 	0.0000000000000000, 	-0.0000000000000000, 	-0.0000000000000000, 	-0.0000000000000000, 	0.0000000000000000, 	-0.0000000000000000, 	0.0000000000000000, 	-0.0000000000000000, 	0.0000000000000000, 	-0.0000000000000000, 	-0.0000000000000000, 	-0.0000000000000000, 	-0.0000000000000000, 	-0.0000000000000000, 	-0.0000000000000000, 	-0.0000000000000000, 	-0.0000000000000000, 	-0.0000000000000000, 	-0.0000000000000000, 	-0.0000000000000000, 	-0.0000000000000000, 	-0.0000000000000000, 	-0.0000000000000000, 	-0.0000000000000000, 	-0.0000000000000000, 	-0.0000000000000000, 	-0.0000000000000000, 	-0.0000000000000000, 	0.0000000000000000, 	-0.0000000000000000, 	0.0000000000000000, 	-0.0000000000000000, 	0.0000000000000000, 	0.0000000000000000, 	-0.0000000000000000, 
	-0.0000000000000000, 	0.0000000000000000, 	-0.0000000000000000, 	0.0000000000000000, 	-0.0000000000000000, 	-0.0000000000000000, 	-0.0000000000000000, 	-0.0000000000000000, 	-0.0000000000000000, 	-0.0000000000000000, 	-0.0000000000000000, 	-0.0000000000000000, 	-0.0000000000000000, 	-0.0000000000000000, 	-0.0000000000000000, 	-0.0000000000000000, 	-0.0000000000000000, 	-0.0000000000000000, 	-0.0000000000000000, 	-0.0000000000000000, 	-0.0000000000000000, 	-0.0000000000000000, 	0.0000000000000000, 	-0.0000000000000000, 	-0.0000000000000000, 	0.0000000000000000, 	-0.0000000000000000, 	0.0000000000000000, 	-0.0000000000000000, 	0.0000000000000000, 	0.0000000000000000, 	-0.0000000000000000, 	-0.0000000000000000, 	-0.0000000000000000, 	-0.0000000000000000, 	-0.0000000000000000, 	-0.0000000000000000, 	-0.0000000000000000, 	-0.0000000000000000, 	-0.0000000000000000, 	-0.0000000000000000, 	-0.0000000000000000, 	-0.0000000000000000, 	-0.0000000000000000, 	-0.0000000000000000, 	0.0000000000000000, 	-0.0000000000000000, 	-0.0000000000000000, 	-0.0000000000000000, 	0.0000000000000000, 	-0.0000000000000000, 	-0.0000000000000000, 	-0.0000000000000000, 	0.0000000000000000, 	-0.0000000000000000, 	-0.0000000000000000, 	0.0000000000000000, 	-0.0000000000000000, 	-0.0000000000000000, 	0.0000000000000000, 	-0.0000000000000000, 	0.0000000000000000, 	-0.0000000000000000, 	-0.0000000000000000, 
	-0.0000000000000000, 	-0.0000000000000000, 	-0.0000000000000000, 	0.0000000000000000, 	0.0000000000000000, 	-0.0000000000000000, 	0.0000000000000000, 	-0.0000000000000000, 	-0.0000000000000000, 	0.0000000000000000, 	-0.0000000000000000, 	-0.0000000000000000, 	0.0000000000000000, 	-0.0000000000000000, 	0.0000000000000000, 	0.0000000000000000, 	0.0000000000000000, 	-0.0000000000000000, 	-0.0000000000000000, 	-0.0000000000000000, 	-0.0000000000000000, 	-0.0000000000000000, 	0.0000000000000000, 	0.0000000000000000, 	-0.0000000000000000, 	-0.0000000000000000, 	-0.0000000000000000, 	-0.0000000000000000, 	0.0000000000000000, 	-0.0000000000000000, 	-0.0000000000000000, 	-0.0000000000000000, 	0.0000000000000000, 	0.0000000000000000, 	-0.0000000000000000, 	-0.0000000000000000, 	-0.0000000000000000, 	-0.0000000000000000, 	0.0000000000000000, 	-0.0000000000000000, 	-0.0000000000000000, 	0.0000000000000000, 	-0.0000000000000000, 	-0.0000000000000000, 	-0.0000000000000000, 	-0.0000000000000000, 	-0.0000000000000000, 	-0.0000000000000000, 	-0.0000000000000000, 	-0.0000000000000000, 	-0.0000000000000000, 	-0.0000000000000000, 	0.0000000000000000, 	-0.0000000000000000, 	-0.0000000000000000, 	0.0000000000000000, 	-0.0000000000000000, 	0.0000000000000000, 	0.0000000000000000, 	-0.0000000000000000, 	-0.0000000000000000, 	0.0000000000000000, 	-0.0000000000000000, 	-0.0000000000000000, 
	-0.0000000000000000, 	0.0000000000000000, 	-0.0000000000000000, 	-0.0000000000000000, 	-0.0000000000000000, 	-0.0000000000000000, 	-0.0000000000000000, 	-0.0000000000000000, 	0.0000000000000000, 	-0.0000000000000000, 	-0.0000000000000000, 	-0.0000000000000000, 	0.0000000000000000, 	-0.0000000000000000, 	-0.0000000000000000, 	0.0000000000000000, 	0.0000000000000000, 	-0.0000000000000000, 	-0.0000000000000000, 	0.0000000000000000, 	-0.0000000000000000, 	-0.0000000000000000, 	0.0000000000000000, 	-0.0000000000000000, 	0.0000000000000000, 	-0.0000000000000000, 	-0.0000000000000000, 	-0.0000000000000000, 	-0.0000000000000000, 	0.0000000000000000, 	0.0000000000000000, 	0.0000000000000000, 	-0.0000000000000000, 	-0.0000000000000000, 	-0.0000000000000000, 	-0.0000000000000000, 	0.0000000000000000, 	-0.0000000000000000, 	-0.0000000000000000, 	-0.0000000000000000, 	-0.0000000000000000, 	-0.0000000000000000, 	-0.0000000000000000, 	-0.0000000000000000, 	-0.0000000000000000, 	-0.0000000000000000, 	-0.0000000000000000, 	-0.0000000000000000, 	-0.0000000000000000, 	-0.0000000000000000, 	-0.0000000000000000, 	-0.0000000000000000, 	-0.0000000000000000, 	0.0000000000000000, 	0.0000000000000000, 	-0.0000000000000000, 	0.0000000000000000, 	0.0000000000000000, 	0.0000000000000000, 	-0.0000000000000000, 	0.0000000000000000, 	0.0000000000000000, 	-0.0000000000000000, 	-0.0000000000000000, 
	-0.0000000000000000, 	0.0000000000000000, 	-0.0000000000000000, 	-0.0000000000000000, 	-0.0000000000000000, 	-0.0000000000000000, 	-0.0000000000000000, 	-0.0000000000000000, 	-0.0000000000000000, 	0.0000000000000000, 	0.0000000000000000, 	0.0000000000000000, 	-0.0000000000000000, 	0.0000000000000000, 	-0.0000000000000000, 	0.0000000000000000, 	0.0000000000000000, 	-0.0000000000000000, 	-0.0000000000000000, 	-0.0000000000000000, 	-0.0000000000000000, 	-0.0000000000000000, 	0.0000000000000000, 	-0.0000000000000000, 	0.0000000000000000, 	-0.0000000000000000, 	-0.0000000000000000, 	-0.0000000000000000, 	0.0000000000000000, 	-0.0000000000000000, 	0.0000000000000000, 	-0.0000000000000000, 	0.0000000000000000, 	0.0000000000000000, 	-0.0000000000000000, 	-0.0000000000000000, 	-0.0000000000000000, 	0.0000000000000000, 	-0.0000000000000000, 	-0.0000000000000000, 	-0.0000000000000000, 	0.0000000000000000, 	0.0000000000000000, 	0.0000000000000000, 	-0.0000000000000000, 	-0.0000000000000000, 	-0.0000000000000000, 	-0.0000000000000000, 	0.0000000000000000, 	0.0000000000000000, 	0.0000000000000000, 	-0.0000000000000000, 	0.0000000000000000, 	0.0000000000000000, 	-0.0000000000000000, 	-0.0000000000000000, 	-0.0000000000000000, 	0.0000000000000000, 	0.0000000000000000, 	0.0000000000000000, 	0.0000000000000000, 	0.0000000000000000, 	0.0000000000000000, 	-0.0000000000000000, 
	-0.0000000000000000, 	0.0000000000000000, 	-0.0000000000000000, 	-0.0000000000000000, 	-0.0000000000000000, 	-0.0000000000000000, 	-0.0000000000000000, 	-0.0000000000000000, 	-0.0000000000000000, 	-0.0000000000000000, 	0.0000000000000000, 	0.0000000000000000, 	0.0000000000000000, 	-0.0000000000000000, 	-0.0000000000000000, 	-0.0000000000000000, 	-0.0000000000000000, 	-0.0000000000000000, 	0.0000000000000000, 	-0.0000000000000000, 	-0.0000000000000000, 	-0.0000000000000000, 	-0.0000000000000000, 	-0.0000000000000000, 	-0.0000000000000000, 	-0.0000000000000000, 	-0.0000000000000000, 	-0.0000000000000000, 	-0.0000000000000000, 	0.0000000000000000, 	-0.0000000000000000, 	-0.0000000000000000, 	-0.0000000000000000, 	-0.0000000000000000, 	-0.0000000000000000, 	-0.0000000000000000, 	-0.0000000000000000, 	-0.0000000000000000, 	-0.0000000000000000, 	-0.0000000000000000, 	-0.0000000000000000, 	-0.0000000000000000, 	-0.0000000000000000, 	-0.0000000000000000, 	-0.0000000000000000, 	0.0000000000000000, 	-0.0000000000000000, 	0.0000000000000000, 	-0.0000000000000000, 	-0.0000000000000000, 	-0.0000000000000000, 	-0.0000000000000000, 	0.0000000000000000, 	0.0000000000000000, 	-0.0000000000000000, 	-0.0000000000000000, 	-0.0000000000000000, 	-0.0000000000000000, 	-0.0000000000000000, 	-0.0000000000000000, 	0.0000000000000000, 	-0.0000000000000000, 	-0.0000000000000000, 	-0.0000000000000000, 
};
float fc_weight_2[512] = {
	0.0000000000000000, 	0.0000000000000000, 	-0.0000000000000000, 	-0.0000000000000000, 	0.0000000000000000, 	0.0000000000000000, 	-0.0000000000000000, 	-0.0000000000000000, 
	-0.0000000000000000, 	0.0000000000000000, 	0.0000000000000000, 	0.0000000000000000, 	0.0000000000000000, 	-0.0000000000000000, 	0.0000000000000000, 	0.0000000000000000, 
	-0.0000000000000000, 	-0.0000000000000000, 	0.0000000000000000, 	0.0000000000000000, 	0.0000000000000000, 	-0.0000000000000000, 	-0.0000000000000000, 	-0.0000000000000000, 
	0.0000000000000000, 	0.0000000000000000, 	-0.0000000000000000, 	0.0000000000000000, 	-0.0000000000000000, 	-0.0000000000000000, 	-0.0000000000000000, 	-0.0000000000000000, 
	-0.0000000000000000, 	-0.0000000000000000, 	-0.0000000000000000, 	0.0000000000000000, 	0.0000000000000000, 	0.0000000000000000, 	0.0000000000000000, 	-0.0000000000000000, 
	-0.0000000000000000, 	-0.0000000000000000, 	-0.0000000000000000, 	-0.0000000000000000, 	-0.0000000000000000, 	0.0000000000000000, 	-0.0000000000000000, 	0.0000000000000000, 
	-0.0000000000000000, 	0.0000000000000000, 	0.0000000000000000, 	0.0000000000000000, 	0.0000000000000000, 	0.0000000000000000, 	0.0000000000000000, 	-0.0000000000000000, 
	-0.0000000000000000, 	0.0000000000000000, 	-0.0000000000000000, 	-0.0000000000000000, 	-0.0000000000000000, 	0.0000000000000000, 	-0.0000000000000000, 	0.0000000000000000, 
	-0.0000000000000000, 	-0.0000000000000000, 	0.0000000000000000, 	-0.0000000000000000, 	-0.0000000000000000, 	0.0000000000000000, 	-0.0000000000000000, 	0.0000000000000000, 
	-0.0000000000000000, 	-0.0000000000000000, 	0.0000000000000000, 	-0.0000000000000000, 	-0.0000000000000000, 	-0.0000000000000000, 	0.0000000000000000, 	-0.0000000000000000, 
	-0.0000000000000000, 	0.0000000000000000, 	0.0000000000000000, 	-0.0000000000000000, 	0.0000000000000000, 	-0.0000000000000000, 	-0.0000000000000000, 	-0.0000000000000000, 
	0.0000000000000000, 	-0.0000000000000000, 	-0.0000000000000000, 	0.0000000000000000, 	-0.0000000000000000, 	0.0000000000000000, 	-0.0000000000000000, 	0.0000000000000000, 
	-0.0000000000000000, 	0.0000000000000000, 	0.0000000000000000, 	0.0000000000000000, 	0.0000000000000000, 	-0.0000000000000000, 	-0.0000000000000000, 	-0.0000000000000000, 
	-0.0000000000000000, 	-0.0000000000000000, 	0.0000000000000000, 	-0.0000000000000000, 	0.0000000000000000, 	0.0000000000000000, 	0.0000000000000000, 	-0.0000000000000000, 
	0.0000000000000000, 	0.0000000000000000, 	-0.0000000000000000, 	-0.0000000000000000, 	0.0000000000000000, 	-0.0000000000000000, 	0.0000000000000000, 	0.0000000000000000, 
	0.0000000000000000, 	0.0000000000000000, 	0.0000000000000000, 	0.0000000000000000, 	0.0000000000000000, 	0.0000000000000000, 	0.0000000000000000, 	0.0000000000000000, 
	-0.0000000000000000, 	0.0000000000000000, 	-0.0000000000000000, 	0.0000000000000000, 	-0.0000000000000000, 	-0.0000000000000000, 	0.0000000000000000, 	-0.0000000000000000, 
	-0.0000000000000000, 	-0.0000000000000000, 	0.0000000000000000, 	0.0000000000000000, 	0.0000000000000000, 	-0.0000000000000000, 	-0.0000000000000000, 	-0.0000000000000000, 
	-0.0000000000000000, 	-0.0000000000000000, 	-0.0000000000000000, 	0.0000000000000000, 	-0.0000000000000000, 	-0.0000000000000000, 	0.0000000000000000, 	0.0000000000000000, 
	0.0000000000000000, 	0.0000000000000000, 	0.0000000000000000, 	-0.0000000000000000, 	0.0000000000000000, 	-0.0000000000000000, 	0.0000000000000000, 	0.0000000000000000, 
	-0.0000000000000000, 	-0.0000000000000000, 	0.0000000000000000, 	0.0000000000000000, 	0.0000000000000000, 	0.0000000000000000, 	-0.0000000000000000, 	-0.0000000000000000, 
	0.0000000000000000, 	0.0000000000000000, 	0.0000000000000000, 	-0.0000000000000000, 	-0.0000000000000000, 	-0.0000000000000000, 	0.0000000000000000, 	0.0000000000000000, 
	-0.0000000000000000, 	-0.0000000000000000, 	-0.0000000000000000, 	-0.0000000000000000, 	0.0000000000000000, 	-0.0000000000000000, 	-0.0000000000000000, 	-0.0000000000000000, 
	-0.0000000000000000, 	-0.0000000000000000, 	-0.0000000000000000, 	-0.0000000000000000, 	-0.0000000000000000, 	0.0000000000000000, 	-0.0000000000000000, 	0.0000000000000000, 
	0.0000000000000000, 	0.0000000000000000, 	0.0000000000000000, 	0.0000000000000000, 	-0.0000000000000000, 	-0.0000000000000000, 	0.0000000000000000, 	-0.0000000000000000, 
	-0.0000000000000000, 	0.0000000000000000, 	0.0000000000000000, 	0.0000000000000000, 	-0.0000000000000000, 	-0.0000000000000000, 	0.0000000000000000, 	-0.0000000000000000, 
	-0.0000000000000000, 	0.0000000000000000, 	0.0000000000000000, 	0.0000000000000000, 	0.0000000000000000, 	0.0000000000000000, 	-0.0000000000000000, 	-0.0000000000000000, 
	0.0000000000000000, 	-0.0000000000000000, 	0.0000000000000000, 	0.0000000000000000, 	-0.0000000000000000, 	0.0000000000000000, 	0.0000000000000000, 	-0.0000000000000000, 
	0.0000000000000000, 	0.0000000000000000, 	-0.0000000000000000, 	0.0000000000000000, 	-0.0000000000000000, 	0.0000000000000000, 	0.0000000000000000, 	0.0000000000000000, 
	0.0000000000000000, 	-0.0000000000000000, 	-0.0000000000000000, 	-0.0000000000000000, 	0.0000000000000000, 	0.0000000000000000, 	-0.0000000000000000, 	-0.0000000000000000, 
	-0.0000000000000000, 	-0.0000000000000000, 	-0.0000000000000000, 	-0.0000000000000000, 	0.0000000000000000, 	-0.0000000000000000, 	0.0000000000000000, 	0.0000000000000000, 
	-0.0000000000000000, 	-0.0000000000000000, 	-0.0000000000000000, 	0.0000000000000000, 	-0.0000000000000000, 	0.0000000000000000, 	-0.0000000000000000, 	-0.0000000000000000, 
	0.0000000000000000, 	-0.0000000000000000, 	0.0000000000000000, 	0.0000000000000000, 	0.0000000000000000, 	-0.0000000000000000, 	0.0000000000000000, 	-0.0000000000000000, 
	0.0000000000000000, 	-0.0000000000000000, 	-0.0000000000000000, 	-0.0000000000000000, 	-0.0000000000000000, 	-0.0000000000000000, 	0.0000000000000000, 	0.0000000000000000, 
	0.0000000000000000, 	-0.0000000000000000, 	0.0000000000000000, 	0.0000000000000000, 	0.0000000000000000, 	-0.0000000000000000, 	-0.0000000000000000, 	-0.0000000000000000, 
	0.0000000000000000, 	0.0000000000000000, 	-0.0000000000000000, 	0.0000000000000000, 	-0.0000000000000000, 	0.0000000000000000, 	-0.0000000000000000, 	0.0000000000000000, 
	0.0000000000000000, 	-0.0000000000000000, 	-0.0000000000000000, 	0.0000000000000000, 	-0.0000000000000000, 	0.0000000000000000, 	0.0000000000000000, 	0.0000000000000000, 
	0.0000000000000000, 	-0.0000000000000000, 	0.0000000000000000, 	0.0000000000000000, 	-0.0000000000000000, 	0.0000000000000000, 	0.0000000000000000, 	-0.0000000000000000, 
	-0.0000000000000000, 	-0.0000000000000000, 	-0.0000000000000000, 	0.0000000000000000, 	-0.0000000000000000, 	0.0000000000000000, 	-0.0000000000000000, 	-0.0000000000000000, 
	-0.0000000000000000, 	-0.0000000000000000, 	0.0000000000000000, 	-0.0000000000000000, 	0.0000000000000000, 	-0.0000000000000000, 	-0.0000000000000000, 	0.0000000000000000, 
	0.0000000000000000, 	0.0000000000000000, 	0.0000000000000000, 	0.0000000000000000, 	-0.0000000000000000, 	-0.0000000000000000, 	0.0000000000000000, 	0.0000000000000000, 
	-0.0000000000000000, 	-0.0000000000000000, 	0.0000000000000000, 	-0.0000000000000000, 	0.0000000000000000, 	0.0000000000000000, 	-0.0000000000000000, 	-0.0000000000000000, 
	0.0000000000000000, 	0.0000000000000000, 	-0.0000000000000000, 	0.0000000000000000, 	0.0000000000000000, 	-0.0000000000000000, 	0.0000000000000000, 	-0.0000000000000000, 
	-0.0000000000000000, 	-0.0000000000000000, 	0.0000000000000000, 	-0.0000000000000000, 	0.0000000000000000, 	0.0000000000000000, 	-0.0000000000000000, 	-0.0000000000000000, 
	0.0000000000000000, 	-0.0000000000000000, 	-0.0000000000000000, 	-0.0000000000000000, 	0.0000000000000000, 	-0.0000000000000000, 	-0.0000000000000000, 	0.0000000000000000, 
	-0.0000000000000000, 	-0.0000000000000000, 	-0.0000000000000000, 	-0.0000000000000000, 	0.0000000000000000, 	-0.0000000000000000, 	-0.0000000000000000, 	0.0000000000000000, 
	-0.0000000000000000, 	-0.0000000000000000, 	0.0000000000000000, 	-0.0000000000000000, 	-0.0000000000000000, 	-0.0000000000000000, 	0.0000000000000000, 	-0.0000000000000000, 
	0.0000000000000000, 	0.0000000000000000, 	-0.0000000000000000, 	-0.0000000000000000, 	0.0000000000000000, 	-0.0000000000000000, 	0.0000000000000000, 	-0.0000000000000000, 
	0.0000000000000000, 	-0.0000000000000000, 	0.0000000000000000, 	-0.0000000000000000, 	0.0000000000000000, 	0.0000000000000000, 	-0.0000000000000000, 	0.0000000000000000, 
	-0.0000000000000000, 	0.0000000000000000, 	-0.0000000000000000, 	0.0000000000000000, 	-0.0000000000000000, 	-0.0000000000000000, 	-0.0000000000000000, 	0.0000000000000000, 
	-0.0000000000000000, 	-0.0000000000000000, 	0.0000000000000000, 	0.0000000000000000, 	0.0000000000000000, 	0.0000000000000000, 	0.0000000000000000, 	0.0000000000000000, 
	-0.0000000000000000, 	0.0000000000000000, 	-0.0000000000000000, 	0.0000000000000000, 	0.0000000000000000, 	0.0000000000000000, 	-0.0000000000000000, 	-0.0000000000000000, 
	0.0000000000000000, 	0.0000000000000000, 	0.0000000000000000, 	0.0000000000000000, 	0.0000000000000000, 	0.0000000000000000, 	-0.0000000000000000, 	0.0000000000000000, 
	-0.0000000000000000, 	-0.0000000000000000, 	-0.0000000000000000, 	-0.0000000000000000, 	0.0000000000000000, 	0.0000000000000000, 	-0.0000000000000000, 	0.0000000000000000, 
	-0.0000000000000000, 	0.0000000000000000, 	0.0000000000000000, 	0.0000000000000000, 	0.0000000000000000, 	0.0000000000000000, 	-0.0000000000000000, 	0.0000000000000000, 
	-0.0000000000000000, 	0.0000000000000000, 	0.0000000000000000, 	0.0000000000000000, 	0.0000000000000000, 	0.0000000000000000, 	-0.0000000000000000, 	-0.0000000000000000, 
	-0.0000000000000000, 	0.0000000000000000, 	-0.0000000000000000, 	0.0000000000000000, 	-0.0000000000000000, 	-0.0000000000000000, 	0.0000000000000000, 	-0.0000000000000000, 
	0.0000000000000000, 	0.0000000000000000, 	-0.0000000000000000, 	0.0000000000000000, 	0.0000000000000000, 	-0.0000000000000000, 	0.0000000000000000, 	-0.0000000000000000, 
	-0.0000000000000000, 	-0.0000000000000000, 	-0.0000000000000000, 	-0.0000000000000000, 	-0.0000000000000000, 	-0.0000000000000000, 	0.0000000000000000, 	0.0000000000000000, 
	0.0000000000000000, 	0.0000000000000000, 	0.0000000000000000, 	-0.0000000000000000, 	0.0000000000000000, 	0.0000000000000000, 	0.0000000000000000, 	0.0000000000000000, 
	-0.0000000000000000, 	-0.0000000000000000, 	0.0000000000000000, 	-0.0000000000000000, 	-0.0000000000000000, 	0.0000000000000000, 	0.0000000000000000, 	0.0000000000000000, 
	-0.0000000000000000, 	-0.0000000000000000, 	-0.0000000000000000, 	-0.0000000000000000, 	0.0000000000000000, 	-0.0000000000000000, 	-0.0000000000000000, 	-0.0000000000000000, 
	0.0000000000000000, 	-0.0000000000000000, 	0.0000000000000000, 	-0.0000000000000000, 	-0.0000000000000000, 	-0.0000000000000000, 	-0.0000000000000000, 	-0.0000000000000000, 
	-0.0000000000000000, 	-0.0000000000000000, 	0.0000000000000000, 	0.0000000000000000, 	-0.0000000000000000, 	0.0000000000000000, 	0.0000000000000000, 	-0.0000000000000000, 
};
float fc_weight_3[147456] = {
	0.0141671579331160, 	-0.0124642830342054, 	0.0517518557608128, 	-0.0387803353369236, 	-0.0202169008553028, 	-0.0026267140638083, 	-0.0046373298391700, 	-0.0024246009998024, 	0.0086431447416544, 	-0.0051069883629680, 	-0.0056586773134768, 	-0.0059465956874192, 	-0.0012088555376977, 	-0.0120660401880741, 	-0.0071786642074585, 	-0.0139792058616877, 	-0.0125193968415260, 	-0.0000001824998748, 	0.0511515364050865, 	0.0209152847528458, 	-0.0139165818691254, 	0.0076641365885735, 	0.0178922899067402, 	0.0123832039535046, 	0.0133119979873300, 	0.0504113025963306, 	0.0405331850051880, 	-0.0000000000000002, 	-0.0000000000000004, 	-0.0000000000000004, 	-0.0000000000000002, 	-0.0000000000000003, 	-0.0000000000000003, 	-0.0000000000000001, 	-0.0000000000000002, 	-0.0000000000000002, 	-0.0000000000000000, 	0.0000000000000000, 	-0.0000000000000000, 	-0.0000000000000000, 	-0.0000000000000000, 	-0.0000000000000000, 	0.0000000000000000, 	-0.0000000000000000, 	0.0000000000000000, 	0.0154187232255936, 	0.0063427276909351, 	0.0403288379311562, 	-0.0646555349230766, 	-0.0082533899694681, 	-0.0345249772071838, 	0.0189239941537380, 	0.0055853887461126, 	-0.0004595998907462, 	0.0069458303041756, 	-0.0030835201032460, 	0.0266543682664633, 	0.0011518455576152, 	-0.0468346402049065, 	0.0154040353372693, 	-0.0159763228148222, 	-0.0139610441401601, 	0.0223914925009012, 	-0.0197006948292255, 	-0.0287206433713436, 	-0.0197220910340548, 	0.0181425940245390, 	-0.0098345382139087, 	-0.0199517011642456, 	0.0099563561379910, 	0.0020100940018892, 	-0.0150722339749336, 	-0.0475120730698109, 	-0.0357672758400440, 	-0.0124736716970801, 	-0.0282709598541260, 	0.0077591347508132, 	-0.0225973911583424, 	0.0066203949972987, 	0.0137654328718781, 	0.0166552178561687, 	-0.0004496655310504, 	0.0007467624964193, 	-0.0043117818422616, 	0.0029514613561332, 	0.0022440373431891, 	-0.0026229992508888, 	-0.0036430340260267, 	-0.0019448779057711, 	-0.0055589023977518, 	0.0573737174272537, 	0.0280063468962908, 	0.0135308224707842, 	-0.0048038805834949, 	0.0136356186121702, 	0.0046253418549895, 	-0.0128616411238909, 	0.0077189845032990, 	-0.0115400999784470, 	-0.0201710481196642, 	-0.0092908125370741, 	-0.0275420453399420, 	-0.0273515600711107, 	-0.0091563928872347, 	-0.0057521988637745, 	-0.0133720114827156, 	-0.0197493061423302, 	0.0074869077652693, 	-0.0190931223332882, 	0.0000287900529656, 	0.0414482802152634, 	-0.0166344586759806, 	-0.0015215018065646, 	0.0044541689567268, 	0.0221558567136526, 	0.0052614733576775, 	0.0154180889949203, 	0.0317821986973286, 	-0.0155240343883634, 	-0.0103737851604819, 	-0.0010534909088165, 	-0.0166882127523422, 	-0.0194231122732162, 	-0.0254044719040394, 	-0.0399045571684837, 	-0.0272164568305016, 	-0.0000000000000000, 	-0.0000000000000000, 	-0.0000000000000000, 	-0.0000000000000000, 	-0.0000000000000000, 	-0.0000000000000000, 	0.0000000000000000, 	0.0000000000000000, 	0.0000000000000000, 	0.0000000000000000, 	0.0000000000000000, 	0.0000000000000000, 	-0.0000000000000000, 	0.0000000000000000, 	0.0000000000000000, 	-0.0000000000000000, 	0.0000000000000000, 	-0.0000000000000000, 	-0.0000000000000000, 	-0.0000000000000000, 	-0.0000000000000000, 	-0.0000000000000000, 	-0.0000000000000000, 	-0.0000000000000000, 	-0.0000000000000000, 	-0.0000000000000000, 	-0.0000000000000000, 	-0.0098221106454730, 	0.0060839271172881, 	0.0428138114511967, 	-0.0211375020444393, 	-0.0051560769788921, 	-0.0015378940152004, 	0.0257319547235966, 	0.0209412407130003, 	0.0319784879684448, 	-0.0176778305321932, 	-0.0057957642711699, 	0.0340608321130276, 	0.0339514464139938, 	0.0205793716013432, 	0.0206563286483288, 	-0.0207072552293539, 	-0.0015630470588803, 	0.0193279311060905, 	-0.0178213063627481, 	-0.0306009463965893, 	0.0029857021290809, 	-0.0169428605586290, 	0.0157626587897539, 	-0.0034056734293699, 	0.0456210747361183, 	0.0270802453160286, 	0.0439589954912663, 	-0.0366776958107948, 	-0.0401692874729633, 	0.0007106659468263, 	-0.0074235945940018, 	0.0016207152511925, 	-0.0030735407490283, 	0.0078913941979408, 	0.0294584464281797, 	0.0064316722564399, 	-0.0425715483725071, 	-0.0106486361473799, 	-0.0016396404244006, 	-0.0405351631343365, 	0.0015329002635553, 	0.0106723438948393, 	0.0127234291285276, 	-0.0097841033712029, 	-0.0186263527721167, 	-0.0000416344155383, 	-0.0000017859846366, 	-0.0000024866392323, 	-0.0000014188223076, 	-0.0000018009098994, 	-0.0000017178488179, 	0.0000059049248193, 	-0.0002254070714116, 	0.0000249801450991, 	-0.0130567057058215, 	0.0030546761117876, 	0.0186102092266083, 	-0.0289546400308609, 	-0.0055293091572821, 	0.0086670089513063, 	-0.0030563652981073, 	-0.0084375431761146, 	0.0213305391371250, 	-0.0023406262043864, 	-0.0011297048768029, 	-0.0033149658702314, 	-0.0000523882663401, 	0.0051309927366674, 	0.0010948260314763, 	0.0001338967267657, 	0.0053577315993607, 	-0.0039397664368153, 	0.0041165947914124, 	0.0198895931243896, 	-0.0042311120778322, 	-0.0118824932724237, 	0.0027733047027141, 	-0.0130052389577031, 	0.0093399500474334, 	0.0131705505773425, 	-0.0014897200744599, 	0.0843743607401848, 	0.0533016994595528, 	-0.0106610348448157, 	0.0327603742480278, 	0.0062610399909317, 	-0.0181512851268053, 	-0.0197911448776722, 	0.0051220199093223, 	0.0005696173175238, 	-0.0190095175057650, 	-0.0104593075811863, 	-0.0341124646365643, 	-0.0329951159656048, 	-0.0020730134565383, 	-0.0093039227649570, 	-0.0345795154571533, 	-0.0356336683034897, 	-0.0049719461239874, 	0.0000000000000000, 	0.0000000000000000, 	0.0000000000000000, 	-0.0000000000000000, 	-0.0000000000000000, 	0.0000000000000000, 	-0.0000000000000000, 	0.0000000000000000, 	0.0000000000000000, 	-0.0000000000000000, 	-0.0000000000000000, 	-0.0000000000000000, 	0.0000000000000000, 	0.0000000000000000, 	-0.0000000000000000, 	0.0000000000000000, 	-0.0000000000000000, 	-0.0000000000000000, 	-0.0005692751728930, 	0.0105333793908358, 	0.0031386553309858, 	-0.0115194562822580, 	0.0218833331018686, 	-0.0027846677694470, 	0.0012512520188466, 	0.0038776132278144, 	-0.0150068067014217, 	-0.0409152731299400, 	-0.0349999032914639, 	0.0022753977682441, 	-0.0005584945320152, 	0.0139646548777819, 	0.0024746456183493, 	0.0140472082421184, 	0.0196730159223080, 	-0.0223059467971325, 	-0.0003345093864482, 	-0.0006610672571696, 	-0.0003246044216212, 	-0.0001206867164001, 	-0.0004140932869632, 	0.0000008222095289, 	0.0000591586504015, 	-0.0000969224201981, 	0.0000162215001183, 	0.0000000000000000, 	-0.0000000000000000, 	-0.0000000000000000, 	0.0000000000000000, 	0.0000000000000000, 	-0.0000000000000000, 	-0.0000000000000000, 	-0.0000000000000000, 	0.0000000000000000, 	0.0558200776576996, 	0.0176098365336657, 	-0.0349808856844902, 	0.0330402515828609, 	-0.0166353359818459, 	-0.0214401949197054, 	-0.0363664589822292, 	-0.0307083837687969, 	-0.0240494236350060, 	-0.0342023633420467, 	-0.0308748688548803, 	-0.0010841588955373, 	-0.0257336869835854, 	0.0463827550411224, 	-0.0230372715741396, 	-0.0207495708018541, 	-0.0027969141956419, 	-0.0191742237657309, 	-0.0131009016185999, 	0.0031895982101560, 	0.0144375227391720, 	-0.0465540476143360, 	-0.0105865765362978, 	0.0113574033603072, 	-0.0085429409518838, 	-0.0093401884660125, 	0.0270262956619263, 	-0.0151049690321088, 	-0.0146477399393916, 	-0.0187573749572039, 	0.0225650612264872, 	0.0047743581235409, 	-0.0114983795210719, 	0.0073744906112552, 	-0.0040817763656378, 	-0.0188290514051914, 	0.0009036337141879, 	-0.0016387987416238, 	0.0018860679119825, 	-0.0144603764638305, 	-0.0030204709619284, 	-0.0054436973296106, 	-0.0072136223316193, 	0.0099671036005020, 	-0.0199675448238850, 	-0.0073365112766623, 	0.0050580315291882, 	0.0388254709541798, 	-0.0150123983621597, 	-0.0115061886608601, 	0.0159922782331705, 	-0.0188922137022018, 	-0.0038736711721867, 	-0.0087732793763280, 	-0.0148103851824999, 	-0.0004207488964312, 	0.0305784102529287, 	0.0265460573136806, 	0.0215621776878834, 	0.0154315782710910, 	-0.0234909728169441, 	-0.0020809543784708, 	0.0193185340613127, 	-0.0000000000857382, 	-0.0000000001310619, 	-0.0000000000349204, 	-0.0000000001033992, 	-0.0000000001343281, 	-0.0000000000179141, 	-0.0000000001135032, 	-0.0000000001706445, 	-0.0000000000376640, 	0.0020028401631862, 	-0.0048669311217964, 	-0.0072858952917159, 	-0.0138344187289476, 	0.0122671891003847, 	-0.0109736705198884, 	-0.0057125380262733, 	0.0114675452932715, 	-0.0332406535744667, 	-0.0092746717855334, 	-0.0294506102800369, 	0.0591161511838436, 	-0.0388706624507904, 	0.0082131773233414, 	0.0243355780839920, 	0.0262575894594193, 	0.0241164173930883, 	-0.0087038883939385, 	-0.0474738255143166, 	-0.0249470416456461, 	0.0084624625742435, 	-0.0000746065561543, 	0.0347182229161263, 	-0.0030165119096637, 	0.0479015074670315, 	0.0272524915635586, 	0.0039228377863765, 	0.0000000000000000, 	0.0000000000000000, 	-0.0000000000000000, 	0.0000000000000000, 	0.0000000000000000, 	0.0000000000000000, 	0.0000000000000000, 	-0.0000000000000000, 	0.0000000000000000, 	-0.0557635612785816, 	-0.0140453595668077, 	0.0116503359749913, 	-0.0385355427861214, 	-0.0199002679437399, 	0.0296269655227661, 	0.0034632082097232, 	0.0168624129146338, 	0.0230305343866348, 	-0.0318627469241619, 	-0.0291701499372721, 	-0.0084694949910045, 	0.0216018110513687, 	0.0127117531374097, 	0.0004317665589042, 	0.0198708511888981, 	0.0096148047596216, 	-0.0210699662566185, 	-0.0584782175719738, 	-0.0574010685086250, 	-0.0056009697727859, 	-0.0089022209867835, 	0.0001059224232449, 	0.0059858700260520, 	0.0095615200698376, 	0.0336026921868324, 	0.0023325234651566, 	-0.0043662819080055, 	0.0072482484392822, 	-0.0150173250585794, 	-0.0069206263870001, 	-0.0257682446390390, 	-0.0302955582737923, 	-0.0315620042383671, 	-0.0226869639009237, 	0.0058373669162393, 	-0.0131556689739227, 	-0.0036342355888337, 	0.0352470241487026, 	-0.0246611889451742, 	-0.0111036114394665, 	0.0299216769635677, 	0.0016572953900322, 	-0.0089272176846862, 	0.0099857700988650, 	0.0402637496590614, 	0.0078885508701205, 	0.0200822111219168, 	-0.0215184390544891, 	-0.0190686639398336, 	-0.0269590783864260, 	0.0215462185442448, 	0.0290408041328192, 	0.0273341499269009, 	-0.0000000000000000, 	-0.0000000000000000, 	-0.0000000000000000, 	-0.0000000000000000, 	0.0000000000000000, 	-0.0000000000000000, 	-0.0000000000000000, 	-0.0000000000000000, 	-0.0000000000000000, 	-0.0105599556118250, 	-0.0086944401264191, 	-0.0044150063768029, 	0.0050320168957114, 	-0.0176217295229435, 	-0.0074195461347699, 	-0.0094501003623009, 	-0.0039131501689553, 	0.0174941755831242, 	-0.0044689807109535, 	0.0170255452394485, 	0.0370856262743473, 	0.0004343631444499, 	0.0065087364055216, 	0.0270461626350880, 	-0.0120042059570551, 	-0.0103351175785065, 	-0.0314502939581871, 	-0.0042589623481035, 	-0.0109839970245957, 	-0.0106175309047103, 	-0.0170595943927765, 	0.0092630097642541, 	-0.0170652195811272, 	0.0053858864121139, 	0.0180009696632624, 	-0.0096480557695031, 	0.0051072393544018, 	-0.0031183932442218, 	0.0025556415785104, 	0.0016111660515890, 	0.0122779384255409, 	0.0158596709370613, 	-0.0317307189106941, 	-0.0118776243180037, 	-0.0437347665429115, 	0.0000000000000000, 	0.0000000000000000, 	0.0000000000000000, 	-0.0000000000000000, 	-0.0000000000000000, 	-0.0000000000000000, 	-0.0000000000000000, 	-0.0000000000000000, 	0.0000000000000000, 	-0.0293839182704687, 	-0.0071815834380686, 	0.0145018352195621, 	-0.0257695429027081, 	-0.0058214953169227, 	0.0124536948278546, 	0.0110107976943254, 	0.0075975209474564, 	-0.0318218469619751, 	-0.0000000289563662, 	-0.0000000435138041, 	-0.0000000624639682, 	-0.0000000296706517, 	-0.0000000584417776, 	-0.0000000817833481, 	-0.0000000583908637, 	-0.0000000598341501, 	-0.0000000733720356, 	0.0002202299219789, 	0.0005875250790268, 	0.0003677257627714, 	0.0002123431622749, 	0.0003968196106143, 	0.0001370980025968, 	0.0000600731291343, 	0.0001420829794370, 	0.0000667526837788, 	0.0019212178885937, 	0.0004262116854079, 	-0.0016990053700283, 	-0.0047508617863059, 	0.0089204013347626, 	-0.0034955937881023, 	-0.0088675525039434, 	0.0000110884184323, 	-0.0148173375055194, 	0.0000011545961343, 	-0.0000000127407889, 	0.0000000494870136, 	0.0000047814246500, 	0.0000001966967886, 	-0.0000000122157200, 	-0.0000282994624285, 	0.0000092392983788, 	-0.0000000670081306, 	-0.0440128296613693, 	-0.0125716775655746, 	0.0087301954627037, 	0.0050417878665030, 	0.0047433110885322, 	0.0292685795575380, 	-0.0029337164014578, 	0.0073373327031732, 	-0.0062528918497264, 
	-0.0219563208520412, 	0.0362791754305363, 	-0.0179908815771341, 	0.0642888322472572, 	0.0541390627622604, 	0.0106629757210612, 	0.0126765472814441, 	0.0006345006404445, 	0.0075059412047267, 	-0.0003177569305990, 	0.0048524914309382, 	-0.0020358720794320, 	0.0062510659918189, 	0.0079059824347496, 	0.0103536490350962, 	0.0226612873375416, 	0.0151803046464920, 	0.0040027890354395, 	-0.0328437983989716, 	-0.0365905985236168, 	-0.0151569601148367, 	0.0121871381998062, 	-0.0298587735742331, 	-0.0692853704094887, 	-0.0391173362731934, 	-0.0271378867328167, 	-0.0229632183909416, 	-0.0000000000000002, 	-0.0000000000000006, 	0.0000000000000001, 	-0.0000000000000003, 	-0.0000000000000003, 	-0.0000000000000002, 	-0.0000000000000003, 	-0.0000000000000003, 	-0.0000000000000001, 	0.0000000000000000, 	0.0000000000000002, 	0.0000000000000000, 	-0.0000000000000000, 	0.0000000000000000, 	0.0000000000000000, 	0.0000000000000000, 	-0.0000000000000000, 	-0.0000000000000000, 	-0.0040242327377200, 	0.0088218078017235, 	-0.0355173908174038, 	0.0975720360875130, 	0.0281292032450438, 	0.0410632453858852, 	0.0256524756550789, 	-0.0016177832148969, 	-0.0068631982430816, 	0.0351183041930199, 	0.0312923640012741, 	-0.0142297027632594, 	0.0062380125746131, 	0.0412292368710041, 	-0.0004296132538002, 	-0.0053677731193602, 	-0.0048982924781740, 	-0.0181453302502632, 	0.0510727204382420, 	0.0399075672030449, 	0.0458760038018227, 	0.0164555516093969, 	0.0350663587450981, 	0.0201348774135113, 	-0.0050237397663295, 	0.0093822423368692, 	0.0283813830465078, 	0.0580703914165497, 	0.0459289960563183, 	0.0450311861932278, 	0.0698948949575424, 	0.0190352797508240, 	0.0703587159514427, 	-0.0149012012407184, 	-0.0231708530336618, 	-0.0017279434250668, 	-0.0015116720460355, 	0.0025027459487319, 	0.0060352184809744, 	0.0007224160362966, 	0.0009331835899502, 	0.0058114174753428, 	0.0064939400181174, 	-0.0006969872629270, 	0.0086195133626461, 	-0.0375371985137463, 	0.0019457293674350, 	0.0316101573407650, 	0.0113943805918097, 	-0.0058372602798045, 	0.0064346613362432, 	0.0299164671450853, 	0.0011540337000042, 	0.0196176767349243, 	0.0190846715122461, 	0.0324747636914253, 	0.0560528934001923, 	0.0240813400596380, 	0.0130490427836776, 	0.0139726484194398, 	-0.0113692805171013, 	0.0178856067359447, 	-0.0199552848935127, 	0.0400769710540771, 	0.0293653234839439, 	-0.0486162267625332, 	0.0032947894651443, 	0.0282702855765820, 	0.0119890617206693, 	-0.0326573774218559, 	-0.0323995314538479, 	-0.0071636671200395, 	-0.0369760841131210, 	0.0055257049389184, 	0.0285757482051849, 	-0.0087538687512279, 	0.0120669435709715, 	0.0013617118820548, 	0.0010537888156250, 	0.0539200603961945, 	0.0335112102329731, 	0.0000000000000000, 	0.0000000000000000, 	0.0000000000000000, 	0.0000000000000000, 	0.0000000000000000, 	-0.0000000000000000, 	-0.0000000000000000, 	-0.0000000000000000, 	-0.0000000000000000, 	-0.0000000000000000, 	0.0000000000000000, 	-0.0000000000000000, 	0.0000000000000000, 	0.0000000000000000, 	-0.0000000000000000, 	0.0000000000000000, 	0.0000000000000000, 	-0.0000000000000000, 	0.0000000000000000, 	0.0000000000000000, 	0.0000000000000000, 	-0.0000000000000000, 	0.0000000000000000, 	0.0000000000000000, 	-0.0000000000000000, 	-0.0000000000000000, 	0.0000000000000000, 	0.0530722141265869, 	0.0128366658464074, 	-0.0569969266653061, 	0.0171360485255718, 	0.0195900220423937, 	0.0141527252271771, 	-0.0203099343925714, 	-0.0483968891203403, 	-0.0285818241536617, 	0.0913511067628860, 	0.0335988849401474, 	-0.0429442748427391, 	-0.0620148293673992, 	-0.0009362900746055, 	0.0032964984420687, 	0.0289203580468893, 	0.0348915494978428, 	-0.0109330872073770, 	0.0257496777921915, 	0.0587642416357994, 	-0.0038866407703608, 	0.0565070733428001, 	0.0103177791461349, 	0.0166298002004623, 	-0.0455637648701668, 	-0.0452068075537682, 	-0.0420450903475285, 	0.0552942156791687, 	0.0412561595439911, 	0.0018415872473270, 	0.0309002622961998, 	0.0289204884320498, 	0.0160022098571062, 	0.0147676570340991, 	-0.0065175625495613, 	-0.0230940673500299, 	0.0529827885329723, 	0.0153192467987537, 	0.0250149406492710, 	0.0595942623913288, 	-0.0230189431458712, 	-0.0073841260746121, 	-0.0418371036648750, 	-0.0012629912234843, 	0.0410553812980652, 	0.0000033778176203, 	0.0000015920943497, 	0.0000015323126945, 	0.0000007239884781, 	0.0000016326256400, 	0.0000010941307664, 	0.0000126303466459, 	0.0003902289608959, 	-0.0000598645783612, 	0.0310844201594591, 	0.0097672268748283, 	0.0004102129023522, 	0.0502677895128727, 	-0.0024605430662632, 	-0.0151882637292147, 	-0.0171998515725136, 	0.0155930314213037, 	-0.0236682146787643, 	0.0049295220524073, 	0.0066539919935167, 	0.0044752503745258, 	0.0090865474194288, 	0.0111177004873753, 	0.0086545599624515, 	0.0134662641212344, 	0.0091603705659509, 	0.0008054470526986, 	-0.0018245350802317, 	-0.0068620820529759, 	-0.0045767854899168, 	0.0528818666934967, 	0.0146315107122064, 	0.0114833470433950, 	0.0155955655500293, 	-0.0252309367060661, 	-0.0331371612846851, 	-0.0478318817913532, 	-0.0208040867000818, 	0.0540118366479874, 	-0.0128313228487968, 	-0.0098690306767821, 	0.0010178897064179, 	0.0176812689751387, 	-0.0021256147883832, 	0.0363998487591743, 	0.0156344175338745, 	0.0382728129625320, 	0.0803167447447777, 	0.0276908241212368, 	0.0178240109235048, 	0.0237484853714705, 	0.0068400357849896, 	0.0381891988217831, 	0.0038242775481194, 	0.0000000000000000, 	0.0000000000000000, 	-0.0000000000000000, 	-0.0000000000000000, 	-0.0000000000000000, 	0.0000000000000000, 	-0.0000000000000000, 	-0.0000000000000000, 	-0.0000000000000000, 	0.0000000000000000, 	0.0000000000000000, 	0.0000000000000000, 	0.0000000000000000, 	-0.0000000000000000, 	0.0000000000000000, 	0.0000000000000000, 	0.0000000000000000, 	0.0000000000000000, 	0.0070260297507048, 	0.0012946821516380, 	0.0132562573999166, 	0.0067682424560189, 	-0.0086957896128297, 	0.0024389445316046, 	0.0026842704974115, 	0.0096702817827463, 	0.0318761579692364, 	0.0502938032150269, 	0.0208392720669508, 	-0.0110615249723196, 	0.0088234655559063, 	0.0191536117345095, 	0.0105813983827829, 	0.0138664757832885, 	-0.0059735476970673, 	0.0024593651760370, 	-0.0003131579724140, 	-0.0005806394037791, 	-0.0010358789004385, 	-0.0003562539059203, 	-0.0005619659204967, 	-0.0005854492192157, 	-0.0013886779779568, 	-0.0015660453354940, 	-0.0018763355910778, 	-0.0000000000000000, 	-0.0000000000000000, 	-0.0000000000000000, 	-0.0000000000000000, 	-0.0000000000000000, 	0.0000000000000000, 	-0.0000000000000000, 	-0.0000000000000000, 	-0.0000000000000000, 	-0.0412745364010334, 	0.0023076937068254, 	0.0855945795774460, 	-0.0390405096113682, 	-0.0042080311104655, 	0.0123832700774074, 	0.0181067846715450, 	0.0260984934866428, 	0.0463236272335052, 	0.0665796995162964, 	0.0421492271125317, 	0.0472866930067539, 	0.0770831480622292, 	-0.0406643450260162, 	0.0680797770619392, 	0.0311489868909121, 	0.0321752801537514, 	0.0607864297926426, 	0.0517471097409725, 	0.0108583969995379, 	0.0215305220335722, 	0.0796801969408989, 	0.0032970933243632, 	-0.0126804821193218, 	-0.0218290090560913, 	0.0201279427856207, 	-0.0278177149593830, 	0.0317757315933704, 	0.0172082837671041, 	0.0445370078086853, 	0.0036092789378017, 	0.0060392250306904, 	0.0075924368575215, 	-0.0058402279391885, 	-0.0041453689336777, 	0.0174909755587578, 	-0.0017947213491425, 	0.0047863172367215, 	-0.0025830608792603, 	0.0178404543548822, 	0.0200825929641724, 	0.0323306657373905, 	0.0126156322658062, 	0.0049320459365845, 	0.0298616513609886, 	0.0164788980036974, 	0.0202341359108686, 	-0.0105781070888042, 	0.0420388616621494, 	0.0207464527338743, 	-0.0267644859850407, 	0.0340725965797901, 	-0.0053997174836695, 	0.0168633628636599, 	0.0802453234791756, 	0.0170564539730549, 	-0.0401962772011757, 	-0.0589989572763443, 	-0.0021306388080120, 	0.0042270650155842, 	0.0332738980650902, 	0.0363658592104912, 	-0.0253654699772596, 	0.0000000000217995, 	-0.0000000000089824, 	-0.0000000000512679, 	0.0000000001180327, 	-0.0000000000111896, 	-0.0000000000435238, 	0.0000000001542347, 	0.0000000000347480, 	0.0000000000278922, 	-0.0073945433832705, 	0.0102379890158772, 	0.0051699480973184, 	0.0219787787646055, 	0.0199220236390829, 	0.0450785532593727, 	0.0245817378163338, 	0.0193356573581696, 	0.0476309247314930, 	0.0101639805361629, 	0.0551040060818195, 	-0.0444307811558247, 	0.0370607338845730, 	0.0200607161968946, 	-0.0132789872586727, 	-0.0456658042967319, 	-0.0097558805719018, 	0.0188069660216570, 	0.0594057925045490, 	0.0429756306111813, 	-0.0024000010453165, 	0.0449710600078106, 	-0.0125941708683968, 	-0.0029317585285753, 	-0.0425056256353855, 	-0.0374063439667225, 	-0.0062866709195077, 	0.0000000000000000, 	-0.0000000000000000, 	0.0000000000000000, 	0.0000000000000000, 	-0.0000000000000000, 	-0.0000000000000000, 	-0.0000000000000000, 	-0.0000000000000000, 	-0.0000000000000000, 	0.0752276703715324, 	0.0329879075288773, 	-0.0255889315158129, 	0.0802051350474358, 	0.0130005292594433, 	-0.0271480064839125, 	-0.0016134126344696, 	-0.0466252304613590, 	-0.0389045216143131, 	0.0524348281323910, 	0.0270129460841417, 	0.0271964278072119, 	-0.0008796170004643, 	0.0222160462290049, 	-0.0005095619708300, 	-0.0176312066614628, 	-0.0240845475345850, 	0.0226578749716282, 	0.0719063654541969, 	0.0684092044830322, 	0.0298502165824175, 	0.0230419691652060, 	0.0449657179415226, 	0.0474768802523613, 	0.0166234355419874, 	0.0045437137596309, 	-0.0255794394761324, 	-0.0003860118740704, 	0.0082354452461004, 	0.0063828295096755, 	0.0263704881072044, 	0.0539940446615219, 	0.0215733293443918, 	0.0641909167170525, 	0.0075353970751166, 	-0.0469901114702225, 	0.0230546109378338, 	0.0258234608918428, 	-0.0211413204669952, 	0.0377954542636871, 	0.0094379587098956, 	-0.0341229327023029, 	-0.0040861312299967, 	-0.0091523667797446, 	-0.0213150884956121, 	-0.0268827080726624, 	-0.0080533977597952, 	-0.0508302450180054, 	0.0118985027074814, 	0.0368273928761482, 	0.0336394645273685, 	-0.0048449160531163, 	-0.0218569915741682, 	-0.0126623250544071, 	0.0000000000000000, 	0.0000000000000000, 	0.0000000000000000, 	-0.0000000000000000, 	0.0000000000000000, 	0.0000000000000000, 	-0.0000000000000000, 	0.0000000000000000, 	0.0000000000000000, 	0.0097106033936143, 	0.0148962391540408, 	0.0028491704724729, 	0.0308707095682621, 	0.0421115085482597, 	0.0116826910525560, 	0.0294122826308012, 	-0.0166471879929304, 	-0.0293154511600733, 	0.0288858301937580, 	0.0231957528740168, 	-0.0307205710560083, 	-0.0017682737670839, 	0.0314820893108845, 	-0.0234506782144308, 	0.0114770289510489, 	0.0221815444529057, 	0.0583702847361565, 	0.0140226241201162, 	0.0074877147562802, 	-0.0029797244351357, 	0.0107810469344258, 	0.0094413505867124, 	0.0378955081105232, 	0.0100033134222031, 	-0.0107063474133611, 	0.0032080349046737, 	-0.0303993541747332, 	-0.0061038299463689, 	0.0163049921393394, 	-0.0008976514800452, 	0.0018281571101397, 	0.0059689106419683, 	0.0303883031010628, 	0.0460604466497898, 	0.0472594983875751, 	-0.0000000000000001, 	-0.0000000000000000, 	-0.0000000000000000, 	-0.0000000000000000, 	0.0000000000000000, 	-0.0000000000000000, 	0.0000000000000000, 	0.0000000000000000, 	-0.0000000000000000, 	0.0251715928316116, 	0.0002851109893527, 	-0.0375420674681664, 	0.0243444480001926, 	0.0218383911997080, 	0.0010556854540482, 	0.0137421134859324, 	-0.0051532625220716, 	0.0349362120032310, 	0.0000000624229273, 	0.0000000340203918, 	0.0000001321011496, 	0.0000001190669892, 	0.0000000385574310, 	0.0000001538030006, 	0.0000000967863940, 	0.0000000594924785, 	0.0000001118217909, 	-0.0002524317824282, 	-0.0006808704929426, 	-0.0003998209140263, 	-0.0002210276579717, 	-0.0003463423927315, 	-0.0001370255486108, 	-0.0003522789629642, 	-0.0002171463274863, 	-0.0000956955991569, 	-0.0047429809346795, 	-0.0032110952306539, 	0.0028017247095704, 	0.0076479702256620, 	0.0133611010387540, 	0.0188625790178776, 	0.0152416219934821, 	0.0017985515296459, 	0.0265675652772188, 	0.0000006787071811, 	0.0000000161281974, 	0.0000000838254479, 	-0.0000086490299509, 	-0.0000032626717257, 	-0.0000000012616177, 	0.0000024447469968, 	-0.0000001325544474, 	0.0000017694228518, 	0.0597258694469929, 	0.0212498232722282, 	-0.0297820195555687, 	-0.0164263285696507, 	0.0056972494348884, 	0.0039447206072509, 	0.0334237292408943, 	0.0098030818626285, 	-0.0216294676065445, 
	-0.0330828092992306, 	0.0205456279218197, 	-0.0124433944001794, 	0.0092323031276464, 	0.0188705958425999, 	0.0151512892916799, 	0.0012304570991546, 	-0.0037832513917238, 	0.0037959427572787, 	0.0042491098865867, 	-0.0022138878703117, 	-0.0108069898560643, 	-0.0032401992939413, 	-0.0023968922905624, 	0.0136454692110419, 	0.0085178008303046, 	0.0111856544390321, 	0.0135175576433539, 	-0.0340030454099178, 	-0.0256193988025188, 	0.0255306567996740, 	-0.0305077657103539, 	-0.0352783240377903, 	-0.0314891450107098, 	-0.0276314988732338, 	-0.0486221984028816, 	0.0021589745301753, 	0.0000000000000001, 	0.0000000000000001, 	0.0000000000000003, 	0.0000000000000002, 	0.0000000000000002, 	0.0000000000000002, 	0.0000000000000002, 	0.0000000000000002, 	0.0000000000000001, 	0.0000000000000000, 	0.0000000000000000, 	0.0000000000000000, 	-0.0000000000000000, 	-0.0000000000000000, 	-0.0000000000000000, 	-0.0000000000000000, 	0.0000000000000000, 	-0.0000000000000000, 	-0.0062265773303807, 	0.0047133369371295, 	-0.0545348078012466, 	0.0338217653334141, 	-0.0143663836643100, 	0.0179433338344097, 	-0.0008257525041699, 	0.0070624747313559, 	-0.0140208788216114, 	0.0160491466522217, 	0.0152445547282696, 	0.0022958575282246, 	0.0121318036690354, 	0.0146757662296295, 	0.0129365762695670, 	0.0008399893995374, 	0.0039475862868130, 	0.0143608218058944, 	0.0358114242553711, 	0.0164719820022583, 	0.0350166894495487, 	0.0016549611464143, 	0.0186811555176973, 	0.0177402496337891, 	0.0100357038900256, 	0.0074965069070458, 	0.0073302704840899, 	0.0174927469342947, 	0.0111026717349887, 	0.0091124633327127, 	0.0393187403678894, 	0.0402945689857006, 	0.0386152118444443, 	-0.0064072050154209, 	-0.0173207893967628, 	-0.0180937983095646, 	-0.0004144521371927, 	0.0008932402706705, 	-0.0000717316506780, 	0.0034035865683109, 	-0.0012539483141154, 	0.0005604479229078, 	0.0026937944348902, 	-0.0010317914420739, 	0.0056360494345427, 	-0.0260849520564079, 	0.0226861294358969, 	0.0148230679333210, 	-0.0055342921987176, 	0.0187029000371695, 	0.0051169507205486, 	0.0056138178333640, 	0.0144592178985476, 	0.0023751377593726, 	0.0041076159104705, 	0.0174907948821783, 	0.0182203091681004, 	0.0129340719431639, 	0.0026737947482616, 	0.0033654961735010, 	-0.0134891327470541, 	0.0058860951103270, 	-0.0059480280615389, 	0.0130496211349964, 	0.0175878144800663, 	-0.0234446637332439, 	0.0137791819870472, 	0.0350337363779545, 	0.0127585148438811, 	-0.0210265256464481, 	-0.0087168421596289, 	-0.0320375338196754, 	-0.0121148526668549, 	-0.0051632476970553, 	0.0317731946706772, 	-0.0267594419419765, 	-0.0004472102737054, 	0.0219137482345104, 	0.0061007831245661, 	0.0135771119967103, 	0.0176804903894663, 	-0.0000000000000000, 	-0.0000000000000000, 	-0.0000000000000000, 	-0.0000000000000000, 	-0.0000000000000000, 	-0.0000000000000000, 	-0.0000000000000000, 	-0.0000000000000000, 	-0.0000000000000000, 	0.0000000000000000, 	0.0000000000000000, 	0.0000000000000000, 	0.0000000000000000, 	0.0000000000000000, 	0.0000000000000000, 	0.0000000000000000, 	0.0000000000000000, 	-0.0000000000000000, 	-0.0000000000000000, 	-0.0000000000000000, 	-0.0000000000000000, 	-0.0000000000000000, 	-0.0000000000000000, 	-0.0000000000000000, 	-0.0000000000000000, 	-0.0000000000000000, 	-0.0000000000000000, 	0.0205053631216288, 	0.0143160857260227, 	-0.0336261540651321, 	0.0123802786692977, 	0.0297081749886274, 	0.0184419993311167, 	0.0010307604679838, 	-0.0093852877616882, 	-0.0353399403393269, 	0.0179826300591230, 	-0.0037665695417672, 	-0.0135095603764057, 	-0.0072289956733584, 	-0.0188568420708179, 	-0.0074854339472950, 	0.0137426843866706, 	0.0235197823494673, 	-0.0005294412840158, 	0.0434074886143208, 	0.0192141532897949, 	-0.0299678873270750, 	0.0375049076974392, 	0.0204727109521627, 	-0.0118290912359953, 	-0.0379118286073208, 	-0.0408789739012718, 	-0.0361460596323013, 	0.0106885489076376, 	0.0166623238474131, 	0.0078160772100091, 	0.0228657573461533, 	0.0284560155123472, 	0.0195878855884075, 	0.0188997536897659, 	-0.0187429282814264, 	-0.0122756622731686, 	0.0110700046643615, 	0.0146360890939832, 	0.0023651286028326, 	0.0301169753074646, 	-0.0080392966046929, 	-0.0180098991841078, 	-0.0298726260662079, 	-0.0051633492112160, 	0.0308147761970758, 	0.0000273776131507, 	0.0000004597106340, 	0.0000010131795989, 	0.0000000231203465, 	0.0000001511435102, 	-0.0000002634754708, 	-0.0000108266222014, 	0.0001522628153907, 	-0.0000205444011954, 	0.0094649922102690, 	0.0056957998313010, 	0.0162689220160246, 	0.0233152043074369, 	-0.0009981289040297, 	0.0058139590546489, 	-0.0134459864348173, 	0.0032248739153147, 	-0.0016826657811180, 	0.0078239701688290, 	0.0107987085357308, 	-0.0093047348782420, 	0.0039562270976603, 	0.0236718934029341, 	0.0150974765419960, 	0.0090892175212502, 	0.0152515908703208, 	0.0082329530268908, 	-0.0019428335363045, 	0.0151816820725799, 	-0.0074073961004615, 	0.0173210706561804, 	0.0025610907468945, 	-0.0083805155009031, 	-0.0056020873598754, 	-0.0165650956332684, 	-0.0348716750741005, 	-0.0274514909833670, 	0.0065530696883798, 	0.0191097240895033, 	-0.0245454926043749, 	-0.0025291116908193, 	-0.0206293277442455, 	0.0096512250602245, 	0.0081424107775092, 	-0.0022202297113836, 	0.0041088024154305, 	0.0244931615889072, 	0.0313238501548767, 	0.0141829131171107, 	0.0035787499509752, 	0.0003788566682488, 	0.0005477973027155, 	0.0092429379001260, 	-0.0095785697922111, 	0.0000000000000000, 	0.0000000000000000, 	-0.0000000000000000, 	-0.0000000000000000, 	0.0000000000000000, 	0.0000000000000000, 	-0.0000000000000000, 	-0.0000000000000000, 	-0.0000000000000000, 	0.0000000000000000, 	0.0000000000000000, 	0.0000000000000000, 	-0.0000000000000000, 	0.0000000000000000, 	0.0000000000000000, 	-0.0000000000000000, 	0.0000000000000000, 	0.0000000000000000, 	0.0023962701670825, 	0.0091900266706944, 	0.0194336529821157, 	0.0043094404973090, 	0.0120437666773796, 	0.0057516898959875, 	-0.0022179030347615, 	0.0084385937079787, 	0.0085952868685126, 	0.0051993797533214, 	-0.0051183262839913, 	-0.0179158691316843, 	0.0071622384712100, 	0.0248990617692471, 	0.0037289743777364, 	0.0087890550494194, 	-0.0093465149402618, 	-0.0215004645287991, 	0.0001827513478929, 	-0.0003490929666441, 	-0.0002590340736788, 	-0.0001445227244403, 	-0.0001215588708874, 	-0.0000179011803993, 	-0.0001894142624224, 	-0.0001273147645406, 	-0.0001919680507854, 	-0.0000000000000000, 	0.0000000000000000, 	-0.0000000000000000, 	-0.0000000000000000, 	0.0000000000000000, 	0.0000000000000000, 	-0.0000000000000000, 	0.0000000000000000, 	0.0000000000000000, 	-0.0158557910472155, 	0.0171322133392096, 	0.0503788106143475, 	-0.0489113368093967, 	0.0019635960925370, 	-0.0137726487591863, 	0.0101402318105102, 	0.0148437051102519, 	0.0092244241386652, 	0.0074615986086428, 	0.0187618974596262, 	0.0284454729408026, 	0.0408788658678532, 	-0.0281925275921822, 	0.0324199870228767, 	0.0274773593991995, 	0.0088961850851774, 	0.0061664348468184, 	0.0124700991436839, 	0.0068888617679477, 	0.0289720185101032, 	0.0414913408458233, 	-0.0013355691917241, 	0.0153449848294258, 	-0.0255841016769409, 	0.0066044428385794, 	-0.0025050435215235, 	0.0252112578600645, 	0.0028925039805472, 	0.0204864591360092, 	-0.0004137103678659, 	0.0074296202510595, 	0.0078712990507483, 	-0.0087018152698874, 	-0.0088947108015418, 	-0.0047631761990488, 	-0.0035450144205242, 	0.0019158167997375, 	0.0039181746542454, 	0.0151655264198780, 	0.0067803226411343, 	0.0075026475824416, 	0.0071332259103656, 	0.0035321868490428, 	0.0123438257724047, 	-0.0023404797539115, 	0.0073619256727397, 	-0.0018912112573162, 	0.0166697800159454, 	0.0252284593880177, 	0.0142982052639127, 	0.0170338246971369, 	0.0041094515472651, 	0.0119006345048547, 	0.0161452665925026, 	-0.0091844070702791, 	-0.0132226450368762, 	-0.0053797615692019, 	-0.0132981231436133, 	0.0007432497222908, 	0.0151788499206305, 	0.0215709041804075, 	-0.0083252601325512, 	0.0000000000547727, 	0.0000000000570192, 	-0.0000000000178975, 	0.0000000001446720, 	0.0000000000593067, 	-0.0000000000227646, 	0.0000000001722825, 	0.0000000000622664, 	-0.0000000000008984, 	-0.0041393027640879, 	0.0022120571229607, 	0.0062379403971136, 	0.0185673553496599, 	0.0103142904117703, 	0.0114635322242975, 	0.0139341186732054, 	0.0060034436173737, 	0.0182257685810328, 	-0.0078394440934062, 	0.0211356207728386, 	-0.0529683269560337, 	0.0127131175249815, 	0.0046470682136714, 	-0.0159861743450165, 	-0.0299434885382652, 	-0.0067969798110425, 	0.0053619924001396, 	0.0381219983100891, 	0.0315465070307255, 	-0.0101744066923857, 	-0.0041501806117594, 	0.0036854690406471, 	-0.0149791454896331, 	-0.0153585840016603, 	-0.0098056066781282, 	0.0008135006646626, 	0.0000000000000000, 	-0.0000000000000000, 	0.0000000000000000, 	0.0000000000000000, 	0.0000000000000000, 	0.0000000000000000, 	0.0000000000000000, 	0.0000000000000000, 	-0.0000000000000000, 	0.0201400648802519, 	0.0243260674178600, 	0.0011014335323125, 	0.0541600957512856, 	-0.0029969874303788, 	-0.0219839923083782, 	0.0037855580449104, 	-0.0260874386876822, 	-0.0230497214943171, 	0.0264807008206844, 	0.0026706301141530, 	0.0324330925941467, 	0.0084625035524368, 	0.0351453088223934, 	0.0204208791255951, 	0.0006975012947805, 	-0.0087527949362993, 	-0.0045475643128157, 	0.0089187854900956, 	0.0129507249221206, 	0.0155744170770049, 	0.0115220313891768, 	0.0471793115139008, 	0.0378531254827976, 	0.0151090659201145, 	-0.0030187030788511, 	-0.0155874956399202, 	0.0043816445395350, 	0.0212957281619310, 	-0.0079609276726842, 	0.0055058719590306, 	0.0198055654764175, 	0.0176112595945597, 	0.0358266979455948, 	0.0151759842410684, 	-0.0141442893072963, 	0.0061574340797961, 	0.0170323643833399, 	0.0103752901777625, 	0.0279179662466049, 	-0.0018390131881461, 	-0.0117981731891632, 	0.0018830287735909, 	-0.0053866575472057, 	-0.0143328728154302, 	-0.0123683456331491, 	-0.0151331778615713, 	-0.0459092818200588, 	-0.0076450714841485, 	0.0201835483312607, 	0.0240072533488274, 	0.0101237986236811, 	0.0022525538224727, 	-0.0014434882905334, 	0.0000000000000000, 	0.0000000000000000, 	-0.0000000000000000, 	0.0000000000000000, 	0.0000000000000000, 	-0.0000000000000000, 	0.0000000000000000, 	0.0000000000000000, 	0.0000000000000000, 	0.0106535097584128, 	0.0078444201499224, 	-0.0121017415076494, 	0.0150128435343504, 	0.0309551842510700, 	0.0188555344939232, 	0.0176722388714552, 	0.0074783628806472, 	0.0019253552891314, 	0.0074248383753002, 	0.0054777632467449, 	-0.0112805310636759, 	0.0081512182950974, 	0.0291423927992582, 	0.0011433417676017, 	0.0004497077025007, 	0.0217047538608313, 	0.0134970210492611, 	-0.0025197754148394, 	-0.0056525589898229, 	-0.0050533558242023, 	0.0185074489563704, 	0.0138538908213377, 	0.0140746971592307, 	0.0098256003111601, 	0.0018763347761706, 	-0.0017746024532244, 	-0.0065780784934759, 	-0.0074877385050058, 	0.0183813013136387, 	0.0097200721502304, 	-0.0046711340546608, 	0.0116437347605824, 	0.0082549871876836, 	0.0112206460908055, 	0.0291922725737095, 	-0.0000000000000001, 	-0.0000000000000000, 	-0.0000000000000000, 	-0.0000000000000000, 	0.0000000000000000, 	-0.0000000000000000, 	0.0000000000000000, 	-0.0000000000000000, 	-0.0000000000000000, 	0.0105346739292145, 	-0.0104003651067615, 	-0.0197626966983080, 	0.0272420924156904, 	0.0162019152194262, 	-0.0145650673657656, 	0.0194611456245184, 	-0.0009108168887906, 	0.0043250271119177, 	0.0000000041244359, 	0.0000000125874857, 	0.0000000760417223, 	0.0000000600590013, 	0.0000000318507247, 	0.0000000442449668, 	0.0000000556282593, 	0.0000000283998816, 	0.0000000255684647, 	0.0000143201832543, 	0.0000144272216858, 	-0.0000239032578975, 	-0.0000120531421999, 	0.0000190872833628, 	-0.0000262344947259, 	-0.0000206861877814, 	0.0000140387719512, 	-0.0000112894922495, 	-0.0023168537300080, 	-0.0036252192221582, 	0.0027368855662644, 	0.0020071705803275, 	0.0029591966886073, 	0.0075492579489946, 	0.0010552590247244, 	-0.0019600905943662, 	0.0183244533836842, 	0.0000004887280056, 	0.0000000046407753, 	0.0000000340769084, 	0.0000165860601555, 	-0.0000009225021813, 	0.0000000039059316, 	-0.0000715596470400, 	-0.0000050519515753, 	-0.0000010489875422, 	0.0248830094933510, 	-0.0009463031310588, 	-0.0092987641692162, 	0.0111529277637601, 	0.0003112320846412, 	-0.0086564980447292, 	0.0141395479440689, 	-0.0042409892193973, 	-0.0262525212019682, 
	-0.0254598185420036, 	-0.0103463409468532, 	0.0024786039721221, 	0.0039511411450803, 	-0.0036684891674668, 	0.0103996293619275, 	-0.0020648306235671, 	0.0080765886232257, 	0.0171624142676592, 	0.0012413901276886, 	0.0022057348396629, 	-0.0021610453259200, 	0.0016420840984210, 	0.0078109595924616, 	0.0002217365108663, 	0.0083912089467049, 	0.0089281694963574, 	0.0082709407433867, 	-0.0264083724468946, 	-0.0004984818515368, 	-0.0131817115470767, 	-0.0067728511057794, 	0.0097027709707618, 	-0.0167483817785978, 	-0.0160337332636118, 	-0.0109883323311806, 	0.0016437653684989, 	0.0000000000000002, 	0.0000000000000002, 	0.0000000000000002, 	0.0000000000000003, 	0.0000000000000003, 	0.0000000000000002, 	0.0000000000000004, 	0.0000000000000003, 	0.0000000000000002, 	0.0000000000000000, 	0.0000000000000000, 	0.0000000000000000, 	-0.0000000000000000, 	-0.0000000000000000, 	-0.0000000000000000, 	-0.0000000000000000, 	0.0000000000000000, 	0.0000000000000000, 	-0.0315195247530937, 	-0.0087180221453309, 	-0.0087412409484386, 	0.0106649668887258, 	-0.0039508165791631, 	0.0165927410125732, 	-0.0020482752006501, 	0.0253723114728928, 	0.0077182603999972, 	0.0094318827614188, 	-0.0110795693472028, 	-0.0105810295790434, 	-0.0135282864794135, 	0.0091564692556858, 	-0.0089054126292467, 	-0.0051864651031792, 	-0.0115669909864664, 	0.0229616463184357, 	0.0075404606759548, 	0.0044809188693762, 	0.0014797269832343, 	0.0021926797926426, 	0.0090247355401516, 	0.0013944029342383, 	0.0049960697069764, 	0.0151621233671904, 	0.0157318469136953, 	0.0097986329346895, 	0.0221078693866730, 	0.0040622116066515, 	0.0089768022298813, 	0.0091040842235088, 	-0.0109752742573619, 	-0.0030445328447968, 	0.0122762182727456, 	-0.0043693115003407, 	-0.0002551112847868, 	-0.0002340315550100, 	-0.0006890341755934, 	-0.0009948321385309, 	-0.0009103952907026, 	-0.0012368082534522, 	0.0029927210416645, 	0.0025636402424425, 	0.0014371088473126, 	-0.0171744972467422, 	-0.0087933251634240, 	0.0059568332508206, 	-0.0032924702391028, 	-0.0044552087783813, 	0.0016091971192509, 	0.0107477391138673, 	-0.0003535626456141, 	0.0038993116468191, 	0.0046375417150557, 	0.0066229593940079, 	0.0101485121995211, 	0.0088885715231299, 	0.0031437403522432, 	0.0020696872379631, 	0.0024793676566333, 	0.0053698797710240, 	0.0023870542645454, 	-0.0086445650085807, 	-0.0067798667587340, 	-0.0112970266491175, 	-0.0115018216893077, 	-0.0033903371077031, 	0.0118345515802503, 	-0.0034597236663103, 	0.0121290748938918, 	0.0134092997759581, 	-0.0232071205973625, 	-0.0140453753992915, 	0.0046608955599368, 	-0.0013976007467136, 	0.0049745431169868, 	0.0048324209637940, 	0.0036613803822547, 	0.0196822695434093, 	0.0186536666005850, 	0.0000000000000000, 	0.0000000000000000, 	0.0000000000000000, 	0.0000000000000000, 	0.0000000000000000, 	-0.0000000000000000, 	-0.0000000000000000, 	-0.0000000000000000, 	-0.0000000000000000, 	-0.0000000000000000, 	-0.0000000000000000, 	-0.0000000000000000, 	-0.0000000000000000, 	-0.0000000000000000, 	-0.0000000000000000, 	-0.0000000000000000, 	-0.0000000000000000, 	-0.0000000000000000, 	0.0000000000000000, 	0.0000000000000000, 	0.0000000000000000, 	-0.0000000000000000, 	0.0000000000000000, 	0.0000000000000000, 	-0.0000000000000000, 	0.0000000000000000, 	-0.0000000000000000, 	-0.0033916248939931, 	-0.0123203648254275, 	-0.0170757323503494, 	-0.0038025530520827, 	-0.0050446605309844, 	0.0092925550416112, 	-0.0020069829188287, 	-0.0065141040831804, 	-0.0003069421509281, 	0.0281290262937546, 	0.0040726666338742, 	-0.0244201011955738, 	-0.0565262958407402, 	-0.0277391523122787, 	-0.0303719062358141, 	-0.0249440521001816, 	-0.0158293247222900, 	0.0052164690569043, 	0.0060416823253036, 	0.0260186865925789, 	-0.0021264837123454, 	0.0090435734018683, 	-0.0012741454411298, 	-0.0021233274601400, 	-0.0184140503406525, 	0.0107844937592745, 	-0.0139710055664182, 	0.0078367646783590, 	0.0130104068666697, 	-0.0002924041182268, 	0.0075129275210202, 	-0.0073165548965335, 	0.0060190092772245, 	0.0014741474296898, 	-0.0149992471560836, 	-0.0061304224655032, 	0.0115619134157896, 	0.0049744583666325, 	0.0046662245877087, 	0.0161906052380800, 	0.0061750495806336, 	-0.0011594553943723, 	0.0031181946396828, 	-0.0033775542397052, 	0.0248759966343641, 	0.0000060472079895, 	0.0000004451869700, 	0.0000011275359384, 	0.0000000790222714, 	0.0000005004636137, 	0.0000003009503757, 	0.0000350131667801, 	-0.0000003685435956, 	0.0000093774924608, 	0.0007744078175165, 	-0.0019221669062972, 	-0.0031086637172848, 	0.0042753680609167, 	0.0056159324012697, 	-0.0062439283356071, 	-0.0033312495797873, 	0.0064520006999373, 	0.0002279373875353, 	0.0011916272342205, 	0.0025574760511518, 	0.0008848357829265, 	0.0025553815066814, 	0.0035491085145622, 	-0.0005013496847823, 	0.0026028465945274, 	0.0113226408138871, 	0.0038924401160330, 	-0.0079153021797538, 	0.0054383133538067, 	0.0026206171605736, 	-0.0004585807619151, 	0.0026196292601526, 	-0.0050393287092447, 	0.0111667495220900, 	0.0035759513266385, 	-0.0150700695812702, 	-0.0325163342058659, 	-0.0166918635368347, 	0.0152330901473761, 	-0.0148139214143157, 	0.0038888563867658, 	0.0163543801754713, 	-0.0017197993583977, 	0.0016363556496799, 	0.0352547168731689, 	-0.0010613190243021, 	0.0057033449411392, 	0.0155974701046944, 	0.0103866942226887, 	0.0002700079639908, 	0.0091465068981051, 	0.0096999211236835, 	0.0113992514088750, 	0.0078715318813920, 	0.0000000000000000, 	0.0000000000000000, 	-0.0000000000000000, 	-0.0000000000000000, 	0.0000000000000000, 	-0.0000000000000000, 	-0.0000000000000000, 	-0.0000000000000000, 	-0.0000000000000000, 	-0.0000000000000000, 	-0.0000000000000000, 	0.0000000000000000, 	0.0000000000000000, 	-0.0000000000000000, 	0.0000000000000000, 	0.0000000000000000, 	0.0000000000000000, 	0.0000000000000000, 	0.0004382216720842, 	-0.0010567143326625, 	-0.0078040058724582, 	-0.0010746042244136, 	-0.0098732821643353, 	0.0015848735347390, 	-0.0026843438390642, 	0.0164796747267246, 	0.0069324276410043, 	0.0154623631387949, 	0.0058792657218874, 	0.0023516400251538, 	0.0099696284160018, 	-0.0050382190383971, 	0.0011467636795714, 	0.0027288091368973, 	-0.0109932702034712, 	-0.0067389965988696, 	0.0000144180667121, 	-0.0000031503991522, 	-0.0000143419392771, 	0.0000024282924187, 	-0.0000076353899203, 	-0.0000026295999760, 	0.0000201270941034, 	0.0000151074555106, 	0.0000210737616726, 	0.0000000000000000, 	0.0000000000000000, 	-0.0000000000000000, 	0.0000000000000000, 	-0.0000000000000000, 	-0.0000000000000000, 	-0.0000000000000000, 	0.0000000000000000, 	-0.0000000000000000, 	-0.0206801500171423, 	-0.0118834590539336, 	0.0171728413552046, 	-0.0135333565995097, 	0.0112207848578691, 	0.0128485281020403, 	0.0012555276043713, 	0.0011345277307555, 	0.0232063047587872, 	0.0068353218957782, 	0.0065170424059033, 	-0.0102436961606145, 	-0.0095194401219487, 	-0.0228097587823868, 	-0.0191459152847528, 	-0.0129074249416590, 	0.0223885774612427, 	0.0106069352477789, 	0.0013894962612540, 	-0.0013593818293884, 	0.0000358146498911, 	0.0138362096622586, 	0.0086153866723180, 	-0.0115714892745018, 	-0.0037989798001945, 	0.0120774274691939, 	0.0027427682653069, 	0.0055447462946177, 	0.0000363744220522, 	0.0007366967620328, 	-0.0012358645908535, 	0.0074937301687896, 	0.0020559893455356, 	0.0049114837311208, 	0.0040057790465653, 	0.0103848343715072, 	0.0012505453778431, 	0.0024330921005458, 	-0.0028981273062527, 	-0.0105216857045889, 	-0.0030295834876597, 	-0.0003703063994180, 	-0.0020849010907114, 	-0.0072961193509400, 	0.0004705532046501, 	-0.0101168854162097, 	-0.0019922067876905, 	0.0055665248073637, 	0.0063920109532773, 	-0.0056527112610638, 	0.0198423806577921, 	0.0042735147289932, 	0.0118513684719801, 	0.0274718329310417, 	0.0234648156911135, 	0.0078829815611243, 	-0.0212457515299320, 	-0.0520162843167782, 	-0.0211543664336205, 	-0.0320864953100681, 	-0.0193881336599588, 	-0.0190081540495157, 	-0.0104045709595084, 	0.0000000000610621, 	0.0000000000825937, 	0.0000000000313743, 	0.0000000000897738, 	0.0000000001142349, 	0.0000000000297585, 	0.0000000001124848, 	0.0000000000996123, 	0.0000000000389344, 	0.0018663189839572, 	0.0053989132866263, 	-0.0009790903422982, 	-0.0097777899354696, 	-0.0028267193119973, 	-0.0001483456580900, 	-0.0013741235015914, 	-0.0008497594390064, 	-0.0033694950398058, 	-0.0103817284107208, 	-0.0040237731300294, 	-0.0119920326396823, 	0.0052370959892869, 	-0.0038791694678366, 	-0.0072327898815274, 	-0.0238444767892361, 	-0.0028823425527662, 	0.0202074926346540, 	0.0101441899314523, 	0.0043967394158244, 	-0.0074569741263986, 	0.0108529254794121, 	-0.0113142095506191, 	-0.0073391697369516, 	-0.0071995621547103, 	0.0348444022238255, 	0.0045478581450880, 	-0.0000000000000000, 	0.0000000000000000, 	-0.0000000000000000, 	0.0000000000000000, 	0.0000000000000000, 	0.0000000000000000, 	-0.0000000000000000, 	0.0000000000000000, 	0.0000000000000000, 	0.0126242144033313, 	0.0004347764479462, 	-0.0075140269473195, 	0.0071076531894505, 	-0.0015539692249149, 	-0.0241016075015068, 	0.0030033239163458, 	-0.0213451571762562, 	0.0037191191222519, 	0.0077289547771215, 	0.0045027416199446, 	0.0025209037121385, 	0.0126413032412529, 	0.0018214300507680, 	0.0028658341616392, 	0.0080697182565928, 	0.0020018899813294, 	0.0119258398190141, 	0.0162627287209034, 	0.0150117715820670, 	0.0001359948219033, 	0.0081857694312930, 	-0.0103583307936788, 	-0.0014533703215420, 	0.0003605282108765, 	-0.0198483169078827, 	-0.0170198418200016, 	-0.0015191268175840, 	0.0178811103105545, 	-0.0013965222751722, 	-0.0000135654217956, 	0.0218365211039782, 	0.0064864978194237, 	0.0260702874511480, 	0.0253106299787760, 	-0.0122633911669254, 	0.0020231818780303, 	-0.0005285144434310, 	-0.0084226066246629, 	0.0057538254186511, 	0.0002374960895395, 	-0.0211522560566664, 	-0.0036047273315489, 	-0.0085691399872303, 	-0.0022508539259434, 	-0.0246229078620672, 	-0.0141474083065987, 	-0.0110185835510492, 	0.0026409556157887, 	0.0048824287950993, 	-0.0041555278003216, 	-0.0096924081444740, 	-0.0077978176996112, 	0.0088856145739555, 	-0.0000000000000000, 	-0.0000000000000000, 	-0.0000000000000000, 	-0.0000000000000000, 	0.0000000000000000, 	0.0000000000000000, 	-0.0000000000000000, 	0.0000000000000000, 	0.0000000000000000, 	0.0038384210783988, 	0.0001002404751489, 	-0.0028700642287731, 	0.0024246869143099, 	0.0145952291786671, 	-0.0004696830001194, 	0.0097786542028189, 	0.0095724016427994, 	0.0069680516608059, 	-0.0037076177541167, 	-0.0062199570238590, 	-0.0093899369239807, 	-0.0032243903260678, 	-0.0082279099151492, 	0.0094102444127202, 	-0.0090022413060069, 	0.0217271484434605, 	0.0290767755359411, 	0.0028880131430924, 	0.0029924060218036, 	0.0001712935481919, 	-0.0110415024682879, 	0.0020984965376556, 	0.0021211274433881, 	0.0016107044648379, 	-0.0025642120745033, 	-0.0060706092044711, 	0.0048215286806226, 	0.0035995226353407, 	0.0009346893639304, 	-0.0016888378886506, 	-0.0031533273868263, 	-0.0074178930372000, 	0.0038966624997556, 	0.0071235583163798, 	-0.0043497551232576, 	-0.0000000000000000, 	0.0000000000000000, 	-0.0000000000000000, 	-0.0000000000000000, 	-0.0000000000000000, 	0.0000000000000000, 	0.0000000000000000, 	-0.0000000000000000, 	-0.0000000000000000, 	0.0134657043963671, 	0.0076914024539292, 	-0.0045318417251110, 	-0.0011582477018237, 	-0.0018357081571594, 	-0.0050336527638137, 	0.0012229405110702, 	-0.0222026724368334, 	-0.0069834254682064, 	0.0000000480719713, 	0.0000000711327317, 	0.0000000811399374, 	0.0000000825442612, 	0.0000001015921711, 	0.0000000959152615, 	0.0000000737186312, 	0.0000000676128735, 	0.0000000525797503, 	-0.0000303674896713, 	-0.0000338792888215, 	-0.0000339150501532, 	-0.0000326452573063, 	-0.0000306674155581, 	-0.0000277675371763, 	-0.0000348147223121, 	-0.0000294000656140, 	-0.0000300935771520, 	-0.0035520913079381, 	-0.0033390498720109, 	-0.0034172760788351, 	-0.0026594074442983, 	-0.0037762846332043, 	0.0041185799054801, 	0.0011991353239864, 	0.0039481944404542, 	0.0066344928927720, 	-0.0000000186368574, 	0.0000000024299069, 	0.0000000021123276, 	-0.0000075613315857, 	0.0000000321876108, 	0.0000000056809606, 	0.0000049530276556, 	0.0000044688081289, 	-0.0000002073344518, 	0.0215948671102524, 	-0.0007988549768925, 	-0.0077412053942680, 	-0.0224330760538578, 	-0.0140757206827402, 	-0.0311269313097000, 	-0.0072467122226954, 	-0.0206098575145006, 	-0.0003585401864257, 
	0.0432508066296577, 	-0.0258756391704082, 	0.0679359734058380, 	-0.0569101385772228, 	-0.0576621592044830, 	-0.0144890407100320, 	-0.0256877727806568, 	-0.0126483058556914, 	-0.0124280266463757, 	-0.0038494823966175, 	0.0005829803994857, 	-0.0017721835756674, 	-0.0039169876836240, 	-0.0031441270839423, 	-0.0111268041655421, 	-0.0173845831304789, 	-0.0207467060536146, 	-0.0128647452220321, 	0.0523546747863293, 	0.0331860333681107, 	-0.0118199363350868, 	-0.0024735147599131, 	0.0276690963655710, 	0.0193421952426434, 	0.0132915647700429, 	0.0441969372332096, 	0.0217892937362194, 	-0.0000000000000002, 	-0.0000000000000003, 	-0.0000000000000004, 	-0.0000000000000003, 	-0.0000000000000003, 	-0.0000000000000003, 	-0.0000000000000003, 	-0.0000000000000003, 	-0.0000000000000005, 	0.0000000000000000, 	0.0000000000000000, 	-0.0000000000000000, 	0.0000000000000000, 	0.0000000000000000, 	0.0000000000000000, 	-0.0000000000000000, 	-0.0000000000000000, 	-0.0000000000000000, 	0.0171097852289677, 	0.0127360634505749, 	0.0670458227396011, 	-0.1018227040767670, 	-0.0258771870285273, 	-0.0561740957200527, 	-0.0178104192018509, 	-0.0287645533680916, 	-0.0220053996890783, 	-0.0101504232734442, 	-0.0286328364163637, 	0.0216977950185537, 	0.0014312664279714, 	-0.0480886101722717, 	0.0191981941461563, 	-0.0158333517611027, 	-0.0076617496088147, 	0.0247675329446793, 	-0.0405816808342934, 	-0.0268072094768286, 	-0.0354814454913139, 	0.0096876239404082, 	-0.0193172413855791, 	-0.0298736635595560, 	0.0138855548575521, 	-0.0099377771839499, 	-0.0469618104398251, 	-0.0543194748461246, 	-0.0187467783689499, 	-0.0308148339390755, 	-0.0512767247855663, 	0.0217983257025480, 	-0.0416663736104965, 	0.0218029357492924, 	0.0307046305388212, 	0.0078311758115888, 	0.0003617843613029, 	0.0003322588163428, 	-0.0016859471797943, 	0.0001129736847361, 	0.0029198147822171, 	-0.0026289783418179, 	-0.0021980917081237, 	-0.0007409207173623, 	-0.0086429333314300, 	0.0781151279807091, 	0.0281425435096025, 	0.0098204556852579, 	0.0006742635159753, 	0.0088447993621230, 	0.0083916494622827, 	-0.0369169116020203, 	-0.0097477249801159, 	-0.0049279318191111, 	-0.0147436587139964, 	-0.0234629418700933, 	-0.0484382174909115, 	-0.0355825871229172, 	-0.0080395350232720, 	-0.0087157720699906, 	-0.0119545171037316, 	-0.0135754076763988, 	0.0130834542214870, 	-0.0234307106584311, 	-0.0020986977033317, 	0.0584231503307819, 	-0.0024314303882420, 	-0.0006390614435077, 	-0.0006831872742623, 	0.0363695882260799, 	0.0237642899155617, 	0.0292506236582994, 	0.0545210801064968, 	0.0042297178879380, 	-0.0133837414905429, 	0.0089844083413482, 	-0.0147392405197024, 	-0.0225069765001535, 	-0.0335255861282349, 	-0.0452724322676659, 	-0.0189601182937622, 	-0.0000000000000000, 	-0.0000000000000000, 	-0.0000000000000000, 	-0.0000000000000000, 	-0.0000000000000000, 	0.0000000000000000, 	0.0000000000000000, 	0.0000000000000000, 	0.0000000000000000, 	-0.0000000000000000, 	-0.0000000000000000, 	-0.0000000000000000, 	-0.0000000000000000, 	0.0000000000000000, 	-0.0000000000000000, 	0.0000000000000000, 	0.0000000000000000, 	-0.0000000000000000, 	0.0000000000000000, 	0.0000000000000000, 	0.0000000000000000, 	-0.0000000000000000, 	0.0000000000000000, 	0.0000000000000000, 	-0.0000000000000000, 	-0.0000000000000000, 	0.0000000000000000, 	-0.0176099259406328, 	-0.0064714634791017, 	0.0676523298025131, 	-0.0204846970736980, 	-0.0250363349914551, 	-0.0146590201184154, 	0.0213007237762213, 	0.0201933346688747, 	0.0434877686202526, 	-0.0660736188292503, 	-0.0268311705440283, 	0.0077387192286551, 	0.0549754649400711, 	0.0376814529299736, 	0.0271275788545609, 	-0.0205421224236488, 	-0.0040408778004348, 	0.0345658361911774, 	-0.0427053682506084, 	-0.0266085360199213, 	0.0142314229160547, 	-0.0443835891783237, 	0.0293213501572609, 	-0.0086576035246253, 	0.0649324432015419, 	0.0453773550689220, 	0.0491857454180717, 	-0.0434137955307961, 	-0.0548291802406311, 	-0.0238891709595919, 	-0.0095380460843444, 	-0.0086991833522916, 	-0.0238189511001110, 	0.0155777884647250, 	0.0359141789376736, 	0.0076666674576700, 	-0.0250949114561081, 	-0.0241458453238010, 	-0.0153818428516388, 	-0.0543852522969246, 	0.0076203248463571, 	0.0064352722838521, 	0.0155590185895562, 	0.0006106933578849, 	-0.0128440167754889, 	-0.0000011184854429, 	-0.0000022170547709, 	-0.0000017784212787, 	-0.0000012664395399, 	-0.0000018964427682, 	-0.0000010379038713, 	-0.0000010022955621, 	-0.0003345187287778, 	0.0000566704256926, 	-0.0175015218555927, 	0.0015079890144989, 	0.0042914100922644, 	-0.0459371879696846, 	0.0013896527234465, 	0.0034463100600988, 	-0.0106078917160630, 	-0.0139853479340672, 	0.0200963877141476, 	-0.0024480104912072, 	-0.0000671671077725, 	0.0011424958938733, 	-0.0017205181065947, 	-0.0021417164243758, 	-0.0035909679718316, 	-0.0056904363445938, 	-0.0029987031593919, 	-0.0084815761074424, 	0.0018471849616617, 	0.0209489632397890, 	0.0129278833046556, 	-0.0469431206583977, 	-0.0058417222462595, 	-0.0152058647945523, 	-0.0031452996190637, 	0.0015406307065859, 	-0.0085398163646460, 	0.0892397537827492, 	0.0513888485729694, 	-0.0172864645719528, 	0.0364898480474949, 	0.0168650485575199, 	0.0071191275492311, 	-0.0436697714030743, 	-0.0053376955911517, 	0.0107216369360685, 	-0.0058990526013076, 	-0.0252391286194324, 	-0.0644867122173309, 	-0.0345155671238899, 	-0.0049704806879163, 	-0.0163399297744036, 	-0.0335225723683834, 	-0.0303987842053175, 	0.0028261558618397, 	0.0000000000000000, 	-0.0000000000000000, 	-0.0000000000000000, 	-0.0000000000000000, 	0.0000000000000000, 	-0.0000000000000000, 	0.0000000000000000, 	0.0000000000000000, 	0.0000000000000000, 	-0.0000000000000000, 	-0.0000000000000000, 	-0.0000000000000000, 	-0.0000000000000000, 	0.0000000000000000, 	-0.0000000000000000, 	-0.0000000000000000, 	-0.0000000000000000, 	-0.0000000000000000, 	0.0021849116310477, 	0.0113670201972127, 	-0.0136420950293541, 	-0.0029678759165108, 	0.0218115895986557, 	-0.0032131643965840, 	-0.0015980827156454, 	0.0022499458864331, 	-0.0207587573677301, 	-0.0504467971622944, 	-0.0305182486772537, 	-0.0112265162169933, 	0.0054895579814911, 	-0.0041025150567293, 	-0.0128103578463197, 	0.0174400415271521, 	0.0215954091399908, 	-0.0160144995898008, 	-0.0000624416134087, 	-0.0001712156517897, 	0.0002145392209059, 	0.0000853765523061, 	0.0000279584837699, 	0.0002612322568893, 	0.0005831434973516, 	0.0004634094366338, 	0.0007174116908573, 	-0.0000000000000000, 	-0.0000000000000000, 	-0.0000000000000000, 	-0.0000000000000000, 	-0.0000000000000000, 	-0.0000000000000000, 	0.0000000000000000, 	-0.0000000000000000, 	-0.0000000000000000, 	0.0671272203326225, 	0.0175757557153702, 	-0.0539239048957825, 	0.0628953054547310, 	0.0088384198024869, 	-0.0025002819020301, 	-0.0401953756809235, 	-0.0283953379839659, 	-0.0193734448403120, 	-0.0440512523055077, 	-0.0311196874827147, 	-0.0447898060083389, 	-0.0446884818375111, 	0.0836567729711533, 	-0.0417492091655731, 	-0.0330014340579510, 	0.0023737780284137, 	-0.0232088398188353, 	-0.0188770890235901, 	-0.0001577831717441, 	-0.0083515662699938, 	-0.0722851455211639, 	0.0000245379760599, 	-0.0026394398882985, 	-0.0173595100641251, 	-0.0198319852352142, 	0.0246969535946846, 	-0.0278236512094736, 	-0.0087144356220961, 	-0.0293159168213606, 	0.0089140832424164, 	-0.0061118761077523, 	-0.0152102913707495, 	0.0194049160927534, 	-0.0021753816399723, 	-0.0302077978849411, 	0.0040602134540677, 	0.0028798435814679, 	0.0009727288852446, 	-0.0198092274367809, 	-0.0027253527659923, 	-0.0093347206711769, 	-0.0107243023812771, 	0.0088273510336876, 	-0.0230877585709095, 	0.0009387895115651, 	-0.0025792811065912, 	0.0389917306602001, 	-0.0322505049407482, 	-0.0279174111783504, 	0.0189523473381996, 	-0.0305611323565245, 	-0.0022562744561583, 	-0.0258762817829847, 	-0.0618437267839909, 	-0.0178172364830971, 	0.0019213389605284, 	0.0473511330783367, 	0.0343717336654663, 	0.0159507803618908, 	-0.0216858629137278, 	-0.0071037053130567, 	0.0310511887073517, 	-0.0000000000656227, 	-0.0000000000589452, 	-0.0000000000015845, 	-0.0000000002088736, 	-0.0000000001411471, 	-0.0000000000465388, 	-0.0000000003171566, 	-0.0000000001251995, 	-0.0000000000850743, 	0.0061625931411982, 	0.0029287321958691, 	-0.0004420030454639, 	-0.0230018366128206, 	0.0095944842323661, 	-0.0161076821386814, 	-0.0166518799960613, 	0.0072096749208868, 	-0.0378951281309128, 	-0.0044651739299297, 	-0.0546320714056492, 	0.0833451375365257, 	-0.0548020899295807, 	-0.0223809368908405, 	0.0211251974105835, 	0.0219064727425575, 	0.0101091600954533, 	-0.0208385661244392, 	-0.0757288634777069, 	-0.0346154980361462, 	0.0177035741508007, 	-0.0221687462180853, 	0.0135215474292636, 	-0.0269558224827051, 	0.0582960247993469, 	0.0094345845282078, 	-0.0384555496275425, 	-0.0000000000000000, 	0.0000000000000000, 	0.0000000000000000, 	0.0000000000000000, 	0.0000000000000000, 	-0.0000000000000000, 	-0.0000000000000000, 	-0.0000000000000000, 	0.0000000000000000, 	-0.0567200519144535, 	-0.0426104925572872, 	0.0028545835521072, 	-0.0628711059689522, 	-0.0190853681415319, 	0.0188183095306158, 	-0.0102825984358788, 	0.0228094831109047, 	0.0342979654669762, 	-0.0512130968272686, 	-0.0318687707185745, 	-0.0296094994992018, 	0.0180928613990545, 	-0.0124828778207302, 	-0.0218529775738716, 	0.0357119105756283, 	0.0162393674254417, 	-0.0360057353973389, 	-0.0694964304566383, 	-0.0665270313620567, 	-0.0482804924249649, 	0.0041341562755406, 	-0.0096534071490169, 	-0.0301216002553701, 	0.0153695782646537, 	0.0351313538849354, 	-0.0002522642607801, 	-0.0077890981920063, 	0.0205332636833191, 	-0.0094440393149853, 	-0.0171622689813375, 	-0.0276590175926685, 	-0.0325703695416451, 	-0.0446066707372665, 	-0.0344891212880611, 	-0.0099104866385460, 	-0.0075456919148564, 	-0.0205290243029594, 	0.0151673564687371, 	-0.0368910431861877, 	-0.0092426482588053, 	0.0168804116547108, 	-0.0047107613645494, 	-0.0051794145256281, 	0.0134865390136838, 	0.0493833236396313, 	0.0186951942741871, 	0.0575536489486694, 	-0.0292693153023720, 	-0.0448009558022022, 	-0.0489982441067696, 	0.0006922817556188, 	0.0125833936035633, 	0.0151355490088463, 	-0.0000000000000000, 	-0.0000000000000000, 	-0.0000000000000000, 	0.0000000000000000, 	0.0000000000000000, 	-0.0000000000000000, 	0.0000000000000000, 	-0.0000000000000000, 	-0.0000000000000000, 	-0.0134147126227617, 	0.0042891502380371, 	0.0003048029902857, 	-0.0077144214883447, 	-0.0227050390094519, 	-0.0177314430475235, 	-0.0186799392104149, 	-0.0074214106425643, 	-0.0023462341632694, 	-0.0160361565649509, 	0.0079264007508755, 	0.0419503375887871, 	-0.0043916772119701, 	-0.0015733683248982, 	0.0371902547776699, 	-0.0115137994289398, 	0.0012464331230149, 	-0.0371058657765388, 	-0.0048247985541821, 	-0.0018048167694360, 	-0.0065146009437740, 	-0.0194218456745148, 	0.0067600598558784, 	-0.0265205241739750, 	0.0019691691268235, 	0.0148835303261876, 	-0.0094506479799747, 	0.0193352438509464, 	0.0041890293359756, 	-0.0210085827857256, 	0.0024260599166155, 	0.0138028990477324, 	0.0029645785689354, 	-0.0346367619931698, 	-0.0159427728503942, 	-0.0539643764495850, 	0.0000000000000000, 	0.0000000000000000, 	-0.0000000000000000, 	0.0000000000000000, 	0.0000000000000000, 	0.0000000000000000, 	0.0000000000000000, 	-0.0000000000000000, 	0.0000000000000000, 	-0.0243588127195835, 	-0.0094859171658754, 	0.0022861314937472, 	-0.0225560311228037, 	-0.0132942916825414, 	0.0032517251092941, 	0.0046446770429611, 	0.0102681387215853, 	-0.0313492342829704, 	-0.0000003669278215, 	-0.0000002374171828, 	-0.0000003008256044, 	-0.0000003495519820, 	-0.0000001459144556, 	-0.0000001981969717, 	-0.0000002358641495, 	-0.0000001646740202, 	-0.0000002068271954, 	0.0000316909427056, 	0.0001320021983702, 	0.0000765493969084, 	0.0000734249333618, 	0.0000853691672091, 	0.0000334744654538, 	0.0000981074335868, 	0.0000508057091793, 	0.0000446883459517, 	0.0048348326236010, 	0.0050002764910460, 	0.0032635447569191, 	-0.0044074645265937, 	0.0049978955648839, 	-0.0056356396526098, 	-0.0087491804733872, 	0.0020885635167360, 	-0.0223369840532541, 	0.0000009207241192, 	-0.0000000461896441, 	-0.0000000378581042, 	-0.0000017746683625, 	-0.0000001667853837, 	-0.0000000073295423, 	-0.0000006133237207, 	-0.0000002156255761, 	-0.0000021770333660, 	-0.0562361478805542, 	-0.0313453413546085, 	-0.0153469182550907, 	0.0122590241953731, 	0.0047668353654444, 	0.0111640105023980, 	-0.0087316818535328, 	0.0129548730328679, 	0.0155953476205468, 
	-0.0088055478408933, 	0.0184715557843447, 	-0.0134556014090776, 	-0.0165051557123661, 	0.0171756669878960, 	0.0136189460754395, 	-0.0174439344555140, 	-0.0034063016064465, 	-0.0057753860019147, 	0.0072883260436356, 	-0.0054197427816689, 	0.0020499739330262, 	0.0000982175770332, 	-0.0102644097059965, 	0.0078208511695266, 	-0.0010153199546039, 	0.0010114349424839, 	0.0020370699930936, 	-0.0121220685541630, 	-0.0176642108708620, 	0.0427269190549850, 	-0.0072765806689858, 	0.0004450012347661, 	0.0257920324802399, 	-0.0078886626288295, 	-0.0193215608596802, 	0.0026074696797878, 	0.0000000000000002, 	0.0000000000000002, 	0.0000000000000002, 	0.0000000000000003, 	0.0000000000000002, 	0.0000000000000002, 	0.0000000000000001, 	0.0000000000000002, 	0.0000000000000003, 	0.0000000000000000, 	-0.0000000000000002, 	-0.0000000000000000, 	0.0000000000000000, 	0.0000000000000000, 	0.0000000000000000, 	0.0000000000000000, 	-0.0000000000000000, 	-0.0000000000000000, 	0.0080278264358640, 	0.0172756947577000, 	-0.0115401484072208, 	0.0128781078383327, 	-0.0316030532121658, 	0.0073444023728371, 	-0.0007524158572778, 	-0.0241518430411816, 	0.0004199986869935, 	-0.0027957921847701, 	0.0027375565841794, 	0.0078521743416786, 	-0.0089518744498491, 	0.0048582740128040, 	0.0008348224218935, 	0.0020609672646970, 	0.0211896635591984, 	-0.0024143340997398, 	-0.0023384713567793, 	0.0023711617104709, 	0.0036275291349739, 	-0.0048290551640093, 	-0.0107065327465534, 	0.0114906895905733, 	0.0087449522688985, 	-0.0053901378996670, 	0.0133085949346423, 	-0.0058639743365347, 	-0.0063171968795359, 	-0.0187535695731640, 	0.0077579538337886, 	0.0090110814198852, 	-0.0040588811971247, 	-0.0194944590330124, 	-0.0110057527199388, 	-0.0047750798985362, 	-0.0001638382236706, 	-0.0006800597184338, 	-0.0030900859273970, 	0.0018067632336169, 	-0.0030301813967526, 	-0.0013542635133490, 	-0.0047232364304364, 	-0.0000097273159554, 	0.0033708277624100, 	-0.0276983939111233, 	0.0184904839843512, 	-0.0001685994939180, 	-0.0087271500378847, 	0.0088511016219854, 	-0.0064075151458383, 	-0.0107092242687941, 	0.0013735506217927, 	-0.0181291140615940, 	0.0021200678311288, 	0.0058200042694807, 	0.0102682765573263, 	0.0062143206596375, 	-0.0010448214598000, 	-0.0054896702058613, 	-0.0081089772284031, 	-0.0020824216771871, 	0.0003003191086464, 	0.0065853400155902, 	0.0028538054320961, 	-0.0121672255918384, 	0.0092149060219526, 	0.0173844695091248, 	0.0095959585160017, 	-0.0061110765673220, 	0.0089656943455338, 	-0.0197213664650917, 	-0.0020050306338817, 	0.0066417008638382, 	0.0116678765043616, 	-0.0167514644563198, 	-0.0033484995365143, 	0.0315978489816189, 	0.0104990135878325, 	0.0017856172053143, 	0.0088896676898003, 	-0.0000000000000000, 	-0.0000000000000000, 	-0.0000000000000000, 	-0.0000000000000000, 	-0.0000000000000000, 	-0.0000000000000000, 	-0.0000000000000000, 	-0.0000000000000000, 	-0.0000000000000000, 	-0.0000000000000000, 	-0.0000000000000000, 	-0.0000000000000000, 	-0.0000000000000000, 	0.0000000000000000, 	-0.0000000000000000, 	0.0000000000000000, 	-0.0000000000000000, 	-0.0000000000000000, 	-0.0000000000000000, 	-0.0000000000000000, 	-0.0000000000000000, 	-0.0000000000000000, 	-0.0000000000000000, 	-0.0000000000000000, 	-0.0000000000000000, 	-0.0000000000000000, 	-0.0000000000000000, 	0.0043072686530650, 	0.0200955606997013, 	-0.0119952317327261, 	0.0128244785591960, 	0.0253638941794634, 	0.0112967658787966, 	0.0147689562290907, 	0.0219427719712257, 	-0.0186079274863005, 	0.0002599068102427, 	-0.0229044482111931, 	0.0164929106831551, 	-0.0074778846465051, 	-0.0239815637469292, 	-0.0033190126996487, 	0.0194406118243933, 	0.0084914136677980, 	-0.0138790560886264, 	0.0109124584123492, 	-0.0124260839074850, 	-0.0424212217330933, 	0.0151359215378761, 	-0.0086451442912221, 	-0.0195641238242388, 	-0.0296765211969614, 	-0.0330051816999912, 	-0.0282207448035479, 	0.0092564625665545, 	0.0035011873114854, 	-0.0013567841378972, 	-0.0007726116455160, 	0.0103770438581705, 	0.0040818168781698, 	-0.0163253061473370, 	-0.0067477575503290, 	0.0165093895047903, 	-0.0010534547036514, 	0.0030735225882381, 	0.0145393228158355, 	0.0011739464243874, 	-0.0026761565823108, 	-0.0140323368832469, 	-0.0132683124393225, 	-0.0083872573450208, 	0.0011750909034163, 	-0.0000005264666925, 	-0.0000005439968049, 	0.0000002298673678, 	-0.0000002545585289, 	-0.0000005219645232, 	-0.0000005726665790, 	-0.0000438206407125, 	0.0000720892567188, 	0.0000011415664858, 	-0.0003222865634598, 	-0.0024288052227348, 	0.0027247329708189, 	0.0040002143941820, 	-0.0031358744017780, 	0.0033113714307547, 	-0.0053254743106663, 	-0.0100697996094823, 	-0.0028666991274804, 	0.0014714158605784, 	0.0033714144956321, 	-0.0109589016065001, 	-0.0051306877285242, 	0.0016417137812823, 	0.0029250641819090, 	0.0035417792387307, 	-0.0043422831222415, 	0.0109701426699758, 	-0.0102764833718538, 	-0.0026530572213233, 	-0.0072085331194103, 	0.0222328696399927, 	-0.0258817840367556, 	-0.0108581446111202, 	-0.0176913850009441, 	-0.0158320069313049, 	0.0046329242177308, 	-0.0151226194575429, 	0.0127639686688781, 	0.0008994606905617, 	-0.0209019202739000, 	0.0034677062649280, 	-0.0160603672266006, 	0.0110753010958433, 	0.0042478893883526, 	-0.0630515888333321, 	0.0047396393492818, 	0.0135687272995710, 	0.0148313287645578, 	0.0063266768120229, 	-0.0030716946348548, 	-0.0079056508839130, 	0.0003837493713945, 	0.0018862800206989, 	-0.0073066544719040, 	-0.0000000000000000, 	-0.0000000000000000, 	-0.0000000000000000, 	0.0000000000000000, 	0.0000000000000000, 	0.0000000000000000, 	0.0000000000000000, 	-0.0000000000000000, 	-0.0000000000000000, 	0.0000000000000000, 	0.0000000000000000, 	0.0000000000000000, 	-0.0000000000000000, 	0.0000000000000000, 	0.0000000000000000, 	-0.0000000000000000, 	0.0000000000000000, 	0.0000000000000000, 	-0.0029359024483711, 	-0.0019278546096757, 	0.0142835220322013, 	-0.0041065798141062, 	0.0051994496025145, 	0.0082312850281596, 	0.0010113357566297, 	-0.0033931548241526, 	0.0041230227798223, 	0.0007953650783747, 	-0.0020803525112569, 	-0.0206192694604397, 	-0.0037331585772336, 	0.0134990420192480, 	-0.0132221747189760, 	-0.0136409886181355, 	-0.0055600041523576, 	0.0022644442506135, 	0.0002042685664492, 	0.0002356769109610, 	0.0000609476410318, 	0.0001814557763282, 	0.0001662213908276, 	0.0000474222761113, 	0.0001899006892927, 	0.0001589611056261, 	0.0000720091047697, 	-0.0000000000000000, 	0.0000000000000000, 	-0.0000000000000000, 	0.0000000000000000, 	0.0000000000000000, 	0.0000000000000000, 	-0.0000000000000000, 	0.0000000000000000, 	-0.0000000000000000, 	-0.0126541508361697, 	0.0191183313727379, 	0.0202849078923464, 	-0.0149864461272955, 	0.0091824466362596, 	-0.0053383493795991, 	0.0177059080451727, 	0.0155767453834414, 	-0.0124655496329069, 	0.0002047283778666, 	0.0039353482425213, 	0.0081180492416024, 	0.0060782888904214, 	-0.0185275301337242, 	-0.0128490924835205, 	0.0040718899108469, 	-0.0295875109732151, 	-0.0204261988401413, 	-0.0108395013958216, 	-0.0037681423127651, 	0.0068337842822075, 	0.0046037016436458, 	-0.0045263809151947, 	0.0072921854443848, 	-0.0119146304205060, 	-0.0107306372374296, 	-0.0068095135502517, 	0.0030750532168895, 	0.0010336318518966, 	-0.0017656182171777, 	0.0052056419663131, 	0.0024184971116483, 	0.0073724528774619, 	-0.0053663970902562, 	-0.0065913079306483, 	0.0067612216807902, 	-0.0041065681725740, 	-0.0005289549590088, 	0.0023891702294350, 	0.0155503684654832, 	-0.0040697348304093, 	-0.0087385075166821, 	-0.0001205965381814, 	-0.0008573604864068, 	0.0061850072816014, 	-0.0082482900470495, 	-0.0001245616876986, 	-0.0150719964876771, 	-0.0052266819402575, 	0.0137855354696512, 	0.0226449221372604, 	-0.0049326722510159, 	0.0008552842773497, 	0.0034760890994221, 	0.0093171121552587, 	-0.0209661703556776, 	0.0166586264967918, 	0.0007293403032236, 	-0.0195819418877363, 	0.0066360943019390, 	0.0147753963246942, 	0.0129503998905420, 	0.0045037982054055, 	0.0000000000274261, 	0.0000000000295410, 	0.0000000000206839, 	0.0000000000436545, 	0.0000000000307163, 	0.0000000000218630, 	0.0000000000202603, 	0.0000000000032943, 	0.0000000000317572, 	-0.0066942819394171, 	-0.0022156508639455, 	0.0033815742935985, 	0.0167490299791098, 	-0.0085245538502932, 	-0.0040240292437375, 	0.0030292645096779, 	-0.0113907000049949, 	0.0083052925765514, 	0.0052554467692971, 	0.0117122391238809, 	-0.0166068412363529, 	-0.0030752553138882, 	0.0029520974494517, 	-0.0089411167427897, 	0.0128172691911459, 	0.0083714062348008, 	0.0041769878007472, 	0.0114991310983896, 	-0.0057208472862840, 	-0.0261793825775385, 	0.0082036303356290, 	-0.0198986902832985, 	-0.0114606563001871, 	-0.0060160215944052, 	-0.0383837521076202, 	0.0204512421041727, 	-0.0000000000000000, 	0.0000000000000000, 	0.0000000000000000, 	0.0000000000000000, 	0.0000000000000000, 	-0.0000000000000000, 	-0.0000000000000000, 	-0.0000000000000000, 	0.0000000000000000, 	0.0094543006271124, 	-0.0051835966296494, 	-0.0030685339588672, 	-0.0001353651750833, 	0.0052953762933612, 	-0.0148766320198774, 	-0.0168243590742350, 	0.0152205089107156, 	-0.0016637193039060, 	0.0014185644686222, 	0.0022608770523220, 	-0.0023710159584880, 	-0.0041393269784749, 	0.0132513325661421, 	0.0069259996525943, 	-0.0133056072518229, 	-0.0016781587619334, 	0.0086527550593019, 	-0.0007152341422625, 	-0.0070293252356350, 	0.0004996028728783, 	-0.0057656900025904, 	0.0121615994721651, 	-0.0004188706225250, 	-0.0135230598971248, 	-0.0050581940449774, 	0.0304847471415997, 	0.0010060240747407, 	-0.0056719933636487, 	0.0133825121447444, 	-0.0139967147260904, 	-0.0265249535441399, 	0.0210846848785877, 	-0.0037732082419097, 	-0.0083942711353302, 	0.0281243119388819, 	0.0019813613034785, 	-0.0035653947852552, 	-0.0027757931966335, 	0.0020914543420076, 	0.0017498526722193, 	0.0049746432341635, 	-0.0073113786056638, 	0.0111517719924450, 	0.0046376548707485, 	-0.0044457688927650, 	-0.0000521475776623, 	-0.0216731484979391, 	-0.0096563883125782, 	0.0070846900343895, 	0.0107912234961987, 	0.0286136511713266, 	0.0047227502800524, 	-0.0247370917350054, 	0.0000000000000000, 	0.0000000000000000, 	-0.0000000000000000, 	0.0000000000000000, 	0.0000000000000000, 	-0.0000000000000000, 	0.0000000000000000, 	0.0000000000000000, 	0.0000000000000000, 	0.0079361302778125, 	-0.0064567485824227, 	-0.0048987870104611, 	-0.0008312448626384, 	-0.0022874153219163, 	0.0083510866388679, 	0.0030519661959261, 	0.0025841807946563, 	0.0050609498284757, 	-0.0113825621083379, 	-0.0047564236447215, 	-0.0045299176126719, 	-0.0035493851173669, 	-0.0011713375570253, 	0.0073704184032977, 	0.0131324967369437, 	-0.0180422533303499, 	-0.0058496547862887, 	0.0052639786154032, 	0.0020156567916274, 	-0.0003000625001732, 	0.0173893254250288, 	0.0047726333141327, 	0.0012585319345817, 	-0.0129658645018935, 	0.0048421132378280, 	0.0100784189999104, 	-0.0045616081915796, 	0.0048276460729539, 	0.0095168482512236, 	0.0069404202513397, 	-0.0098826540634036, 	0.0137364938855171, 	0.0060611790977418, 	-0.0136349322274327, 	0.0369033403694630, 	0.0000000000000000, 	0.0000000000000000, 	0.0000000000000000, 	-0.0000000000000000, 	-0.0000000000000000, 	0.0000000000000000, 	-0.0000000000000000, 	-0.0000000000000001, 	-0.0000000000000000, 	0.0113700563088059, 	-0.0004355186247267, 	-0.0055941781029105, 	0.0093531887978315, 	0.0133704170584679, 	-0.0141256842762232, 	-0.0061477306298912, 	0.0059477640315890, 	0.0113651016727090, 	0.0000000113949401, 	0.0000000482136358, 	0.0000000895689354, 	0.0000000239484308, 	0.0000000469076298, 	0.0000000775197222, 	0.0000000235714150, 	0.0000000271928204, 	0.0000000813532850, 	0.0000431604639743, 	0.0000878098580870, 	0.0000321509214700, 	-0.0000114434551506, 	0.0000193836622202, 	-0.0000027804890124, 	-0.0000119369678941, 	-0.0000039548122004, 	-0.0000053442422541, 	-0.0006103353807703, 	-0.0021264881361276, 	0.0004478518385440, 	-0.0013760960428044, 	-0.0087245022878051, 	-0.0061575970612466, 	-0.0077600674703717, 	-0.0026270123198628, 	0.0056852721609175, 	0.0000006134233672, 	0.0000000082946672, 	-0.0000000167039467, 	0.0000188754729606, 	0.0000001793196986, 	0.0000000100876596, 	-0.0000424612153438, 	-0.0000200541471713, 	-0.0000002427249512, 	0.0128865027800202, 	-0.0047221733257174, 	0.0115099316462874, 	0.0045045022852719, 	-0.0015185942174867, 	-0.0001672864018474, 	-0.0062671927735209, 	-0.0033777442295104, 	-0.0040313000790775, 
