float conv_weights_1[432] = {
	0.1211688965559006, 	0.1475716382265091, 	0.0879269093275070, 
	-0.0587509684264660, 	-0.0526170507073402, 	-0.0678163617849350, 
	-0.0632985308766365, 	0.0943175107240677, 	0.1061445847153664, 

	0.0096968142315745, 	-0.1005201265215874, 	-0.1733028292655945, 
	-0.1101731136441231, 	0.0102251553907990, 	-0.2206360250711441, 
	-0.2094990611076355, 	-0.0900082662701607, 	-0.0783717408776283, 

	-0.2020077556371689, 	-0.1286799162626266, 	0.0280008129775524, 
	-0.1361103504896164, 	0.0382264144718647, 	-0.1652685999870300, 
	-0.1420550942420959, 	-0.1584264487028122, 	0.0350772254168987, 


	-0.1195981800556183, 	-0.1146483346819878, 	-0.1716119647026062, 
	-0.1137355268001556, 	-0.1551208049058914, 	-0.0970806032419205, 
	-0.0327207967638969, 	0.0355688482522964, 	-0.0936845242977142, 

	0.0843843221664429, 	-0.1192532777786255, 	0.0540333352982998, 
	-0.0685748457908630, 	0.0650941357016563, 	-0.1569644361734390, 
	0.0706037580966949, 	-0.0532554499804974, 	-0.1093502864241600, 

	-0.1804212629795074, 	-0.1636442542076111, 	-0.0653654336929321, 
	0.0336211584508419, 	-0.1056762635707855, 	-0.0022114792373031, 
	0.0506435185670853, 	-0.1134742647409439, 	-0.0071613006293774, 


	0.0967179834842682, 	-0.1385060846805573, 	0.0652849599719048, 
	0.0982983559370041, 	0.1659266352653503, 	0.0200098510831594, 
	0.2345001995563507, 	-0.1685529351234436, 	-0.1050616949796677, 

	-0.0787662491202354, 	-0.1319330632686615, 	0.0239892546087503, 
	-0.1260818392038345, 	0.0428101234138012, 	0.2395788431167603, 
	0.1724262088537216, 	-0.1954645067453384, 	0.0667914152145386, 

	-0.2121144086122513, 	-0.1220835745334625, 	-0.1006963476538658, 
	-0.1383475810289383, 	-0.1898762881755829, 	0.0289935115724802, 
	0.1793339103460312, 	-0.2333388328552246, 	0.0926043093204498, 


	0.1377885639667511, 	0.0426501892507076, 	0.2542283236980438, 
	0.2053828984498978, 	0.2342955321073532, 	0.1707710474729538, 
	0.0275336150079966, 	0.2006775289773941, 	-0.0152132688090205, 

	0.2687199711799622, 	0.2223654687404633, 	0.2956793606281281, 
	0.1549284309148788, 	0.0670755505561829, 	0.0511824525892735, 
	0.1112664788961411, 	0.1488684117794037, 	0.0944312140345573, 

	0.1199240088462830, 	0.2228516042232513, 	0.0527185723185539, 
	0.2754877209663391, 	0.2098258584737778, 	0.2181307971477509, 
	0.1779994219541550, 	0.2091456502676010, 	0.2514302134513855, 


	-0.1039168909192085, 	-0.0985725894570351, 	-0.0124176563695073, 
	-0.2496196478605270, 	-0.1535266637802124, 	-0.2058921903371811, 
	-0.1232518404722214, 	-0.1812528818845749, 	-0.0573143921792507, 

	-0.0022220329847187, 	-0.0762272030115128, 	-0.0063030887395144, 
	0.0364412777125835, 	0.1154653951525688, 	-0.1373508721590042, 
	-0.1003895103931427, 	-0.0417092703282833, 	-0.1625542193651199, 

	-0.1118349879980087, 	-0.0404347032308578, 	-0.0887307673692703, 
	-0.1183748468756676, 	-0.1696036309003830, 	-0.0448965951800346, 
	-0.1222359612584114, 	-0.0494142621755600, 	-0.1914957314729691, 


	-0.1573391705751419, 	0.1328445374965668, 	0.2545137405395508, 
	-0.0344647951424122, 	0.0316715911030769, 	-0.0282425489276648, 
	0.0786980241537094, 	0.1801500469446182, 	0.1898679137229919, 

	-0.0794410705566406, 	-0.0852597951889038, 	0.0941192433238029, 
	-0.1378553807735443, 	-0.0301855467259884, 	-0.0039372416213155, 
	0.0539510473608971, 	-0.0495778955519199, 	0.0985320210456848, 

	-0.1854068487882614, 	-0.0935967713594437, 	0.1936881095170975, 
	0.0574954263865948, 	-0.0866948589682579, 	-0.1220730319619179, 
	0.0554221160709858, 	0.1015047356486320, 	-0.1516294479370117, 


	0.0540834143757820, 	-0.0394424423575401, 	-0.0445047281682491, 
	-0.0294671580195427, 	0.1076634526252747, 	-0.1923652738332748, 
	-0.0473150834441185, 	-0.0747555419802666, 	-0.1478739976882935, 

	0.0083929700776935, 	-0.0469738282263279, 	0.0154192978516221, 
	-0.0621455423533916, 	0.0479522459208965, 	-0.1581554263830185, 
	-0.0982125625014305, 	0.0382862053811550, 	-0.0215348228812218, 

	-0.0327593088150024, 	0.0837177336215973, 	-0.1772560924291611, 
	-0.0410460308194160, 	0.1454934626817703, 	-0.0288826972246170, 
	0.1455547660589218, 	-0.1296411752700806, 	-0.1305783390998840, 


	-0.0796678960323334, 	-0.1876848638057709, 	-0.0694845318794250, 
	0.1788176149129868, 	0.0722579732537270, 	-0.1250284910202026, 
	0.0181283783167601, 	0.0780126973986626, 	0.1386006623506546, 

	-0.1243599355220795, 	0.0414123907685280, 	0.0049254531040788, 
	-0.0220618546009064, 	0.0608575604856014, 	-0.1103959530591965, 
	0.0341605544090271, 	0.0657559856772423, 	-0.0488698296248913, 

	0.1131380647420883, 	-0.1373923569917679, 	-0.1783509999513626, 
	-0.0544173344969749, 	-0.0131440376862884, 	0.1040093228220940, 
	0.0754549652338028, 	-0.0529221743345261, 	0.0325964950025082, 


	-0.1001811921596527, 	-0.0941554382443428, 	0.0679277703166008, 
	-0.3290639817714691, 	0.0892429128289223, 	-0.0892788395285606, 
	-0.2689515352249146, 	0.0419996231794357, 	0.1182276830077171, 

	0.0503805540502071, 	-0.1262053996324539, 	0.2710884213447571, 
	-0.1526529490947723, 	0.1374798417091370, 	0.0848863646388054, 
	-0.2866390645503998, 	0.1900432109832764, 	0.0572427622973919, 

	0.1013121828436852, 	0.0878179222345352, 	0.1781713068485260, 
	-0.2706816494464874, 	0.1187458783388138, 	0.0186082944273949, 
	-0.2225191444158554, 	0.1978492736816406, 	-0.0117923347279429, 


	0.0600442737340927, 	0.0697035640478134, 	0.1475098580121994, 
	0.0383234173059464, 	-0.0526060238480568, 	-0.0771688669919968, 
	0.0995452776551247, 	-0.0684531182050705, 	0.1655148416757584, 

	-0.0091626672074199, 	0.0936467498540878, 	-0.1526912301778793, 
	-0.0579068288207054, 	0.0829063057899475, 	0.0591973215341568, 
	-0.1136847212910652, 	-0.0256151929497719, 	0.0734356269240379, 

	0.0130880540236831, 	-0.0771371871232986, 	-0.1182613372802734, 
	0.1024450436234474, 	0.0484222210943699, 	0.1470453590154648, 
	0.0590649694204330, 	0.1521840989589691, 	0.0430621653795242, 


	0.0539521612226963, 	0.0322289429605007, 	0.1174946725368500, 
	0.0504311136901379, 	0.2322625219821930, 	0.1145005002617836, 
	0.0048706559464335, 	0.2192208319902420, 	0.0566012300550938, 

	0.0068097044713795, 	-0.0600332990288734, 	0.0850080251693726, 
	-0.1340178996324539, 	0.2293414026498795, 	0.2563002705574036, 
	0.1416599303483963, 	0.2286282330751419, 	0.1597133129835129, 

	-0.1181750148534775, 	0.1442325264215469, 	0.0117712533101439, 
	-0.1132029816508293, 	0.2045430392026901, 	0.2560814917087555, 
	-0.0821129158139229, 	0.1126618236303329, 	0.1340084820985794, 


	-0.0476749390363693, 	-0.2131873667240143, 	-0.0785503983497620, 
	0.0219570584595203, 	-0.0600590370595455, 	-0.0313500016927719, 
	0.2006531953811646, 	0.1094027310609818, 	0.0443894490599632, 

	-0.1809689551591873, 	-0.1992252618074417, 	-0.0773645639419556, 
	0.0920055955648422, 	-0.0755563452839851, 	0.0285361222922802, 
	0.0080873453989625, 	0.2199609726667404, 	-0.0115916747599840, 

	-0.0433502234518528, 	-0.1233393400907516, 	-0.0270215403288603, 
	-0.1126035004854202, 	-0.1706613302230835, 	-0.1909591853618622, 
	0.0485921539366245, 	-0.0687552839517593, 	-0.0989664345979691, 


	-0.2631927728652954, 	-0.1551330536603928, 	-0.1827246993780136, 
	-0.0918312221765518, 	-0.2669660747051239, 	-0.2134130001068115, 
	-0.0820085927844048, 	-0.1430029571056366, 	-0.0302006993442774, 

	-0.1184588968753815, 	-0.1818134933710098, 	0.0795825198292732, 
	0.0023257981520146, 	0.0495312921702862, 	-0.1621760725975037, 
	0.1288600265979767, 	-0.1953176707029343, 	-0.1973452717065811, 

	-0.1134637370705605, 	0.0609896592795849, 	0.0576714612543583, 
	-0.2225110381841660, 	-0.0968099534511566, 	0.1012777686119080, 
	-0.1833088397979736, 	0.0959957838058472, 	0.0257330425083637, 


	-0.1579753607511520, 	0.1080653741955757, 	0.0887762755155563, 
	-0.0081202732399106, 	0.0120723266154528, 	0.1921567320823669, 
	0.0877604559063911, 	0.0561848171055317, 	0.2416065037250519, 

	0.0316339358687401, 	0.0972318574786186, 	0.1877286881208420, 
	0.1472263485193253, 	-0.0115264700725675, 	0.1138439849019051, 
	-0.1004564017057419, 	0.2263735979795456, 	0.2094702571630478, 

	0.0444473251700401, 	-0.0559704899787903, 	-0.0407518520951271, 
	0.1697527021169662, 	0.1777130216360092, 	0.1637923419475555, 
	-0.1019379794597626, 	0.1145687252283096, 	0.1216798797249794, 


	0.0309904776513577, 	0.1764514744281769, 	0.0399346910417080, 
	-0.0217296481132507, 	0.2722999751567841, 	0.2889991700649261, 
	0.0249755941331387, 	0.2245023995637894, 	0.2672772705554962, 

	0.0433815382421017, 	0.1700786948204041, 	0.0941326841711998, 
	-0.0008508782484569, 	0.0075821192003787, 	-0.0888091474771500, 
	-0.1152607202529907, 	0.2213874459266663, 	-0.1042765751481056, 

	0.0561168752610683, 	0.0769166126847267, 	0.0322877131402493, 
	-0.1018045619130135, 	0.1790393888950348, 	-0.0939699485898018, 
	0.0427689924836159, 	-0.0980217307806015, 	0.1263088583946228, 


	-0.2062278687953949, 	-0.1623446941375732, 	-0.1508599817752838, 
	-0.1764335334300995, 	-0.1960406601428986, 	-0.1438228785991669, 
	-0.3225145339965820, 	-0.1567876487970352, 	-0.0151559272781014, 

	-0.0135735506191850, 	-0.1500773131847382, 	0.2287391871213913, 
	0.1589937657117844, 	-0.0109424758702517, 	-0.0693018808960915, 
	-0.1397993564605713, 	0.1256111115217209, 	0.1282819509506226, 

	0.0103005459532142, 	0.0563845746219158, 	0.0075317230075598, 
	-0.0231260228902102, 	-0.0010313774691895, 	-0.1186548918485641, 
	0.1041993349790573, 	0.0690424665808678, 	-0.0195120107382536, 


};
float conv_weights_2[144] = {
	-0.0567123219370842, 	0.0291333720088005, 	-0.1946562081575394, 
	0.0317765846848488, 	0.0203116349875927, 	-0.1595034003257751, 
	-0.1845681965351105, 	-0.1768464595079422, 	0.0245904531329870, 


	0.1642396450042725, 	0.1529094725847244, 	0.1351777017116547, 
	-0.0598445497453213, 	-0.1321276575326920, 	0.1211926788091660, 
	0.1520119160413742, 	0.0657534971833229, 	0.0014444683911279, 


	0.1398861706256866, 	0.2546090185642242, 	0.0826406478881836, 
	0.1478782892227173, 	0.1444451659917831, 	-0.1532983481884003, 
	0.1409981399774551, 	0.1281392723321915, 	-0.0041768443770707, 


	0.1051898524165154, 	-0.2813843190670013, 	-0.0213217288255692, 
	0.2069352865219116, 	-0.0733291208744049, 	-0.2480420768260956, 
	0.2471643090248108, 	-0.0508852526545525, 	-0.1989621222019196, 


	0.0690903663635254, 	0.1174314022064209, 	0.0958804413676262, 
	0.1969646513462067, 	-0.0895824581384659, 	0.1616678982973099, 
	0.1999955326318741, 	-0.1699756085872650, 	0.0047104554250836, 


	0.0873612463474274, 	-0.0919347479939461, 	0.1655855923891068, 
	-0.0319301001727581, 	0.2285123020410538, 	0.1703967899084091, 
	0.0334147140383720, 	0.2253611683845520, 	0.1375323086977005, 


	-0.1448803991079330, 	0.1052083596587181, 	0.0684579759836197, 
	-0.1258382648229599, 	-0.1001506149768829, 	0.0910724550485611, 
	0.0031460262835026, 	-0.0694186687469482, 	0.0781420171260834, 


	0.0950825139880180, 	0.1099039986729622, 	0.2033634483814240, 
	-0.1311654299497604, 	-0.0610736832022667, 	0.1150002554059029, 
	0.0421355664730072, 	-0.1335954368114471, 	0.1518600434064865, 


	0.0415813401341438, 	-0.2361129224300385, 	-0.3100073337554932, 
	-0.1785297244787216, 	-0.2706205546855927, 	-0.2896693646907806, 
	-0.2941492199897766, 	-0.2276915609836578, 	0.0134859792888165, 


	-0.0652362704277039, 	0.1132506728172302, 	-0.1393819153308868, 
	-0.1366744786500931, 	-0.1878849416971207, 	-0.1059301719069481, 
	0.0655363351106644, 	0.0166988410055637, 	-0.2136183083057404, 


	0.2417448461055756, 	0.1015859618782997, 	-0.0101799089461565, 
	0.1435797065496445, 	-0.1478702276945114, 	-0.0998657718300819, 
	-0.1729908436536789, 	-0.2367711216211319, 	-0.0721333920955658, 


	-0.0120921023190022, 	-0.0335209928452969, 	0.2431565821170807, 
	0.2043076008558273, 	0.2003088891506195, 	0.2349372059106827, 
	0.0066616530530155, 	-0.1223297938704491, 	-0.1241855621337891, 


	0.2918118238449097, 	0.0830206423997879, 	0.2021246552467346, 
	0.2218704670667648, 	0.1255584508180618, 	0.1018425896763802, 
	0.1119420230388641, 	-0.0834912285208702, 	-0.0987444072961807, 


	-0.1848411113023758, 	0.0864613875746727, 	-0.1055354624986649, 
	-0.0113539956510067, 	0.1231871619820595, 	0.1131328195333481, 
	-0.1979567110538483, 	-0.0679220557212830, 	0.1239979416131973, 


	0.2737015485763550, 	0.0639349371194839, 	0.2036398798227310, 
	0.2265331894159317, 	0.0302850883454084, 	0.0960728675127029, 
	0.0035454079043120, 	-0.0061027109622955, 	0.2363467961549759, 


	-0.2361417263746262, 	0.0544296912848949, 	-0.1716219633817673, 
	-0.2834188044071198, 	-0.2810527086257935, 	-0.2335296124219894, 
	-0.0102336136624217, 	-0.1325886100530624, 	-0.0609332732856274, 


};
float conv_weights_3[512] = {
	0.1835334599018097, 

	-0.0120447585359216, 

	0.1350947320461273, 

	-0.1854668408632278, 

	0.1889000385999680, 

	0.0867252424359322, 

	-0.0608743913471699, 

	-0.1262217909097672, 

	0.2632772028446198, 

	-0.0059772017411888, 

	0.1240005120635033, 

	0.1704912781715393, 

	-0.0969049707055092, 

	-0.0030481917783618, 

	0.2394456863403320, 

	-0.0942726135253906, 


	-0.0965074971318245, 

	0.1628112941980362, 

	0.0249109026044607, 

	0.0229202657938004, 

	-0.1445436775684357, 

	0.2706670165061951, 

	-0.0682854428887367, 

	-0.0140981171280146, 

	-0.2970856130123138, 

	-0.1703210920095444, 

	0.0184582192450762, 

	0.2681234478950500, 

	0.2746598720550537, 

	0.0340912938117981, 

	-0.0321372225880623, 

	0.0419602356851101, 


	-0.0911666974425316, 

	0.0731147751212120, 

	0.0802792012691498, 

	-0.0419631451368332, 

	0.1131887957453728, 

	-0.1555037647485733, 

	-0.0999723002314568, 

	0.0322743840515614, 

	-0.0241324603557587, 

	-0.1796735972166061, 

	0.0502746589481831, 

	0.2174885123968124, 

	0.0143673857674003, 

	-0.1688105762004852, 

	-0.0577897988259792, 

	-0.1359178274869919, 


	0.1598157584667206, 

	-0.0493710115551949, 

	0.2202381342649460, 

	-0.2565685212612152, 

	-0.2585710287094116, 

	0.2301381677389145, 

	-0.0350740328431129, 

	-0.1237667053937912, 

	-0.0942522287368774, 

	-0.0587873794138432, 

	0.0406492538750172, 

	-0.1456390917301178, 

	0.1694456934928894, 

	0.0592275671660900, 

	0.2094326168298721, 

	-0.2803966104984283, 


	-0.2131115049123764, 

	-0.0748049169778824, 

	0.0443737022578716, 

	-0.2763147950172424, 

	0.0046769198961556, 

	0.1196219623088837, 

	0.0797272995114326, 

	0.1176678687334061, 

	0.1272134482860565, 

	-0.1105987429618835, 

	-0.0839606150984764, 

	-0.1187583208084106, 

	-0.2251118272542953, 

	0.0578335784375668, 

	0.2904005646705627, 

	0.0291538964956999, 


	-0.2578136026859283, 

	-0.1809317022562027, 

	0.0151435369625688, 

	-0.0398502200841904, 

	0.1137911602854729, 

	0.1279801726341248, 

	0.1176382377743721, 

	-0.1062574237585068, 

	0.3036641180515289, 

	0.1589335352182388, 

	-0.1321332901716232, 

	-0.1838377565145493, 

	-0.1731223016977310, 

	-0.2216489613056183, 

	0.3693209886550903, 

	0.3482948243618011, 


	0.0928352177143097, 

	0.2508594989776611, 

	-0.1385139822959900, 

	-0.3996665179729462, 

	-0.0107448026537895, 

	-0.0324368663132191, 

	0.0016574641922489, 

	0.1780136525630951, 

	0.0382513925433159, 

	-0.2186430990695953, 

	-0.0044465553946793, 

	-0.1551370322704315, 

	0.1260861754417419, 

	0.2280917614698410, 

	0.3484360575675964, 

	0.2832844853401184, 


	-0.3089254498481750, 

	0.2429203689098358, 

	0.1333216428756714, 

	0.3958255648612976, 

	0.0750727429986000, 

	-0.2107402235269547, 

	-0.1502473205327988, 

	-0.1830391734838486, 

	-0.2248019129037857, 

	-0.0226126294583082, 

	-0.0070994570851326, 

	0.2305203378200531, 

	0.3048415184020996, 

	-0.2555912733078003, 

	-0.1744482964277267, 

	-0.3619203567504883, 


	-0.1273122578859329, 

	0.0010278138797730, 

	0.2330504506826401, 

	0.0864989086985588, 

	-0.1415228247642517, 

	-0.0322626233100891, 

	-0.2165339142084122, 

	-0.0823883786797523, 

	-0.2105110287666321, 

	0.1953245550394058, 

	-0.0175926629453897, 

	0.0412077270448208, 

	0.0159003045409918, 

	0.1258851885795593, 

	0.0283135250210762, 

	0.1217623800039291, 


	0.0556784942746162, 

	-0.1208233609795570, 

	0.0307477992027998, 

	0.0581691041588783, 

	0.0465801134705544, 

	0.0196762997657061, 

	-0.0426798947155476, 

	-0.1023093089461327, 

	0.1774114668369293, 

	-0.0703819915652275, 

	-0.0237687230110168, 

	0.0037669078446925, 

	0.0433474220335484, 

	0.0726241022348404, 

	0.2877877056598663, 

	0.1839411854743958, 


	0.2112978249788284, 

	-0.2853083908557892, 

	-0.0593154206871986, 

	-0.0928233191370964, 

	0.0167294722050428, 

	0.2637886106967926, 

	0.0583567060530186, 

	0.1258764714002609, 

	-0.3879879415035248, 

	0.0614024549722672, 

	0.0093308752402663, 

	-0.0694141760468483, 

	-0.1364338099956512, 

	-0.0930433720350266, 

	-0.0965009033679962, 

	0.3325744867324829, 


	0.0341459847986698, 

	0.0053311837837100, 

	-0.0727779865264893, 

	-0.1074770539999008, 

	-0.0001075350519386, 

	-0.0304156150668859, 

	-0.0076905377209187, 

	-0.0057809636928141, 

	0.0020908084698021, 

	-0.0233452953398228, 

	-0.0412243492901325, 

	-0.0284087844192982, 

	0.0229829810559750, 

	-0.0030768739525229, 

	-0.0264256503432989, 

	-0.0283695999532938, 


	-0.2966366410255432, 

	0.2041245996952057, 

	-0.1070104092359543, 

	0.0520366579294205, 

	-0.1710624396800995, 

	-0.2145733982324600, 

	-0.0743287578225136, 

	-0.0364239774644375, 

	-0.1422427296638489, 

	-0.0699256211519241, 

	0.1218998283147812, 

	0.1570117622613907, 

	-0.2231642901897430, 

	0.1487911492586136, 

	-0.2649732828140259, 

	0.0965995043516159, 


	-0.0261613465845585, 

	-0.0416191332042217, 

	0.0196812041103840, 

	0.0275593232363462, 

	0.0330735631287098, 

	0.0570728331804276, 

	-0.0297013036906719, 

	0.0417585074901581, 

	-0.1101092919707298, 

	0.0101951770484447, 

	-0.0035788216628134, 

	-0.0347230024635792, 

	0.0609430484473705, 

	-0.0069001074880362, 

	0.0055058998987079, 

	-0.0416064001619816, 


	0.0820835381746292, 

	0.1454284638166428, 

	-0.2747764587402344, 

	0.2806162536144257, 

	-0.0188994985073805, 

	-0.1856922358274460, 

	-0.1745008081197739, 

	0.2733426094055176, 

	-0.1364724338054657, 

	-0.1816618144512177, 

	0.2899006009101868, 

	-0.0880540311336517, 

	0.1235268712043762, 

	-0.2998699843883514, 

	0.0916180238127708, 

	-0.0700783580541611, 


	0.0124245760962367, 

	-0.0016957229236141, 

	0.0111593212932348, 

	0.0111343711614609, 

	0.0350097641348839, 

	-0.0551064945757389, 

	-0.0043158228509128, 

	0.0345214605331421, 

	-0.1014744117856026, 

	0.0351901277899742, 

	0.0179849620908499, 

	-0.0363159105181694, 

	-0.0342132188379765, 

	-0.0342141799628735, 

	-0.1275963485240936, 

	0.0458252169191837, 


	0.3311475217342377, 

	0.0519791431725025, 

	-0.0040455260314047, 

	-0.1767963618040085, 

	0.2158069163560867, 

	-0.0287123639136553, 

	0.1475963443517685, 

	-0.2628962099552155, 

	-0.2794144153594971, 

	0.3069229722023010, 

	-0.1905534118413925, 

	-0.3207346200942993, 

	0.1668895781040192, 

	0.0252868570387363, 

	0.0160871576517820, 

	-0.3213228285312653, 


	-0.3379551172256470, 

	-0.1495235562324524, 

	-0.2236396223306656, 

	-0.2915658056735992, 

	-0.1047366484999657, 

	-0.2164266109466553, 

	0.1293832957744598, 

	0.1534962058067322, 

	0.2454509139060974, 

	-0.1263058483600616, 

	-0.3186873495578766, 

	0.2523236572742462, 

	0.2891116738319397, 

	-0.1578752845525742, 

	-0.0750916451215744, 

	0.0116770397871733, 


	-0.1951406747102737, 

	-0.2569472193717957, 

	0.2051742374897003, 

	-0.0550687275826931, 

	-0.2916158139705658, 

	-0.0957695245742798, 

	-0.0785979405045509, 

	0.1123846769332886, 

	-0.3773725330829620, 

	0.0657298415899277, 

	-0.0853976905345917, 

	0.2841953337192535, 

	-0.1291209161281586, 

	-0.1466235816478729, 

	-0.2028875499963760, 

	-0.1099330186843872, 


	0.3148233890533447, 

	0.2322593927383423, 

	0.1862255483865738, 

	0.4159135520458221, 

	0.2239830046892166, 

	-0.1794366836547852, 

	-0.2852800190448761, 

	0.1038912758231163, 

	-0.1618420630693436, 

	-0.2668895721435547, 

	-0.3011970221996307, 

	0.1590885519981384, 

	0.1989571303129196, 

	-0.2471473664045334, 

	-0.3119045794010162, 

	-0.2058336436748505, 


	0.0080739278346300, 

	-0.0056666987948120, 

	0.0232088696211576, 

	0.0867639333009720, 

	-0.0420185141265392, 

	-0.0126181729137897, 

	0.0084779225289822, 

	0.0031756476964802, 

	0.0408875122666359, 

	-0.0027834440115839, 

	0.0186829883605242, 

	-0.0002565024478827, 

	-0.0706342011690140, 

	-0.0041358587332070, 

	-0.0808377042412758, 

	0.0101772220805287, 


	0.1653782576322556, 

	0.1457303911447525, 

	-0.0020510512404144, 

	0.4094231426715851, 

	0.1187889873981476, 

	-0.2327280193567276, 

	-0.1519439369440079, 

	-0.0121702868491411, 

	-0.2309567034244537, 

	0.0858449190855026, 

	0.2407892495393753, 

	-0.0768615379929543, 

	0.2108531147241592, 

	-0.2179466038942337, 

	0.2307945042848587, 

	-0.0416644588112831, 


	0.0722347199916840, 

	0.1614000648260117, 

	0.1684059053659439, 

	0.1775380074977875, 

	0.2167958468198776, 

	0.1431702524423599, 

	0.0282149519771338, 

	-0.0618404038250446, 

	-0.3768759965896606, 

	0.1033115535974503, 

	-0.0507227629423141, 

	-0.2709294855594635, 

	-0.0124129178002477, 

	-0.1526456475257874, 

	0.0639116540551186, 

	-0.2886498272418976, 


	0.1976740211248398, 

	0.0084442263469100, 

	0.0451854541897774, 

	0.0678130984306335, 

	0.3323359191417694, 

	-0.2229428738355637, 

	-0.1985496729612350, 

	-0.0716795846819878, 

	0.2410344481468201, 

	0.0015761557733640, 

	0.0151352779939771, 

	-0.2457966953516006, 

	0.2735870182514191, 

	0.0212626699358225, 

	-0.0220555104315281, 

	-0.0677590891718864, 


	-0.0334908477962017, 

	0.0093780020251870, 

	-0.0307013783603907, 

	-0.0226855333894491, 

	0.0372501686215401, 

	-0.0742302387952805, 

	0.0135897407308221, 

	-0.0229972712695599, 

	0.0039555327966809, 

	-0.0100863082334399, 

	0.0883017256855965, 

	-0.0188672374933958, 

	-0.0099472170695662, 

	-0.0052266805432737, 

	0.0451519452035427, 

	0.0038384620565921, 


	0.0274267755448818, 

	0.0224223416298628, 

	0.2851213216781616, 

	0.2878803312778473, 

	-0.1914418786764145, 

	0.0947548598051071, 

	-0.2895326614379883, 

	0.0274996925145388, 

	-0.5854157805442810, 

	0.2084999680519104, 

	-0.0772721245884895, 

	-0.0053808572702110, 

	0.3647718727588654, 

	-0.3230240345001221, 

	0.0640735700726509, 

	-0.3855335712432861, 


	-0.0519171096384525, 

	0.2329068630933762, 

	0.2434533089399338, 

	-0.3611954152584076, 

	-0.0162403769791126, 

	-0.2382279783487320, 

	-0.1267008632421494, 

	0.0664037317037582, 

	-0.1432490348815918, 

	0.0413597114384174, 

	0.1676908880472183, 

	-0.2397151440382004, 

	-0.1157116293907166, 

	0.0742218941450119, 

	-0.1334602087736130, 

	-0.1273786872625351, 


	-0.1354474276304245, 

	0.0811702534556389, 

	0.1670167148113251, 

	-0.3452922999858856, 

	-0.2282732725143433, 

	0.1285037845373154, 

	0.0345966257154942, 

	0.0616381876170635, 

	-0.3401403427124023, 

	-0.1717069894075394, 

	0.0253116432577372, 

	-0.0252837035804987, 

	0.1684807389974594, 

	0.2114071995019913, 

	0.0675523653626442, 

	0.2831504642963409, 


	-0.0600699856877327, 

	-0.0254172496497631, 

	-0.0503786504268646, 

	-0.1649517565965652, 

	0.0979373753070831, 

	0.1106886044144630, 

	0.0357029885053635, 

	-0.0775377377867699, 

	0.1657480895519257, 

	-0.0995595082640648, 

	-0.0788673982024193, 

	0.0823588818311691, 

	-0.0608574040234089, 

	0.0015240631764755, 

	0.0469468161463737, 

	0.2298799157142639, 


	-0.0985941886901855, 

	0.1306852549314499, 

	0.0940479114651680, 

	-0.3027395009994507, 

	0.3493505716323853, 

	0.2477549761533737, 

	0.1866265237331390, 

	0.2162492871284485, 

	-0.2870970964431763, 

	0.1871113181114197, 

	-0.4265258014202118, 

	0.4216323494911194, 

	0.5007666349411011, 

	0.0240243840962648, 

	-0.2991042733192444, 

	0.0945686474442482, 


	-0.1287496834993362, 

	0.0082969488576055, 

	-0.0950072109699249, 

	0.3074867129325867, 

	-0.0669859796762466, 

	-0.0112339006736875, 

	0.0100895147770643, 

	-0.0844532549381256, 

	-0.1142795383930206, 

	-0.0821681022644043, 

	0.1125359088182449, 

	0.0705265253782272, 

	0.0267634782940149, 

	-0.1255205124616623, 

	0.2394745349884033, 

	0.1672173738479614, 


	0.1708422750234604, 

	-0.0042507504113019, 

	0.1811704933643341, 

	-0.2684107422828674, 

	0.1608934849500656, 

	0.2425535023212433, 

	0.1251356601715088, 

	0.2356163561344147, 

	0.0094527583569288, 

	0.0348365344107151, 

	0.1602224111557007, 

	0.0796486735343933, 

	-0.0117260748520494, 

	-0.1604207158088684, 

	0.3471618890762329, 

	0.0149729484692216, 


};
float conv_weights_4[128] = {
	-0.1422773152589798, 	-0.1331856995820999, 
	-0.1892488449811935, 	0.1337254941463470, 


	-0.1026540920138359, 	0.0986426621675491, 
	0.0947628170251846, 	-0.2021987289190292, 


	0.1761066466569901, 	0.0215107016265392, 
	-0.1579161286354065, 	0.0665599107742310, 


	0.1469815075397491, 	0.0183351431041956, 
	-0.1866340637207031, 	0.2120401710271835, 


	0.0742297396063805, 	-0.2435316145420074, 
	0.0096806939691305, 	0.0915526971220970, 


	0.1532181054353714, 	0.2433764189481735, 
	-0.0689902827143669, 	0.1264972090721130, 


	0.1057386696338654, 	0.1450472325086594, 
	-0.2521195709705353, 	0.2298535555601120, 


	0.0775005519390106, 	-0.0241241864860058, 
	-0.2797059118747711, 	0.0727156922221184, 


	-0.0388950742781162, 	-0.2751599550247192, 
	-0.1655247360467911, 	-0.2263339906930923, 


	-0.0444959402084351, 	-0.1633750200271606, 
	0.0937811657786369, 	-0.2055823504924774, 


	0.2832165360450745, 	0.2310743629932404, 
	0.1904658079147339, 	0.1543344557285309, 


	-0.0891142338514328, 	-0.0708852261304855, 
	-0.0353299267590046, 	-0.0169517211616039, 


	0.1018113493919373, 	0.0223782937973738, 
	0.0924412012100220, 	0.0767891407012939, 


	-0.0480284392833710, 	0.0734362900257111, 
	-0.0524974986910820, 	-0.0246412549167871, 


	-0.2285145521163940, 	-0.1554051786661148, 
	-0.1625280380249023, 	-0.1680685877799988, 


	-0.0254497732967138, 	0.1398438960313797, 
	0.0336729511618614, 	0.0081000803038478, 


	0.2677223384380341, 	0.2003343701362610, 
	0.0674944669008255, 	0.2178990691900253, 


	0.2144616544246674, 	0.1700447499752045, 
	-0.0402502715587616, 	0.1162355691194534, 


	0.2147773504257202, 	0.1847402304410934, 
	0.3562489151954651, 	0.1975159198045731, 


	-0.1929644197225571, 	-0.0987193956971169, 
	-0.2576852142810822, 	0.0486299172043800, 


	0.0197944678366184, 	-0.0427120849490166, 
	-0.0603813864290714, 	-0.1261811703443527, 


	0.1547490060329437, 	-0.1092579737305641, 
	-0.1280353665351868, 	-0.2845524549484253, 


	-0.0677348598837852, 	-0.2907662987709045, 
	0.2757253050804138, 	0.0856817886233330, 


	0.2171967476606369, 	0.1048984974622726, 
	-0.0321499966084957, 	0.2738117873668671, 


	-0.0073625124059618, 	0.0354489423334599, 
	-0.0874840170145035, 	-0.0823182985186577, 


	0.1302786916494370, 	-0.3121924698352814, 
	0.1763126999139786, 	-0.1189056932926178, 


	-0.1118721738457680, 	-0.2728848457336426, 
	0.2575132548809052, 	-0.1316111236810684, 


	-0.1852274537086487, 	0.2073820233345032, 
	-0.2240802943706512, 	0.1731090396642685, 


	-0.0425074286758900, 	-0.2409950792789459, 
	0.0720248445868492, 	-0.0989364534616470, 


	-0.2603994905948639, 	-0.1604621708393097, 
	0.1618503779172897, 	0.3170884251594543, 


	0.1659833490848541, 	-0.2215256690979004, 
	0.1065038219094276, 	0.0663394033908844, 


	0.1857695877552032, 	-0.1627400815486908, 
	0.1806492656469345, 	-0.0257564932107925, 


};
float conv_weights_5[2048] = {
	0.0929604470729828, 

	-0.1061368882656097, 

	0.0321865491569042, 

	0.0174162015318871, 

	-0.1292271763086319, 

	-0.0563706010580063, 

	0.0481865033507347, 

	0.1736663430929184, 

	-0.0965984687209129, 

	-0.0350502170622349, 

	0.0426342412829399, 

	0.0303032360970974, 

	0.0322038605809212, 

	0.0069566816091537, 

	0.1507784426212311, 

	-0.0050669340416789, 

	0.0683811232447624, 

	-0.1456525474786758, 

	0.2431503832340240, 

	-0.0375626310706139, 

	-0.0133489537984133, 

	0.0742721483111382, 

	-0.0451174974441528, 

	-0.0779436081647873, 

	0.0297206398099661, 

	-0.2559501826763153, 

	-0.1336055546998978, 

	0.0841799080371857, 

	-0.0071675064973533, 

	-0.0660262629389763, 

	-0.0003566132800188, 

	-0.1093648597598076, 


	0.0502305589616299, 

	0.1979469358921051, 

	-0.0178900137543678, 

	-0.0772890970110893, 

	0.0440862700343132, 

	-0.1207769513130188, 

	-0.2203668206930161, 

	-0.0508176758885384, 

	0.0604802854359150, 

	0.0723603069782257, 

	-0.1839465349912643, 

	0.0008193816756830, 

	0.0613551177084446, 

	0.0254644490778446, 

	0.1106833368539810, 

	0.0040270988829434, 

	0.1170346364378929, 

	0.0819253101944923, 

	-0.0065118465572596, 

	-0.0462486259639263, 

	-0.0303647350519896, 

	-0.0872988551855087, 

	0.0087662925943732, 

	0.1275707781314850, 

	0.0079025570303202, 

	-0.0876670256257057, 

	-0.1106804758310318, 

	0.1730964332818985, 

	0.0454448051750660, 

	-0.1964083909988403, 

	-0.0638375431299210, 

	0.0227887947112322, 


	-0.0582127869129181, 

	0.0213502235710621, 

	0.0402994155883789, 

	0.0232555679976940, 

	-0.0160187855362892, 

	-0.1020880043506622, 

	0.1223679929971695, 

	-0.0533517152070999, 

	-0.0644013360142708, 

	0.0242503341287374, 

	0.0187482070177794, 

	-0.0101284924894571, 

	-0.0040681255050004, 

	0.0137937786057591, 

	0.1451247632503510, 

	-0.0017408245475963, 

	-0.0575961507856846, 

	0.0267942491918802, 

	-0.0278693530708551, 

	0.1332421898841858, 

	0.0139320967718959, 

	-0.1136749312281609, 

	-0.0804209187626839, 

	-0.0437355041503906, 

	-0.0082912547513843, 

	-0.2166376113891602, 

	0.0120542794466019, 

	0.1244107931852341, 

	0.0005728996475227, 

	0.2139087468385696, 

	0.0383950322866440, 

	-0.1067845821380615, 


	0.2205904424190521, 

	0.1371320337057114, 

	-0.1425208896398544, 

	-0.1584211885929108, 

	-0.0577183477580547, 

	-0.1455829739570618, 

	0.1532907932996750, 

	-0.1734752953052521, 

	0.1004147380590439, 

	-0.0033320202492177, 

	-0.2266914397478104, 

	-0.0315392166376114, 

	-0.0023723191116005, 

	0.0208067577332258, 

	-0.1102124601602554, 

	0.0194937791675329, 

	0.1892937421798706, 

	-0.1475733220577240, 

	-0.0907078310847282, 

	-0.0439079925417900, 

	0.0109987948089838, 

	-0.0508760735392570, 

	-0.0909621939063072, 

	0.0961881205439568, 

	-0.0195417050272226, 

	0.0543794073164463, 

	-0.1556591093540192, 

	0.1923969984054565, 

	-0.0364655964076519, 

	0.2002165019512177, 

	-0.0016945434035733, 

	-0.0534597933292389, 


	-0.1234927251935005, 

	-0.0990794003009796, 

	0.0935696512460709, 

	-0.1282991617918015, 

	0.1356026679277420, 

	-0.0486004091799259, 

	0.1344140917062759, 

	-0.0958858579397202, 

	-0.0030455298256129, 

	-0.0649093687534332, 

	-0.1126698851585388, 

	0.0001799899473554, 

	-0.0935778692364693, 

	0.0201319456100464, 

	-0.1630385071039200, 

	0.0022020987235010, 

	0.1075295880436897, 

	0.0032420847564936, 

	-0.1690902411937714, 

	0.1510948836803436, 

	0.0092044621706009, 

	-0.0205576401203871, 

	-0.1945127099752426, 

	0.0599715746939182, 

	0.0081691518425941, 

	-0.1626244634389877, 

	-0.2008940428495407, 

	0.0701867863535881, 

	0.0790548920631409, 

	-0.1739845722913742, 

	-0.0566744618117809, 

	0.1264415681362152, 


	0.0524438247084618, 

	-0.1215524226427078, 

	0.1233368888497353, 

	0.1797552108764648, 

	0.0533559434115887, 

	-0.2110890895128250, 

	0.0791071429848671, 

	-0.2058219164609909, 

	0.0530081689357758, 

	0.0631938129663467, 

	-0.1452906727790833, 

	-0.0030621795449406, 

	0.0853036642074585, 

	-0.0247849673032761, 

	-0.0236080624163151, 

	0.0227597467601299, 

	0.1881771236658096, 

	0.0675944834947586, 

	-0.1754385977983475, 

	-0.2282430678606033, 

	0.0279938634485006, 

	0.1981188803911209, 

	0.0099576422944665, 

	0.0270259343087673, 

	-0.0106707978993654, 

	-0.2036328315734863, 

	-0.1747049242258072, 

	0.0585700385272503, 

	-0.0634907111525536, 

	-0.1880350410938263, 

	0.1069692298769951, 

	0.0438642874360085, 


	-0.1214484721422195, 

	-0.0108918501064181, 

	-0.0440512262284756, 

	0.0046672257594764, 

	-0.1188980787992477, 

	0.0929351150989532, 

	0.0833139568567276, 

	0.1317476779222488, 

	0.0502712130546570, 

	-0.0215083174407482, 

	-0.0054350513964891, 

	0.0031427233479917, 

	-0.0763810127973557, 

	-0.0001374176790705, 

	-0.0426193512976170, 

	-0.0136269554495811, 

	-0.1735270321369171, 

	-0.1015465110540390, 

	-0.1833481937646866, 

	0.0043743127025664, 

	0.0229943059384823, 

	0.0688984766602516, 

	-0.0516499727964401, 

	-0.0679167211055756, 

	0.0050050918944180, 

	0.0590259768068790, 

	0.0157162621617317, 

	-0.0686372891068459, 

	-0.0578719452023506, 

	-0.0614714175462723, 

	0.0258144307881594, 

	0.0627759620547295, 


	0.0700024515390396, 

	0.0009023522725329, 

	-0.0359018109738827, 

	0.0073631401173770, 

	-0.0065196380019188, 

	-0.0845302343368530, 

	0.1331697702407837, 

	-0.1062469184398651, 

	0.0173775050789118, 

	0.0293633732944727, 

	0.0003981915942859, 

	-0.0266086608171463, 

	0.0214710086584091, 

	0.0015764383133501, 

	-0.0498554818332195, 

	0.0071591562591493, 

	-0.0297556500881910, 

	0.0039106211625040, 

	-0.0140829104930162, 

	0.1675730645656586, 

	0.0002584166359156, 

	-0.1140103116631508, 

	-0.0027541094459593, 

	0.0092172482982278, 

	-0.0192053597420454, 

	-0.1279811561107635, 

	0.0654664486646652, 

	-0.0760549008846283, 

	-0.0093063553795218, 

	0.1801716536283493, 

	-0.0595216825604439, 

	-0.0320865549147129, 


	0.0407651104032993, 

	0.0196106135845184, 

	-0.0515213981270790, 

	0.0270835086703300, 

	-0.1356690824031830, 

	0.0281246937811375, 

	0.2087247818708420, 

	-0.1764988303184509, 

	0.0395735427737236, 

	-0.0774886459112167, 

	0.0797102972865105, 

	-0.0280265267938375, 

	0.0412308797240257, 

	-0.0216149203479290, 

	-0.1799634993076324, 

	-0.0007910365238786, 

	0.0702213048934937, 

	-0.0457233898341656, 

	-0.0817932561039925, 

	-0.0428624972701073, 

	-0.0336391031742096, 

	0.1305505484342575, 

	0.1518481075763702, 

	0.0602352805435658, 

	-0.0131647679954767, 

	-0.0305079035460949, 

	-0.1496724635362625, 

	0.1308970153331757, 

	-0.0881611406803131, 

	0.1623109281063080, 

	-0.1052519679069519, 

	-0.1773345917463303, 


	0.1134090945124626, 

	0.1774917840957642, 

	0.0722630918025970, 

	-0.1775102615356445, 

	-0.0394987836480141, 

	-0.1374968886375427, 

	-0.1318893879652023, 

	0.1675063818693161, 

	0.0523528419435024, 

	0.0480854213237762, 

	0.0487109199166298, 

	-0.0255482848733664, 

	-0.0274783391505480, 

	0.0394689925014973, 

	-0.0840496793389320, 

	0.0187369231134653, 

	0.2456594407558441, 

	-0.0565525032579899, 

	0.1038038581609726, 

	-0.1074394732713699, 

	-0.0262667108327150, 

	0.1652981340885162, 

	0.0361943729221821, 

	0.1657719761133194, 

	-0.0058372351340950, 

	-0.1326199471950531, 

	-0.1480120122432709, 

	0.0685025975108147, 

	0.0005644329939969, 

	0.0096678882837296, 

	0.0900552272796631, 

	-0.2450255751609802, 


	-0.0858209207653999, 

	-0.1289641708135605, 

	0.1501586288213730, 

	-0.0775841027498245, 

	-0.0507006123661995, 

	0.2073610872030258, 

	0.0977386757731438, 

	-0.0503881089389324, 

	0.0211237818002701, 

	0.0799902528524399, 

	-0.0977551490068436, 

	-0.0046693678013980, 

	-0.0489956401288509, 

	-0.0092516858130693, 

	0.0400119647383690, 

	0.0186512563377619, 

	-0.1300642788410187, 

	0.1861191093921661, 

	0.0236831810325384, 

	0.1223932355642319, 

	0.0109066860750318, 

	0.0854919925332069, 

	0.1212570592761040, 

	-0.0055495626293123, 

	0.0072582652792335, 

	-0.1611020565032959, 

	0.1070291325449944, 

	-0.0894909426569939, 

	-0.0977141261100769, 

	-0.1348049640655518, 

	-0.0518563799560070, 

	-0.0399302914738655, 


	0.0949532240629196, 

	-0.0323232673108578, 

	-0.0705108940601349, 

	0.1130203828215599, 

	0.0546869002282619, 

	-0.0587348006665707, 

	0.0421774126589298, 

	0.0115561084821820, 

	-0.0705876350402832, 

	0.0743795186281204, 

	0.0464475899934769, 

	0.0137770054861903, 

	0.0061379787512124, 

	-0.0244430359452963, 

	0.1610228866338730, 

	0.0027315984480083, 

	-0.0148742673918605, 

	0.0192020460963249, 

	0.0529353134334087, 

	0.1968169510364532, 

	-0.0028621694073081, 

	-0.0842541456222534, 

	-0.0194456428289413, 

	-0.0239513795822859, 

	0.0178624186664820, 

	-0.1986277103424072, 

	0.0096460562199354, 

	-0.0719046294689178, 

	0.0311923176050186, 

	-0.1286395341157913, 

	0.0608117505908012, 

	0.1341942250728607, 


	-0.1882723271846771, 

	0.1582630425691605, 

	-0.1812679320573807, 

	0.0494294650852680, 

	-0.0796195119619370, 

	0.1896548718214035, 

	0.2286491394042969, 

	0.0608390532433987, 

	0.1363662779331207, 

	0.1060243695974350, 

	0.0132811348885298, 

	0.0006563659408130, 

	-0.1021815538406372, 

	-0.0033406557049602, 

	0.1668793559074402, 

	-0.0326068885624409, 

	0.1030423343181610, 

	0.0721404179930687, 

	-0.0106708714738488, 

	-0.1099307388067245, 

	0.0469775088131428, 

	0.0048478594981134, 

	0.0132520394399762, 

	0.1668940037488937, 

	0.0087320636957884, 

	0.0825325846672058, 

	-0.0475268922746181, 

	0.1091859117150307, 

	-0.0090408828109503, 

	-0.0359847359359264, 

	-0.2290466576814651, 

	0.1223051697015762, 


	-0.1434483826160431, 

	0.0517098754644394, 

	0.1126311123371124, 

	0.1059049442410469, 

	-0.0309259928762913, 

	-0.1818601936101913, 

	0.1272044181823730, 

	0.2280285805463791, 

	-0.0521107167005539, 

	0.0731725394725800, 

	0.0473311543464661, 

	-0.0073544811457396, 

	0.0218142531812191, 

	0.0053793545812368, 

	0.1292101293802261, 

	0.0321890339255333, 

	0.2175073027610779, 

	-0.0241117943078279, 

	0.0632907599210739, 

	0.0370207279920578, 

	0.0250166114419699, 

	-0.0449216142296791, 

	-0.1452188193798065, 

	-0.0726000517606735, 

	0.0217257868498564, 

	-0.1012494191527367, 

	-0.1623175740242004, 

	0.0470583774149418, 

	0.1070149615406990, 

	-0.2020495682954788, 

	-0.0766573771834373, 

	-0.1896965503692627, 


	-0.0580496154725552, 

	-0.0327869243919849, 

	-0.0418724827468395, 

	-0.0180871412158012, 

	-0.0177763774991035, 

	-0.0609608069062233, 

	-0.0460274666547775, 

	-0.0648002400994301, 

	-0.0542280338704586, 

	-0.0027325160335749, 

	0.0515757761895657, 

	0.0105822039768100, 

	-0.0095353946089745, 

	-0.0072252159006894, 

	0.1151919662952423, 

	0.0011947159655392, 

	0.0221638791263103, 

	-0.0126195456832647, 

	0.0650385692715645, 

	0.0553882047533989, 

	0.0014143426669762, 

	0.0299993921071291, 

	0.0228622201830149, 

	-0.0230691917240620, 

	0.0038752933032811, 

	-0.0193951018154621, 

	0.0235482044517994, 

	-0.0241189859807491, 

	-0.0089856470003724, 

	-0.0219395961612463, 

	0.0066252984106541, 

	-0.0053210728801787, 


	-0.0406834222376347, 

	-0.0065101124346256, 

	-0.0154812224209309, 

	-0.1011299639940262, 

	-0.0893708467483521, 

	-0.1450353115797043, 

	0.0464230962097645, 

	-0.1774644255638123, 

	0.0938441157341003, 

	-0.0857100859284401, 

	-0.2523945271968842, 

	-0.0265642739832401, 

	0.0166630931198597, 

	0.0423173010349274, 

	0.1845015585422516, 

	-0.0237188078463078, 

	0.0063029420562088, 

	0.1575379371643066, 

	-0.1672834604978561, 

	-0.2370221018791199, 

	0.0001794981508283, 

	-0.0268836691975594, 

	-0.0991842076182365, 

	0.2011248171329498, 

	-0.0075270053930581, 

	-0.0233767945319414, 

	-0.0428421385586262, 

	-0.1350712627172470, 

	-0.0481029674410820, 

	-0.2557982504367828, 

	0.0104220127686858, 

	-0.0799148157238960, 


	-0.1228960081934929, 

	-0.0441293790936470, 

	0.0104060415178537, 

	0.1376422196626663, 

	0.0963041707873344, 

	0.0048345155082643, 

	-0.2110869884490967, 

	0.1166249215602875, 

	-0.1602265238761902, 

	0.0157632250338793, 

	0.0455532856285572, 

	0.0479613803327084, 

	0.0078621124848723, 

	0.0148361623287201, 

	0.0527119599282742, 

	0.0150139844045043, 

	-0.0267443228513002, 

	-0.1536851823329926, 

	0.1469637155532837, 

	-0.0045956997200847, 

	-0.0234261583536863, 

	-0.1362008452415466, 

	-0.2150262147188187, 

	-0.0323444902896881, 

	0.0323190577328205, 

	-0.2380729168653488, 

	-0.0678880140185356, 

	0.0243941545486450, 

	0.1286814659833908, 

	-0.1477386355400085, 

	-0.0174444820731878, 

	0.2124718129634857, 


	0.0059095048345625, 

	0.0154895922169089, 

	0.0187120791524649, 

	0.0293980091810226, 

	-0.0188233256340027, 

	-0.0710582137107849, 

	-0.0450070798397064, 

	0.0113822221755981, 

	-0.0482282862067223, 

	-0.0067461417056620, 

	0.1287867277860641, 

	0.0104863159358501, 

	0.0113183232024312, 

	0.0016386463539675, 

	0.0302155371755362, 

	0.0043584164232016, 

	0.0098678143694997, 

	-0.0133380787447095, 

	0.1037067994475365, 

	0.1354779005050659, 

	-0.0016300309216604, 

	0.0684649273753166, 

	0.0643058121204376, 

	-0.0332490876317024, 

	0.0026743651833385, 

	-0.0220342464745045, 

	-0.0626908540725708, 

	0.0188997723162174, 

	0.0439124107360840, 

	-0.0288770906627178, 

	0.0504739768803120, 

	-0.0407062992453575, 


	-0.0732998698949814, 

	0.0990193933248520, 

	0.0338664017617702, 

	0.0105296093970537, 

	-0.0655148550868034, 

	0.2534195482730865, 

	0.0284656584262848, 

	0.1258677393198013, 

	0.0201741885393858, 

	-0.0005276988376863, 

	0.0310107637196779, 

	-0.0065259127877653, 

	-0.0060997456312180, 

	0.0291076097637415, 

	-0.1824026852846146, 

	-0.0367724522948265, 

	-0.1981406956911087, 

	0.2075386643409729, 

	-0.2886756360530853, 

	-0.2078091800212860, 

	0.0270424894988537, 

	0.1936474442481995, 

	-0.0753201544284821, 

	0.0881614014506340, 

	-0.0113217411562800, 

	-0.0155295580625534, 

	0.0649170652031898, 

	0.1486354172229767, 

	-0.0824688524007797, 

	-0.2015560865402222, 

	0.1278250217437744, 

	-0.2032074779272079, 


	-0.0274508669972420, 

	0.1111312508583069, 

	0.0507572069764137, 

	0.0241871234029531, 

	-0.0690175294876099, 

	-0.1531264632940292, 

	0.0833694562315941, 

	0.2552524507045746, 

	0.1647494733333588, 

	-0.0006840751739219, 

	-0.0647706761956215, 

	-0.0390646308660507, 

	0.0114360535517335, 

	0.0234651304781437, 

	-0.1306469291448593, 

	0.0171895809471607, 

	0.2358286082744598, 

	0.1048843413591385, 

	0.0335906296968460, 

	-0.1762588471174240, 

	0.0015178396133706, 

	0.0126516418531537, 

	-0.1086161360144615, 

	-0.0470753274857998, 

	-0.0230407305061817, 

	0.0812064632773399, 

	-0.0514165274798870, 

	0.0565560050308704, 

	0.0021500193979591, 

	-0.2529447376728058, 

	-0.0433688573539257, 

	-0.1568179130554199, 


	-0.1132783517241478, 

	-0.1582773476839066, 

	0.1807763576507568, 

	0.1178589537739754, 

	0.0873862281441689, 

	0.0092727197334170, 

	-0.1026214286684990, 

	-0.0802392661571503, 

	0.0689015761017799, 

	0.0162560753524303, 

	-0.1823597103357315, 

	-0.0220952779054642, 

	0.0683613866567612, 

	-0.0083028655499220, 

	-0.1156616583466530, 

	-0.0013246354646981, 

	0.2054914236068726, 

	-0.0263811796903610, 

	0.0622681528329849, 

	-0.0247773565351963, 

	0.0192850995808840, 

	0.0907153338193893, 

	0.1681295186281204, 

	0.0964967086911201, 

	-0.0215128734707832, 

	-0.0100176855921745, 

	-0.0862121805548668, 

	-0.0297374799847603, 

	-0.0969027504324913, 

	0.1645049005746841, 

	0.1493036448955536, 

	-0.1585507839918137, 


	-0.1561112850904465, 

	-0.1524463742971420, 

	0.0779436230659485, 

	-0.1977930516004562, 

	-0.1045476570725441, 

	0.0449084453284740, 

	-0.0372943840920925, 

	0.2704396843910217, 

	0.0655499100685120, 

	0.0143026001751423, 

	0.0144529668614268, 

	-0.0095517747104168, 

	0.0671269297599792, 

	0.0075858794152737, 

	-0.1167324110865593, 

	-0.0004392261325847, 

	-0.1010355427861214, 

	-0.0316114388406277, 

	-0.0718360096216202, 

	0.0066345715895295, 

	-0.0081614851951599, 

	-0.0562529601156712, 

	-0.0320997759699821, 

	-0.1238151192665100, 

	0.0063762674108148, 

	-0.0056754676625133, 

	0.0617536567151546, 

	-0.1562072336673737, 

	-0.0655406415462494, 

	-0.0800580158829689, 

	-0.0928309485316277, 

	0.1858548969030380, 


	0.0201912336051464, 

	0.1114614754915237, 

	-0.0575712658464909, 

	-0.1044822931289673, 

	-0.1212263777852058, 

	0.2524536252021790, 

	0.2345155328512192, 

	0.0043630120344460, 

	0.1464169770479202, 

	0.0147390784695745, 

	-0.1025677770376205, 

	-0.0219561643898487, 

	0.0553326122462749, 

	0.0368613786995411, 

	0.0007517178310081, 

	-0.0203646104782820, 

	-0.1489735841751099, 

	0.1528371423482895, 

	-0.2696573734283447, 

	-0.1213149949908257, 

	0.0315758846700191, 

	0.0254359319806099, 

	-0.0626463070511818, 

	0.2059649527072906, 

	-0.0446563549339771, 

	-0.1592346429824829, 

	-0.0515959300100803, 

	-0.0284072104841471, 

	-0.0426236875355244, 

	0.2493540197610855, 

	-0.0887834876775742, 

	0.0220984332263470, 


	0.0628169551491737, 

	-0.1307372599840164, 

	-0.0703568458557129, 

	-0.1635175049304962, 

	-0.0054969764314592, 

	0.0014429022558033, 

	-0.1109327152371407, 

	-0.2619726061820984, 

	-0.0257687754929066, 

	-0.0118378344923258, 

	0.1386408507823944, 

	0.0455070808529854, 

	-0.0247532855719328, 

	-0.0148314498364925, 

	-0.0001345417258563, 

	0.0007481494103558, 

	-0.1352382302284241, 

	0.1459460705518723, 

	0.0210746191442013, 

	-0.0685246512293816, 

	-0.0214045755565166, 

	-0.0929171964526176, 

	0.0892900973558426, 

	-0.0736263245344162, 

	-0.0103937080129981, 

	0.2749828398227692, 

	0.2841402292251587, 

	-0.1707382500171661, 

	-0.0637230649590492, 

	-0.0850312411785126, 

	-0.0505042485892773, 

	0.0489148795604706, 


	-0.0648133903741837, 

	-0.0374030619859695, 

	0.1508567184209824, 

	-0.0045345202088356, 

	0.0628864839673042, 

	-0.1356335580348969, 

	-0.1523599773645401, 

	0.1177798286080360, 

	-0.0905609652400017, 

	0.0135199800133705, 

	0.1449470520019531, 

	0.0229037255048752, 

	0.0709255337715149, 

	0.0110994409769773, 

	-0.1596959680318832, 

	-0.0059165121056139, 

	-0.0619568862020969, 

	-0.1810067445039749, 

	0.1405974179506302, 

	-0.0449296198785305, 

	0.0332288965582848, 

	0.1855401992797852, 

	-0.1625533401966095, 

	-0.0694865956902504, 

	0.0119184255599976, 

	-0.2090847939252853, 

	-0.0413492880761623, 

	-0.1424525678157806, 

	0.0437828898429871, 

	0.0793370679020882, 

	0.1369355767965317, 

	0.1134793534874916, 


	0.1204463243484497, 

	-0.1065224930644035, 

	0.0645502284169197, 

	-0.1195322275161743, 

	0.1471632421016693, 

	0.0496686175465584, 

	-0.0459345877170563, 

	0.0867525264620781, 

	-0.1744359284639359, 

	-0.0578372552990913, 

	0.0051309363916516, 

	0.0211817566305399, 

	0.0468272417783737, 

	0.0106911128386855, 

	0.0873886942863464, 

	0.0135776437819004, 

	0.1681775301694870, 

	-0.0103219524025917, 

	0.2392505556344986, 

	0.2243663221597672, 

	-0.0364754945039749, 

	-0.0066077555529773, 

	-0.0407529771327972, 

	-0.0307200588285923, 

	-0.0051105483435094, 

	-0.0446488969027996, 

	-0.1081864982843399, 

	-0.2225646674633026, 

	0.1108062416315079, 

	0.1117700561881065, 

	0.0378583595156670, 

	0.1039178222417831, 


	0.0058394265361130, 

	0.0274115502834320, 

	0.0680881738662720, 

	0.1143356785178185, 

	-0.0239573940634727, 

	-0.1641150563955307, 

	-0.0872370302677155, 

	-0.0888461619615555, 

	-0.0436725877225399, 

	0.0512100607156754, 

	0.1262575834989548, 

	-0.0175586864352226, 

	0.0593375898897648, 

	0.0262003205716610, 

	0.0818644240498543, 

	0.0061626322567463, 

	0.0835423469543457, 

	0.0477962642908096, 

	0.1351255476474762, 

	0.2151475697755814, 

	0.0233201701194048, 

	-0.0038448423147202, 

	-0.0398967154324055, 

	0.0117948139086366, 

	-0.0063398513011634, 

	-0.1164431944489479, 

	-0.1370777338743210, 

	0.1755192875862122, 

	-0.0341187082231045, 

	0.2011111378669739, 

	0.0161783788353205, 

	-0.1802403330802917, 


	-0.1795113086700439, 

	0.0544585734605789, 

	-0.1413600742816925, 

	-0.0399923361837864, 

	0.0883140265941620, 

	-0.0087003866210580, 

	0.1745522320270538, 

	0.0662687867879868, 

	-0.1571823060512543, 

	0.1901795119047165, 

	0.0443071424961090, 

	0.0137334465980530, 

	-0.0433951430022717, 

	0.0088525554165244, 

	-0.1409226953983307, 

	0.0281645916402340, 

	0.1252757459878922, 

	-0.2247826308012009, 

	0.1544127315282822, 

	0.0327834114432335, 

	-0.0606413260102272, 

	-0.1695418655872345, 

	-0.0894747003912926, 

	-0.0854873731732368, 

	0.0112548051401973, 

	-0.3117100298404694, 

	-0.0626490712165833, 

	0.0913619473576546, 

	0.1128746867179871, 

	0.1361489444971085, 

	-0.0174955204129219, 

	0.1081578284502029, 


	0.1012326851487160, 

	-0.0359710827469826, 

	-0.0540829896926880, 

	0.0783069208264351, 

	-0.0745464563369751, 

	-0.1876005977392197, 

	-0.1354947239160538, 

	-0.0998716503381729, 

	0.0672922208905220, 

	0.0531751587986946, 

	0.0990796610713005, 

	-0.0192347560077906, 

	0.0698501244187355, 

	-0.0116665223613381, 

	-0.0997699424624443, 

	-0.0006536981090903, 

	0.0770257115364075, 

	0.1431724727153778, 

	0.1181319579482079, 

	-0.1972557157278061, 

	0.0033044673036784, 

	-0.1029008999466896, 

	0.1491289436817169, 

	-0.0892419591546059, 

	0.0024139233864844, 

	0.3024482131004333, 

	0.0158620346337557, 

	0.1470437049865723, 

	-0.0246225409209728, 

	0.0335390046238899, 

	-0.0833509638905525, 

	-0.0027625209186226, 


	-0.0762359052896500, 

	0.0874639824032784, 

	0.0021957920398563, 

	-0.0114190112799406, 

	-0.0862013995647430, 

	0.1123866513371468, 

	-0.2053698450326920, 

	-0.1008673906326294, 

	-0.0945044681429863, 

	-0.0167456008493900, 

	0.0139036206528544, 

	0.0087904250249267, 

	0.0599405169487000, 

	0.0029733891133219, 

	-0.0459850765764713, 

	-0.0136643461883068, 

	-0.1538084000349045, 

	-0.0767524018883705, 

	-0.0333841778337955, 

	0.2724545300006866, 

	-0.0150814093649387, 

	-0.0995553955435753, 

	-0.1090135276317596, 

	0.0950713604688644, 

	-0.0048280181363225, 

	-0.2221634984016418, 

	-0.0324735976755619, 

	-0.1116771399974823, 

	0.0259601380676031, 

	-0.1102403923869133, 

	0.0645502060651779, 

	0.0755059942603111, 


	0.0687355920672417, 

	-0.0289041157811880, 

	-0.0018490685615689, 

	-0.0884011983871460, 

	0.0246988683938980, 

	-0.1313223689794540, 

	0.1401499956846237, 

	-0.0960991382598877, 

	0.0201307963579893, 

	0.0624511912465096, 

	0.0979879125952721, 

	-0.0095436023548245, 

	0.0315490104258060, 

	0.0148344561457634, 

	0.0438098832964897, 

	0.0047227907925844, 

	0.0619271285831928, 

	-0.1350249052047729, 

	0.1614237874746323, 

	0.1793181598186493, 

	-0.0017473170300946, 

	-0.0708109512925148, 

	-0.0177073162049055, 

	0.0161763355135918, 

	-0.0080475425347686, 

	-0.1354689151048660, 

	0.0730283483862877, 

	-0.0765644088387489, 

	0.0101523501798511, 

	0.1152716279029846, 

	-0.0241475924849510, 

	-0.0461558811366558, 


	-0.0472713075578213, 

	0.0544026978313923, 

	0.0857849195599556, 

	0.0204937476664782, 

	-0.0746248811483383, 

	-0.0609556026756763, 

	-0.0922729000449181, 

	-0.2111340314149857, 

	-0.0002953861257993, 

	-0.0819178745150566, 

	0.1336082816123962, 

	0.0180522017180920, 

	-0.0530614852905273, 

	0.0357520990073681, 

	-0.0548229292035103, 

	-0.0241301301866770, 

	-0.1418422758579254, 

	0.0567308701574802, 

	-0.1012005358934402, 

	-0.0764495581388474, 

	-0.0237074010074139, 

	0.0051867021247745, 

	0.0807403996586800, 

	0.0226478669792414, 

	-0.0289591774344444, 

	0.1459993720054626, 

	0.0489351339638233, 

	0.1464250683784485, 

	-0.0478455573320389, 

	-0.0821072310209274, 

	0.1660406738519669, 

	0.1508307307958603, 


	-0.0124341985210776, 

	-0.1033528894186020, 

	0.1714151203632355, 

	-0.1672989428043365, 

	-0.0579635649919510, 

	0.0614718645811081, 

	-0.0349737852811813, 

	-0.0700472146272659, 

	0.0744745731353760, 

	-0.0370825529098511, 

	-0.2176316529512405, 

	-0.0007860644254833, 

	-0.0419550798833370, 

	-0.0054195122793317, 

	0.0324783064424992, 

	-0.0121551621705294, 

	0.1252155900001526, 

	0.0403720363974571, 

	-0.0441612564027309, 

	-0.0679120644927025, 

	0.0071102073416114, 

	0.1989462673664093, 

	-0.0658614635467529, 

	0.0651575252413750, 

	0.0042669838294387, 

	-0.0728166177868843, 

	0.0987700372934341, 

	0.0458020903170109, 

	0.0110283400863409, 

	-0.1042368784546852, 

	0.1324490159749985, 

	-0.1316901743412018, 


	-0.0854952037334442, 

	0.0088224727660418, 

	0.0121369641274214, 

	-0.0344498939812183, 

	-0.1011539250612259, 

	-0.1286966204643250, 

	0.1844832301139832, 

	0.2363320291042328, 

	-0.0155843729153275, 

	0.0884848758578300, 

	0.1708825081586838, 

	0.0023081661202013, 

	0.0503328703343868, 

	0.0335144512355328, 

	-0.2246320396661758, 

	-0.0044798743911088, 

	-0.1181338354945183, 

	-0.1753191947937012, 

	0.1349479854106903, 

	-0.0308755710721016, 

	0.0236039757728577, 

	-0.1246316656470299, 

	-0.0817281380295753, 

	0.1828562319278717, 

	0.0250098481774330, 

	-0.1415197700262070, 

	-0.1745480895042419, 

	0.1555325239896774, 

	0.0833925157785416, 

	-0.2012918442487717, 

	-0.1896089166402817, 

	-0.0958107039332390, 


	-0.1963108777999878, 

	0.0291597153991461, 

	-0.0604831501841545, 

	0.1894938200712204, 

	0.0577271729707718, 

	-0.2179885506629944, 

	-0.2093576192855835, 

	0.1344984173774719, 

	-0.1329020261764526, 

	-0.0278296023607254, 

	0.0318882912397385, 

	0.0295826140791178, 

	-0.0015161673072726, 

	0.0416055694222450, 

	-0.1102495640516281, 

	0.0112139303237200, 

	0.1630352735519409, 

	-0.0770715847611427, 

	0.0352200828492641, 

	0.0620078109204769, 

	-0.0240575335919857, 

	-0.0714039802551270, 

	-0.2455554455518723, 

	-0.1770774573087692, 

	0.0111883273348212, 

	-0.2837303280830383, 

	-0.2035826146602631, 

	-0.0032431234139949, 

	0.1167394593358040, 

	-0.0936191231012344, 

	0.0929253995418549, 

	0.1404485255479813, 


	0.0462020672857761, 

	-0.1319582909345627, 

	0.0530454963445663, 

	0.1037814468145370, 

	-0.1152074560523033, 

	0.2194452285766602, 

	-0.0054258937016129, 

	0.1391962319612503, 

	0.0965933799743652, 

	-0.0388176627457142, 

	0.0047972835600376, 

	0.0091316904872656, 

	-0.0605537258088589, 

	0.0562313236296177, 

	-0.0141272172331810, 

	-0.0081662619486451, 

	-0.2697902023792267, 

	-0.0869705304503441, 

	-0.1768402010202408, 

	-0.2077707499265671, 

	0.0080705201253295, 

	0.2524459064006805, 

	-0.0895981714129448, 

	-0.0873295888304710, 

	0.0087390290573239, 

	-0.2107734084129333, 

	0.0746455565094948, 

	0.0384010002017021, 

	-0.0251089595258236, 

	-0.1870504766702652, 

	0.0291514284908772, 

	-0.0005420033121482, 


	0.0240516681224108, 

	0.0142802605405450, 

	-0.0223601106554270, 

	0.1165741756558418, 

	-0.0535723902285099, 

	0.1252633631229401, 

	0.0618870444595814, 

	0.2222761362791061, 

	0.0780251771211624, 

	-0.0782204791903496, 

	0.1580875068902969, 

	-0.0310245119035244, 

	-0.0328441113233566, 

	0.0052580689080060, 

	0.0334051027894020, 

	-0.0101868258789182, 

	0.0872291997075081, 

	-0.0581311210989952, 

	-0.0509964749217033, 

	0.0339527912437916, 

	0.0157467629760504, 

	0.1260542869567871, 

	-0.0381147265434265, 

	-0.0129577117040753, 

	-0.0108514511957765, 

	-0.0456297956407070, 

	-0.1179301291704178, 

	0.0737418159842491, 

	-0.0425373986363411, 

	-0.0724506229162216, 

	-0.0362492538988590, 

	-0.1475118100643158, 


	0.0635871663689613, 

	-0.0489415451884270, 

	0.1503602117300034, 

	0.0729676857590675, 

	-0.0698908790946007, 

	0.1415444314479828, 

	-0.0659191235899925, 

	0.0851339995861053, 

	0.0109879793599248, 

	-0.1134900823235512, 

	-0.2574176192283630, 

	-0.0087640164420009, 

	-0.0012226619292051, 

	0.0048644556663930, 

	0.0654939189553261, 

	-0.0095390109345317, 

	-0.1403066813945770, 

	-0.0670925527811050, 

	-0.1887762695550919, 

	-0.1537957042455673, 

	0.0125133143737912, 

	-0.0906529724597931, 

	-0.0014134609373286, 

	0.1619541347026825, 

	-0.0131779266521335, 

	0.0203114394098520, 

	-0.1029879599809647, 

	-0.0098304226994514, 

	-0.1019515544176102, 

	-0.1282814294099808, 

	0.0415152534842491, 

	0.0612069703638554, 


	0.0541965626180172, 

	0.1042757481336594, 

	-0.0379958264529705, 

	0.0172628927975893, 

	-0.0562957562506199, 

	0.0613371096551418, 

	-0.0099920872598886, 

	0.0875651538372040, 

	0.0505612678825855, 

	-0.0080597037449479, 

	-0.0170383229851723, 

	-0.0422242358326912, 

	-0.0198074858635664, 

	-0.0121777364984155, 

	0.0409792251884937, 

	0.0058853481896222, 

	0.1814248114824295, 

	-0.1258841454982758, 

	-0.0024509886279702, 

	-0.0773523747920990, 

	-0.0029030493460596, 

	-0.0433888584375381, 

	0.0428599752485752, 

	-0.0375134423375130, 

	0.0111301066353917, 

	0.1920849978923798, 

	-0.0651085451245308, 

	0.0584391541779041, 

	-0.0387944951653481, 

	0.0696746855974197, 

	-0.0266322065144777, 

	-0.0907368063926697, 


	0.0175977610051632, 

	0.0926456153392792, 

	-0.0568783693015575, 

	-0.1628643423318863, 

	0.0137730604037642, 

	-0.0254613421857357, 

	-0.2286857217550278, 

	-0.1563548147678375, 

	-0.0054572424851358, 

	0.0149126239120960, 

	-0.0788617208600044, 

	0.0032207849435508, 

	0.0114915035665035, 

	0.0156437195837498, 

	0.0290195401757956, 

	0.0066450652666390, 

	0.1080277189612389, 

	-0.1214502528309822, 

	-0.0723092705011368, 

	0.0548860952258110, 

	-0.0053649782203138, 

	-0.0884651988744736, 

	-0.0517715848982334, 

	0.0637120008468628, 

	-0.0112787876278162, 

	-0.0446865819394588, 

	-0.0527539066970348, 

	-0.0741142481565475, 

	0.0164412669837475, 

	0.0845182090997696, 

	0.0938983783125877, 

	0.1574950218200684, 


	0.1928469091653824, 

	-0.1919058561325073, 

	-0.1127862781286240, 

	0.0142298303544521, 

	0.1269346624612808, 

	0.1432330161333084, 

	-0.0621998123824596, 

	-0.0742450281977654, 

	0.0177378430962563, 

	-0.0188355986028910, 

	0.0048737721517682, 

	0.0073375809006393, 

	0.0471823513507843, 

	-0.0146804498508573, 

	0.1983465701341629, 

	-0.0150508899241686, 

	0.0499478802084923, 

	-0.0174868702888489, 

	0.1769710332155228, 

	0.0597825124859810, 

	0.0351141579449177, 

	0.1906669437885284, 

	0.0537101551890373, 

	-0.1257160902023315, 

	0.0010127412388101, 

	-0.1969959139823914, 

	-0.0431468859314919, 

	-0.1585885286331177, 

	0.1047812029719353, 

	0.2881238758563995, 

	-0.1102706119418144, 

	0.2132442444562912, 


	0.0786394402384758, 

	-0.0375991575419903, 

	-0.1890688836574554, 

	-0.0535737313330173, 

	0.1296301931142807, 

	-0.1191719621419907, 

	0.1541554182767868, 

	-0.0410011447966099, 

	-0.1036503911018372, 

	0.1018968448042870, 

	0.0473061949014664, 

	0.0243537593632936, 

	0.0933965668082237, 

	0.0503949336707592, 

	0.1366363018751144, 

	-0.0130359604954720, 

	0.0606561303138733, 

	0.1429919600486755, 

	0.0810599103569984, 

	-0.1728547215461731, 

	-0.0613174177706242, 

	0.2267932295799255, 

	0.0185788683593273, 

	0.0455240607261658, 

	0.0047062379308045, 

	-0.0703726187348366, 

	0.0493119619786739, 

	0.0639546811580658, 

	0.1165929883718491, 

	0.0835974439978600, 

	-0.0482802949845791, 

	0.1800884157419205, 


	-0.0652389004826546, 

	-0.1338172852993011, 

	-0.0967996269464493, 

	-0.0533983111381531, 

	0.0149957435205579, 

	0.0737257376313210, 

	-0.0486922115087509, 

	-0.0323671177029610, 

	-0.0270486250519753, 

	-0.0617042109370232, 

	0.0575229898095131, 

	0.0328652188181877, 

	0.0126144643872976, 

	-0.0338894836604595, 

	0.0634383857250214, 

	-0.0081977229565382, 

	0.2354335784912109, 

	0.1736338734626770, 

	0.0741787180304527, 

	-0.1741791218519211, 

	0.0342836230993271, 

	0.0961292982101440, 

	0.2316398024559021, 

	0.0583767741918564, 

	-0.0082265511155128, 

	0.3579183518886566, 

	0.2332978993654251, 

	-0.0521151088178158, 

	-0.0718213468790054, 

	-0.2252511233091354, 

	-0.0794906914234161, 

	-0.0289908368140459, 


	0.0741880685091019, 

	0.1147729903459549, 

	-0.0972854495048523, 

	-0.0103743625804782, 

	0.0733851790428162, 

	0.1917448043823242, 

	0.0661963373422623, 

	0.0401753634214401, 

	0.2029874324798584, 

	-0.0467384681105614, 

	0.1376201510429382, 

	-0.0065087741240859, 

	-0.0185997337102890, 

	0.0116813685745001, 

	-0.1415142565965652, 

	-0.0098469024524093, 

	-0.1796786040067673, 

	0.0928675979375839, 

	-0.1624338626861572, 

	0.1757257431745529, 

	0.0170777477324009, 

	0.0717229321599007, 

	0.0247840899974108, 

	0.0148931583389640, 

	-0.0183951053768396, 

	0.2010671794414520, 

	0.0342477224767208, 

	-0.0690420940518379, 

	-0.0714721083641052, 

	0.2118660956621170, 

	-0.0486011877655983, 

	0.0200819224119186, 


	-0.0785407125949860, 

	0.0699703469872475, 

	-0.0362453125417233, 

	0.0621891655027866, 

	0.1355162858963013, 

	-0.0634826645255089, 

	-0.0767752006649971, 

	0.0525255315005779, 

	0.0633976235985756, 

	-0.0960571393370628, 

	0.1012754663825035, 

	-0.0203731823712587, 

	-0.0188842061907053, 

	0.0098744798451662, 

	0.1393676102161407, 

	-0.0021411697380245, 

	0.0879399850964546, 

	0.0607078634202480, 

	-0.0274233873933554, 

	0.1677980124950409, 

	0.0031366026960313, 

	0.0823818370699883, 

	0.0471244752407074, 

	0.0474969670176506, 

	-0.0102297011762857, 

	0.0316053852438927, 

	0.0227355808019638, 

	-0.1000484228134155, 

	0.0639161765575409, 

	-0.0812949314713478, 

	-0.0050127385184169, 

	0.1952540278434753, 


	-0.0032772761769593, 

	-0.1327635943889618, 

	0.1336091011762619, 

	0.1549103260040283, 

	-0.1609967350959778, 

	-0.0794274210929871, 

	0.0413051284849644, 

	0.2066095024347305, 

	0.0774213299155235, 

	-0.1236992701888084, 

	0.1136164665222168, 

	-0.0121045056730509, 

	-0.0261462908238173, 

	0.0023568496108055, 

	0.0610930100083351, 

	0.0106235686689615, 

	-0.0147142447531223, 

	0.1103997230529785, 

	0.0680488869547844, 

	0.2112984508275986, 

	0.0303191039711237, 

	0.1849481165409088, 

	0.0706632286310196, 

	0.0785792693495750, 

	0.0062515097670257, 

	0.1416940540075302, 

	-0.0027944808825850, 

	0.1204071193933487, 

	-0.0915625691413879, 

	0.0048763053491712, 

	0.0461519248783588, 

	0.1382979005575180, 


	-0.1135401874780655, 

	-0.0426818616688251, 

	-0.0899339243769646, 

	0.0201171208173037, 

	0.0877830907702446, 

	0.1479485183954239, 

	-0.1124314442276955, 

	-0.0855008959770203, 

	-0.0963065698742867, 

	0.0617461688816547, 

	0.1604769378900528, 

	0.0163981318473816, 

	0.0608961507678032, 

	0.0002847910800483, 

	0.0912070572376251, 

	0.0129206664860249, 

	0.2145180404186249, 

	-0.1772081404924393, 

	0.1083133444190025, 

	0.0134057756513357, 

	-0.0397832132875919, 

	-0.0963434278964996, 

	0.2274094820022583, 

	0.0455199778079987, 

	-0.0186909027397633, 

	-0.0465259142220020, 

	0.0536144226789474, 

	-0.2006107568740845, 

	0.0614056065678596, 

	0.1913724094629288, 

	-0.0085573112592101, 

	0.0684638097882271, 


	0.1514331996440887, 

	-0.0704476237297058, 

	0.1089354753494263, 

	-0.1612977087497711, 

	0.0101382229477167, 

	-0.1833626925945282, 

	0.0912061557173729, 

	0.1562702953815460, 

	0.1010911837220192, 

	0.0719527453184128, 

	0.0566043742001057, 

	-0.0443461202085018, 

	-0.0080595128238201, 

	0.0043428260833025, 

	-0.1801931709051132, 

	-0.0007869382970966, 

	0.2641374468803406, 

	0.1142974197864532, 

	0.0721320733428001, 

	0.1701923906803131, 

	-0.0118679925799370, 

	0.0858080089092255, 

	-0.0783327296376228, 

	0.1081422939896584, 

	-0.0167231932282448, 

	0.0056324992328882, 

	0.0004813151608687, 

	-0.0468620397150517, 

	0.0409040860831738, 

	-0.2428105026483536, 

	0.0548077113926411, 

	0.0693215727806091, 


	-0.0795922353863716, 

	0.0607007518410683, 

	-0.0144102713093162, 

	-0.0166258271783590, 

	0.0101224360987544, 

	0.1584428548812866, 

	0.0106379799544811, 

	-0.2859302461147308, 

	0.0398863218724728, 

	-0.1184360384941101, 

	0.0918197333812714, 

	0.0190021619200706, 

	-0.0222111884504557, 

	-0.0565053112804890, 

	0.0175527986139059, 

	-0.0175441019237041, 

	-0.0949691608548164, 

	-0.0209955740720034, 

	0.0294690188020468, 

	-0.3032649755477905, 

	0.0305371899157763, 

	0.0599989034235477, 

	0.3223042488098145, 

	0.1355786621570587, 

	-0.0179225411266088, 

	0.3919652700424194, 

	-0.0040070959366858, 

	0.0018491549417377, 

	-0.1196627020835876, 

	-0.0926830172538757, 

	-0.0646136030554771, 

	-0.0920409038662910, 


	-0.0696808770298958, 

	-0.0780743658542633, 

	-0.0847957432270050, 

	-0.1728117167949677, 

	-0.1061563342809677, 

	0.0085948016494513, 

	0.2161405086517334, 

	0.1119871437549591, 

	0.1239318028092384, 

	-0.0708446204662323, 

	-0.0087630376219749, 

	0.0015001293504611, 

	0.0387313440442085, 

	-0.0103885727003217, 

	-0.1256294101476669, 

	-0.0098218275234103, 

	-0.1445117443799973, 

	0.0055278297513723, 

	-0.1792373359203339, 

	-0.2531830668449402, 

	0.0062205586582422, 

	-0.0645713135600090, 

	0.0492342375218868, 

	0.1624102592468262, 

	-0.0325095430016518, 

	0.1917180866003036, 

	-0.0261200387030840, 

	-0.0544258616864681, 

	-0.0666721612215042, 

	0.1296736001968384, 

	0.0906931012868881, 

	0.1067220941185951, 


	-0.0006153074209578, 

	0.0297248736023903, 

	-0.0013247398892418, 

	-0.0182695277035236, 

	0.0061929849907756, 

	-0.0339015573263168, 

	0.0528454296290874, 

	0.1076615452766418, 

	-0.0020862051751465, 

	-0.0079571651294827, 

	-0.0486648231744766, 

	-0.0033173982519656, 

	0.0065398020669818, 

	0.0044773006811738, 

	0.0552238225936890, 

	-0.0011426192941144, 

	-0.0456759221851826, 

	0.0772888436913490, 

	-0.0082227000966668, 

	0.0975010767579079, 

	-0.0011644866317511, 

	-0.0897402837872505, 

	-0.0093517387285829, 

	0.0144874500110745, 

	-0.0008564554736950, 

	-0.0771610587835312, 

	0.0664906427264214, 

	-0.0254644043743610, 

	-0.0055531072430313, 

	-0.0747063830494881, 

	0.0362060368061066, 

	0.0106647880747914, 


	0.0649561733007431, 

	0.0017309335526079, 

	-0.0862049907445908, 

	0.0212491005659103, 

	0.1143964752554893, 

	-0.0248310342431068, 

	-0.1647872477769852, 

	-0.0523645766079426, 

	-0.0028465006034821, 

	-0.0590483732521534, 

	-0.0750099942088127, 

	0.0065162675455213, 

	0.0376322194933891, 

	-0.0132322926074266, 

	-0.1261785626411438, 

	-0.0115361297503114, 

	-0.0520353466272354, 

	-0.0047426722012460, 

	-0.1198115497827530, 

	-0.2278849035501480, 

	0.0184061247855425, 

	0.0139437392354012, 

	0.1411379873752594, 

	-0.0873658731579781, 

	-0.0055217877961695, 

	0.2113655954599380, 

	-0.0630183592438698, 

	-0.0195350702852011, 

	0.0284571237862110, 

	-0.0254509989172220, 

	0.0864204540848732, 

	0.1102971807122231, 


	-0.0023397461045533, 

	-0.1047495156526566, 

	0.0092452196404338, 

	0.1185812652111053, 

	-0.1359690576791763, 

	0.1055710166692734, 

	0.0751084312796593, 

	-0.0200033336877823, 

	0.0602545179426670, 

	-0.1366405189037323, 

	-0.0883520692586899, 

	-0.0234929136931896, 

	-0.0924061760306358, 

	0.0406143143773079, 

	-0.2253511548042297, 

	-0.0076733739115298, 

	-0.0333949588239193, 

	0.2070439308881760, 

	-0.2147842496633530, 

	0.1224269941449165, 

	0.0497302412986755, 

	-0.0815306156873703, 

	0.0428177192807198, 

	0.1985188126564026, 

	-0.0451712012290955, 

	0.1996913850307465, 

	-0.1636816859245300, 

	0.1946401447057724, 

	-0.1227278336882591, 

	0.1393926888704300, 

	0.0389643348753452, 

	-0.0703210532665253, 


	0.0932072028517723, 

	0.1040990799665451, 

	-0.1733450740575790, 

	-0.0463891252875328, 

	0.1852506697177887, 

	0.1161420345306396, 

	0.0917643308639526, 

	-0.0981076732277870, 

	0.0787528157234192, 

	0.0212947502732277, 

	0.0172310769557953, 

	-0.0353697054088116, 

	0.0780326798558235, 

	0.0099245673045516, 

	-0.0909000039100647, 

	0.0230326056480408, 

	0.1113664731383324, 

	-0.1295971870422363, 

	0.0209258832037449, 

	0.0184247437864542, 

	-0.0226050671190023, 

	0.0141389146447182, 

	0.1446726024150848, 

	-0.0326525270938873, 

	-0.0464800111949444, 

	-0.1040109321475029, 

	0.0293636303395033, 

	0.0605540685355663, 

	0.0054176608100533, 

	0.2925450503826141, 

	0.0354958400130272, 

	0.1008815765380859, 


	0.1523980796337128, 

	-0.0792638212442398, 

	0.1173935905098915, 

	0.1053382903337479, 

	0.1010321900248528, 

	0.0511296801269054, 

	0.1683720201253891, 

	0.1464416980743408, 

	0.0197881739586592, 

	0.0310577061027288, 

	-0.0238533355295658, 

	-0.0058092367835343, 

	-0.0993481650948524, 

	-0.0125462757423520, 

	0.0101467212662101, 

	-0.0160136725753546, 

	-0.0300372410565615, 

	0.1417316943407059, 

	0.0008992379298434, 

	0.0129109229892492, 

	-0.0107738832011819, 

	0.1796606928110123, 

	0.0501941256225109, 

	-0.0617569163441658, 

	0.0097341816872358, 

	0.1321464329957962, 

	0.0114062679931521, 

	-0.0860451161861420, 

	-0.0484309270977974, 

	-0.1822245270013809, 

	0.1012784764170647, 

	0.1389443427324295, 


	0.0632180050015450, 

	-0.0610887110233307, 

	-0.1152250245213509, 

	0.0560084395110607, 

	0.0250585563480854, 

	-0.1300184726715088, 

	-0.1049524098634720, 

	0.0774571150541306, 

	0.0206845272332430, 

	0.0191908143460751, 

	-0.0407071299850941, 

	-0.0004180376126897, 

	0.0404575578868389, 

	0.0220128931105137, 

	-0.2022648453712463, 

	0.0002206539647887, 

	-0.1239733472466469, 

	0.1019560694694519, 

	-0.0117229530587792, 

	-0.1513947695493698, 

	-0.0171306300908327, 

	0.0324786677956581, 

	-0.0425206385552883, 

	0.0456307306885719, 

	0.0043181870132685, 

	-0.0793747827410698, 

	0.0290242712944746, 

	-0.1271837055683136, 

	0.0642665848135948, 

	0.0458810403943062, 

	0.0223602093756199, 

	0.0104363998398185, 


	0.0175625197589397, 

	0.1483659297227859, 

	-0.1690188348293304, 

	-0.0537577532231808, 

	0.0133763067424297, 

	-0.1525090634822845, 

	0.1790053248405457, 

	0.0405834540724754, 

	0.1107470169663429, 

	-0.0349091663956642, 

	-0.0193229280412197, 

	-0.0306594409048557, 

	0.0305760614573956, 

	0.0259853620082140, 

	-0.1952424943447113, 

	-0.0000059799094743, 

	0.0030366904102266, 

	0.1424994021654129, 

	0.0223363470286131, 

	-0.1411778330802917, 

	-0.0042618154548109, 

	0.1287940740585327, 

	-0.0159553550183773, 

	0.1595079004764557, 

	-0.0133961308747530, 

	-0.0578187070786953, 

	-0.1087787970900536, 

	0.0169111508876085, 

	-0.0414782091975212, 

	0.0382782742381096, 

	-0.0011591222137213, 

	-0.0547139830887318, 


	-0.0448685847222805, 

	0.0963254347443581, 

	0.0130601488053799, 

	0.1172043308615685, 

	0.0343962311744690, 

	-0.1463504433631897, 

	0.1998804211616516, 

	0.0488076619803905, 

	-0.1000201925635338, 

	0.0862036570906639, 

	0.0603558868169785, 

	0.0158516503870487, 

	-0.0136002544313669, 

	-0.0402008742094040, 

	0.1900332123041153, 

	0.0036308518610895, 

	0.1932627558708191, 

	0.0843631103634834, 

	0.1565825641155243, 

	0.1200990974903107, 

	-0.0089935688301921, 

	-0.1901240497827530, 

	0.0136182736605406, 

	-0.1221214011311531, 

	0.0526757165789604, 

	-0.0116420546546578, 

	-0.0796030014753342, 

	0.0066160373389721, 

	0.1116651967167854, 

	-0.2868172824382782, 

	-0.0642673745751381, 

	0.0930794999003410, 


	-0.0830733478069305, 

	0.0124464416876435, 

	-0.0765457004308701, 

	0.0769867300987244, 

	0.0160786416381598, 

	0.0112415077164769, 

	0.0557264350354671, 

	0.1251263469457626, 

	0.0626305192708969, 

	-0.0745460018515587, 

	-0.0060938592068851, 

	-0.0220834966748953, 

	-0.0787084251642227, 

	-0.0023725531063974, 

	0.1233294829726219, 

	-0.0105280298739672, 

	-0.1543375402688980, 

	0.0178178027272224, 

	-0.2155904769897461, 

	0.0108888335525990, 

	0.0239124596118927, 

	-0.1415494531393051, 

	-0.0441079623997211, 

	-0.0557165704667568, 

	-0.0193403791636229, 

	-0.2125886678695679, 

	0.0157411377876997, 

	-0.0636296197772026, 

	-0.0479341298341751, 

	0.1658672541379929, 

	0.0180998165160418, 

	0.1491065919399261, 


	-0.0400722064077854, 

	-0.0472302250564098, 

	-0.0331705808639526, 

	0.0193031020462513, 

	-0.0124585209414363, 

	0.0562871359288692, 

	0.1258094906806946, 

	-0.0127617549151182, 

	-0.0085973776876926, 

	-0.0399628244340420, 

	0.0115696256980300, 

	0.0137500101700425, 

	0.0065888729877770, 

	-0.0056148315779865, 

	-0.0397092290222645, 

	-0.0201000533998013, 

	-0.1568389385938644, 

	0.0756007209420204, 

	0.0783113762736320, 

	0.0199565403163433, 

	-0.0058584953658283, 

	0.0635890588164330, 

	-0.0546570457518101, 

	-0.0890598148107529, 

	-0.0056092231534421, 

	-0.0218262113630772, 

	-0.0193194020539522, 

	-0.0539705902338028, 

	0.0128156933933496, 

	0.3054975867271423, 

	-0.0535464957356453, 

	-0.0086361458525062, 


	-0.0373154692351818, 

	-0.0769482776522636, 

	-0.0530862808227539, 

	-0.0198021885007620, 

	0.0365704670548439, 

	0.1003994718194008, 

	0.0327819064259529, 

	-0.1322050690650940, 

	0.0165280178189278, 

	-0.1041527241468430, 

	-0.0426181592047215, 

	0.0098755443468690, 

	0.0016148856375366, 

	0.0142343174666166, 

	0.1757636815309525, 

	-0.0215529166162014, 

	-0.0924410969018936, 

	0.0811583399772644, 

	-0.0080699017271399, 

	0.1354906260967255, 

	0.0020780984777957, 

	0.0999356284737587, 

	0.0168032608926296, 

	0.0398066118359566, 

	-0.0009428327903152, 

	-0.1899727582931519, 

	0.0749516189098358, 

	0.0005121993017383, 

	0.0642919167876244, 

	-0.1286327093839645, 

	0.0133761120960116, 

	0.0138037586584687, 


	-0.1959894001483917, 

	0.0953432321548462, 

	0.0968530774116516, 

	0.0026338696479797, 

	0.1657639890909195, 

	-0.0432570502161980, 

	-0.1978149712085724, 

	0.1716852933168411, 

	-0.0184112489223480, 

	-0.0468659438192844, 

	0.0049330000765622, 

	-0.0172124039381742, 

	0.0024633358698338, 

	0.0559091866016388, 

	-0.2174755781888962, 

	0.0004585051501635, 

	0.1786644756793976, 

	-0.2212350219488144, 

	0.0240264013409615, 

	0.0651814937591553, 

	-0.0111869759857655, 

	-0.1088164597749710, 

	-0.2017180174589157, 

	0.1440125405788422, 

	-0.0205097030848265, 

	-0.2934453189373016, 

	-0.0995959267020226, 

	-0.1963705122470856, 

	0.0790356993675232, 

	-0.0722337737679482, 

	0.1033940762281418, 

	0.0630398616194725, 


	0.1014205738902092, 

	-0.1284029632806778, 

	0.0206382088363171, 

	-0.0558345988392830, 

	-0.1343382745981216, 

	-0.0411104895174503, 

	0.0992539972066879, 

	0.1800884008407593, 

	0.1241140365600586, 

	-0.0489355139434338, 

	-0.2745263576507568, 

	-0.0284861251711845, 

	-0.0313243791460991, 

	0.0210255105048418, 

	-0.1325431913137436, 

	0.0031603120733052, 

	0.1584193259477615, 

	-0.0622874796390533, 

	-0.1478303223848343, 

	-0.1698902994394302, 

	0.0147359529510140, 

	-0.0344606935977936, 

	-0.0303199328482151, 

	0.0514681376516819, 

	-0.0090438164770603, 

	0.1597496569156647, 

	0.0335885807871819, 

	0.0662548765540123, 

	-0.0845479071140289, 

	0.1815091967582703, 

	0.0110656842589378, 

	-0.2056502997875214, 


	-0.1308275312185287, 

	0.1648541092872620, 

	-0.1311549842357635, 

	0.1145621016621590, 

	-0.1362996548414230, 

	0.2666244804859161, 

	0.0635715648531914, 

	0.0211581196635962, 

	0.1837350130081177, 

	-0.1346479207277298, 

	0.0181742794811726, 

	-0.0005917699891143, 

	-0.1104549169540405, 

	0.0053194803185761, 

	-0.0956032648682594, 

	-0.0304198134690523, 

	-0.1834736168384552, 

	-0.0414769276976585, 

	-0.1733855158090591, 

	0.1180566027760506, 

	0.0141798639670014, 

	0.1806390732526779, 

	0.1200938522815704, 

	-0.0703610628843307, 

	-0.0005166208138689, 

	0.2838405966758728, 

	0.0935108661651611, 

	-0.0943079292774200, 

	-0.1394767314195633, 

	-0.1954951137304306, 

	0.0106527991592884, 

	-0.0711078345775604, 


};
