float fc_weight_1[512] = {
	-0.0000117088957268, 	-0.0000017676277366, 	0.0000239753353526, 	0.0027383659034967, 	0.0000115165357784, 	0.0000084217799667, 	-0.0000583240362175, 	0.0094890529289842, 	-0.0000186506549653, 	-0.0000313226628350, 	0.0003463329339866, 	0.0005678585148416, 	0.0000046363084039, 	-0.0082488525658846, 	-0.0033966703340411, 	-0.0000152863831318, 	0.0005385414115153, 	-0.0000109905631689, 	0.0000012373378695, 	0.0039618853479624, 	-0.0091947335749865, 	-0.0019881860353053, 	-0.0000134345773404, 	-0.0002199667069362, 	-0.0000051416313909, 	-0.0000535466169822, 	0.0001396190054948, 	0.0000376062489522, 	-0.0074654677882791, 	-0.0000164605917234, 	-0.0066590607166290, 	-0.0014298893511295, 	-0.0004928923444822, 	0.0000528454656887, 	0.0000401740617235, 	0.0060759270563722, 	0.0000509155906911, 	-0.0002290786360390, 	-0.0031801066361368, 	0.0097365491092205, 	-0.0000374285191356, 	0.0034917169250548, 	-0.0002106088504661, 	-0.0018267948180437, 	-0.0000147132004713, 	0.0004787594662048, 	0.0008895591017790, 	0.0070929643698037, 	-0.0008386314730160, 	-0.0000248831038334, 	0.0000090075373009, 	0.0000002799924630, 	-0.0049443398602307, 	-0.0000573456163693, 	-0.0000547921117686, 	0.0000182535077329, 	0.0000704960184521, 	-0.0000458893118775, 	0.0022348603233695, 	-0.0092350067570806, 	-0.0000476587301819, 	0.0000605223249295, 	-0.0000048099627747, 	0.0085667492821813, 
	-0.0009831257630140, 	-0.0003765611909330, 	-0.0000461804374936, 	-0.0005339163471945, 	-0.0000331610863213, 	-0.0003904241893906, 	0.0000440822477685, 	-0.0122213764116168, 	0.0003912694519386, 	-0.0003274678601883, 	0.0002532619109843, 	-0.0033760692458600, 	0.0007234468939714, 	0.0004852227866650, 	-0.0009927395731211, 	-0.0005352648440748, 	0.0001540977827972, 	-0.0024957999121398, 	0.0000328358109982, 	0.0015036509139463, 	-0.0002146382903447, 	-0.0104459915310144, 	0.0003449027426541, 	-0.0000383276492357, 	0.0002477650996298, 	-0.0007169629679993, 	0.0001539318182040, 	0.0003564550133888, 	-0.0002792543964460, 	0.0000291052674584, 	0.0001311596715823, 	0.0032808738760650, 	-0.0022805714979768, 	0.0016090131830424, 	-0.0005802961532027, 	0.0000084158664322, 	0.0003928726946469, 	-0.0001032530271914, 	0.0002470564795658, 	-0.0001664304290898, 	0.0006977032171562, 	0.0000295238060062, 	0.0004013983998448, 	-0.0022200515959412, 	0.0002139926364180, 	0.0003581347700674, 	0.0088010309264064, 	0.0010076982434839, 	-0.0003814172523562, 	-0.0000452905042039, 	-0.0000030287851587, 	-0.0002891036565416, 	0.0000640030702925, 	0.0004526661068667, 	-0.0127315055578947, 	-0.0000304312416120, 	-0.0043436912819743, 	0.0055861868895590, 	0.0007327332859859, 	-0.0001211561684613, 	0.0006944492342882, 	-0.0028773939702660, 	-0.0003630236315075, 	0.0002690439869184, 
	0.0098629472777247, 	-0.0115768760442734, 	-0.0003565882798284, 	0.0058398670516908, 	-0.0000338041863870, 	-0.0071512148715556, 	-0.0044497554190457, 	-0.0003628766571637, 	-0.0042293583974242, 	-0.0084438202902675, 	-0.0000852627927088, 	-0.0001271815999644, 	0.0005646394565701, 	0.0122277224436402, 	0.0001259573618881, 	-0.0007566811982542, 	0.0005086328019388, 	0.0041776574216783, 	-0.0005101474234834, 	-0.0006372597999871, 	0.0028042399790138, 	-0.0000622947773081, 	-0.0013030864065513, 	0.0000905288106878, 	0.0004054421733599, 	0.0007345132180490, 	0.0000500722271681, 	0.0009368267492391, 	-0.0003596684837248, 	-0.0002231927064713, 	0.0010788234649226, 	-0.0000955112482188, 	-0.0002509103505872, 	0.0004165267164353, 	0.0001865259546321, 	0.0018847987521440, 	0.0006851979997009, 	0.0053523299284279, 	-0.0002571758523118, 	-0.0004645305452868, 	0.0098969358950853, 	0.0000665692859911, 	0.0001522728416603, 	-0.0000941541802604, 	-0.0005592759698629, 	0.0009485148475505, 	-0.0051657743752003, 	-0.0009418869740330, 	-0.0072154020890594, 	-0.0003244694671594, 	-0.0103411814197898, 	0.0001387911761412, 	-0.0004154586640652, 	-0.0001715375256026, 	0.0068222754634917, 	-0.0003623150405474, 	-0.0003617335169110, 	0.0009761226247065, 	-0.0004506247933023, 	0.0002311269345228, 	-0.0000993754147203, 	0.0040013198740780, 	-0.0004483396478463, 	-0.0038799962494522, 
	-0.0073479008860886, 	0.0031763929873705, 	0.0069067184813321, 	0.0003357924870215, 	0.0002099459525198, 	0.0006244201213121, 	0.0000912321193027, 	-0.0039290213026106, 	0.0001750288793119, 	-0.0075483904220164, 	0.0000424860663770, 	0.0077691134065390, 	0.0005779694183730, 	0.0000603573171247, 	-0.0000160310046340, 	0.0005142790032551, 	0.0003012674860656, 	-0.0000261013610725, 	0.0000023198604140, 	0.0001762447354849, 	0.0048193843103945, 	0.0000249555087066, 	0.0001508037094027, 	0.0001847051025834, 	0.0019859343301505, 	0.0001467451074859, 	-0.0125877717509866, 	0.0004833461716771, 	0.0050677242688835, 	-0.0037496963050216, 	0.0023486192803830, 	0.0001552240137244, 	-0.0038877103943378, 	0.0028153276070952, 	0.0002731927961577, 	-0.0000345286862284, 	0.0004533603205346, 	0.0004278167034499, 	-0.0000439011346316, 	-0.0007011760608293, 	-0.0127568542957306, 	0.0023184241726995, 	0.0003360271221027, 	-0.0001259498822037, 	0.0003510395181365, 	-0.0011986464960501, 	-0.0031918380409479, 	0.0000145375752254, 	0.0002787619596347, 	0.0002362017403357, 	-0.0114365452900529, 	0.0070452955551445, 	0.0000359391706297, 	-0.0006390089401975, 	-0.0000629850255791, 	-0.0083977980539203, 	0.0000606135690759, 	0.0001015134912450, 	-0.0000006511299375, 	-0.0001775846176315, 	-0.0002069345500786, 	0.0006235407781787, 	0.0013933004811406, 	-0.0128713017329574, 
	0.0018921445589513, 	0.0004706170875579, 	0.0021034532692283, 	0.0015668261330575, 	0.0002085094747599, 	-0.0000977567178779, 	0.0000929876187001, 	-0.0028182880487293, 	0.0023371716961265, 	0.0013416325673461, 	0.0029093583580106, 	0.0006999374018051, 	-0.0010763133177534, 	0.0030640277545899, 	0.0002250365505461, 	0.0018279544310644, 	0.0043403422459960, 	0.0003908073995262, 	-0.0001473050069762, 	0.0006961053004488, 	0.0028126398101449, 	0.0008039147942327, 	0.0010001671034843, 	0.0010435805888847, 	0.0011733305873349, 	0.0022775058168918, 	0.0103267366066575, 	0.0162823647260666, 	0.0018671957077459, 	0.0005191809614189, 	0.0006000186549500, 	0.0083865905180573, 	0.0007801270694472, 	0.0005334594752640, 	0.0152060119435191, 	0.0001769314112607, 	0.0007590881432407, 	0.0004580876557156, 	0.0001842424389906, 	0.0007639550021850, 	0.0119843045249581, 	0.0022064431104809, 	0.0026438960339874, 	-0.0001400462497259, 	0.0000425750149589, 	0.0006956596625969, 	0.0064011258073151, 	-0.0065988036803901, 	0.0027213068678975, 	0.0012815530644730, 	0.0106687610968947, 	0.0006313120829873, 	0.0007153666228987, 	0.0065786363556981, 	0.0006525096832775, 	0.0010693566873670, 	0.0006272254395299, 	-0.0034789503552020, 	0.0048900232650340, 	0.0015299599617720, 	-0.0078764948993921, 	-0.0052501563914120, 	0.0099513148888946, 	-0.0027408988680691, 
	-0.0002834348124452, 	0.0000604296656093, 	-0.0000104926293716, 	-0.0011622483143583, 	-0.0000765345685068, 	0.0000790240592323, 	-0.0000500035930600, 	0.0000318526217598, 	-0.0104144588112831, 	-0.0010733099188656, 	-0.0003337788220961, 	-0.0001609938335605, 	0.0009952761465684, 	-0.0001036995672621, 	-0.0084164915606380, 	0.0061491266824305, 	-0.0002041123516392, 	-0.0076371235772967, 	-0.0000676367781125, 	0.0063580963760614, 	-0.0107616055756807, 	0.0013384689809754, 	0.0045802392996848, 	-0.0000902982719708, 	-0.0001636494562263, 	-0.0000763050775276, 	-0.0000224495688599, 	-0.0002497264358681, 	0.0000565276423004, 	-0.0000991641500150, 	-0.0056938673369586, 	-0.0000848959462019, 	0.0006083581829444, 	-0.0001206785600516, 	-0.0001481024519308, 	-0.0000747903613956, 	-0.0001182211708510, 	0.0000677958596498, 	0.0000041796565711, 	-0.0006717494688928, 	-0.0002585947513580, 	0.0038975642528385, 	-0.0006816086824983, 	-0.0059914388693869, 	-0.0000628074994893, 	-0.0057381517253816, 	-0.0002083961153403, 	-0.0002155041584047, 	0.0032266166526824, 	-0.0000836405015434, 	-0.0014432488242164, 	-0.0089139128103852, 	0.0000178592181328, 	-0.0001636123488424, 	-0.0027831762563437, 	0.0024400760885328, 	0.0000872248274391, 	-0.0003090809623245, 	0.0084859412163496, 	0.0001858875039034, 	-0.0000723667835700, 	-0.0045477002859116, 	0.0002532009384595, 	-0.0001618263340788, 
	-0.0003292084147688, 	0.0000011034110230, 	-0.0000894945114851, 	0.0000179590551852, 	-0.0000343872816302, 	-0.0002926368906628, 	0.0000946153231780, 	-0.0001375515130349, 	-0.0002763458469417, 	-0.0001112905665650, 	-0.0022699276451021, 	-0.0002114001399605, 	-0.0003162069770042, 	-0.0002577881386969, 	-0.0000210437883652, 	0.0000051877509577, 	-0.0003181670908816, 	-0.0000005348450145, 	-0.0002481642295606, 	-0.0065724928863347, 	-0.0001834399736254, 	0.0000453683751402, 	-0.0012134304270148, 	0.0000388400803786, 	-0.0118435267359018, 	-0.0001733204408083, 	-0.0001876315363916, 	-0.0005520913982764, 	0.0094698769971728, 	-0.0000973532514763, 	0.0047812820412219, 	0.0000145151407196, 	-0.0000749535756768, 	-0.0002991658984683, 	-0.0002957661927212, 	-0.0000237246204051, 	-0.0111803887411952, 	0.0000221484915528, 	-0.0018273679306731, 	0.0003256155468989, 	-0.0002677217999008, 	-0.0002275479055243, 	-0.0001523532991996, 	0.0055455933324993, 	0.0000279202668025, 	0.0000739618044463, 	-0.0004004205111414, 	-0.0001327261124970, 	0.0033522387966514, 	0.0079787941649556, 	-0.0000286880167550, 	0.0000808923578006, 	0.0000246280469582, 	-0.0002305224770680, 	0.0082797799259424, 	0.0001219533805852, 	-0.0000412888657593, 	-0.0002355696051382, 	-0.0000568725445191, 	-0.0000265201342700, 	-0.0000171719948412, 	-0.0052553932182491, 	0.0074336230754852, 	0.0001403166388627, 
	-0.0004002074419986, 	0.0000504865638504, 	-0.0002162784949178, 	-0.0001005016820272, 	-0.0002744595403783, 	-0.0001659976842348, 	0.0000567318274989, 	-0.0001167884693132, 	-0.0005059739341959, 	-0.0000231436442846, 	-0.0001411683479091, 	-0.0001150074167526, 	-0.0005705204675905, 	-0.0002536318206694, 	-0.0020578969269991, 	-0.0000089818649940, 	0.0036856739316136, 	-0.0000928171575652, 	-0.0000987545427051, 	-0.0002345894317841, 	-0.0003761182306334, 	-0.0000410221073253, 	0.0000987796665868, 	0.0000118414300232, 	-0.0104885604232550, 	-0.0005509053007700, 	-0.0005358044290915, 	0.0025207519065589, 	-0.0004053058801219, 	0.0066295769065619, 	-0.0001764356566127, 	-0.0064248437993228, 	0.0000430979853263, 	-0.0002535196254030, 	-0.0004265989991836, 	-0.0000013803427237, 	-0.0002755725290626, 	0.0000569315598113, 	0.0047158356755972, 	-0.0009085385245271, 	-0.0004305953625590, 	-0.0002317537437193, 	-0.0004887487157248, 	0.0001296051195823, 	0.0037031024694443, 	0.0001073293169611, 	-0.0012531616957858, 	-0.0002141997683793, 	0.0003218380152248, 	0.0000269150477834, 	-0.0000112153938971, 	0.0001055581160472, 	-0.0000651551818009, 	-0.0002367496053921, 	0.0029376689344645, 	-0.0000251927340287, 	-0.0001394571881974, 	-0.0005465300055221, 	0.0001857477036538, 	-0.0001291121443501, 	0.0000162687756529, 	-0.0002745536621660, 	-0.0000044236780923, 	-0.0000178254103957, 
};
float fc_weight_2[512] = {
	0.0000407233819715, 	0.0003412360383663, 	0.0075504807755351, 	0.0000568739233131, 	0.0028304357547313, 	-0.0000072701809586, 	0.0001680041750660, 	0.0000155963043653, 
	-0.0000110911805677, 	0.0001388032396790, 	-0.0000244871880568, 	0.0001586034632055, 	0.0013787902425975, 	0.0035414593294263, 	-0.0000688868240104, 	0.0003211580333300, 
	0.0000339818252542, 	0.0002314266021131, 	0.0003096703148913, 	0.0027599716559052, 	0.0022741595748812, 	0.0000261313871306, 	-0.0001074240790331, 	0.0000414334499510, 
	-0.0059291040524840, 	0.0003570715489332, 	0.0000161382249644, 	0.0034364957828075, 	0.0029075380880386, 	0.0083817550912499, 	-0.0066470801830292, 	-0.0000647148481221, 
	-0.0000107829919216, 	-0.0107478229328990, 	-0.0000067090186349, 	0.0004806156794075, 	-0.0018565814243630, 	0.0000211626138480, 	0.0002085442974931, 	0.0000380669589504, 
	0.0000045961455726, 	0.0007027086103335, 	0.0003844686143566, 	0.0002658940793481, 	-0.0007714624516666, 	0.0000041897028495, 	0.0005395875778049, 	-0.0000404818747484, 
	-0.0038205601740628, 	0.0036092160735279, 	0.0000974939757725, 	-0.0000310953437292, 	0.0002876658982132, 	-0.0105694653466344, 	-0.0000177073598024, 	0.0000346473716490, 
	-0.0000085082729129, 	0.0001988949952647, 	0.0001232600043295, 	0.0000312622578349, 	0.0024012471549213, 	-0.0020309435203671, 	-0.0088284024968743, 	0.0000454399778391, 
	-0.0007286306354217, 	0.0001049924030667, 	-0.0000854863974382, 	0.0002464867429808, 	0.0010504521196708, 	0.0000245181508944, 	0.0000481581409986, 	0.0000169906270457, 
	-0.0000110288128781, 	0.0000079513811215, 	-0.0002136458497262, 	0.0002086553577101, 	0.0021319766528904, 	-0.0000290450770990, 	-0.0001917565678013, 	-0.0000068683557402, 
	-0.0025711180642247, 	0.0001750041410560, 	-0.0001661610440351, 	-0.0033400929532945, 	0.0003513148694765, 	-0.0000001779107350, 	-0.0000110996579679, 	0.0125583959743381, 
	-0.0032840205822140, 	-0.0101974960416555, 	0.0115375081077218, 	0.0000085258407125, 	0.0011169314384460, 	0.0000008482673479, 	0.0000062533804339, 	0.0002985266037285, 
	0.0068647786974907, 	0.0013248225441203, 	-0.0003087851218879, 	0.0018661312060431, 	0.0005684114294127, 	0.0109299076721072, 	0.0004307303170208, 	-0.0043412283994257, 
	0.0000053348012443, 	0.0002648256486282, 	0.0004812504921574, 	-0.0017423130339012, 	0.0023971935734153, 	-0.0000025259164431, 	0.0000451625055575, 	0.0000345136213582, 
	0.0000002204852905, 	0.0000320819453918, 	-0.0011796389007941, 	0.0000024476644285, 	0.0004835661675315, 	0.0011025296989828, 	-0.0004205045115668, 	0.0000029937980344, 
	-0.0035018217749894, 	0.0001459325576434, 	0.0000341801824106, 	0.0001262315199710, 	0.0015078085707501, 	0.0001118036598200, 	-0.0000949425229919, 	-0.0076426840387285, 
	-0.0003717731160577, 	0.0002311161806574, 	0.0019897629972547, 	0.0000394611597585, 	0.0006649912102148, 	-0.0000798148248577, 	-0.0019615530036390, 	-0.0000878162754816, 
	0.0000000514264968, 	-0.0002715876908042, 	0.0004806858778466, 	-0.0000076764745245, 	0.0014784223167226, 	0.0000059126441556, 	-0.0000111583585749, 	0.0000160096224135, 
	-0.0006958963931538, 	-0.0090263439342380, 	0.0007544077234343, 	0.0002183782053180, 	0.0027375954668969, 	0.0000661321246298, 	-0.0078368531540036, 	-0.0065708002075553, 
	0.0000556511840841, 	0.0003687896532938, 	0.0000139176081575, 	0.0002443988923915, 	0.0125965680927038, 	-0.0036323522217572, 	0.0000256818384514, 	-0.0000596709105594, 
	-0.0000103260672404, 	0.0005052987253293, 	-0.0013659556861967, 	-0.0000200613176276, 	-0.0068330164067447, 	0.0126274544745684, 	-0.0000167718862940, 	0.0002833319595084, 
	-0.0016816344577819, 	0.0007570876041427, 	0.0001213720825035, 	0.0000096020476121, 	0.0002205631899415, 	-0.0099594499915838, 	0.0008723613573238, 	0.0001209171459777, 
	0.0001001676282613, 	0.0074687590822577, 	0.0008595759863965, 	0.0021688800770789, 	0.0042130663059652, 	0.0002022729313467, 	0.0033181330654770, 	-0.0001133315527113, 
	0.0000351563576260, 	0.0012381619308144, 	0.0001344913907815, 	0.0006173208821565, 	0.0034189415164292, 	-0.0066547021269798, 	0.0084779364988208, 	0.0000051214387895, 
	-0.0000224514715228, 	0.0009008081979118, 	0.0005864155245945, 	-0.0000611687282799, 	-0.0051466054283082, 	-0.0000411354740208, 	0.0042681582272053, 	0.0038357954472303, 
	0.0003605862148106, 	0.0007493599550799, 	0.0013031285488978, 	0.0086324280127883, 	0.0111100263893604, 	0.0000086967675088, 	0.0001417661987944, 	0.0000282893106487, 
	0.0019404247868806, 	-0.0032963207922876, 	0.0004216723609716, 	-0.0000013569491557, 	0.0074294917285442, 	-0.0000266850311164, 	-0.0000230964760704, 	-0.0095723448321223, 
	0.0000572659773752, 	0.0000109580496428, 	0.0001127288705902, 	0.0015411289641634, 	0.0028818307910115, 	0.0000914139236556, 	-0.0056811138056219, 	-0.0008678165613674, 
	0.0003681648231577, 	0.0005846973508596, 	-0.0081907771527767, 	0.0000342763632943, 	-0.0069932653568685, 	0.0000128191477415, 	0.0002201813476859, 	-0.0009320931276307, 
	-0.0006555354921147, 	0.0000020567742922, 	0.0000904156986508, 	-0.0078944629058242, 	0.0025909908581525, 	-0.0000212921586353, 	0.0000202365663426, 	0.0000316810619552, 
	0.0073167770169675, 	0.0003134289872833, 	0.0089503386989236, 	0.0004011811688542, 	0.0028825642075390, 	-0.0054075885564089, 	-0.0001375632564304, 	0.0000157604026754, 
	-0.0000292726126645, 	0.0001429613621440, 	0.0001983365364140, 	-0.0068157245405018, 	0.0016379839507863, 	0.0024491467047483, 	-0.0076538827270269, 	-0.0061474186368287, 
	-0.0016974373720586, 	0.0000808131662779, 	0.0038460309151560, 	-0.0004089257854503, 	0.0011690956307575, 	0.0000362492100976, 	-0.0000683040780132, 	0.0006678163190372, 
	-0.0113716674968600, 	0.0001891162537504, 	0.0001863049546955, 	-0.0001158810046036, 	0.0018934922991320, 	-0.0028425711207092, 	-0.0000120731410789, 	0.0000220251640712, 
	-0.0000364272491424, 	-0.0013829229865223, 	0.0133289722725749, 	-0.0054702833294868, 	0.0034205352421850, 	-0.0000377771320927, 	0.0002448472660035, 	-0.0001011258282233, 
	0.0000102647909443, 	-0.0000631694056210, 	0.0002664114872459, 	0.0003182568179909, 	-0.0041643762961030, 	0.0000199318856176, 	0.0000705125712557, 	0.0001351917599095, 
	0.0000945768333622, 	0.0002495635417290, 	0.0003420538560022, 	0.0119561748579144, 	0.0084239067509770, 	-0.0000069224752224, 	0.0001578801457072, 	0.0001103343893192, 
	0.0121513670310378, 	-0.0000568643336010, 	-0.0030113209504634, 	0.0000052717341532, 	0.0011042346013710, 	0.0125720538198948, 	0.0002080445701722, 	0.0001484245003667, 
	0.0000017127659930, 	0.0012176568852738, 	-0.0004943890380673, 	-0.0000590014169575, 	-0.0052181528881192, 	-0.0009087614598684, 	-0.0000280218082480, 	-0.0005788121488877, 
	0.0040661380626261, 	0.0001018887996906, 	0.0000256039729720, 	0.0001002475764835, 	0.0010419734753668, 	0.0000062801127569, 	-0.0001428120303899, 	0.0000099745475381, 
	-0.0000201441216632, 	-0.0062819588929415, 	-0.0029487570282072, 	-0.0058457781560719, 	0.0029933759942651, 	0.0000005413714916, 	0.0032311680261046, 	0.0000957718511927, 
	0.0000192533680092, 	0.0003584175137803, 	-0.0043049729429185, 	0.0004090382717550, 	0.0030824532732368, 	-0.0000909656373551, 	0.0002487556193955, 	0.0000107133637357, 
	0.0000613250376773, 	-0.0096655795350671, 	-0.0003722269029822, 	0.0054666283540428, 	0.0004044854722451, 	-0.0035797064192593, 	-0.0002445436548442, 	0.0000057894321799, 
	0.0000244177826971, 	0.0001883156946860, 	0.0001727251656121, 	0.0001185983128380, 	0.0009218101622537, 	-0.0027904647868127, 	0.0002572386583779, 	-0.0000095279210655, 
	-0.0016330612124875, 	0.0026307192165405, 	0.0000568960422243, 	0.0000080967038230, 	0.0006420971476473, 	-0.0000004890702598, 	0.0111584058031440, 	0.0014455687487498, 
	-0.0000315387478622, 	0.0004392859700602, 	0.0001849473774200, 	0.0000159229039127, 	0.0014824362006038, 	-0.0000015546244185, 	0.0002521424612496, 	0.0001056969413185, 
	0.0001383595954394, 	0.0004479831550270, 	0.0006670096772723, 	0.0001483610103605, 	0.0054595069959760, 	-0.0000545629372937, 	0.0001918891211972, 	0.0006011165096425, 
	0.0000233659411606, 	0.0042144958861172, 	0.0003656870394479, 	-0.0109662553295493, 	0.0050795832648873, 	-0.0093028061091900, 	0.0000295136051136, 	-0.0109510337933898, 
	0.0000065593321779, 	0.0009500070009381, 	-0.0000082595015556, 	0.0005871700122952, 	0.0035382281057537, 	-0.0002858731604647, 	0.0051002604886889, 	0.0081806704401970, 
	0.0000429444407928, 	0.0046421941369772, 	-0.0061583463102579, 	-0.0050427853129804, 	0.0083977608010173, 	0.0002934903022833, 	0.0003749332972802, 	-0.0000264868758677, 
	-0.0000091758620329, 	-0.0040656719356775, 	0.0000327681882482, 	0.0015857437392697, 	0.0003877142444253, 	-0.0000031418767321, 	-0.0013260054402053, 	0.0000048403499022, 
	-0.0000243618887907, 	-0.0029213870875537, 	0.0000323574859067, 	0.0000752210398787, 	0.0016467998502776, 	-0.0000160526687978, 	0.0044054444879293, 	0.0000231542308029, 
	0.0000582069442316, 	0.0000635981778032, 	0.0015889204805717, 	0.0000672971800668, 	0.0031804102472961, 	-0.0010399869643152, 	0.0044691744260490, 	-0.0040856921114028, 
	0.0000232986149058, 	0.0001258637203136, 	0.0034877024590969, 	0.0119193270802498, 	0.0046593691222370, 	0.0000061904593167, 	-0.0035667500924319, 	0.0000859151623445, 
	-0.0000040673708099, 	-0.0001864436635515, 	-0.0052198288030922, 	0.0068816742859781, 	0.0010384994093329, 	0.0000059894614424, 	0.0000397229960072, 	0.0000239942401095, 
	0.0000130709759105, 	-0.0068956702016294, 	0.0001720945583656, 	0.0010912489378825, 	0.0011077814269811, 	0.0000058209252529, 	-0.0001138750740211, 	0.0054966080933809, 
	0.0008899948443286, 	-0.0008439219091088, 	-0.0000560628977837, 	-0.0050367158837616, 	0.0009013114031404, 	-0.0051351482979953, 	0.0000646172120469, 	-0.0115319108590484, 
	-0.0040513714775443, 	0.0061241541989148, 	0.0107750184834003, 	-0.0000100001852843, 	0.0027038920670748, 	-0.0110117476433516, 	0.0000763669522712, 	0.0000687135907356, 
	0.0000552138953935, 	0.0041590612381697, 	0.0001994788181037, 	0.0000384028353437, 	0.0008151262300089, 	0.0000746340883779, 	0.0000415994581999, 	-0.0033224152866751, 
	-0.0000370666493836, 	-0.0052215363830328, 	0.0003336338850204, 	0.0000400539138354, 	0.0019912344869226, 	0.0038996844086796, 	0.0000215306699829, 	0.0000329123540723, 
	0.0001133072510129, 	-0.0002328747796128, 	0.0000335507866112, 	0.0000032289797218, 	0.0006404285668395, 	0.0000032338425626, 	0.0000038567977754, 	0.0080464640632272, 
	0.0000225672920351, 	0.0134796062484384, 	0.0001332671236014, 	-0.0001766460918589, 	0.0027960897423327, 	0.0005872339243069, 	-0.0063430941663682, 	0.0000095231771411, 
	-0.0000108104495666, 	0.0030166762880981, 	0.0030931979417801, 	0.0001719327992760, 	0.0021175297442824, 	0.0000266209208348, 	-0.0083765434101224, 	-0.0000066020888880, 
	0.0001510286674602, 	0.0000664930921630, 	-0.0002433586196275, 	0.0003068860387430, 	0.0046000229194760, 	-0.0000274760550383, 	0.0000785820957390, 	0.0014352062717080, 
};
float fc_weight_3[73728] = {
	-0.0195527691394091, 	0.0067363418638706, 	0.0159445144236088, 	-0.0067955181002617, 	-0.0215940810739994, 	-0.0164079163223505, 	-0.0099405264481902, 	-0.0234645437449217, 	-0.0233676061034203, 	0.0028013454284519, 	0.0211866404861212, 	0.0046783601865172, 	-0.0037620218936354, 	0.0132030360400677, 	-0.0000680133016431, 	0.0023260838352144, 	-0.0209119841456413, 	-0.0009388536564074, 	-0.0184281226247549, 	0.0014139000559226, 	0.0358442328870296, 	-0.0015464512398466, 	0.0032043482642621, 	0.0046980688348413, 	0.0020512382034212, 	0.0179098956286907, 	0.0238210521638393, 	0.0254381690174341, 	0.0087416889145970, 	0.0095678353682160, 	0.0278379116207361, 	0.0034916892182082, 	-0.0028862245380878, 	0.0028588580898941, 	-0.0203611999750137, 	0.0229524746537209, 	-0.0053050117567182, 	0.0227261316031218, 	0.0165325868874788, 	0.0182108674198389, 	-0.0150001971051097, 	0.0231097452342510, 	-0.0122501542791724, 	-0.0293844770640135, 	-0.0223345998674631, 	-0.0343904756009579, 	-0.0242993719875813, 	0.0100853145122528, 	-0.0215091165155172, 	0.0026391271967441, 	-0.0309820622205734, 	0.0035000217612833, 	-0.0236270092427731, 	0.0134295262396336, 	-0.0048496057279408, 	-0.0053424360230565, 	0.0061267688870430, 	-0.0092067401856184, 	-0.0041653048247099, 	-0.0018063604366034, 	-0.0101742437109351, 	0.0062724249437451, 	0.0146129382774234, 	-0.0016940380446613, 	0.0064299954101443, 	0.0261236261576414, 	0.0055146650411189, 	0.0079263905063272, 	0.0157137140631676, 	-0.0123254135251045, 	0.0165416877716780, 	0.0095530645921826, 	0.0169375091791153, 	0.0139017421752214, 	-0.0192891564220190, 	0.0136623242869973, 	-0.0037342491559684, 	-0.0103592555969954, 	0.0040039913728833, 	-0.0013391374377534, 	-0.0059883180074394, 	-0.0014840299263597, 	0.0157445780932903, 	0.0000902105894056, 	0.0078282644972205, 	0.0183826126158237, 	-0.0108001017943025, 	-0.0211223363876343, 	-0.0178639739751816, 	-0.0333021432161331, 	0.0043365252204239, 	-0.0083843292668462, 	0.0054261144250631, 	-0.0042916615493596, 	-0.0065154423937201, 	0.0050251274369657, 	-0.0006571326521225, 	-0.0041081849485636, 	-0.0029716149438173, 	-0.0037151260767132, 	0.0004567571158987, 	-0.0022047059610486, 	-0.0035908557474613, 	-0.0068052327260375, 	-0.0043540745973587, 	0.0031975514721125, 	0.0077193202450871, 	-0.0074257906526327, 	0.0187968332320452, 	-0.0318012349307537, 	-0.0290530286729336, 	-0.0023936186917126, 	-0.0125348037108779, 	0.0077723586000502, 	0.0164921320974827, 	-0.0103410482406616, 	0.0188338086009026, 	-0.0114361317828298, 	0.0203777682036161, 	0.0071476781740785, 	0.0040052095428109, 	-0.0148735623806715, 	0.0112642291933298, 	-0.0076445890590549, 	-0.0167445242404938, 	0.0097048962488770, 	-0.0002245651994599, 	0.0030215089209378, 	-0.0030432702042162, 	0.0015260239597410, 	0.0024826251901686, 	-0.0013897629687563, 	0.0015497695421800, 	0.0001243047881871, 	-0.0086039425805211, 	0.0000783546856837, 	0.0117227258160710, 	0.0034315180964768, 	0.0112865231931210, 	0.0142795238643885, 	0.0025734456721693, 	-0.0120152439922094, 	-0.0148855866864324, 	0.0016101702349260, 	-0.0049415016546845, 	0.0122017161920667, 	-0.0019130661385134, 	-0.0207105427980423, 	-0.0329768881201744, 	-0.0217200126498938, 	-0.0169533584266901, 	0.0000439519353677, 	-0.0158840976655483, 	-0.0029591952916235, 	-0.0040921880863607, 	-0.0074154562316835, 	-0.0040694535709918, 	-0.0053367209620774, 	-0.0086972517892718, 	0.0132295200601220, 	-0.0064694285392761, 	-0.0155304428189993, 	0.0028159574139863, 	-0.0278720371425152, 	0.0212108381092548, 	0.0135691817849874, 	-0.0216404777020216, 	0.0191344730556011, 	0.0040386337786913, 	-0.0204952303320169, 	0.0223345793783665, 	0.0049668750725687, 	0.0123600848019123, 	0.0158969201147556, 	-0.0014415007317439, 	0.0095427045598626, 	0.0141634680330753, 	-0.0107172168791294, 	-0.0387541279196739, 	0.0052881063893437, 	-0.0170194692909718, 	0.0183046776801348, 	0.0304361674934626, 	0.0131196184083819, 	0.0155521659180522, 	-0.0031610019505024, 	-0.0581652335822582, 	-0.0233488958328962, 	-0.0471016429364681, 	0.0142918033525348, 	0.0061901346780360, 	-0.0127368140965700, 	0.0028431450482458, 	-0.0112700061872602, 	-0.0188586711883545, 	0.0121889272704720, 	-0.0014350987039506, 	0.0124158626422286, 	0.0195786021649837, 	0.0074128592386842, 	0.0286521725356579, 	0.0139202466234565, 	-0.0006313341436908, 	0.0026735949795693, 	0.0127738760784268, 	0.0018050149083138, 	-0.0015247067203745, 	-0.0204626787453890, 	-0.0101713072508574, 	-0.0481960512697697, 	0.0058081280440092, 	-0.0110422484576702, 	-0.0076834633946419, 	-0.0102877132594585, 	-0.0025495584122837, 	-0.0186634324491024, 	0.0065105268731713, 	0.0001282574521611, 	-0.0034206106793135, 	-0.0289841257035732, 	-0.0222099497914314, 	-0.0246260184794664, 	-0.0382307991385460, 	-0.0292235463857651, 	-0.0219514742493629, 	0.0105216419324279, 	0.0210258029401302, 	0.0124030401930213, 	-0.0114256106317043, 	0.0026836765464395, 	-0.0163323562592268, 	-0.0041714911349118, 	-0.0124312816187739, 	-0.0170511752367020, 	-0.0129388347268105, 	0.0019305791938677, 	0.0214480403810740, 	-0.0036118368152529, 	-0.0073916283436120, 	-0.0145022468641400, 	0.0026853354647756, 	0.0091655058786273, 	0.0139165408909321, 	0.0038755780551583, 	-0.0003680348454509, 	0.0205176901072264, 	-0.0130446311086416, 	-0.0058406637981534, 	-0.0168304834514856, 	-0.0213521085679531, 	-0.0048297140747309, 	0.0149841783568263, 	-0.0301459133625031, 	0.0062733949162066, 	-0.0164197869598866, 	0.0079432297497988, 	0.0006097454461269, 	-0.0101871257647872, 	-0.0135490223765373, 	0.0196594111621380, 	0.0131364781409502, 	0.0132054826244712, 	0.0155457733199000, 	-0.0036171558313072, 	-0.0033178217709064, 	-0.0307558700442314, 	-0.0128843365237117, 	0.0034194295294583, 	0.0034890896640718, 	-0.0186212286353111, 	-0.0015169952530414, 	0.0103885084390640, 	0.0154066514223814, 	0.0006838989211246, 	-0.0005854946211912, 	-0.0040259957313538, 	-0.0121382027864456, 	-0.0030470665078610, 	-0.0071682156994939, 	-0.0028034057468176, 	-0.0099855912849307, 	-0.0270886458456516, 	0.0084531949833035, 	-0.0114674130454659, 	-0.0174114387482405, 	-0.0166085138916969, 	-0.0028718879912049, 	-0.0130273671820760, 	0.0046879919245839, 	0.0167408864945173, 	0.0146754626184702, 	0.0125755323097110, 	0.0163341891020536, 	-0.0028854371048510, 	0.0009598075994290, 	0.0043768975883722, 	-0.0135098826140165, 	-0.0031085452064872, 	0.0070846644230187, 	-0.0029768343083560, 	-0.0050923265516758, 	-0.0324159637093544, 	0.0011710858670995, 	0.0010786586208269, 	-0.0306370500475168, 	-0.0114878546446562, 	-0.0092797037214041, 	0.0205889381468296, 	0.0067068468779325, 	-0.0265931282192469, 	-0.0244953241199255, 	-0.0202337373048067, 	-0.0096458373591304, 	0.0083992201834917, 	-0.0276107713580132, 	-0.0037200741935521, 	-0.0093865171074867, 	0.0125620681792498, 	0.0074251168407500, 	-0.0283132940530777, 	0.0075929895974696, 	0.0027198025491089, 	-0.0104520143941045, 	0.0103400656953454, 	0.0030717863701284, 	-0.0029355047736317, 	0.0163605660200119, 	0.0110596669837832, 	-0.0015704424586147, 	0.0120766097679734, 	0.0258965492248535, 	-0.0086948415264487, 	0.0007476010941900, 	0.0172469783574343, 	0.0232665464282036, 	0.0200792923569679, 	0.0105356471613050, 	0.0031122476793826, 	0.0060906219296157, 	0.0145998168736696, 	0.0078167095780373, 	-0.0019974678289145, 	0.0028599929064512, 	0.0147521924227476, 	-0.0160979833453894, 	0.0039266729727387, 	0.0028371245134622, 	0.0100556528195739, 	0.0168612636625767, 	0.0111659066751599, 	0.0200352352112532, 	0.0147131346166134, 	-0.0019615557976067, 	-0.0056917788460851, 	-0.0031415501143783, 	0.0002453207562212, 	0.0003279455704615, 	-0.0053828931413591, 	-0.0009637005277909, 	-0.0235710348933935, 	0.0168798249214888, 	0.0177529044449329, 	0.0139568420127034, 	0.0044409846886992, 	0.0124461650848389, 	-0.0002323582157260, 	-0.0151131544262171, 	-0.0183264557272196, 	-0.0142448972910643, 	-0.0113649955019355, 	0.0030468304175884, 	-0.0192148219794035, 	-0.0089571475982666, 	0.0072348769754171, 	-0.0079977633431554, 	-0.0316292494535446, 	-0.0160186514258385, 	0.0023217401467264, 	-0.0093979872763157, 	0.0045078941620886, 	-0.0473044663667679, 	0.0144460247829556, 	0.0097975023090839, 	0.0066828150302172, 	-0.0051135821267962, 	-0.0179721731692553, 	-0.0167299155145884, 	-0.0005121491849422, 	-0.0121034774929285, 	-0.0027628021780401, 	-0.0047306371852756, 	0.0048483139835298, 	0.0002118983247783, 	-0.0105139315128326, 	-0.0100855408236384, 	0.0161835290491581, 	0.0086977351456881, 	-0.0102993575856090, 	-0.0110902991145849, 	0.0107473507523537, 	0.0037570162676275, 	-0.0024064208846539, 	-0.0042713922448456, 	0.0024698723573238, 	-0.0066705141216516, 	0.0000140184210977, 	0.0008669637609273, 	0.0195733457803726, 	-0.0029014409519732, 	0.0044009764678776, 	0.0096378754824400, 	0.0109321661293507, 	-0.0086431959643960, 	-0.0104113528504968, 	0.0116756092756987, 	0.0157694257795811, 	-0.0027271383441985, 	-0.0002723168872762, 	-0.0019587071146816, 	-0.0234551895409822, 	-0.0036915785167366, 	-0.0157456807792187, 	-0.0136228855699301, 	-0.0122322123497725, 	-0.0026270609814674, 	0.0044410927221179, 	-0.0033448901958764, 	-0.0103722261264920, 	0.0088616348803043, 	0.0112517327070236, 	-0.0246637556701899, 	0.0085693597793579, 	-0.0000594188713876, 	-0.0164531115442514, 	-0.0478461422026157, 	0.0116294370964170, 	-0.0059558665379882, 	-0.0011955696390942, 	0.0098483040928841, 	-0.0085771325975657, 	-0.0290773995220661, 	-0.0005253551062196, 	-0.0055172918364406, 	-0.0290379077196121, 	0.0020314259454608, 	0.0048744389787316, 	-0.0020096716471016, 	-0.0017746530938894, 	-0.0087112141773105, 	-0.0000041958041948, 	-0.0066782142966986, 	0.0013697395334020, 	-0.0025278213433921, 	-0.0006582219502889, 	-0.0001195544318762, 	0.0004282333829906, 	0.0094765778630972, 	0.0062099373899400, 	0.0009251126903109, 	-0.0060467231087387, 	0.0036994793917984, 	-0.0217927210032940, 	0.0097698159515858, 	0.0048343939706683, 	0.0002005345886573, 	-0.0130056189373136, 	-0.0050862249918282, 	-0.0060057612136006, 	0.0054979249835014, 	0.0142181422561407, 	0.0040057282894850, 	-0.0010930703720078, 	-0.0021845162846148, 	0.0012405689340085, 	0.0118850348517299, 	0.0196675248444080, 	0.0224200040102005, 	0.0089220665395260, 	0.0173903945833445, 	-0.0080336108803749, 	0.0075712874531746, 	0.0278514996170998, 	0.0032570438925177, 	-0.0066958628594875, 	-0.0088351732119918, 	-0.0018013895023614, 	0.0126305921003222, 	0.0011017511133105, 	0.0216611400246620, 	0.0033873198553920, 	0.0033281599171460, 	0.0132733620703220, 	-0.0022638144437224, 	-0.0051180198788643, 	0.0091827940195799, 	0.0060810670256615, 	0.0001616629015189, 	-0.0087938671931624, 	0.0035483643878251, 	0.0054131750948727, 	-0.0147304721176624, 	-0.0078576132655144, 	0.0026589187327772, 	-0.0052612968720496, 	0.0133519703522325, 	0.0079227956011891, 	0.0059478664770722, 	0.0123461009934545, 	0.0146725578233600, 	-0.0197570659220219, 	-0.0380253978073597, 	-0.0288956388831139, 	-0.0189540926367044, 	-0.0014072762569413, 	-0.0131652867421508, 	-0.0044236751273274, 	-0.0045490539632738, 	-0.0102877719327807, 	0.0130143286660314, 	-0.0054173264652491, 	0.0026999753899872, 	0.0016107602277771, 	0.0002128755440935, 	0.0094517301768064, 	0.0234297830611467, 	-0.0005141093861312, 	0.0045375754125416, 	-0.0008491534390487, 	0.0143991541117430, 	0.0285461694002151, 	0.0133029697462916, 	-0.0068623563274741, 	0.0210277102887630, 	0.0200199428945780, 	-0.0188324544578791, 	0.0233704186975956, 	0.0130006484687328, 	0.0071950689889491, 	-0.0027410290203989, 	0.0298826582729816, 	-0.0039261821657419, 	-0.0044834255240858, 	0.0072623440064490, 	0.0101850703358650, 	-0.0088157001882792, 	0.0097603164613247, 	-0.0031343169976026, 	0.0092127108946443, 	0.0032940453384072, 	-0.0015007291221991, 	0.0236345771700144, 	0.0031983985099941, 	-0.0075446492992342, 	-0.0210311543196440, 	-0.0167807135730982, 	-0.0538370050489902, 	-0.0081370547413826, 	-0.0237768627703190, 	0.0146047817543149, 	0.0132636483758688, 	0.0102067971602082, 	0.0232140310108662, 	0.0033208681270480, 	0.0018933432875201, 	-0.0019124641548842, 	0.0015032266965136, 	0.0024534354452044, 	0.0049416208639741, 	-0.0176606364548206, 	-0.0129855778068304, 	-0.0090602152049541, 	0.0113537721335888, 	-0.0038225362077355, 	-0.0175436045974493, 	0.0019609031733125, 	0.0036026290617883, 
	0.0203465726226568, 	0.0054892678745091, 	-0.0162121262401342, 	0.0215735174715519, 	0.0453738383948803, 	0.0359481722116470, 	0.0333560854196548, 	0.0521998628973961, 	0.0420161746442318, 	-0.0241351332515478, 	-0.0335746444761753, 	-0.0123908035457134, 	-0.0013017201563343, 	-0.0225958600640297, 	-0.0099448338150978, 	-0.0492172539234161, 	-0.0249154493212700, 	-0.0313882455229759, 	-0.0005560268182307, 	0.0056716669350863, 	-0.0398937165737152, 	0.0405577905476093, 	0.0234743356704712, 	0.0182223916053772, 	0.0145219471305609, 	-0.0092598404735327, 	-0.0070263952948153, 	-0.0487156659364700, 	-0.0351995117962360, 	-0.0061448067426682, 	-0.0480699241161346, 	-0.0140901040285826, 	-0.0385770685970783, 	0.0257096458226442, 	-0.0281687993556261, 	-0.0112163228914142, 	-0.0433820411562920, 	-0.0234503578394651, 	-0.0071201520040631, 	0.0004986592684872, 	0.0164358206093311, 	-0.0169478729367256, 	-0.0066383173689246, 	-0.0293668340891600, 	-0.0152494758367538, 	0.0034333535004407, 	-0.0290504656732082, 	0.0204264651983976, 	-0.0586244799196720, 	-0.0328849665820599, 	0.0127160008996725, 	0.0169050674885511, 	0.0284886155277491, 	-0.0655270442366600, 	-0.0057243113406003, 	0.0029934162739664, 	-0.0291564092040062, 	0.0070310551673174, 	-0.0174534153193235, 	-0.0131089957430959, 	-0.0066685252822936, 	-0.0140335690230131, 	-0.0189203862100840, 	-0.0234323516488075, 	-0.0200070179998875, 	-0.0228936672210693, 	0.0197868850082159, 	-0.0060797659680247, 	-0.0088669238612056, 	0.0168291255831718, 	-0.0039198291487992, 	0.0022196811623871, 	-0.0148582784458995, 	0.0010430944385007, 	0.0473319217562675, 	-0.0334487743675709, 	0.0316192843019962, 	-0.0252046044915915, 	-0.0006930283270776, 	0.0224196705967188, 	-0.0162556096911430, 	-0.0118299098685384, 	-0.0377852283418179, 	-0.0322441011667252, 	-0.0413070432841778, 	-0.0472638458013535, 	0.0140714710578322, 	0.0038654576055706, 	0.0224756114184856, 	-0.0145961577072740, 	-0.0110662234947085, 	-0.0027556966524571, 	-0.0200600456446409, 	-0.0074881426990032, 	-0.0071718911640346, 	-0.0129110310226679, 	-0.0056403409689665, 	-0.0080470666289330, 	0.0113331815227866, 	-0.0111532416194677, 	0.0135094970464706, 	0.0094763552770019, 	0.0462957359850407, 	0.0179861336946487, 	0.0097243431955576, 	0.0159345436841249, 	0.0136915585026145, 	0.0084166489541531, 	0.0112574230879545, 	0.0173731837421656, 	0.0649402514100075, 	0.0070756175555289, 	-0.0076742544770241, 	-0.0375894270837307, 	-0.0111225526779890, 	-0.0092071015387774, 	-0.0226943939924240, 	0.0097421798855066, 	-0.0331971272826195, 	-0.0263709779828787, 	0.0107729854062200, 	0.0193010419607162, 	-0.0160253886133432, 	0.0368030890822411, 	0.0271056406199932, 	-0.0049314312636852, 	0.0091534927487373, 	-0.0046647679992020, 	-0.0046944217756391, 	-0.0050102043896914, 	0.0033348696306348, 	0.0030497598927468, 	-0.0038160276599228, 	0.0019580242224038, 	0.0235167313367128, 	-0.0241214465349913, 	-0.0219006147235632, 	-0.0045310012064874, 	-0.0327422656118870, 	-0.0346468314528465, 	-0.0159572977572680, 	0.0260436628013849, 	-0.0166750811040401, 	-0.0107545629143715, 	0.0086018843576312, 	0.0106491986662149, 	-0.0038103186525404, 	0.0335633940994740, 	0.0481201075017452, 	0.0468039810657501, 	0.0540922507643700, 	0.0024141236208379, 	0.0168294683098793, 	0.0079255392774940, 	0.0071577313356102, 	-0.0085191484540701, 	-0.0220049805939198, 	-0.0044455584138632, 	0.0080737397074699, 	-0.0193639919161797, 	0.0287325698882341, 	0.0379395112395287, 	-0.0525141358375549, 	0.0282374657690525, 	-0.0233389921486378, 	-0.0249224919825792, 	0.0248824078589678, 	-0.0215231515467167, 	-0.0071514830924571, 	0.0307842623442411, 	-0.0344596467912197, 	0.0148150157183409, 	-0.0328265614807606, 	-0.0069664744660258, 	-0.0372728258371353, 	-0.0423135049641132, 	-0.0466631650924683, 	0.0403967611491680, 	0.0195708703249693, 	-0.0227344855666161, 	-0.0126813389360905, 	-0.0241945460438728, 	-0.0196989662945271, 	0.0154040325433016, 	0.0158860627561808, 	-0.0211317725479603, 	0.0431579872965813, 	0.0430686399340630, 	-0.0305303111672401, 	-0.0447314232587814, 	0.0096003133803606, 	-0.0226228237152100, 	0.0240093301981688, 	-0.0263435319066048, 	0.0031980231869966, 	0.0063576162792742, 	0.0278231538832188, 	-0.0148083744570613, 	-0.0772134065628052, 	-0.0440921559929848, 	-0.0625221952795982, 	-0.0073731145821512, 	0.0018036108231172, 	-0.0315466523170471, 	0.0000957616430242, 	-0.0062420461326838, 	-0.0231043323874474, 	0.0284259580075741, 	0.0144347213208675, 	0.0401372052729130, 	-0.0061991219408810, 	0.0335395559668541, 	0.0316902957856655, 	-0.0063596945255995, 	0.0055900728330016, 	0.0483742617070675, 	-0.0191442258656025, 	0.0182509142905474, 	-0.0177896395325661, 	0.0094449957832694, 	-0.0031651163008064, 	0.0387468375265598, 	0.0092598022893071, 	0.0615650080144405, 	0.0397714078426361, 	-0.0078503713011742, 	-0.0024411114864051, 	-0.0250270664691925, 	0.0340271890163422, 	0.0008682635379955, 	0.0433456376194954, 	0.0375848859548569, 	0.0497981607913971, 	0.0209752097725868, 	0.0132575891911983, 	-0.0072173387743533, 	-0.0557202957570553, 	0.0158702954649925, 	0.0114736314862967, 	0.0430417656898499, 	0.0242116805166006, 	0.0139122484251857, 	0.0370119661092758, 	-0.0015313039766625, 	0.0096787195652723, 	-0.0018760530510917, 	0.0423015691339970, 	0.0400642603635788, 	0.0447634495794773, 	0.0852511674165726, 	0.0640801265835762, 	-0.0119634512811899, 	-0.0057737948372960, 	-0.0431250520050526, 	0.0217936318367720, 	0.0111303003504872, 	-0.0396241135895252, 	-0.0285321231931448, 	-0.0206838957965374, 	-0.0261087846010923, 	0.0350035950541496, 	-0.0535317026078701, 	-0.0155636835843325, 	0.0032342660706490, 	0.0227238032966852, 	0.0344475209712982, 	0.0460421852767467, 	0.0148354647681117, 	0.0062154401093721, 	-0.0164370313286781, 	-0.0013829451054335, 	-0.0189936589449644, 	-0.0309250149875879, 	0.0093707786872983, 	-0.0048174811527133, 	0.0096493344753981, 	0.0153475236147642, 	0.0265482645481825, 	0.0429423600435257, 	-0.0135912252590060, 	0.0026457537896931, 	0.0349295847117901, 	-0.0045645758509636, 	0.0101876454427838, 	0.0125532764941454, 	0.0154076395556331, 	0.0128099257126451, 	0.0420142225921154, 	0.0089909229427576, 	-0.0161144472658634, 	-0.0044070538133383, 	-0.0487435869872570, 	-0.0115359714254737, 	-0.0200361236929893, 	-0.0201584324240685, 	-0.0142148286104202, 	-0.0007710427744314, 	-0.0243078060448170, 	0.0023678017314523, 	-0.0077006695792079, 	-0.0047040809877217, 	0.0276050083339214, 	0.0009000358404592, 	0.0272775273770094, 	0.0298456959426403, 	-0.0079094897955656, 	0.0052511524409056, 	-0.0263298042118549, 	-0.0189054012298584, 	0.0265172310173512, 	0.0303168781101704, 	0.0159387271851301, 	0.0336708724498749, 	0.0337055958807468, 	-0.0128118228167295, 	-0.0205865819007158, 	0.0277899391949177, 	-0.0304798651486635, 	-0.0133147882297635, 	0.0139862513169646, 	-0.0189748276025057, 	0.0137456273660064, 	0.0267276763916016, 	-0.0151021499186754, 	0.0106981387361884, 	0.0080256098881364, 	-0.0220660883933306, 	-0.0322784595191479, 	-0.0194602515548468, 	-0.0277398712933064, 	-0.0443528927862644, 	0.0215651206672192, 	0.0017589230556041, 	-0.0376023799180984, 	-0.0437932834029198, 	-0.0367858968675137, 	-0.0453355722129345, 	-0.0357348732650280, 	-0.0162579324096441, 	-0.0105893360450864, 	-0.0241338219493628, 	-0.0072390236891806, 	-0.0030578807927668, 	-0.0285074077546597, 	0.0198526084423065, 	-0.0203989539295435, 	-0.0252051036804914, 	-0.0327609293162823, 	-0.0133642535656691, 	-0.0257116518914700, 	-0.0341117754578590, 	-0.0249272100627422, 	-0.0112299183383584, 	0.0216420982033014, 	-0.0055899959988892, 	-0.0129686687141657, 	0.0117571763694286, 	0.0209901910275221, 	0.0061979270540178, 	-0.0022327087353915, 	0.0014179786667228, 	-0.0021220347844064, 	-0.0688543394207954, 	0.0168229248374701, 	-0.0157701522111893, 	0.0060764988884330, 	0.0398939214646816, 	0.0200443230569363, 	0.0588603951036930, 	0.0066023874096572, 	0.0065689729526639, 	0.0340760760009289, 	0.0048644281923771, 	-0.0096363145858049, 	-0.0121479500085115, 	0.0586850494146347, 	0.0496729947626591, 	0.0604598335921764, 	0.0685597285628319, 	0.0311338361352682, 	0.0590650811791420, 	-0.0556043460965157, 	-0.0216238684952259, 	-0.0307363215833902, 	-0.0214578546583652, 	0.0072302496992052, 	0.0118909077718854, 	0.0074625946581364, 	-0.0080567235127091, 	-0.0220544077455997, 	-0.0066109672188759, 	-0.0378812290728092, 	-0.0227847248315811, 	-0.0354424156248569, 	-0.0179818607866764, 	-0.0373628586530685, 	0.0116743370890617, 	0.0323679782450199, 	0.0053918971680105, 	-0.0042428704909980, 	-0.0170837808400393, 	-0.0102675706148148, 	-0.0255512222647667, 	-0.0134340422227979, 	0.0059627192094922, 	0.0194185692816973, 	0.0192038379609585, 	-0.0389756709337234, 	-0.0143074672669172, 	-0.0320449024438858, 	-0.0274351090192795, 	-0.0552400276064873, 	-0.0082386108115315, 	-0.0017543844878674, 	0.0379776917397976, 	0.0221842825412750, 	0.0333287790417671, 	-0.0021051592193544, 	-0.0065391906537116, 	0.0332625396549702, 	0.0021956898272038, 	0.0370102189481258, 	0.0507984645664692, 	-0.0037587194237858, 	-0.0113736381754279, 	-0.0410512238740921, 	-0.0479596517980099, 	-0.0159808769822121, 	-0.0106663601472974, 	-0.0188592635095119, 	0.0242486353963614, 	-0.0291906651109457, 	-0.0108833089470863, 	0.0087649980559945, 	0.0789038911461830, 	-0.0647438168525696, 	0.0063736047595739, 	-0.0093810670077801, 	-0.0387400053441525, 	0.0041158287785947, 	0.0623650252819061, 	-0.0094979424029589, 	-0.0146551392972469, 	0.0196483712643385, 	-0.0376761965453625, 	-0.0308363195508718, 	0.0024500095751137, 	-0.0135420076549053, 	0.0189307518303394, 	0.0034680303651839, 	-0.0025485621299595, 	0.0035077463835478, 	-0.0014451916795224, 	0.0194281935691833, 	-0.0047663738951087, 	-0.0090491408482194, 	0.0029611310455948, 	-0.0099763171747327, 	-0.0127654233947396, 	-0.0025224532000721, 	0.0050631132908165, 	0.0122730089351535, 	-0.0269390791654587, 	-0.0101999621838331, 	0.0076772635802627, 	-0.0120655912905931, 	-0.0036305459216237, 	0.0159190632402897, 	-0.0116450674831867, 	-0.0116774709895253, 	-0.0135294608771801, 	-0.0144262518733740, 	-0.0235203877091408, 	-0.0249590054154396, 	-0.0323632434010506, 	-0.0321367792785168, 	-0.0332697257399559, 	-0.0183450561016798, 	-0.0109994420781732, 	0.0172217655926943, 	-0.0024598760064691, 	-0.0369886122643948, 	-0.0153764206916094, 	0.0326586104929447, 	0.0255371499806643, 	0.0295149479061365, 	-0.0539770536124706, 	0.0159540660679340, 	-0.0082316873595119, 	-0.0043063121847808, 	-0.0461682528257370, 	-0.0326364524662495, 	-0.0169544816017151, 	-0.0120277227833867, 	0.0002098406257574, 	-0.0081050144508481, 	-0.0240966472774744, 	-0.0084889968857169, 	-0.0105705503374338, 	-0.0127654671669006, 	0.0282534919679165, 	0.0485329963266850, 	0.0083171930164099, 	-0.0103820879012346, 	-0.0474747978150845, 	-0.0012909263605252, 	0.0206484962254763, 	-0.0160335730761290, 	-0.0094043202698231, 	-0.0229409597814083, 	0.0029473125468940, 	0.0387867875397205, 	0.0178546849638224, 	0.0221725702285767, 	0.0331796780228615, 	0.0172408465296030, 	0.0255574826151133, 	0.0035597651731223, 	-0.0176855772733688, 	0.0096022440120578, 	0.0298936199396849, 	0.0141655961051583, 	-0.0372275486588478, 	-0.0201815664768219, 	-0.0478925742208958, 	0.0289272144436836, 	0.0052786823362112, 	0.0028558587655425, 	-0.0018360421527177, 	-0.0421824790537357, 	-0.0379264988005161, 	-0.0132449697703123, 	-0.0112842964008451, 	-0.0592522956430912, 	0.0059744026511908, 	-0.0214934404939413, 	-0.0134747819975019, 	-0.0017283847555518, 	0.0253277607262135, 	0.0054768584668636, 	-0.0150878485292196, 	0.0172865446656942, 	-0.0138121452182531, 	0.0031063319183886, 	0.0296445228159428, 	-0.0078644435852766, 	0.0141846770420671, 	0.0002176011039410, 	0.0014437057543546, 	-0.0335750542581081, 	-0.0089429225772619, 	-0.0203335676342249, 	-0.0057763378135860, 	0.0122951529920101, 	0.0445900782942772, 	0.0400865040719509, 	0.0479375235736370, 	-0.0288776196539402, 	-0.0207082852721214, 	-0.0299386475235224, 	0.0045597143471241, 	-0.0649010241031647, 	-0.0167747605592012, 	-0.0187981333583593, 	-0.0253358259797096, 	-0.0262523833662271, 	0.0012564952485263, 	-0.0166763681918383, 	-0.0023235613480210, 	0.0142238959670067, 	-0.0186710916459560, 	-0.0119718825444579, 	-0.0044554690830410, 	-0.0578423179686069, 	-0.0419157072901726, 	-0.0121919140219688, 
	-0.0139851607382298, 	-0.0126490630209446, 	-0.0026119458489120, 	-0.0286380872130394, 	-0.0145824598148465, 	-0.0076629831455648, 	-0.0041065621189773, 	-0.0038835487794131, 	0.0219575539231300, 	-0.0210896320641041, 	0.0118166953325272, 	-0.0418283753097057, 	-0.0084171518683434, 	-0.0144938630983233, 	-0.0056611886247993, 	0.0254346728324890, 	0.0585834085941315, 	-0.0071581266820431, 	0.0095942588523030, 	0.0097928708419204, 	-0.0221026632934809, 	-0.0019738504197448, 	-0.0492332987487316, 	-0.0348929092288017, 	0.0210265442728996, 	0.0299167651683092, 	-0.0007197101367638, 	-0.0301521364599466, 	-0.0252641811966896, 	0.0017284655477852, 	0.0310382246971130, 	-0.0059307101182640, 	-0.0079205855727196, 	0.0413186289370060, 	-0.0063930228352547, 	0.0133447656407952, 	-0.0271978806704283, 	0.0217635054141283, 	-0.0195968728512526, 	0.0072937454096973, 	0.0514995977282524, 	-0.0017659773584455, 	-0.0406880229711533, 	0.0347725041210651, 	0.0044003212824464, 	0.0533577799797058, 	-0.0118818925693631, 	-0.0516223609447479, 	-0.0472473166882992, 	0.0579376332461834, 	0.0254148654639721, 	0.0621705725789070, 	0.0455358587205410, 	0.0053929165005684, 	0.0005393287283368, 	0.0116258170455694, 	0.0104059604927897, 	0.0008826463017613, 	-0.0099644111469388, 	0.0200308281928301, 	0.0062715988606215, 	0.0090706786140800, 	0.0059705008752644, 	-0.0061814012005925, 	0.0137416869401932, 	-0.0056006098166108, 	-0.0053458050824702, 	-0.0505343526601791, 	-0.0484117232263088, 	0.0137583427131176, 	0.0599486194550991, 	-0.0174639075994492, 	-0.0033529284410179, 	0.0095605244860053, 	0.0221516098827124, 	-0.0128395874053240, 	-0.0015870068455115, 	0.0222186446189880, 	-0.0233965460211039, 	0.0167412552982569, 	0.0027821101248264, 	-0.0258167609572411, 	-0.0050790058448911, 	-0.0357142314314842, 	-0.0048497356474400, 	-0.0203461442142725, 	0.0067179761826992, 	0.0108015220612288, 	0.0055779619142413, 	-0.0234464928507805, 	0.0254402309656143, 	0.0490826107561588, 	0.0035280785523355, 	-0.0280701629817486, 	0.0267717000097036, 	-0.0228992141783237, 	0.0195166412740946, 	0.0168095994740725, 	0.0218042284250259, 	-0.0222329013049603, 	-0.0246113557368517, 	0.0015130019746721, 	-0.0227937791496515, 	-0.0254741236567497, 	-0.0110067771747708, 	0.0207020640373230, 	-0.0237400848418474, 	-0.0000546816299902, 	0.0526101142168045, 	-0.0227872822433710, 	0.0353651084005833, 	0.0318097472190857, 	0.0042746607214212, 	-0.0077611017040908, 	-0.0136998882517219, 	0.0693676099181175, 	-0.0228048954159021, 	-0.0087378593161702, 	0.0034017376601696, 	0.0086760036647320, 	-0.0608674213290215, 	-0.0009200390777551, 	-0.0059841396287084, 	-0.0091742547228932, 	0.0034766299650073, 	0.0085611315444112, 	-0.0208588931709528, 	0.0042137005366385, 	0.0124645940959454, 	-0.0123594151809812, 	-0.0094472048804164, 	-0.0122208334505558, 	0.0122440429404378, 	0.0011849589645863, 	0.0156996846199036, 	0.0018863345030695, 	-0.0342671424150467, 	-0.0074900249019265, 	0.0237270444631577, 	0.0362055227160454, 	-0.0018937061540782, 	-0.0060452176257968, 	0.0056826900690794, 	0.0129894465208054, 	0.0032748030498624, 	0.0113736484199762, 	0.0144310491159558, 	-0.0116927744820714, 	-0.0243303272873163, 	0.0071691735647619, 	-0.0304396040737629, 	-0.0257672090083361, 	-0.0475884862244129, 	-0.0283293854445219, 	-0.0119955055415630, 	0.0020742991473526, 	-0.0127438353374600, 	-0.0254729446023703, 	-0.0017010824522004, 	-0.0115947220474482, 	0.0092657776549459, 	0.0325744003057480, 	-0.0084959138184786, 	0.0587067417800426, 	0.0164785999804735, 	-0.0186378024518490, 	0.0638105943799019, 	-0.0020033379551023, 	0.0019154393812642, 	0.0490144491195679, 	-0.0231884215027094, 	0.0410795807838440, 	-0.0089485552161932, 	-0.0459847860038280, 	-0.0027809741441160, 	0.0178713928908110, 	0.0249443240463734, 	0.0263545513153076, 	0.0583294741809368, 	-0.0214058253914118, 	0.0451581515371799, 	0.0335069075226784, 	-0.0399712398648262, 	0.0420567356050014, 	-0.0250818375498056, 	0.0381986238062382, 	-0.0740713626146317, 	0.0329734161496162, 	0.0499089770019054, 	0.0235157236456871, 	-0.0164739638566971, 	0.0005576733965427, 	-0.0323153249919415, 	0.0171253681182861, 	0.0472011864185333, 	0.0209490824490786, 	0.0046451557427645, 	-0.0040587321855128, 	0.0004938764614053, 	-0.0127082262188196, 	0.0106532201170921, 	-0.0126045141369104, 	-0.0506232976913452, 	-0.0031548349652439, 	-0.0385607630014420, 	0.0355348512530327, 	-0.0113655421882868, 	0.0109098739922047, 	-0.0232711732387543, 	0.0170107632875443, 	-0.0219583455473185, 	0.0340711101889610, 	-0.0428180582821369, 	0.0335336700081825, 	0.0171956103295088, 	0.0361863560974598, 	-0.0228332374244928, 	-0.0475105121731758, 	-0.0239036157727242, 	0.0081426361575723, 	0.0270451549440622, 	0.0266163423657417, 	-0.0166033245623112, 	0.0007440134068020, 	0.0148310596123338, 	-0.0578206256031990, 	-0.0238083284348249, 	-0.0210573729127645, 	0.0169920269399881, 	-0.0260278545320034, 	0.0460324771702290, 	0.0145582109689713, 	0.0267201364040375, 	0.0073440545238554, 	-0.0064547443762422, 	-0.0141685390844941, 	0.0011619814904407, 	-0.0395373143255711, 	-0.0416520237922668, 	-0.0121876262128353, 	-0.0171938203275204, 	0.0177245344966650, 	0.0302101243287325, 	0.0391591638326645, 	0.0154707022011280, 	0.0357335917651653, 	-0.0275619588792324, 	0.0046233809553087, 	-0.0049820221029222, 	-0.0402861163020134, 	0.0226505938917398, 	0.0026338496245444, 	-0.0103776501491666, 	0.0101322354748845, 	0.0223951749503613, 	0.0088105602189898, 	-0.0029993136413395, 	0.0065347217023373, 	-0.0019502443028614, 	-0.0941469669342041, 	-0.0199565533548594, 	0.0021123162005097, 	0.0183225423097610, 	0.0379475764930248, 	-0.0382868684828281, 	0.0072907791472971, 	0.0262405462563038, 	-0.0183515120297670, 	0.0078480746597052, 	0.0083044189959764, 	-0.0339741222560406, 	-0.0077814906835556, 	0.0166886243969202, 	-0.0175332166254520, 	-0.0564489513635635, 	-0.0035878017079085, 	0.0394239127635956, 	0.0639569312334061, 	0.0152049968019128, 	0.0054983985610306, 	-0.0327334105968475, 	-0.0183054078370333, 	0.0057266661897302, 	0.0227733198553324, 	-0.0531664527952671, 	0.0425669029355049, 	0.0186175666749477, 	0.0070550572127104, 	-0.0029373639263213, 	-0.0139041440561414, 	-0.0117696560919285, 	-0.0164221264421940, 	0.0154337929561734, 	-0.0291796009987593, 	0.0296056680381298, 	0.0158663913607597, 	0.0223221927881241, 	0.0019857843872160, 	0.0176574252545834, 	0.0162102729082108, 	-0.0583095811307430, 	0.0089945495128632, 	-0.0484410300850868, 	-0.0557189397513866, 	-0.0149236042052507, 	-0.0087895514443517, 	-0.0221554655581713, 	0.0181601420044899, 	-0.0181440114974976, 	-0.0350139886140823, 	0.0196451786905527, 	-0.0216070637106895, 	0.0110209193080664, 	-0.0311357639729977, 	0.0062809456139803, 	0.0000279489340755, 	0.0432669781148434, 	0.0319931320846081, 	-0.0297755338251591, 	0.0156758334487677, 	-0.0151966512203217, 	-0.0199434719979763, 	-0.0223589744418859, 	-0.0067728096619248, 	0.0212022382766008, 	-0.0146270105615258, 	-0.0178614649921656, 	0.0109914690256119, 	-0.0053341323509812, 	0.0321508757770061, 	0.0059732114896178, 	0.0356727726757526, 	0.0012671095319092, 	-0.0066232676617801, 	-0.0105199245736003, 	-0.0388398729264736, 	0.0128913139924407, 	0.0027419095858932, 	0.0040760328993201, 	0.0039178850129247, 	-0.0065049966797233, 	0.0014106795424595, 	0.0341348685324192, 	-0.0060282698832452, 	0.0225005242973566, 	-0.0075048850849271, 	-0.0034284130670130, 	0.0014086754526943, 	-0.0264841541647911, 	-0.0183143224567175, 	0.0023790516424924, 	0.0149455927312374, 	-0.0206488482654095, 	-0.0322056263685226, 	0.0065522938966751, 	0.0069811823777854, 	0.0096994061022997, 	0.0337098985910416, 	0.0125349005684257, 	0.0330427661538124, 	-0.0153635200113058, 	-0.0394547283649445, 	0.0235568936914206, 	0.0445750281214714, 	-0.0289515722543001, 	0.0175566691905260, 	0.0070655457675457, 	0.0173339676111937, 	0.0564212240278721, 	-0.0143699888139963, 	-0.0117601370438933, 	0.0005782323423773, 	0.0397556982934475, 	-0.0326931923627853, 	-0.0341314449906349, 	-0.0260941591113806, 	-0.0014472666662186, 	0.0249910000711679, 	0.0368751585483551, 	0.0206286851316690, 	-0.0673265904188156, 	-0.0254141148179770, 	0.0166145339608192, 	-0.0113802477717400, 	-0.0131485778838396, 	0.0278769247233868, 	0.0439324602484703, 	0.0228497516363859, 	-0.0190072432160378, 	0.0342589057981968, 	0.0141858495771885, 	-0.0260871089994907, 	-0.0237660799175501, 	-0.0224181190133095, 	0.0082273026928306, 	-0.0129840318113565, 	-0.0365223735570908, 	0.0102596757933497, 	0.0107146883383393, 	0.0404314137995243, 	-0.0055211163125932, 	0.0083024185150862, 	0.0099515104666352, 	0.0167420133948326, 	-0.0018241353100166, 	-0.0230717826634645, 	-0.0104745496064425, 	-0.0018232663860545, 	0.0173143930733204, 	-0.0059681269340217, 	0.0169111043214798, 	-0.0091158440336585, 	0.0131325479596853, 	0.0162786897271872, 	-0.0081806434318423, 	0.0207129884511232, 	-0.0455629527568817, 	0.0333359837532043, 	-0.0405103787779808, 	-0.0402449853718281, 	-0.0445703826844692, 	-0.0265793800354004, 	0.0731254369020462, 	-0.0213141012936831, 	0.0174816045910120, 	-0.0646947249770164, 	-0.0537221580743790, 	-0.0292417034506798, 	0.0299215428531170, 	-0.0149633456021547, 	0.0322832986712456, 	-0.0200193300843239, 	0.0374708361923695, 	-0.0393513441085815, 	-0.0375461839139462, 	-0.0202815737575293, 	0.0135543718934059, 	-0.0418378375470638, 	-0.0118454694747925, 	0.0005796771147288, 	-0.0072501911781728, 	-0.0035258810967207, 	-0.0254807285964489, 	-0.0276976618915796, 	-0.0080077657476068, 	0.0223793350160122, 	0.0154598355293274, 	0.0094066103920341, 	0.0115152569487691, 	0.0027200418990105, 	0.0126668699085712, 	0.0016237340169027, 	0.0091092837974429, 	-0.0163974743336439, 	0.0104899909347296, 	-0.0165306720882654, 	0.0016774587566033, 	-0.0220993533730507, 	-0.0138903800398111, 	0.0027099186554551, 	-0.0013810892123729, 	-0.0477208346128464, 	0.0053306487388909, 	0.0014813389861956, 	-0.0010236500529572, 	0.0229333434253931, 	-0.0057473387569189, 	0.0139163769781590, 	0.0321348756551743, 	0.0097486507147551, 	-0.0680058449506760, 	0.0082935076206923, 	0.0445519238710403, 	0.0133308684453368, 	-0.0828729271888733, 	-0.0045106103643775, 	-0.0331907868385315, 	-0.0039307004772127, 	-0.0059393648989499, 	0.0035651596263051, 	0.0296945497393608, 	-0.0494119897484779, 	-0.0420227982103825, 	-0.0080148344859481, 	0.0199086237698793, 	-0.0055345403961837, 	-0.0257965493947268, 	0.0173748806118965, 	-0.0129420189186931, 	0.0233798827975988, 	-0.0248432755470276, 	0.0064677880145609, 	0.0143314683809876, 	0.0213534552603960, 	0.0111392447724938, 	0.0398875363171101, 	0.0291460938751698, 	-0.0246522706001997, 	0.0041452199220657, 	0.0011416843626648, 	0.0276864767074585, 	0.0354548692703247, 	0.0596155636012554, 	-0.0376524776220322, 	0.0122448205947876, 	-0.0414648167788982, 	-0.0378710031509399, 	0.0495988503098488, 	0.0341750346124172, 	0.0309037752449512, 	-0.0065558589994907, 	0.0158171746879816, 	0.0360920876264572, 	0.0197750329971313, 	0.0011610785732046, 	-0.0067622726783156, 	-0.0285792388021946, 	-0.0246470365673304, 	-0.0257420912384987, 	0.0204205270856619, 	0.0332388579845428, 	-0.0231964215636253, 	0.0255571398884058, 	0.0004083377425559, 	0.0277371350675821, 	0.0179804917424917, 	-0.0245636664330959, 	-0.0312734767794609, 	0.0128710968419909, 	-0.0184744205325842, 	-0.0093227541074157, 	-0.0034856772981584, 	0.0280452333390713, 	0.0303710158914328, 	0.0402975380420685, 	-0.0077965683303773, 	0.0097050974145532, 	-0.0387934483587742, 	0.0084528345614672, 	-0.0524275712668896, 	-0.0275075379759073, 	0.0103218257427216, 	0.0006833206862211, 	0.0138888014480472, 	0.0188383106142282, 	-0.0376717746257782, 	0.0058242403902113, 	-0.0268046222627163, 	-0.0070773758925498, 	-0.0166798718273640, 	-0.0325140021741390, 	-0.0651596114039421, 	-0.0006293989717960, 	-0.0152748636901379, 	0.0542272068560123, 	0.0459632687270641, 	-0.0448704436421394, 	0.0154018756002188, 	0.0055925096385181, 	-0.0175906196236610, 	0.0076990001834929, 	0.0211266074329615, 	-0.0171328801661730, 	-0.0219129119068384, 	-0.0321934819221497, 	-0.0098135303705931, 	-0.0096646370366216, 	0.0268662516027689, 	0.0224207267165184, 	0.0281110368669033, 	0.0362971425056458, 	0.0083001349121332, 	0.0360459126532078, 	-0.0039162072353065, 	0.0095035238191485, 	0.0368544533848763, 
	-0.0312613025307655, 	0.0184174012392759, 	0.0384844504296780, 	-0.0267998240888119, 	-0.0299135074019432, 	-0.0350206606090069, 	-0.0378711037337780, 	-0.0345479175448418, 	-0.0403521060943604, 	-0.0070680184289813, 	0.0302103459835052, 	0.0042997975833714, 	0.0040330248884857, 	0.0396219566464424, 	0.0088781733065844, 	0.0142529904842377, 	0.0213750265538692, 	-0.0202536620199680, 	-0.0288403704762459, 	0.0082954177632928, 	0.0521524101495743, 	-0.0131200784817338, 	-0.0295300632715225, 	-0.0177413616329432, 	-0.0040395809337497, 	0.0274406280368567, 	0.0285868849605322, 	0.0470939427614212, 	0.0055269417352974, 	0.0087250368669629, 	0.0317737162113190, 	0.0107378168031573, 	0.0137974992394447, 	0.0131112989038229, 	-0.0151625061407685, 	0.0243399292230606, 	0.0381808988749981, 	0.0544360168278217, 	0.0498564690351486, 	-0.0328978709876537, 	0.0023150956258178, 	-0.0176349617540836, 	0.0066785747185349, 	0.0352514982223511, 	0.0149562740698457, 	0.0338952392339706, 	0.0327584445476532, 	0.0314499363303185, 	0.0533454418182373, 	0.0287724621593952, 	-0.0462582707405090, 	-0.0183436796069145, 	-0.0112133128568530, 	-0.0466016605496407, 	0.0137596921995282, 	0.0055313738994300, 	0.0148542299866676, 	-0.0023856800980866, 	-0.0032010795548558, 	0.0116854235529900, 	-0.0161631777882576, 	0.0079897530376911, 	0.0296002179384232, 	-0.0092544788494706, 	0.0130205051973462, 	0.0347362570464611, 	0.0049518565647304, 	-0.0001332529936917, 	0.0000996527960524, 	-0.0156547483056784, 	0.0472692847251892, 	0.0167369581758976, 	0.0545664913952351, 	0.0150179686024785, 	-0.0086939036846161, 	0.0142540112137794, 	0.0110787227749825, 	-0.0390979088842869, 	-0.0338961593806744, 	-0.0308944452553988, 	-0.0335577167570591, 	0.0057962224818766, 	0.0209444649517536, 	-0.0029230222571641, 	0.0119640743359923, 	0.0265624448657036, 	-0.0185139384120703, 	-0.0530782230198383, 	-0.0242239702492952, 	-0.0571702383458614, 	0.0220265518873930, 	0.0102466959506273, 	0.0432228744029999, 	0.0053291362710297, 	0.0007862250786275, 	0.0153056671842933, 	0.0026330777909607, 	-0.0050273570232093, 	0.0149973072111607, 	-0.0039526061154902, 	-0.0036896888632327, 	0.0118360705673695, 	-0.0017629687208682, 	-0.0096656186506152, 	-0.0031837925780565, 	0.0156253334134817, 	0.0244781393557787, 	0.0116558652371168, 	0.0203121043741703, 	-0.0010666336165741, 	-0.0376769229769707, 	-0.0097982194274664, 	0.0128516191616654, 	0.0014828387647867, 	0.0222544074058533, 	-0.0264576766639948, 	0.0140114957466722, 	-0.0060390667058527, 	0.0389200001955032, 	0.0203624460846186, 	-0.0148054715245962, 	-0.0076363384723663, 	-0.0045119333080947, 	-0.0465176105499268, 	-0.0340967699885368, 	-0.0177063979208469, 	-0.0048553883098066, 	0.0017514148494229, 	0.0003854734532069, 	-0.0011314019793645, 	0.0007930147694424, 	0.0003532965201885, 	0.0021339280065149, 	-0.0021479730494320, 	-0.0059944889508188, 	0.0039321496151388, 	0.0084002427756786, 	-0.0027294326573610, 	0.0016851590480655, 	0.0529651679098606, 	0.0139110507443547, 	-0.0195183884352446, 	0.0161999259144068, 	0.0119864149019122, 	-0.0070786573924124, 	0.0263432990759611, 	0.0264323502779007, 	-0.0299322996288538, 	-0.0462154895067215, 	-0.0232566557824612, 	-0.0274970177561045, 	-0.0109311407431960, 	-0.0158519838005304, 	-0.0123724527657032, 	-0.0161026921123266, 	-0.0083276107907295, 	-0.0109351109713316, 	-0.0112027106806636, 	-0.0066833249293268, 	-0.0046741031110287, 	-0.0135442791506648, 	-0.0212451834231615, 	0.0166535302996635, 	-0.0076751136220992, 	0.0109669389203191, 	0.0441375114023685, 	0.0158141981810331, 	0.0310337655246258, 	0.0015147821977735, 	-0.0136281698942184, 	0.0137331578880548, 	0.0179120209068060, 	0.0187635924667120, 	0.0138172293081880, 	-0.0187819954007864, 	0.0381873063743114, 	0.0217690411955118, 	-0.0159503798931837, 	0.0016724064480513, 	-0.0103137586265802, 	0.0452633723616600, 	0.0188187714666128, 	0.0105226710438728, 	0.0284277852624655, 	0.0551296062767506, 	-0.0011158387642354, 	-0.0064639397896826, 	0.0323240645229816, 	0.0281992722302675, 	0.0295590255409479, 	-0.0046630469150841, 	-0.0093484548851848, 	0.0111582987010479, 	-0.0289082415401936, 	-0.0099130719900131, 	0.0423284694552422, 	0.0010896532330662, 	0.0297723039984703, 	0.0312303584069014, 	0.0171066243201494, 	0.0430025383830070, 	0.0504836738109589, 	0.0141090499237180, 	-0.0016133979661390, 	0.0163525864481926, 	0.0214444343000650, 	0.0110159218311310, 	-0.0275231096893549, 	-0.0412362888455391, 	-0.0928596407175064, 	-0.0047278762795031, 	-0.0155325690284371, 	-0.0287638083100319, 	-0.0149027286097407, 	-0.0036101790610701, 	-0.0055040488950908, 	-0.0018730018055066, 	-0.0050014583393931, 	-0.0175198446959257, 	-0.0395049639046192, 	-0.0282969418913126, 	-0.0234618745744228, 	-0.0311719775199890, 	-0.0131201101467013, 	-0.0080983573570848, 	-0.0115576805546880, 	0.0170796923339367, 	-0.0134485745802522, 	-0.0112072005867958, 	-0.0187187660485506, 	-0.0227144435048103, 	-0.0167453344911337, 	0.0055304598063231, 	-0.0108334524556994, 	-0.0142593765631318, 	-0.0003340734401718, 	0.0130590619519353, 	-0.0232546180486679, 	-0.0409803204238415, 	-0.0364575721323490, 	-0.0380638837814331, 	-0.0152369737625122, 	0.0019986436236650, 	-0.0036226885858923, 	0.0327172428369522, 	0.0310424640774727, 	-0.0213050153106451, 	-0.0075699416920543, 	-0.0237620566040277, 	-0.0423479042947292, 	0.0099186468869448, 	-0.0070713721215725, 	0.0166783276945353, 	0.0274559576064348, 	-0.0208684932440519, 	0.0212867129594088, 	0.0017499258974567, 	0.0225085057318211, 	-0.0031955623999238, 	-0.0404142737388611, 	-0.0353123396635056, 	0.0061892480589449, 	0.0219679325819016, 	0.0194859448820353, 	-0.0145433750003576, 	-0.0221886765211821, 	-0.0194588992744684, 	0.0099854953587055, 	0.0179665014147758, 	-0.0129533475264907, 	-0.0178157482296228, 	0.0109159303829074, 	0.0064987423829734, 	-0.0047614914365113, 	-0.0167674124240875, 	-0.0194378886371851, 	-0.0259666927158833, 	0.0032281174790114, 	-0.0038773922715336, 	0.0001376761210850, 	-0.0161737073212862, 	-0.0450639016926289, 	0.0083314636722207, 	-0.0069563370198011, 	-0.0273389648646116, 	-0.0086800968274474, 	-0.0016913820290938, 	-0.0134980082511902, 	0.0111880693584681, 	0.0252500269562006, 	0.0029600118286908, 	0.0161013025790453, 	0.0298552624881268, 	0.0122916977852583, 	0.0161391571164131, 	0.0153713691979647, 	-0.0004780796880368, 	0.0065594003535807, 	0.0363940857350826, 	0.0153623223304749, 	-0.0241568461060524, 	-0.0301142670214176, 	-0.0112824132665992, 	-0.0128712467849255, 	-0.0290891677141190, 	-0.0014813207089901, 	-0.0042697871103883, 	0.0491221509873867, 	0.0273453202098608, 	-0.0207053739577532, 	-0.0170338265597820, 	-0.0211188253015280, 	-0.0772702097892761, 	0.0177893862128258, 	-0.0307844225317240, 	0.0009467863710597, 	-0.0065512759611011, 	0.0326555930078030, 	0.0160954985767603, 	-0.0131618026643991, 	0.0218436475843191, 	-0.0005937336827628, 	0.0025882343761623, 	0.0229875016957521, 	0.0287868417799473, 	0.0025240043178201, 	0.0368317477405071, 	0.0136636272072792, 	0.0036685822997242, 	0.0261119771748781, 	0.0011455995263532, 	-0.0220451932400465, 	-0.0228731818497181, 	0.0237770434468985, 	0.0227128639817238, 	0.0082182949408889, 	0.0221218634396791, 	0.0038135370705277, 	0.0087172016501427, 	0.0203955676406622, 	0.0085280090570450, 	-0.0019511957652867, 	0.0151197547093034, 	0.0257894843816757, 	-0.0047407392412424, 	0.0023137312382460, 	-0.0055001089349389, 	0.0040613389573991, 	0.0092043392360210, 	-0.0078442692756653, 	0.0081861102953553, 	0.0156293194741011, 	-0.0082135135307908, 	-0.0249329917132854, 	0.0097945677116513, 	0.0102454293519258, 	-0.0117890536785126, 	-0.0000623732630629, 	0.0071947420947254, 	-0.0228279512375593, 	-0.0102087473496795, 	0.0157105457037687, 	0.0183117799460888, 	0.0267370492219925, 	0.0012631202116609, 	-0.0272696763277054, 	-0.0108988564461470, 	0.0017344672232866, 	-0.0050252992659807, 	-0.0167998299002647, 	0.0206769611686468, 	-0.0211041197180748, 	-0.0009264797554351, 	0.0078744431957603, 	-0.0070305769331753, 	-0.0113887339830399, 	-0.0385120660066605, 	-0.0205176454037428, 	0.0295081753283739, 	0.0021139753516763, 	-0.0828365758061409, 	0.0142478058114648, 	0.0278022382408381, 	0.0167274735867977, 	0.0032412984874099, 	-0.0067661409266293, 	-0.0029141050763428, 	0.0110442936420441, 	0.0060308431275189, 	-0.0081462524831295, 	0.0010446998057887, 	0.0224193315953016, 	-0.0042424676939845, 	-0.0228550042957067, 	-0.0111233703792095, 	0.0136506697162986, 	0.0155486231669784, 	-0.0168586615473032, 	-0.0137326568365097, 	0.0308301728218794, 	-0.0014723918866366, 	-0.0027212786953896, 	0.0011359511408955, 	0.0074415686540306, 	-0.0024873178917915, 	0.0098215416073799, 	0.0084387613460422, 	0.0375549569725990, 	-0.0000114519871204, 	0.0062197311781347, 	0.0216515008360147, 	-0.0131188705563545, 	-0.0228427108377218, 	-0.0102943759411573, 	-0.0093268398195505, 	0.0171845685690641, 	-0.0590196736156940, 	0.0139976209029555, 	-0.0172307845205069, 	-0.0252685863524675, 	0.0236056018620729, 	-0.0293811559677124, 	-0.0373948477208614, 	-0.0024136165156960, 	0.0038909057620913, 	-0.0030200148466974, 	-0.0106556685641408, 	0.0045206700451672, 	0.0168183892965317, 	-0.0230832770466805, 	-0.0133928526192904, 	-0.0022146052215248, 	0.0229653902351856, 	-0.0287149269133806, 	-0.1056236326694489, 	0.0135068083181977, 	0.0171342752873898, 	0.0024445995222777, 	0.0061600706540048, 	-0.0111247943714261, 	-0.0202464368194342, 	0.0137526122853160, 	-0.0011460225796327, 	-0.0534110851585865, 	0.0115410219877958, 	0.0287827998399734, 	0.0096335168927908, 	-0.0020863504614681, 	-0.0074574896134436, 	0.0050163120031357, 	0.0000595075180172, 	0.0056949951685965, 	0.0000520456160302, 	0.0038892447482795, 	0.0015376907540485, 	0.0008927184389904, 	0.0213682837784290, 	0.0051343175582588, 	0.0045184683986008, 	-0.0016136595513672, 	-0.0222996026277542, 	-0.0489675141870975, 	0.0204498544335365, 	0.0169533770531416, 	0.0083789890632033, 	0.0057512987405062, 	-0.0094858314841986, 	-0.0199838690459728, 	0.0144611531868577, 	0.0394549220800400, 	-0.0056557692587376, 	0.0040853852406144, 	0.0105396956205368, 	-0.0072215814143419, 	-0.0173666123300791, 	0.0119808148592710, 	0.0003013641107827, 	0.0095873484387994, 	0.0261100772768259, 	-0.0276204459369183, 	0.0215929020196199, 	0.0214787498116493, 	-0.0169674735516310, 	-0.0062403790652752, 	0.0023369109258056, 	-0.0119622526690364, 	0.0191695634275675, 	0.0083908550441265, 	0.0300372485071421, 	0.0272163525223732, 	0.0148460119962692, 	0.0311643388122320, 	-0.0173440668731928, 	-0.0075130192562938, 	0.0033404964488000, 	0.0313574485480785, 	0.0020217823330313, 	-0.0078467810526490, 	0.0174512881785631, 	-0.0026236681733280, 	-0.0053524314425886, 	-0.0132764885202050, 	0.0195094551891088, 	-0.0174293201416731, 	-0.0051729213446379, 	0.0249664261937141, 	-0.0214963890612125, 	0.0307475384324789, 	0.0117524713277817, 	0.0148059362545609, 	-0.0420859940350056, 	0.0030487477779388, 	-0.0301682744175196, 	0.0124518871307373, 	0.0096346968784928, 	0.0212011113762856, 	-0.0189324319362640, 	0.0002488895552233, 	0.0095274066552520, 	-0.0285568106919527, 	-0.0158648565411568, 	-0.0178735386580229, 	0.0015975729329512, 	0.0269299224019051, 	0.0489402301609516, 	0.0206052605062723, 	0.0104165198281407, 	0.0029400140047073, 	0.0372285433113575, 	0.0549907870590687, 	0.0268108677119017, 	-0.0056238356046379, 	0.0245405361056328, 	0.0217455551028252, 	-0.0204941779375076, 	0.0012988781090826, 	0.0024548615328968, 	-0.0113262468948960, 	0.0065560918301344, 	0.0337788611650467, 	-0.0015484937466681, 	0.0017550406046212, 	0.0154936639592052, 	0.0196164976805449, 	0.0024903449229896, 	0.0165436789393425, 	0.0060350233688951, 	0.0122936675325036, 	0.0125878537073731, 	0.0200304538011551, 	0.0468243546783924, 	0.0060080187395215, 	-0.0367524772882462, 	-0.0155634349212050, 	-0.0405672043561935, 	-0.0093203913420439, 	-0.0157613847404718, 	-0.0393383726477623, 	0.0241006761789322, 	0.0147225325927138, 	0.0025267496239394, 	0.0409853719174862, 	0.0018099575536326, 	0.0102137019857764, 	0.0208115279674530, 	0.0004649994370993, 	0.0144741525873542, 	0.0274350512772799, 	0.0032086682040244, 	-0.0095830261707306, 	-0.0189820509403944, 	0.0027163506019861, 	0.0078474311158061, 	-0.0247751399874687, 	0.0100892484188080, 	0.0262637548148632, 
	0.0106012867763638, 	0.0173588749021292, 	-0.0241003949195147, 	-0.0003006902406923, 	-0.0017456939676777, 	-0.0075527252629399, 	-0.0187856424599886, 	-0.0059496969915926, 	0.0017405502730981, 	0.0178350135684013, 	0.0145637793466449, 	0.0224793348461390, 	0.0251872576773167, 	-0.0062505146488547, 	0.0179430693387985, 	0.0006742220721208, 	-0.0444816090166569, 	-0.0038268882781267, 	0.0498083867132664, 	0.0176612939685583, 	0.0056283124722540, 	0.0042250948026776, 	0.0182601343840361, 	0.0211500301957130, 	-0.0233773663640022, 	-0.0039836703799665, 	0.0027617982123047, 	0.0564478561282158, 	0.0558443665504456, 	0.0117494417354465, 	0.0129844136536121, 	0.0116162234917283, 	0.0395259484648705, 	-0.0361624918878078, 	0.0240885503590107, 	0.0090382751077414, 	0.0060548088513315, 	-0.0127596249803901, 	-0.0042592193931341, 	-0.0355334542691708, 	-0.0361711345613003, 	-0.0031581348739564, 	-0.0565131269395351, 	-0.0646000653505325, 	0.0004875293234363, 	-0.0411768741905689, 	-0.0318132862448692, 	-0.0001843049831223, 	-0.0254661422222853, 	0.0299695096910000, 	0.0080376537516713, 	0.0238757319748402, 	-0.0272137708961964, 	0.0233372878283262, 	0.0045342976227403, 	-0.0103754075244069, 	-0.0010367645882070, 	0.0054531726054847, 	0.0053974599577487, 	-0.0028292017523199, 	0.0253549832850695, 	0.0031627276912332, 	0.0039111985825002, 	0.0253898613154888, 	-0.0021145534701645, 	-0.0036895263474435, 	0.0167871527373791, 	0.0173468012362719, 	0.0187279004603624, 	0.0216150023043156, 	-0.0032611668575555, 	-0.0073981285095215, 	0.0496491789817810, 	-0.0025599787477404, 	-0.0243689008057117, 	0.0340008176863194, 	-0.0070721865631640, 	0.0230938866734505, 	-0.0337403826415539, 	0.0154036553576589, 	-0.0008537322864868, 	0.0361607596278191, 	0.0617512241005898, 	0.0322278700768948, 	0.0120405871421099, 	0.0016807408537716, 	0.0109669873490930, 	-0.0131234908476472, 	0.0335801690816879, 	0.0152075793594122, 	0.0262723118066788, 	-0.0169222112745047, 	-0.0229710489511490, 	-0.0015975723508745, 	0.0092974016442895, 	0.0343968681991100, 	0.0396451801061630, 	-0.0284502152353525, 	0.0049147452227771, 	-0.0223448704928160, 	-0.0074217137880623, 	-0.0189197063446045, 	-0.0465121492743492, 	0.0046479157172143, 	0.0005539864650927, 	-0.0126276165246964, 	-0.0252608601003885, 	0.0081395525485277, 	-0.0581426247954369, 	-0.0059012440033257, 	-0.0004474696761463, 	-0.0118124298751354, 	0.0113826543092728, 	-0.0071560526266694, 	0.0175479799509048, 	0.0151707408949733, 	0.0035473795142025, 	-0.0130809992551804, 	0.0309951733797789, 	-0.0046088704839349, 	0.0175396781414747, 	0.0016298033297062, 	-0.0048729744739830, 	-0.0098609216511250, 	-0.0018565362552181, 	0.0148179410025477, 	-0.0021160040050745, 	-0.0054287714883685, 	-0.0003045314224437, 	0.0079386541619897, 	0.0015720303636044, 	-0.0001606042351341, 	0.0041642235592008, 	0.0048286234959960, 	-0.0078107165172696, 	0.0167088452726603, 	0.0179503038525581, 	0.0395944565534592, 	0.0391984656453133, 	-0.0026264300104231, 	0.0107408044859767, 	-0.0131296953186393, 	-0.0423190779983997, 	0.0008786870166659, 	-0.0131503492593765, 	-0.0224756021052599, 	-0.0063994722440839, 	-0.0454920418560505, 	-0.0026787517126650, 	-0.0046796714887023, 	-0.0329295136034489, 	-0.0151248155161738, 	-0.0242721494287252, 	0.0031763652805239, 	0.0046572377905250, 	-0.0042371451854706, 	0.0115640554577112, 	-0.0034573522862047, 	-0.0244770795106888, 	-0.0023000626824796, 	-0.0010665917070583, 	-0.0033771614544094, 	-0.0205509103834629, 	-0.0189667623490095, 	-0.0066762194037437, 	0.0224433355033398, 	0.0238084997981787, 	-0.0252095162868500, 	0.0007202838896774, 	0.0060516777448356, 	0.0431834906339645, 	0.0052851042710245, 	0.0005596383707598, 	-0.0244009587913752, 	0.0041850055567920, 	0.0298343896865845, 	0.0151627408340573, 	0.0015687749255449, 	-0.0468741618096828, 	-0.0031851511448622, 	0.0114403925836086, 	0.0458833426237106, 	0.0475297272205353, 	0.0161363389343023, 	-0.0198724064975977, 	-0.0329261906445026, 	-0.0588068254292011, 	0.0278358217328787, 	-0.0245401803404093, 	0.0007039430784062, 	0.0144205540418625, 	0.0001392824924551, 	-0.0235702674835920, 	0.0242981798946857, 	-0.0328416675329208, 	0.0140889976173639, 	-0.0008750490378588, 	-0.0229961853474379, 	0.0456881336867809, 	0.0283182505518198, 	0.0432760007679462, 	0.0256989412009716, 	-0.0074846949428320, 	0.0322947613894939, 	0.0449353866279125, 	-0.0045810034498572, 	0.0152195384725928, 	-0.0069338595494628, 	-0.0100581953302026, 	0.0284504573792219, 	0.0179466828703880, 	-0.0012294749030843, 	0.0186774265021086, 	0.0103066544979811, 	0.0171320624649525, 	-0.0471943020820618, 	-0.0036130554508418, 	0.0131276864558458, 	0.0183932855725288, 	-0.0355593301355839, 	-0.0122006265446544, 	-0.0209307093173265, 	-0.0163395125418901, 	-0.0050042392686009, 	0.0032536326907575, 	-0.0018705982947722, 	-0.0032072307076305, 	0.0124687999486923, 	-0.0277514290064573, 	0.0016290099592879, 	-0.0371879711747169, 	-0.0180704779922962, 	-0.0113568883389235, 	-0.0328001976013184, 	0.0552150495350361, 	0.0352625213563442, 	0.0213932767510414, 	0.0208714473992586, 	0.0121858194470406, 	0.0067967954091728, 	-0.0045385542325675, 	0.0162051375955343, 	-0.0134082725271583, 	-0.0116204824298620, 	-0.0221284795552492, 	-0.0428214147686958, 	-0.0249245744198561, 	-0.0035996837541461, 	-0.0435403808951378, 	-0.0312131084501743, 	-0.0455698035657406, 	-0.0229889471083879, 	0.0179782528430223, 	-0.0023642885498703, 	-0.0069641633890569, 	0.0135637558996677, 	0.0159413591027260, 	0.0104225864633918, 	0.0218744352459908, 	-0.0284440089017153, 	0.0007483030785806, 	0.0107717374339700, 	0.0026058433577418, 	-0.0107085267081857, 	-0.0513273254036903, 	-0.0141432518139482, 	0.0177771337330341, 	0.0022324200253934, 	-0.0103181423619390, 	0.0137736238539219, 	0.0296417493373156, 	0.0011789136333391, 	-0.0088589815422893, 	0.0256139356642962, 	0.0129699017852545, 	-0.0035890792496502, 	0.0193496290594339, 	0.0116993412375450, 	-0.0138369761407375, 	-0.0130379861220717, 	0.0000687625433784, 	0.0003132814017590, 	-0.0068867211230099, 	0.0002892351476476, 	0.0229065679013729, 	0.0012511549284682, 	-0.0075922994874418, 	-0.0016929503763095, 	0.0354913026094437, 	-0.0006901582237333, 	0.0298308674246073, 	0.0498020723462105, 	-0.0180338695645332, 	-0.0072197304107249, 	-0.0213508494198322, 	-0.0158943925052881, 	-0.0188693646341562, 	-0.0191302038729191, 	0.0051208301447332, 	-0.0400080233812332, 	0.0052665895782411, 	-0.0051856809295714, 	0.0081543456763029, 	0.0312018282711506, 	0.0038123396225274, 	-0.0060979174450040, 	-0.0336817465722561, 	0.0040622008964419, 	0.0069739208556712, 	-0.0397334806621075, 	-0.0104375639930367, 	-0.0314831025898457, 	0.0269644986838102, 	-0.0683256164193153, 	-0.0336658768355846, 	0.0318531617522240, 	0.0027710241265595, 	-0.0088403774425387, 	0.0187285747379065, 	-0.0126762324944139, 	-0.0210612509399652, 	-0.0015217993641272, 	-0.0203700549900532, 	0.0182510912418365, 	-0.0042372704483569, 	-0.0093610640615225, 	-0.0279411859810352, 	0.0093655306845903, 	-0.0182042941451073, 	-0.0236768685281277, 	-0.0051301899366081, 	0.0033412163611501, 	0.0361939445137978, 	0.0291329752653837, 	0.0168793443590403, 	0.0312716625630856, 	0.0234430469572544, 	0.0130479764193296, 	0.0051961145363748, 	0.0023644405882806, 	-0.0125670256093144, 	0.0294268336147070, 	-0.0042994953691959, 	0.0102215688675642, 	-0.0260353423655033, 	0.0147646926343441, 	0.0117673957720399, 	0.0062086959369481, 	-0.0131295891478658, 	-0.0085243545472622, 	-0.0149713736027479, 	0.0047041964717209, 	0.0221341159194708, 	0.0425018556416035, 	-0.0075409160926938, 	-0.0321063920855522, 	-0.0079299947246909, 	-0.0204061213880777, 	-0.0108474157750607, 	0.0247970037162304, 	0.0326895564794540, 	0.0132406810298562, 	-0.0211032237857580, 	-0.0085817538201809, 	-0.0186461899429560, 	-0.0144728133454919, 	0.0012894129613414, 	0.0223575234413147, 	-0.0512950196862221, 	0.0038707628846169, 	0.0077269235625863, 	-0.0179636515676975, 	-0.0043567214161158, 	0.0105908410623670, 	-0.0097575001418591, 	-0.0029457774944603, 	0.0187514256685972, 	-0.0068418839946389, 	-0.0581732764840126, 	-0.0607305243611336, 	0.0045420969836414, 	0.0345814712345600, 	0.0209230016916990, 	0.0016652243211865, 	-0.0091445688158274, 	-0.0083729885518551, 	-0.0219941809773445, 	0.0092521458864212, 	0.0298885162919760, 	-0.0019114946480840, 	0.0122576225548983, 	0.0098033491522074, 	0.0045850514434278, 	0.0282047539949417, 	0.0336972922086716, 	0.0240678172558546, 	-0.0110555067658424, 	0.0064382394775748, 	0.0203159861266613, 	-0.0145959928631783, 	0.0144793149083853, 	-0.0009175622835755, 	0.0231958609074354, 	0.0094477841630578, 	0.0075701782479882, 	-0.0020501152612269, 	-0.0315906554460526, 	-0.0185621399432421, 	0.0236267670989037, 	0.0008987529436126, 	-0.0246921312063932, 	0.0125829558819532, 	0.0215231869369745, 	0.0084321657195687, 	-0.0083718262612820, 	-0.0259567461907864, 	-0.0071632526814938, 	-0.0411630049347878, 	-0.0250142496079206, 	0.0097564496099949, 	-0.0146497720852494, 	0.0163441915065050, 	-0.0255824681371450, 	-0.0070227966643870, 	0.0308994427323341, 	0.0219558365643024, 	0.0318429842591286, 	0.0427800044417381, 	-0.0106433527544141, 	0.0281616523861885, 	-0.0079042026773095, 	0.0120671428740025, 	-0.0431829988956451, 	-0.0465943738818169, 	0.0233541838824749, 	0.0568117052316666, 	0.0033872481435537, 	0.0114913517609239, 	0.0105648860335350, 	0.0060503538697958, 	-0.0098963845521212, 	0.0046925595961511, 	0.0247882474213839, 	0.0155262388288975, 	0.0110263712704182, 	-0.0220054369419813, 	0.0184030216187239, 	0.0304425936192274, 	0.0338614918291569, 	0.0220251474529505, 	-0.0115217268466949, 	0.0008760070777498, 	0.0044438401237130, 	-0.0034561112988740, 	0.0074191489256918, 	0.0098870182409883, 	-0.0039087701588869, 	-0.0054067638702691, 	0.0113118756562471, 	-0.0272751618176699, 	0.0247824527323246, 	0.0302515327930450, 	-0.0139781087636948, 	-0.0244420599192381, 	-0.0183666907250881, 	-0.0329347774386406, 	-0.0028203814290464, 	0.0144508127123117, 	0.0244382582604885, 	-0.0084150470793247, 	0.0308514088392258, 	0.0249998662620783, 	0.0131774777546525, 	0.0146610299125314, 	0.0144505230709910, 	0.0064068408682942, 	0.0188669562339783, 	0.0703087151050568, 	0.0206820461899042, 	0.0052193230949342, 	0.0184288080781698, 	-0.0109549025073647, 	-0.0003283010446467, 	0.0036175176501274, 	0.0074236649088562, 	-0.0151116382330656, 	-0.0370206572115421, 	-0.0311503671109676, 	-0.0201630908995867, 	-0.0383408218622208, 	0.0261476878076792, 	-0.0095393834635615, 	0.0080433106049895, 	-0.0023077265359461, 	0.0039949556812644, 	0.0326947495341301, 	0.0008699735626578, 	0.0135291544720531, 	0.0185113046318293, 	-0.0291591323912144, 	0.0222155787050724, 	-0.0168631114065647, 	-0.0020281514152884, 	-0.0259649418294430, 	0.0026063628029078, 	0.0282500814646482, 	-0.0236975830048323, 	0.0122954221442342, 	-0.0225114692002535, 	-0.0043639461509883, 	0.0148824155330658, 	-0.0478564985096455, 	0.0313347131013870, 	-0.0780933052301407, 	-0.0289455130696297, 	-0.0233394075185061, 	-0.0216981098055840, 	-0.0049158358015120, 	-0.0202726796269417, 	-0.0099422978237271, 	-0.0115615669637918, 	-0.0061493930406868, 	-0.0012296611675993, 	0.0134634701535106, 	0.0178744904696941, 	-0.0295932423323393, 	-0.0103778131306171, 	0.0050968066789210, 	0.0025790096260607, 	-0.0240436717867851, 	0.0028574832249433, 	0.0056684380397201, 	0.0048907077871263, 	0.0052737588994205, 	-0.0002046629524557, 	0.0267180725932121, 	-0.0036588087677956, 	0.0193577725440264, 	0.0205050762742758, 	0.0140492087230086, 	0.0167051255702972, 	0.0051752775907516, 	0.0140020707622170, 	-0.0158729609102011, 	-0.0003895524714608, 	0.0085700713098049, 	0.0091182934120297, 	-0.0054850345477462, 	0.0034915846772492, 	-0.0011482390109450, 	0.0183293279260397, 	0.0429990142583847, 	-0.0168686658143997, 	-0.0139306792989373, 	-0.0352877862751484, 	0.0450147129595280, 	0.0017861851956695, 	0.0136964228004217, 	0.0129294507205486, 	0.0218540094792843, 	0.0131644541397691, 	0.0214826595038176, 	0.0225585047155619, 	0.0310834124684334, 	0.0023859057109803, 	-0.0121646840125322, 	0.0034673784393817, 	-0.0070755025371909, 	-0.0243465043604374, 	-0.0176742300391197, 	0.0176372453570366, 	0.0069721816107631, 	0.0170120969414711, 	0.0441336929798126, 	0.0216508712619543, 	0.0300051178783178, 
	-0.0168556142598391, 	0.0053360140882432, 	0.0077185234986246, 	-0.0367510579526424, 	-0.0230950918048620, 	-0.0249563287943602, 	-0.0479637682437897, 	-0.0083412639796734, 	-0.0122368019074202, 	0.0037119968328625, 	0.0011804900132120, 	-0.0134557979181409, 	-0.0072849215939641, 	0.0066375769674778, 	0.0203107520937920, 	-0.0434488914906979, 	0.0184122864156961, 	-0.0456532947719097, 	-0.0358043164014816, 	0.0086897993460298, 	0.0218064729124308, 	-0.0229485500603914, 	-0.0223395936191082, 	-0.0174229666590691, 	0.0087337680160999, 	0.0351371467113495, 	0.0117702363058925, 	-0.0053462958894670, 	0.0202969890087843, 	0.0146809481084347, 	0.0336876697838306, 	0.0401942208409309, 	-0.0185558851808310, 	-0.0056100413203239, 	-0.0065486324019730, 	-0.0313463322818279, 	0.0560494512319565, 	0.0772105902433395, 	0.0633591786026955, 	-0.0279721654951572, 	0.0110526811331511, 	0.0112894382327795, 	-0.0644766688346863, 	0.0213341433554888, 	-0.0131079070270061, 	0.0770462304353714, 	0.0422086119651794, 	0.0524538867175579, 	0.0535483360290527, 	0.0054610054939985, 	0.0595345497131348, 	-0.0173399373888969, 	0.0256998334079981, 	-0.0107862241566181, 	0.0264352373778820, 	0.0223383102566004, 	0.0163294356316328, 	0.0110383164137602, 	-0.0240607112646103, 	0.0139181269332767, 	-0.0093505149707198, 	-0.0043922490440309, 	0.0291580036282539, 	-0.0323177389800549, 	0.0047604162245989, 	0.0136966072022915, 	-0.0112065095454454, 	-0.0034908179659396, 	-0.0336468443274498, 	0.0012603475479409, 	0.0538559108972549, 	-0.0015487596392632, 	0.0286806207150221, 	0.0417822226881981, 	0.0113922515884042, 	0.0485161133110523, 	0.0494672171771526, 	-0.0182723738253117, 	0.0134315695613623, 	0.0331036932766438, 	-0.0329884663224220, 	0.0195565763860941, 	0.0095179351046681, 	-0.0058527807705104, 	0.0178912337869406, 	0.0151172624900937, 	0.0048752794973552, 	-0.0715617388486862, 	-0.0210270211100578, 	-0.0452363789081573, 	-0.0184188708662987, 	-0.0307513121515512, 	0.0381831675767899, 	-0.0132067967206240, 	0.0071379570290446, 	-0.0077240928076208, 	0.0252011660486460, 	-0.0032982602715492, 	0.0312219168990850, 	-0.0353219658136368, 	-0.0205537788569927, 	0.0164159163832664, 	-0.0066298753954470, 	-0.0238863714039326, 	-0.0061389287002385, 	0.0077676698565483, 	0.0124128907918930, 	0.0128205465152860, 	0.0204903520643711, 	0.0228689573705196, 	-0.0075369356200099, 	-0.0033486154861748, 	0.0244429819285870, 	-0.0031181240919977, 	-0.0142103200778365, 	0.0403858870267868, 	-0.0046717110089958, 	0.0125760799273849, 	0.0073698987253010, 	0.0048723197542131, 	-0.0267292652279139, 	0.0051120873540640, 	-0.0158333890140057, 	-0.0254006125032902, 	-0.0037954780273139, 	-0.0274458304047585, 	-0.0050161643885076, 	0.0027349297888577, 	0.0003471847448964, 	-0.0040724533610046, 	0.0020109235774726, 	0.0026551343034953, 	0.0030797012150288, 	0.0019997854251415, 	0.0126177798956633, 	0.0291249528527260, 	-0.0089126508682966, 	0.0164066106081009, 	-0.0087841534987092, 	0.0514001883566380, 	0.0581503510475159, 	-0.0060467636212707, 	0.0438640080392361, 	0.0112225031480193, 	-0.0031477950979024, 	0.0147004723548889, 	0.0301574617624283, 	-0.0300452951341867, 	-0.0229852180927992, 	-0.0129205090925097, 	-0.0532286316156387, 	-0.0071226498112082, 	-0.0094497120007873, 	-0.0144695071503520, 	-0.0202328339219093, 	-0.0255162063986063, 	-0.0128607181832194, 	-0.0091289840638638, 	-0.0058380789123476, 	0.0046485979110003, 	0.0164821762591600, 	0.0029790613334626, 	0.0590432994067669, 	-0.0113957813009620, 	0.0013939987402409, 	0.0276568625122309, 	0.0334213040769100, 	0.0461489036679268, 	0.0110950171947479, 	0.0384502038359642, 	0.0259731933474541, 	0.0213826168328524, 	0.0472909957170486, 	0.0179130379110575, 	-0.0262514259666204, 	0.0353910364210606, 	0.0106168342754245, 	-0.0383952744305134, 	0.0137555841356516, 	-0.0341737009584904, 	0.0862236171960831, 	0.0346578285098076, 	0.0041855666786432, 	0.0605726428329945, 	0.0060925544239581, 	-0.0096406145021319, 	0.0368806086480618, 	-0.0352785922586918, 	0.0276384316384792, 	0.0090317958965898, 	0.0117774270474911, 	0.0042031938210130, 	-0.0050485213287175, 	-0.0580470673739910, 	0.0135843316093087, 	0.0176989007741213, 	-0.0232665799558163, 	0.0238205231726170, 	-0.0122668994590640, 	0.0108971828594804, 	0.0180387739092112, 	0.0288978312164545, 	0.0384039245545864, 	-0.0262596402317286, 	0.0132712628692389, 	0.0490327626466751, 	-0.0079075349494815, 	-0.0207493863999844, 	-0.0295868497341871, 	-0.0707232952117920, 	-0.0181159656494856, 	0.0057681715115905, 	-0.0452915839850903, 	-0.0199416484683752, 	-0.0161705799400806, 	0.0219868328422308, 	0.0193855185061693, 	0.0280985441058874, 	-0.0272112693637609, 	-0.0424975901842117, 	-0.0220495760440826, 	-0.0012029842473567, 	-0.0501200184226036, 	-0.0120054399594665, 	0.0381734371185303, 	-0.0442532934248447, 	0.0076412982307374, 	-0.0600935295224190, 	-0.0186901055276394, 	-0.0324094556272030, 	-0.0098896287381649, 	-0.0071091004647315, 	0.0068843564949930, 	0.0000151724179887, 	0.0135757289826870, 	0.0052035949192941, 	-0.0315594039857388, 	-0.0017299781320617, 	-0.0294341351836920, 	-0.0283044725656509, 	-0.0076930001378059, 	0.0094231441617012, 	-0.0004405597574078, 	-0.0080583086237311, 	0.0364719778299332, 	0.0282558947801590, 	-0.0201150681823492, 	0.0103515489026904, 	-0.0316758267581463, 	-0.0219019632786512, 	-0.0028488764073700, 	-0.0136252148076892, 	0.0028662129770964, 	0.0152550069615245, 	-0.0127494772896171, 	0.0253768377006054, 	0.0363482832908630, 	0.0291800629347563, 	-0.0170075111091137, 	-0.0587913691997528, 	-0.0546478293836117, 	-0.0317433550953865, 	0.0068576233461499, 	0.0459079295396805, 	-0.0285519678145647, 	-0.0203914176672697, 	-0.0153598841279745, 	0.0067401560954750, 	0.0222655441612005, 	-0.0078167160972953, 	-0.0252665802836418, 	0.0028512235730886, 	-0.0389264300465584, 	-0.0146930776536465, 	-0.0192236863076687, 	-0.0309736393392086, 	-0.0031452542170882, 	0.0400868281722069, 	0.0122158201411366, 	0.0090772155672312, 	-0.0280895773321390, 	-0.0344469584524632, 	0.0149711081758142, 	-0.0111644603312016, 	-0.0316802859306335, 	0.0169524848461151, 	0.0146933048963547, 	0.0061994586139917, 	0.0130880968645215, 	-0.0065381452441216, 	-0.0076777758076787, 	-0.0105554014444351, 	0.0253542661666870, 	0.0297766178846359, 	0.0039168032817543, 	0.0141358543187380, 	-0.0076602851040661, 	0.0236139837652445, 	0.0288318004459143, 	0.0248918514698744, 	-0.0414931997656822, 	-0.0356452949345112, 	-0.0457553640007973, 	-0.0230565555393696, 	-0.0049549350515008, 	-0.0185455456376076, 	0.0199991688132286, 	0.0434621237218380, 	0.0191269442439079, 	-0.0603056661784649, 	-0.0293305981904268, 	0.0072162817232311, 	-0.0682514905929565, 	-0.0119971213862300, 	-0.0149867972359061, 	0.0131900534033775, 	-0.0054934415966272, 	0.0458060652017593, 	0.0161030627787113, 	-0.0059918882325292, 	0.0450696349143982, 	0.0194649863988161, 	0.0163858328014612, 	0.0430579409003258, 	0.0166017040610313, 	-0.0123832318931818, 	0.0193476807326078, 	-0.0136935124173760, 	-0.0155513286590576, 	0.0186583567410707, 	-0.0002277997555211, 	0.0112395184114575, 	-0.0106730870902538, 	0.0257180128246546, 	-0.0041719786822796, 	-0.0162136312574148, 	0.0271027069538832, 	-0.0093666035681963, 	0.0171590186655521, 	0.0147063164040446, 	0.0113326348364353, 	-0.0050407913513482, 	0.0340235754847527, 	0.0282794740051031, 	0.0242471154779196, 	0.0088038388639688, 	-0.0088197160512209, 	-0.0139431906864047, 	0.0189686510711908, 	-0.0167088750749826, 	-0.0186672657728195, 	0.0168600752949715, 	-0.0015663004014641, 	-0.0168870836496353, 	-0.0039250059053302, 	0.0098322136327624, 	0.0008797582704574, 	-0.0099183674901724, 	-0.0029007270932198, 	-0.0319467149674892, 	-0.0487818457186222, 	0.0249853674322367, 	-0.0211806837469339, 	0.0031931209377944, 	-0.0120549872517586, 	-0.0215973723679781, 	0.0128050753846765, 	-0.0047683212906122, 	0.0068377060815692, 	0.0165435522794724, 	0.0254299696534872, 	0.0052917152643204, 	-0.0081978878006339, 	0.0017073819180951, 	0.0060206232592463, 	-0.0175372455269098, 	0.0058471951633692, 	0.0207875259220600, 	0.0102351363748312, 	-0.0104561941698194, 	-0.0560246892273426, 	-0.0097474837675691, 	0.0106000797823071, 	0.0096589056774974, 	0.0256377700716257, 	0.0069882371462882, 	-0.0011103983270004, 	0.0146258138120174, 	-0.0027728604618460, 	-0.0101035162806511, 	0.0119600407779217, 	-0.0143542643636465, 	-0.0194762572646141, 	-0.0125062894076109, 	-0.0167693905532360, 	-0.0106721930205822, 	-0.0046029426157475, 	-0.0131848528981209, 	-0.0056715933606029, 	0.0133026447147131, 	-0.0202518831938505, 	-0.0055447402410209, 	-0.0033057979308069, 	-0.0020257111173123, 	0.0079986453056335, 	-0.0143008148297668, 	-0.0048546749167144, 	0.0020129673648626, 	-0.0044127171859145, 	-0.0281360130757093, 	0.0172485951334238, 	-0.0120954019948840, 	-0.0072492891922593, 	0.0170206148177385, 	0.0046546142548323, 	-0.0142103563994169, 	-0.0184455048292875, 	0.0111245829612017, 	0.0158306583762169, 	-0.0523586124181747, 	0.0314780101180077, 	-0.0102271130308509, 	-0.0036651918198913, 	0.0188579037785530, 	0.0062250471673906, 	-0.0468918718397617, 	-0.0244371965527534, 	0.0016388138756156, 	0.0087608182802796, 	-0.0366304405033588, 	0.0060121058486402, 	-0.0231150034815073, 	-0.0013667995808646, 	-0.0251696892082691, 	-0.0471148602664471, 	0.0069744577631354, 	0.0118708666414022, 	0.0049220900982618, 	0.0228115990757942, 	0.0184773430228233, 	0.0023893641773611, 	0.0520487613976002, 	0.0019798262510449, 	-0.0268005672842264, 	0.0243665408343077, 	0.0278294570744038, 	-0.0128422370180488, 	0.0132636800408363, 	0.0170671008527279, 	0.0253608897328377, 	-0.0063678603619337, 	0.0010591621976346, 	0.0011863148538396, 	0.0160336811095476, 	-0.0035910939332098, 	0.0004997767391615, 	0.0204622112214565, 	-0.0093201128765941, 	-0.0016224760329351, 	0.0256211236119270, 	-0.0165913812816143, 	-0.0314397439360619, 	0.0158726889640093, 	0.0298488475382328, 	0.0046657975763083, 	0.0110794818028808, 	0.0089785140007734, 	-0.0315526947379112, 	0.0212477948516607, 	0.0203419979661703, 	-0.0185545794665813, 	0.0273298397660255, 	0.0197809245437384, 	-0.0100678578019142, 	0.0150104798376560, 	0.0148324649780989, 	-0.0187008287757635, 	-0.0039832927286625, 	0.0396501645445824, 	-0.0267049092799425, 	0.0145490020513535, 	0.0148508287966251, 	-0.0442667491734028, 	0.0119231930002570, 	0.0135458698496222, 	-0.0309227183461189, 	0.0076832957565784, 	-0.0368740074336529, 	-0.0047050695866346, 	0.0128754777833819, 	-0.0380255058407784, 	0.0179622955620289, 	0.0093233631923795, 	0.0134826153516769, 	0.0122157940641046, 	0.0231583304703236, 	0.0045953420922160, 	-0.0178155880421400, 	-0.0225199945271015, 	0.0052610752172768, 	0.0054727206006646, 	-0.0410802178084850, 	0.0353519096970558, 	0.0271965432912111, 	0.0337929055094719, 	0.0073709161952138, 	0.0220186747610569, 	0.0276801083236933, 	-0.0015037656994537, 	-0.0032426882535219, 	-0.0596971772611141, 	-0.0021829472389072, 	-0.0317474603652954, 	-0.0028089678380638, 	-0.0084644239395857, 	0.0086567196995020, 	-0.0168643426150084, 	-0.0109917353838682, 	-0.0198666919022799, 	0.0038503610994667, 	-0.0027690189890563, 	-0.0433271750807762, 	-0.0204046349972486, 	0.0251903347671032, 	0.0355790778994560, 	0.0300255026668310, 	0.0044817579910159, 	-0.0005270463880152, 	0.0218068249523640, 	0.0316742435097694, 	0.0041701449081302, 	-0.0385810770094395, 	0.0405946336686611, 	0.0220871251076460, 	0.0021573628764600, 	0.0257928874343634, 	-0.0063559734262526, 	-0.0144568784162402, 	0.0562131926417351, 	0.0317931883037090, 	-0.0200023353099823, 	-0.0038347067311406, 	0.0176828131079674, 	0.0096938116475940, 	-0.0034193305764347, 	0.0136129502207041, 	0.0165970195084810, 	0.0064699142239988, 	0.0240243356674910, 	0.0323787592351437, 	0.0548869408667088, 	0.0024323165416718, 	-0.0209634024649858, 	-0.0114885801449418, 	-0.0195288620889187, 	-0.0498395152390003, 	0.0055448808707297, 	-0.0292389504611492, 	0.0184621252119541, 	0.0024220575578511, 	0.0054787350818515, 	0.0207170154899359, 	0.0172337759286165, 	0.0063140452839434, 	-0.0136412130668759, 	0.0182242114096880, 	0.0107880737632513, 	0.0248193461447954, 	-0.0026922877877951, 	-0.0121610378846526, 	-0.0000480359667563, 	-0.0514407269656658, 	0.0157037284225225, 	-0.0087269479408860, 	0.0177814122289419, 	0.0458552129566669, 
